tree
version=v4
num_class=1
num_tree_per_iteration=1
label_index=0
max_feature_idx=2
objective=regression
feature_names=population centroid_X centroid_Y
feature_infos=[0:213252] [122.88124999999999:153.99375000000001] [24.004166666666663:45.579166666666666]
tree_sizes=854 865 866 867 866 870 868 864 878 874 868 872 880 876 868 879 871 881 876 871 880 874 879 868 872 886 875 874 875 885 870 871 884 875 872 871 884 875 869 880 876 878 875 881 876 880 877 874 879 884 872 880 881 879 883 874 878 882 864 867 884 868 883 869 866 876 883 886 868 883 869 788 882 868 892 866 868 893 875 870 890 876 890 865 882 883 887 883 868 880 876 882 864 887 881 883 886 884 885 887 888 894 886 875 883 874 875 882 891 885 886 910 886 880 876 879 874 923 878 889 893 892 908 917 909 908 918 897 895 881 810 892 929 910 910 898 893 907 890 897 901 896 885 895 894 906 913 898 895 887 911 905 911 896 926 906 883 894 905 894 910 885 882 884 883 911 896 883 894 883 886 914 888 895 908 895 887 887 888 881 893 893 909 893 881 910 892 888 882 889 889 885 914 890 895 896 907 894 898 913

Tree=0
num_leaves=8
num_cat=0
split_feature=0 0 0 1 0 0 0
split_gain=28853 5988.32 3015.98 1157.61 980.515 423.813 302.142
threshold=29957.000000000004 86114.500000000015 9714.5000000000018 134.57500000000002 110385.00000000001 19726.000000000004 3621.5000000000005
decision_type=2 2 2 2 2 2 2
left_child=2 3 6 -2 -3 -4 -1
right_child=1 4 5 -5 -6 -7 -8
leaf_value=0.059447071575141792 0.18807214597461708 0.20908049165358486 0.078140964792754133 0.12809071590609641 0.29005163674744655 0.097627058775989484 0.065782955147663427
leaf_weight=360713 971 725 9534 4688 772 3945 19852
leaf_count=360713 971 725 9534 4688 772 3945 19852
internal_value=0.0624078 0.161908 0.0606008 0.138383 0.250837 0.0838441 0.0597776
internal_weight=401200 7156 394044 5659 1497 13479 380565
internal_count=401200 7156 394044 5659 1497 13479 380565
is_linear=0
shrinkage=1


Tree=1
num_leaves=8
num_cat=0
split_feature=0 0 0 1 0 0 0
split_gain=26044.2 4833.12 3309.53 1012 884.914 421.891 383.465
threshold=33347.000000000007 86114.500000000015 11313.000000000002 134.57500000000002 110385.00000000001 19726.000000000004 4405.5000000000009
decision_type=2 2 2 2 2 2 2
left_child=2 3 6 -2 -3 -4 -1
right_child=1 4 5 -5 -6 -7 -8
leaf_value=-0.002768612604830432 0.12683268811612705 0.13933907806051191 0.016675014063357325 0.065927970288113397 0.21626167001270261 0.035896977962518076 0.00480442260039355
leaf_weight=365435 821 725 7147 4030 772 4753 17517
leaf_count=365435 821 725 7147 4030 772 4753 17517
internal_value=-4.17257e-11 0.100472 -0.00161527 0.0762357 0.179008 0.0243525 -0.00242221
internal_weight=401200 6348 394852 4851 1497 11900 382952
internal_count=401200 6348 394852 4851 1497 11900 382952
is_linear=0
shrinkage=0.05


Tree=2
num_leaves=8
num_cat=0
split_feature=0 0 0 1 0 0 0
split_gain=23536.1 4869.36 2458.76 953.2 798.635 338.008 249.349
threshold=29957.000000000004 86114.500000000015 9714.5000000000018 134.57500000000002 110385.00000000001 19726.000000000004 3202.5000000000005
decision_type=2 2 2 2 2 2 2
left_child=2 3 6 -2 -3 -4 -1
right_child=1 4 5 -5 -6 -7 -8
leaf_value=-0.0026998255831141176 0.11374190291265136 0.13237212470893203 0.014261378175675719 0.059313148105637814 0.20544858250786296 0.03166346891751308 0.0026722757607514358
leaf_weight=357576 971 725 9534 4688 772 3945 22989
leaf_count=357576 971 725 9534 4688 772 3945 22989
internal_value=3.29073e-12 0.0898658 -0.001632 0.0686523 0.170058 0.0193546 -0.00237531
internal_weight=401200 7156 394044 5659 1497 13479 380565
internal_count=401200 7156 394044 5659 1497 13479 380565
is_linear=0
shrinkage=0.05


Tree=3
num_leaves=8
num_cat=0
split_feature=0 0 0 0 0 0 2
split_gain=21355.7 3398.65 3297.02 914.193 393.858 359.28 317.639
threshold=37952.000000000007 110385.00000000001 12678.500000000002 69800.500000000015 5135.5000000000009 23092.000000000004 34.725000000000009
decision_type=2 2 2 2 2 2 2
left_child=2 3 4 -2 -1 -4 -3
right_child=1 6 5 -5 -6 -7 -8
leaf_value=-0.0024663803815908555 0.066890394633736971 0.26515817853497037 0.018714610944173368 0.11403317475688977 0.0055813227766948461 0.03741995153880226 0.1804777380908171
leaf_weight=368745 3206 134 7078 1514 15857 4028 638
leaf_count=368745 3206 134 7078 1514 15857 4028 638
internal_value=1.77587e-11 0.0979193 -0.00135901 0.082012 -0.00213458 0.0254988 0.195176
internal_weight=401200 5492 395708 4720 384602 11106 772
internal_count=401200 5492 395708 4720 384602 11106 772
is_linear=0
shrinkage=0.05


Tree=4
num_leaves=8
num_cat=0
split_feature=0 0 0 1 0 1 0
split_gain=19273.5 3067.28 2978.7 896.846 399.409 303.409 283.448
threshold=37952.000000000007 110385.00000000001 13375.000000000002 134.57500000000002 4405.5000000000009 135.37500000000003 25039.500000000004
decision_type=2 2 2 2 2 2 2
left_child=2 3 4 -2 -1 -3 -4
right_child=1 5 6 -5 -6 -7 -8
leaf_value=-0.0023776482020690169 0.13040608276293672 0.30852791850871231 0.019582385107683589 0.068862436022618725 0.0048908706388664435 0.17743638700452347 0.037409229606820589
leaf_weight=365435 694 47 7089 4026 19931 725 3253
leaf_count=365435 694 47 7089 4026 19931 725 3253
internal_value=1.37892e-11 0.0930233 -0.00129106 0.0779114 -0.00200172 0.185417 0.0251897
internal_weight=401200 5492 395708 4720 385366 772 10342
internal_count=401200 5492 395708 4720 385366 772 10342
is_linear=0
shrinkage=0.05


Tree=5
num_leaves=8
num_cat=0
split_feature=0 0 0 1 0 0 2
split_gain=17425.6 3228.12 2399.84 852.819 412.934 327.922 275.045
threshold=42701.500000000007 14229.500000000002 110385.00000000001 134.57500000000002 6213.5000000000009 27349.500000000004 34.725000000000009
decision_type=2 2 2 2 2 2 2
left_child=1 4 3 -2 -1 -3 -4
right_child=2 5 6 -5 -6 -7 -8
leaf_value=-0.0021851403462479916 0.13794217548756749 0.020453872947888346 0.24126751691992607 0.070466689621389814 0.0067388433519520608 0.039689906892437059 0.16246901930172616
leaf_weight=372718 543 7117 134 3403 13430 3217 638
leaf_count=372718 543 7117 134 3403 13430 3217 638
internal_value=-3.63894e-12 -0.00113671 0.0955248 0.0797518 -0.00187477 0.0264421 0.176146
internal_weight=401200 396482 4718 3946 386148 10334 772
internal_count=401200 396482 4718 3946 386148 10334 772
is_linear=0
shrinkage=0.05


Tree=6
num_leaves=8
num_cat=0
split_feature=0 0 0 1 0 0 0
split_gain=15726.6 2913.38 2202.66 792.128 447.016 372.672 295.95
threshold=42701.500000000007 14229.500000000002 86114.500000000015 134.57500000000002 110385.00000000001 6213.5000000000009 27349.500000000004
decision_type=2 2 2 2 2 2 2
left_child=1 5 3 -2 -4 -1 -3
right_child=2 6 4 -5 -6 -7 -8
leaf_value=-0.0020758833519166344 0.12557646717966325 0.019431179302938372 0.11266720303995857 0.056879287883776046 0.16733915490325096 0.0064019012771829786 0.037705411783537958
leaf_weight=372718 496 7117 725 2725 772 13430 3217
leaf_count=372718 496 7117 725 2725 772 13430 3217
internal_value=-1.7963e-11 -0.00107988 0.0907485 0.0674579 0.140861 -0.00178103 0.02512
internal_weight=401200 396482 4718 3221 1497 386148 10334
internal_count=401200 396482 4718 3221 1497 386148 10334
is_linear=0
shrinkage=0.05


Tree=7
num_leaves=8
num_cat=0
split_feature=0 0 0 1 0 0 2
split_gain=14193.2 2631.53 1987.9 715.773 403.432 380.641 269.134
threshold=42701.500000000007 15093.500000000002 86114.500000000015 134.70000000000002 110385.00000000001 5135.5000000000009 34.425000000000004
decision_type=2 2 2 2 2 2 2
left_child=1 5 3 -2 -4 -1 -3
right_child=2 6 4 -5 -6 -7 -8
leaf_value=-0.002014389993754309 0.1183645971381851 0.041172493068951925 0.10703384283904371 0.053850029507906239 0.15897219539306326 0.0053974583245523632 0.02056607177166506
leaf_weight=368745 511 2005 725 2710 772 18176 7556
leaf_count=368745 511 2005 725 2710 772 18176 7556
internal_value=2.78561e-11 -0.00102588 0.0862111 0.064085 0.133818 -0.00166621 0.0248874
internal_weight=401200 396482 4718 3221 1497 386921 9561
internal_count=401200 396482 4718 3221 1497 386921 9561
is_linear=0
shrinkage=0.05


Tree=8
num_leaves=8
num_cat=0
split_feature=0 0 0 0 2 0 0
split_gain=12873.4 2810.18 1346.42 702.969 568.944 209.177 139.261
threshold=29957.000000000004 69800.500000000015 9209.0000000000018 110385.00000000001 34.358333333333341 19726.000000000004 2680.5000000000005
decision_type=2 2 2 2 2 2 2
left_child=2 4 6 -3 -2 -4 -1
right_child=1 3 5 -5 -6 -7 -8
leaf_value=-0.0020396283830819008 0.085208364922253282 0.092395666181731145 0.010112890070663613 0.15102358672266025 0.037731822963555657 0.023636035830046892 0.0016889179118103927
leaf_weight=352749 745 1514 10393 772 4125 3945 26957
leaf_count=352749 745 1514 10393 772 4125 3945 26957
internal_value=-8.81365e-11 0.0664619 -0.00120698 0.112195 0.0449947 0.0138337 -0.00177492
internal_weight=401200 7156 394044 2286 4870 14338 379706
internal_count=401200 7156 394044 2286 4870 14338 379706
is_linear=0
shrinkage=0.05


Tree=9
num_leaves=8
num_cat=0
split_feature=0 0 0 1 1 0 0
split_gain=11645.5 1951.3 1785.42 619.144 326.383 228.972 211.175
threshold=37952.000000000007 86114.500000000015 12678.500000000002 134.57500000000002 135.28750000000005 3405.5000000000005 21220.000000000004
decision_type=2 2 2 2 2 2 2
left_child=2 3 5 -2 -3 -1 -4
right_child=1 4 6 -5 -6 -7 -8
leaf_value=-0.0018990293526935005 0.098841101220208671 0.20779296482986967 0.012701094046858147 0.045411835982505422 0.11471620723738583 0.0030090089077967701 0.026605505317387996
leaf_weight=359155 647 101 6266 3348 1396 25447 4840
leaf_count=359155 647 101 6266 3348 1396 25447 4840
internal_value=-5.84758e-12 0.0723088 -0.00100357 0.0540648 0.120996 -0.00157429 0.0187606
internal_weight=401200 5492 395708 3995 1497 384602 11106
internal_count=401200 5492 395708 3995 1497 384602 11106
is_linear=0
shrinkage=0.05


Tree=10
num_leaves=8
num_cat=0
split_feature=0 0 0 1 1 0 0
split_gain=10537.7 1921.27 1476.68 572.418 248.282 231.328 229.944
threshold=42701.500000000007 13375.000000000002 110385.00000000001 134.57500000000002 135.37500000000003 27349.500000000004 3860.5000000000005
decision_type=2 2 2 2 2 2 2
left_child=1 6 3 -2 -4 -3 -1
right_child=2 5 4 -5 -6 -7 -8
leaf_value=-0.0017832509313969007 0.10958487758238014 0.015006382521918672 0.2488920698299053 0.054304061805522344 0.13030598950469546 0.030911875096284944 0.0033656519507208184
leaf_weight=362302 543 7899 47 3403 725 3217 23064
leaf_count=362302 543 7899 47 3403 725 3217 23064
internal_value=3.96166e-11 -0.000883952 0.0742838 0.0619111 0.137526 0.0196095 -0.00147509
internal_weight=401200 396482 4718 3946 772 11116 385366
internal_count=401200 396482 4718 3946 772 11116 385366
is_linear=0
shrinkage=0.05


Tree=11
num_leaves=8
num_cat=0
split_feature=0 0 0 1 1 0 2
split_gain=9510.23 1739.47 1363.56 516.468 277.489 265.715 231.51
threshold=42701.500000000007 15093.500000000002 86114.500000000015 134.70000000000002 135.28750000000005 7061.0000000000009 34.425000000000004
decision_type=2 2 2 2 2 2 2
left_child=1 5 3 -2 -4 -1 -3
right_child=2 6 4 -5 -6 -7 -8
leaf_value=-0.0015930761391275466 0.098352051711479052 0.03533240854071263 0.19003030197455151 0.043550618400048063 0.10420801528905624 0.0060170692550692208 0.016220538608055383
leaf_weight=375089 511 2005 101 2710 1396 11832 7556
leaf_count=375089 511 2005 101 2710 1396 11832 7556
internal_value=5.09846e-11 -0.000839754 0.0705696 0.0522447 0.109998 -0.00136036 0.0202284
internal_weight=401200 396482 4718 3221 1497 386921 9561
internal_count=401200 396482 4718 3221 1497 386921 9561
is_linear=0
shrinkage=0.05


Tree=12
num_leaves=8
num_cat=0
split_feature=0 0 0 0 2 0 0
split_gain=8630.74 2005.33 898.072 483.219 420.493 140.873 99.5606
threshold=29957.000000000004 69800.500000000015 9209.0000000000018 110385.00000000001 34.358333333333341 19726.000000000004 2266.5000000000005
decision_type=2 2 2 2 2 2 2
left_child=2 4 6 -3 -2 -4 -1
right_child=1 3 5 -5 -6 -7 -8
leaf_value=-0.0016966012634696784 0.070856213137794971 0.076636315242459951 0.0082420579000861589 0.12524438313198868 0.030040849852923192 0.019339801043989691 0.0012290856611715051
leaf_weight=347976 745 1514 10393 772 4125 3945 31730
leaf_count=347976 745 1514 10393 772 4125 3945 31730
internal_value=4.76868e-11 0.054419 -0.000988271 0.0930516 0.0362847 0.0112955 -0.00145212
internal_weight=401200 7156 394044 2286 4870 14338 379706
internal_count=401200 7156 394044 2286 4870 14338 379706
is_linear=0
shrinkage=0.05


Tree=13
num_leaves=8
num_cat=0
split_feature=0 0 0 1 2 0 0
split_gain=7804.6 1594.04 976.149 447.389 375.313 168.097 98.2443
threshold=33347.000000000007 69800.500000000015 9714.5000000000018 135.37500000000003 36.025000000000013 19726.000000000004 2266.5000000000005
decision_type=2 2 2 2 2 2 2
left_child=2 4 6 -3 -2 -4 -1
right_child=1 3 5 -5 -6 -7 -8
leaf_value=-0.0016117711885689373 0.029382985010765181 0.15485435864773758 0.0081172427249662487 0.08103666096071345 0.070068556827420525 0.019627865404047366 0.0012591940461283832
leaf_weight=347976 3381 228 9534 2058 681 4753 32589
leaf_count=347976 3381 228 9534 2058 681 4753 32589
internal_value=5.38654e-11 0.0550001 -0.000884232 0.0883991 0.036204 0.0119466 -0.00136592
internal_weight=401200 6348 394852 2286 4062 14287 380565
internal_count=401200 6348 394852 2286 4062 14287 380565
is_linear=0
shrinkage=0.05


Tree=14
num_leaves=8
num_cat=0
split_feature=0 0 0 1 0 2 2
split_gain=7065.87 1272.37 1071.75 452.443 220.743 217.695 194.492
threshold=42701.500000000007 16022.000000000002 110385.00000000001 134.57500000000002 6460.0000000000009 34.725000000000009 34.425000000000004
decision_type=2 2 2 2 2 2 2
left_child=1 4 3 -2 -1 -4 -3
right_child=2 6 5 -5 -6 -7 -8
leaf_value=-0.0013834133865840801 0.0926718296541474 0.032584083777228927 0.17264093299354635 0.043524515662832747 0.0049734178707135004 0.1025373933971115 0.014261788505267171
leaf_weight=373491 543 1827 134 3403 14175 638 6989
leaf_count=373491 543 1827 134 3403 14175 638 6989
internal_value=-4.39075e-11 -0.000723835 0.0608282 0.0502876 -0.00115098 0.114706 0.0180588
internal_weight=401200 396482 4718 3946 387666 772 8816
internal_count=401200 396482 4718 3946 387666 772 8816
is_linear=0
shrinkage=0.05


Tree=15
num_leaves=8
num_cat=0
split_feature=0 0 0 1 2 2 0
split_gain=6395.28 1519.49 655.357 389.639 357.511 130.251 77.0395
threshold=29957.000000000004 69800.500000000015 9209.0000000000018 135.37500000000003 34.358333333333341 34.425000000000004 2266.5000000000005
decision_type=2 2 2 2 2 2 2
left_child=2 4 6 -3 -2 -4 -1
right_child=1 3 5 -5 -6 -7 -8
leaf_value=-0.001462012005850547 0.062936271417060957 0.14249114724123246 0.018243381020451529 0.073602223418385113 0.025301520709919208 0.007002106040526002 0.0011115861577244539
leaf_weight=347976 745 228 3368 2058 4125 10970 31730
leaf_count=347976 745 228 3368 2058 4125 10970 31730
internal_value=5.18037e-12 0.0468443 -0.000850711 0.080473 0.0310588 0.00964268 -0.00124695
internal_weight=401200 7156 394044 2286 4870 14338 379706
internal_count=401200 7156 394044 2286 4870 14338 379706
is_linear=0
shrinkage=0.05


Tree=16
num_leaves=8
num_cat=0
split_feature=0 0 0 1 2 0 2
split_gain=5786.36 1046.52 924.313 385.424 191.393 176.022 159.943
threshold=42701.500000000007 16022.000000000002 110385.00000000001 134.70000000000002 34.725000000000009 6213.5000000000009 34.425000000000004
decision_type=2 2 2 2 2 2 2
left_child=1 5 3 -2 -4 -1 -3
right_child=2 6 4 -5 -6 -7 -8
leaf_value=-0.0012557755799922283 0.083761920384715541 0.029551399954185337 0.15940340332575698 0.038915382354237679 0.093671027304703919 0.0042777351861590851 0.012935976652645183
leaf_weight=372718 558 1827 134 3388 638 14948 6989
leaf_count=372718 558 1827 134 3388 638 14948 6989
internal_value=2.47699e-11 -0.000655028 0.0550459 0.0452571 0.105081 -0.00104241 0.0163793
internal_weight=401200 396482 4718 3946 772 387666 8816
internal_count=401200 396482 4718 3946 772 387666 8816
is_linear=0
shrinkage=0.05


Tree=17
num_leaves=8
num_cat=0
split_feature=0 0 0 1 2 2 0
split_gain=5243.55 1278.98 532.339 339.583 325.334 102.159 71.8601
threshold=29957.000000000004 69800.500000000015 9714.5000000000018 135.37500000000003 36.06666666666667 34.425000000000004 2605.5000000000005
decision_type=2 2 2 2 2 2 2
left_child=2 4 6 -3 -2 -4 -1
right_child=1 3 5 -5 -6 -7 -8
leaf_value=-0.0013120316940252732 0.021865422491539728 0.13116717662768471 0.016865692438724718 0.066855362503707008 0.055452458068982448 0.0065874881281614353 0.0012940536588320996
leaf_weight=351964 3990 228 3157 2058 880 10322 28601
leaf_count=351964 3990 228 3157 2058 880 10322 28601
internal_value=4.33627e-13 0.0424169 -0.000770309 0.0732697 0.0279345 0.00899481 -0.00111617
internal_weight=401200 7156 394044 2286 4870 13479 380565
internal_count=401200 7156 394044 2286 4870 13479 380565
is_linear=0
shrinkage=0.05


Tree=18
num_leaves=8
num_cat=0
split_feature=0 0 0 1 1 2 0
split_gain=4745.99 923.175 716.117 354.362 178.261 132.712 82.617
threshold=37952.000000000007 86114.500000000015 11313.000000000002 134.57500000000002 135.28750000000005 34.425000000000004 2755.5000000000005
decision_type=2 2 2 2 2 2 2
left_child=2 3 6 -2 -3 -4 -1
right_child=1 4 5 -5 -6 -7 -8
leaf_value=-0.001240586927550754 0.067486975281002712 0.14379530895759565 0.020617342404742393 0.027065980860022126 0.075008427015743229 0.0083054051453144706 0.0015185809883918003
leaf_weight=353567 647 101 2806 3348 1396 9950 29385
leaf_count=353567 647 101 2806 3348 1396 9950 29385
internal_value=3.82827e-11 0.046161 -0.000640664 0.0336123 0.0796494 0.0110137 -0.00102887
internal_weight=401200 5492 395708 3995 1497 12756 382952
internal_count=401200 5492 395708 3995 1497 12756 382952
is_linear=0
shrinkage=0.05


Tree=19
num_leaves=8
num_cat=0
split_feature=0 0 0 1 1 0 2
split_gain=4299.08 786.402 745.482 318.771 174.156 141.053 131.155
threshold=42701.500000000007 17092.000000000004 110385.00000000001 134.70000000000002 139.85000000000002 7061.0000000000009 34.425000000000004
decision_type=2 2 2 2 2 2 2
left_child=1 5 3 -2 -4 -1 -3
right_child=2 6 4 -5 -6 -7 -8
leaf_value=-0.0010646169689399946 0.073673669518535712 0.027608851702625937 0.099086864621906023 0.032888788299375561 0.0082719821678964717 0.0041632713245102751 0.0117040855038354
leaf_weight=375089 558 1625 715 3388 57 13362 6406
leaf_count=375089 558 1625 715 3388 57 13362 6406
internal_value=1.61206e-11 -0.000564605 0.0474472 0.0386561 0.0923816 -0.000884787 0.0149223
internal_weight=401200 396482 4718 3946 772 388451 8031
internal_count=401200 396482 4718 3946 772 388451 8031
is_linear=0
shrinkage=0.05


Tree=20
num_leaves=8
num_cat=0
split_feature=0 0 0 2 1 0 0
split_gain=3902.21 988.278 387.527 312.499 280.87 87.9782 45.2183
threshold=29957.000000000004 69800.500000000015 8398.5000000000018 36.06666666666667 135.37500000000003 19726.000000000004 1895.5000000000002
decision_type=2 2 2 2 2 2 2
left_child=2 3 6 -2 -3 -4 -1
right_child=1 4 5 -5 -6 -7 -8
leaf_value=-0.0011624986527654559 0.017912885210130194 0.11636739698026265 0.0048472458241607735 0.050830708843740552 0.05787884248610662 0.01345976270612504 0.00070665903840141768
leaf_weight=342427 3990 228 11939 880 2058 3945 35733
leaf_count=342427 3990 228 11939 880 2058 3945 35733
internal_value=3.27463e-11 0.0365917 -0.000664519 0.0238611 0.0637123 0.00698628 -0.000985879
internal_weight=401200 7156 394044 4870 2286 15884 378160
internal_count=401200 7156 394044 4870 2286 15884 378160
is_linear=0
shrinkage=0.05


Tree=21
num_leaves=8
num_cat=0
split_feature=0 0 0 1 2 2 0
split_gain=3532.39 777.183 542.816 295.29 181.699 157.338 147.378
threshold=48487.000000000007 19726.000000000004 110385.00000000001 134.57500000000002 36.275000000000006 34.725000000000009 7061.0000000000009
decision_type=2 2 2 2 2 2 2
left_child=1 6 3 -2 -3 -4 -1
right_child=2 4 5 -5 -6 -7 -8
leaf_value=-0.00096139936291875336 0.078328894221722484 0.011612238250719602 0.13394386465035713 0.032174425366963889 0.030802519877460046 0.074345814906130764 0.0040912141228004106
leaf_weight=375089 396 5574 134 2775 1584 638 15010
leaf_count=375089 396 5574 134 2775 1584 638 15010
internal_value=-3.45982e-11 -0.000467414 0.0470919 0.0379383 0.0158589 0.0846906 -0.000766988
internal_weight=401200 397257 3943 3171 7158 772 390099
internal_count=401200 397257 3943 3171 7158 772 390099
is_linear=0
shrinkage=0.05


Tree=22
num_leaves=8
num_cat=0
split_feature=0 0 0 2 1 2 0
split_gain=3201.06 754.162 383.665 336.621 137.583 111.306 60.9068
threshold=33347.000000000007 86114.500000000015 11313.000000000002 36.025000000000013 135.28750000000005 34.425000000000004 2150.5000000000005
decision_type=2 2 2 2 2 2 2
left_child=2 3 6 -2 -3 -4 -1
right_child=1 4 5 -5 -6 -7 -8
leaf_value=-0.0010458377856836915 0.020146801782113481 0.12260083647647707 0.017292212472879591 0.057173385958338409 0.062169901745655391 0.0056819649146790377 0.0011004035629806506
leaf_weight=346409 4130 101 2658 721 1396 9242 36543
leaf_count=346409 4130 101 2658 721 1396 9242 36543
internal_value=4.07593e-11 0.0352237 -0.000566289 0.02565 0.0662471 0.00827525 -0.000841034
internal_weight=401200 6348 394852 4851 1497 11900 382952
internal_count=401200 6348 394852 4851 1497 11900 382952
is_linear=0
shrinkage=0.05


Tree=23
num_leaves=8
num_cat=0
split_feature=0 0 0 1 2 1 0
split_gain=2928.4 777.877 346.783 325.341 212.693 153.918 120.182
threshold=57515.000000000007 19726.000000000004 110385.00000000001 134.82500000000002 36.06666666666667 139.85000000000002 4405.5000000000009
decision_type=2 2 2 2 2 2 2
left_child=1 6 3 -2 -3 -4 -1
right_child=2 4 5 -5 -6 -7 -8
leaf_value=-0.0009230646519777767 0.092679581991639962 0.010513394189861138 0.083514176205425839 0.03225872176094443 0.029678354741548618 -0.0018613482776441072 0.002683050626151184
leaf_weight=365435 249 6061 715 2117 1902 57 24664
leaf_count=365435 249 6061 715 2117 1902 57 24664
internal_value=2.85891e-11 -0.000379276 0.048112 0.0386175 0.015091 0.0772105 -0.000695068
internal_weight=401200 398062 3138 2366 7963 772 390099
internal_count=401200 398062 3138 2366 7963 772 390099
is_linear=0
shrinkage=0.05


Tree=24
num_leaves=8
num_cat=0
split_feature=0 0 0 1 2 1 0
split_gain=2642.88 702.034 312.972 293.621 191.956 138.911 109.29
threshold=57515.000000000007 19726.000000000004 110385.00000000001 134.82500000000002 36.06666666666667 139.85000000000002 7061.0000000000009
decision_type=2 2 2 2 2 2 2
left_child=1 6 3 -2 -3 -4 -1
right_child=2 4 5 -5 -6 -7 -8
leaf_value=-0.00082773022712175407 0.088045602775062903 0.0099877244959290512 0.07933846707579556 0.030645785129105124 0.028194437156305048 -0.0017682820035700214 0.0035232764996742105
leaf_weight=375089 249 6061 715 2117 1902 57 15010
leaf_count=375089 249 6061 715 2117 1902 57 15010
internal_value=-2.78299e-11 -0.000360312 0.0457064 0.0366866 0.0143365 0.07335 -0.000660315
internal_weight=401200 398062 3138 2366 7963 772 390099
internal_count=401200 398062 3138 2366 7963 772 390099
is_linear=0
shrinkage=0.05


Tree=25
num_leaves=8
num_cat=0
split_feature=0 0 2 1 0 2 0
split_gain=2401.89 691.002 259.947 210.965 187.231 80.4037 32.2669
threshold=27349.500000000004 69800.500000000015 36.06666666666667 135.37500000000003 8398.5000000000018 34.32500000000001 1848.5000000000002
decision_type=2 2 2 2 2 2 2
left_child=4 2 -2 -3 6 -6 -1
right_child=1 3 -4 -5 5 -7 -8
leaf_value=-0.00091866176646153571 0.012640626929102179 0.096064352281718404 0.03993564100231084 0.045374232974080816 0.011754438672432177 0.0029651696256981623 0.00064432751782776167
leaf_weight=341606 4571 228 1078 2058 3341 11764 36554
leaf_count=341606 4571 228 1078 2058 3341 11764 36554
internal_value=-4.42462e-11 0.0272355 0.0178493 0.0504299 -0.000549537 0.00490922 -0.000767579
internal_weight=401200 7935 5649 2286 393265 15105 378160
internal_count=401200 7935 5649 2286 393265 15105 378160
is_linear=0
shrinkage=0.05


Tree=26
num_leaves=8
num_cat=0
split_feature=0 0 0 2 2 1 0
split_gain=2182.18 413.251 378.661 242.471 131.321 127.049 68.7559
threshold=42701.500000000007 110385.00000000001 16022.000000000002 36.025000000000013 34.725000000000009 134.57500000000002 3101.5000000000005
decision_type=2 2 2 2 2 2 2
left_child=2 3 6 -2 -3 -4 -1
right_child=1 4 5 -5 -6 -7 -8
leaf_value=-0.00083132427389956713 0.023130740163069607 0.11225671179926218 0.020703986571344195 0.064472938654235173 0.057808677086075268 0.0065267022051446457 0.001626376594260071
leaf_weight=356742 3552 134 2063 394 638 6753 30924
leaf_count=356742 3552 134 2063 394 638 6753 30924
internal_value=-1.93907e-11 0.033804 -0.000402256 0.0272587 0.0672595 0.00984428 -0.000635274
internal_weight=401200 4718 396482 3946 772 8816 387666
internal_count=401200 4718 396482 3946 772 8816 387666
is_linear=0
shrinkage=0.05


Tree=27
num_leaves=8
num_cat=0
split_feature=0 0 1 0 1 2 0
split_gain=1983.01 516.179 272.496 258.347 216.511 187.417 81.3474
threshold=57515.000000000007 19726.000000000004 135.28750000000005 110385.00000000001 130.48750000000001 34.358333333333341 3860.5000000000005
decision_type=2 2 2 2 2 2 2
left_child=1 6 4 -4 -2 -3 -1
right_child=2 5 3 -5 -6 -7 -8
leaf_value=-0.00076934554031049486 0.028415426605939865 0.028727544683458159 0.025247124335871625 0.059761607553936252 0.11048792415526179 0.0087104131377627268 0.0020373473289064629
leaf_weight=362302 125 1424 2051 737 225 6539 27797
leaf_count=362302 125 1424 2051 737 225 6539 27797
internal_value=-2.65724e-12 -0.000312107 0.0395914 0.0343709 0.0811763 0.01229 -0.000569351
internal_weight=401200 398062 3138 2788 350 7963 390099
internal_count=401200 398062 3138 2788 350 7963 390099
is_linear=0
shrinkage=0.05


Tree=28
num_leaves=8
num_cat=0
split_feature=0 0 0 1 2 1 0
split_gain=1794.63 374.86 287.443 207.925 133.879 123.237 61.0478
threshold=48487.000000000007 17092.000000000004 110385.00000000001 134.57500000000002 34.358333333333341 139.85000000000002 3101.5000000000005
decision_type=2 2 2 2 2 2 2
left_child=1 6 3 -2 -3 -4 -1
right_child=2 4 5 -5 -6 -7 -8
leaf_value=-0.00075129078891458898 0.060797894293574073 0.022721292396286945 0.066566832011396238 0.02206833357780098 0.0069109103633427788 -0.0098270919762159653 0.0015380194916155298
leaf_weight=356742 396 1647 715 2775 7159 57 31709
leaf_count=356742 396 1647 715 2775 7159 57 31709
internal_value=-2.54918e-11 -0.000333162 0.033566 0.0269049 0.00986795 0.0609263 -0.000564416
internal_weight=401200 397257 3943 3171 8806 772 388451
internal_count=401200 397257 3943 3171 8806 772 388451
is_linear=0
shrinkage=0.05


Tree=29
num_leaves=8
num_cat=0
split_feature=0 0 2 1 0 2 0
split_gain=1632.93 493.377 242.377 173.212 124.526 63.0549 22.2457
threshold=27349.500000000004 69800.500000000015 36.06666666666667 135.37500000000003 8398.5000000000018 34.32500000000001 1562.5000000000002
decision_type=2 2 2 2 2 2 2
left_child=4 2 -2 -3 6 -6 -1
right_child=1 3 -4 -5 5 -7 -8
leaf_value=-0.0007668973350877876 0.0094957098938069154 0.083405523327702111 0.035852131549638726 0.037474430052688454 0.010060574195719308 0.0022770871947570465 0.00045069071210331708
leaf_weight=335931 4571 228 1078 2058 3341 11764 42229
leaf_count=335931 4571 228 1078 2058 3341 11764 42229
internal_value=-3.57495e-11 0.0224565 0.0145253 0.0420555 -0.00045311 0.00399868 -0.00063093
internal_weight=401200 7935 5649 2286 393265 15105 378160
internal_count=401200 7935 5649 2286 393265 15105 378160
is_linear=0
shrinkage=0.05


Tree=30
num_leaves=8
num_cat=0
split_feature=0 0 1 1 0 2 0
split_gain=1478.84 382.581 224.472 202.957 200.671 161.688 67.3442
threshold=57515.000000000007 21220.000000000004 135.28750000000005 130.48750000000001 110385.00000000001 36.06666666666667 8017.5000000000009
decision_type=2 2 2 2 2 2 2
left_child=1 6 3 -2 -4 -3 -1
right_child=2 5 4 -5 -6 -7 -8
leaf_value=-0.00060391559958937349 0.020850223243236543 0.0069994156643266208 0.021410675951598013 0.1003123483442598 0.051829489929540895 0.024673367649576589 0.0029911750258274296
leaf_weight=377376 125 5502 2051 225 737 1692 13492
leaf_count=377376 125 5502 2051 225 737 1692 13492
internal_value=-2.51154e-11 -0.000269526 0.03419 0.071933 0.0294518 0.0111563 -0.00047982
internal_weight=401200 398062 3138 350 2788 7194 390868
internal_count=401200 398062 3138 350 2788 7194 390868
is_linear=0
shrinkage=0.05


Tree=31
num_leaves=8
num_cat=0
split_feature=0 0 1 1 2 0 0
split_gain=1343.04 436.69 192.168 147.038 150.938 94.8314 69.75
threshold=69800.500000000015 23092.000000000004 134.57500000000002 135.37500000000003 33.575000000000003 110385.00000000001 8017.5000000000009
decision_type=2 2 2 2 2 2 2
left_child=1 6 -3 4 -2 -5 -1
right_child=3 2 -4 5 -6 -7 -8
leaf_value=-0.00057371979926576467 0.021508366936518822 0.028272260965834569 0.0078841676405069644 0.026078890642432101 0.10651170008524391 0.048547942539741255 0.0029833465337469941
leaf_weight=377376 81 1444 5790 1333 147 725 14304
leaf_count=377376 81 1444 5790 1333 147 725 14304
internal_value=-3.67332e-12 -0.000218994 0.0119539 0.0382151 0.0763131 0.0339944 -0.000443817
internal_weight=401200 398914 7234 2286 228 2058 391680
internal_count=401200 398914 7234 2286 228 2058 391680
is_linear=0
shrinkage=0.05


Tree=32
num_leaves=8
num_cat=0
split_feature=0 0 2 0 2 2 0
split_gain=1221.03 322.615 260.767 136.218 80.8986 77.2392 26.7785
threshold=33347.000000000007 86114.500000000015 36.025000000000013 11313.000000000002 35.733333333333341 34.425000000000004 1848.5000000000002
decision_type=2 2 2 2 2 2 2
left_child=3 2 -2 6 -3 -5 -1
right_child=1 4 -4 5 -6 -7 -8
leaf_value=-0.00065891534576875905 0.010649261392481608 0.047840025976729011 0.043238155158358049 0.012429936073490603 0.018730590147460067 0.0027582541588404446 0.00068835717488197577
leaf_weight=341606 4130 1199 721 2658 298 9242 41346
leaf_count=341606 4130 1199 721 2658 298 9242 41346
internal_value=3.97681e-12 0.0217546 0.0154929 -0.000349746 0.0420454 0.00491853 -0.000513455
internal_weight=401200 6348 4851 394852 1497 11900 382952
internal_count=401200 6348 4851 394852 1497 11900 382952
is_linear=0
shrinkage=0.05


Tree=33
num_leaves=8
num_cat=0
split_feature=0 0 0 2 2 2 0
split_gain=1110.05 223.764 189.996 174.568 115.449 112.219 46.7869
threshold=48487.000000000007 19726.000000000004 110385.00000000001 36.06666666666667 34.425000000000004 34.725000000000009 2834.5000000000005
decision_type=2 2 2 2 2 2 2
left_child=1 6 3 -2 -3 -4 -1
right_child=2 4 5 -5 -6 -7 -8
leaf_value=-0.00059671837484820238 0.017558575158430078 0.021364643033620467 0.090239076316356664 0.061171068334914591 0.0053644342213685289 0.039906554703008051 0.0013009342355200211
leaf_weight=354340 2922 1402 134 249 5756 638 35759
leaf_count=354340 2922 1402 134 249 5756 638 35759
internal_value=5.11171e-12 -0.000262022 0.0263987 0.0209832 0.00849831 0.048643 -0.000422767
internal_weight=401200 397257 3943 3171 7158 772 390099
internal_count=401200 397257 3943 3171 7158 772 390099
is_linear=0
shrinkage=0.05


Tree=34
num_leaves=8
num_cat=0
split_feature=0 0 1 1 2 0 0
split_gain=1015.77 319.751 166.389 133.924 176.979 73.7926 51.9117
threshold=69800.500000000015 23092.000000000004 134.57500000000002 135.28750000000005 33.575000000000003 110385.00000000001 6460.0000000000009
decision_type=2 2 2 2 2 2 2
left_child=1 6 -3 4 -2 -5 -1
right_child=3 2 -4 5 -6 -7 -8
leaf_value=-0.0005098601349256967 0.017451106789119451 0.025410251220213533 0.0064389045873981783 0.02268185897499345 0.11502924308078277 0.042330324527487834 0.0022255585082987441
leaf_weight=373491 81 1444 5790 1359 109 737 18189
leaf_count=373491 81 1444 5790 1359 109 737 18189
internal_value=-1.23469e-11 -0.000190452 0.0102258 0.0332344 0.0734301 0.0295907 -0.000382832
internal_weight=401200 398914 7234 2286 190 2096 391680
internal_count=401200 398914 7234 2286 190 2096 391680
is_linear=0
shrinkage=0.05


Tree=35
num_leaves=8
num_cat=0
split_feature=0 0 2 1 2 2 0
split_gain=916.728 288.575 165.769 120.931 123.355 72.2475 47.2441
threshold=69800.500000000015 23092.000000000004 36.06666666666667 135.37500000000003 33.575000000000003 35.983333333333341 4576.5000000000009
decision_type=2 2 2 2 2 2 2
left_child=1 6 -3 4 -2 -5 -1
right_child=3 2 -4 5 -6 -7 -8
leaf_value=-0.00050828763900651823 0.016578550347023543 0.0058010190461112911 0.02435305277843805 0.025824409710455545 0.093423450274430983 0.073443536729697723 0.0017217389618479257
leaf_weight=366283 81 5708 1526 1975 147 83 25397
leaf_count=366283 81 5708 1526 1975 147 83 25397
internal_value=-2.27166e-11 -0.000180929 0.00971454 0.0315727 0.0661233 0.0277449 -0.00036369
internal_weight=401200 398914 7234 2286 228 2058 391680
internal_count=401200 398914 7234 2286 228 2058 391680
is_linear=0
shrinkage=0.05


Tree=36
num_leaves=8
num_cat=0
split_feature=0 0 2 0 2 2 0
split_gain=834.127 198.753 198.234 113.186 72.593 70.0074 21.9253
threshold=37952.000000000007 86114.500000000015 36.025000000000013 12678.500000000002 35.733333333333341 34.466666666666676 1562.5000000000002
decision_type=2 2 2 2 2 2 2
left_child=3 2 -2 6 -3 -5 -1
right_child=1 4 -4 5 -6 -7 -8
leaf_value=-0.00055598159853544949 0.0092783748127086337 0.04037973775005619 0.042710157379684019 0.012029620246711441 0.012805046031139043 0.0025554193841490513 0.00057952145905737571
leaf_weight=335931 3487 1199 508 2523 298 8583 48671
leaf_count=335931 3487 1199 508 2523 298 8583 48671
internal_value=-1.69163e-11 0.0193521 0.0135295 -0.000268586 0.0348906 0.00470772 -0.000412285
internal_weight=401200 5492 3995 395708 1497 11106 384602
internal_count=401200 5492 3995 395708 1497 11106 384602
is_linear=0
shrinkage=0.05


Tree=37
num_leaves=8
num_cat=0
split_feature=0 0 1 1 2 0 0
split_gain=761.3 183.003 180.491 180.783 130.114 113.684 35.4177
threshold=57515.000000000007 21220.000000000004 135.28750000000005 130.48750000000001 36.06666666666667 110385.00000000001 2150.5000000000005
decision_type=2 2 2 2 2 2 2
left_child=1 6 3 -2 -3 -4 -1
right_child=2 4 5 -5 -6 -7 -8
leaf_value=-0.00050933658143564116 0.010163765175640584 0.0039799605504310378 0.014229977249586979 0.085159416960345374 0.019834623066846052 0.037125438101983946 0.00098972948714958365
leaf_weight=346409 125 5502 2051 225 1692 737 44459
leaf_count=346409 125 5502 2051 225 1692 737 44459
internal_value=8.20368e-12 -0.000193383 0.0245311 0.0583753 0.00770891 0.0202823 -0.000338826
internal_weight=401200 398062 3138 350 7194 2788 390868
internal_count=401200 398062 3138 350 7194 2788 390868
is_linear=0
shrinkage=0.05


Tree=38
num_leaves=8
num_cat=0
split_feature=0 0 1 1 2 2 0
split_gain=691.923 211.4 153.254 104.251 140.403 65.3718 36.3017
threshold=69800.500000000015 23092.000000000004 134.57500000000002 135.28750000000005 33.575000000000003 35.983333333333341 8017.5000000000009
decision_type=2 2 2 2 2 2 2
left_child=1 6 -3 4 -2 -5 -1
right_child=3 2 -4 5 -6 -7 -8
leaf_value=-0.00040732730579524717 0.01303401148567597 0.02288514025550635 0.0046779590483999366 0.022421804418018429 0.099945827305248577 0.067701128637418159 0.0021588291306677849
leaf_weight=377376 81 1444 5790 2013 109 83 14304
leaf_count=377376 81 1444 5790 2013 109 83 14304
internal_value=1.00435e-11 -0.000157187 0.00831235 0.0274296 0.0628939 0.0242148 -0.000313612
internal_weight=401200 398914 7234 2286 190 2096 391680
internal_count=401200 398914 7234 2286 190 2096 391680
is_linear=0
shrinkage=0.05


Tree=39
num_leaves=8
num_cat=0
split_feature=0 1 2 1 0 2 0
split_gain=626.439 153.937 178.666 137.379 100.872 74.9732 17.314
threshold=42701.500000000007 135.28750000000005 36.025000000000013 130.48750000000001 12678.500000000002 34.358333333333341 987.50000000000011
decision_type=2 2 2 2 2 2 2
left_child=4 3 -3 -2 6 -6 -1
right_child=1 2 -4 -5 5 -7 -8
leaf_value=-0.00050674633157950591 0.0032595472849981134 0.010699051208929279 0.046172028787547566 0.051990624806186297 0.012153194522456789 0.0023075104437978201 0.00038936907593368022
leaf_weight=319771 197 3583 394 544 2431 9449 64831
leaf_count=319771 197 3583 394 544 2431 9449 64831
internal_value=-5.0661e-12 0.0181118 0.0142133 0.0390351 -0.000215524 0.00432223 -0.000355691
internal_weight=401200 4718 3977 741 396482 11880 384602
internal_count=401200 4718 3977 741 396482 11880 384602
is_linear=0
shrinkage=0.05


Tree=40
num_leaves=8
num_cat=0
split_feature=0 0 2 2 1 2 0
split_gain=592.414 167.378 150.398 98.0813 129.972 58.7939 33.0743
threshold=69800.500000000015 25039.500000000004 34.358333333333341 35.175000000000004 139.63750000000002 34.850000000000001 8398.5000000000018
decision_type=2 2 2 2 2 2 2
left_child=1 6 -3 5 -5 -2 -1
right_child=3 2 -4 4 -6 -7 -8
leaf_value=-0.00036608031617123586 0.032503097290502846 0.025105927180834292 0.0044668907266634788 0.0018178827489164218 0.031827890053884873 0.066030765941113609 0.0020840015308231105
leaf_weight=378160 678 1055 5404 691 755 162 14295
leaf_count=378160 678 1055 5404 691 755 162 14295
internal_value=-4.49133e-12 -0.000145446 0.00783803 0.0253807 0.017487 0.0389691 -0.000276837
internal_weight=401200 398914 6459 2286 1446 840 392455
internal_count=401200 398914 6459 2286 1446 840 392455
is_linear=0
shrinkage=0.05


Tree=41
num_leaves=8
num_cat=0
split_feature=0 0 2 2 1 2 0
split_gain=534.654 151.185 139.205 89.3514 134.237 120.383 28.0998
threshold=69800.500000000015 23092.000000000004 36.06666666666667 35.733333333333341 139.81250000000003 35.983333333333341 2680.5000000000005
decision_type=2 2 2 2 2 2 2
left_child=1 6 -3 4 -2 -5 -1
right_child=3 2 -4 5 -6 -7 -8
leaf_value=-0.00041114989046100683 0.033636372949960122 0.0034379879312593682 0.020438725787775197 -0.0054686608497035568 -0.014499161022264255 0.060455524705978758 0.0010043385256356353
leaf_weight=352749 1626 5708 1526 418 159 83 38931
leaf_count=352749 1626 5708 1526 418 159 83 38931
internal_value=1.30224e-11 -0.000138173 0.00702426 0.0241117 0.0293487 0.00545291 -0.000270458
internal_weight=401200 398914 7234 2286 1785 501 391680
internal_count=401200 398914 7234 2286 1785 501 391680
is_linear=0
shrinkage=0.05


Tree=42
num_leaves=8
num_cat=0
split_feature=0 0 2 1 2 2 0
split_gain=482.525 137.392 138.923 85.1565 122.736 58.6141 27.7353
threshold=69800.500000000015 25039.500000000004 36.06666666666667 135.28750000000005 33.575000000000003 35.775000000000013 9714.5000000000018
decision_type=2 2 2 2 2 2 2
left_child=1 6 -3 4 -2 -5 -1
right_child=3 2 -4 5 -6 -7 -8
leaf_value=-0.00032460280445932598 0.0083408218084110152 0.003403133752591768 0.021639660818374342 0.023692683038113803 0.089600872043349322 0.0010650641235866044 0.0021277089918281373
leaf_weight=380565 81 5149 1310 1754 109 342 11890
leaf_count=380565 81 5149 1310 1754 109 342 11890
internal_value=1.14563e-11 -0.000131265 0.00710183 0.0229061 0.0549584 0.0200006 -0.000250306
internal_weight=401200 398914 6459 2286 190 2096 392455
internal_count=401200 398914 6459 2286 190 2096 392455
is_linear=0
shrinkage=0.05


Tree=43
num_leaves=8
num_cat=0
split_feature=0 1 1 0 0 2 0
split_gain=437.484 147.689 227.422 108.824 97.4146 100.741 16.8575
threshold=57515.000000000007 134.82500000000002 130.48750000000001 110385.00000000001 16022.000000000002 34.358333333333341 1562.5000000000002
decision_type=2 2 2 2 2 2 2
left_child=4 2 -2 -3 6 -6 -1
right_child=1 3 -4 -5 5 -7 -8
leaf_value=-0.00040407574005457979 0.0039319342225790027 0.0094513380520809473 0.095388133138818235 0.031648537289685356 0.014828296837643074 0.0022543704462567021 0.00056549102821322277
leaf_weight=335931 125 2117 149 747 1964 8432 51735
leaf_count=335931 125 2117 149 747 1964 8432 51735
internal_value=2.82019e-12 0.018596 0.0536654 0.0152409 -0.000146596 0.00462982 -0.000274685
internal_weight=401200 3138 274 2864 398062 10396 387666
internal_count=401200 3138 274 2864 398062 10396 387666
is_linear=0
shrinkage=0.05


Tree=44
num_leaves=8
num_cat=0
split_feature=0 0 2 2 1 2 0
split_gain=398.98 112.825 146.059 76.1669 122.689 56.3981 25.8412
threshold=69800.500000000015 27349.500000000004 36.06666666666667 35.175000000000004 139.63750000000002 34.850000000000001 7061.0000000000009
decision_type=2 2 2 2 2 2 2
left_child=1 6 -3 5 -5 -2 -1
right_child=3 2 -4 4 -6 -7 -8
leaf_value=-0.00030936220252459311 0.026470532088477307 0.0029922466641740726 0.023452245212179059 -0.0013510819918081144 0.027806054621638845 0.059307997255229665 0.0016210601008398802
leaf_weight=375089 678 4571 1078 691 755 162 18176
leaf_count=375089 678 4571 1078 691 755 162 18176
internal_value=-2.62931e-12 -0.000119361 0.00689663 0.0208289 0.0138727 0.0328035 -0.000220142
internal_weight=401200 398914 5649 2286 1446 840 393265
internal_count=401200 398914 5649 2286 1446 840 393265
is_linear=0
shrinkage=0.05


Tree=45
num_leaves=8
num_cat=0
split_feature=0 0 2 2 1 2 0
split_gain=360.079 102.116 133.755 72.3854 122.058 109.848 21.938
threshold=69800.500000000015 25039.500000000004 34.358333333333341 35.733333333333341 139.81250000000003 35.983333333333341 2150.5000000000005
decision_type=2 2 2 2 2 2 2
left_child=1 6 -3 4 -2 -5 -1
right_child=3 2 -4 5 -6 -7 -8
leaf_value=-0.00035231434086873022 0.028589684947028411 0.022406840152791329 0.0029432077126528037 -0.0074394211190881914 -0.017310323430307258 0.055534189939498907 0.00080932971906881785
leaf_weight=346409 1626 1055 5404 418 159 83 46046
leaf_count=346409 1626 1055 5404 418 159 83 46046
internal_value=-1.34241e-11 -0.000113393 0.00612236 0.0197875 0.0245011 0.00299333 -0.000216021
internal_weight=401200 398914 6459 2286 1785 501 392455
internal_count=401200 398914 6459 2286 1785 501 392455
is_linear=0
shrinkage=0.05


Tree=46
num_leaves=8
num_cat=0
split_feature=0 2 2 0 0 1 0
split_gain=326.534 122.13 202.823 114.888 59.4006 84.6558 10.9646
threshold=48487.000000000007 33.491666666666667 31.866666666666671 110385.00000000001 12678.500000000002 128.51250000000002 903.50000000000011
decision_type=2 2 2 2 2 2 2
left_child=4 2 -2 -3 6 -6 -1
right_child=1 3 -4 -5 5 -7 -8
leaf_value=-0.00037687733334079032 -0.0027613882447632271 0.0081760714945835946 0.11368655200246014 0.029809933400640337 -0.030912702035304558 0.0037183060019836014 0.00032241470381219215
leaf_weight=316481 71 3023 79 770 179 12476 68121
leaf_count=316481 71 3023 79 770 179 12476 68121
internal_value=1.5235e-12 0.0143178 0.0585679 0.0125679 -0.000142112 0.00322846 -0.000253018
internal_weight=401200 3943 150 3793 397257 12655 384602
internal_count=401200 3943 150 3793 397257 12655 384602
is_linear=0
shrinkage=0.05


Tree=47
num_leaves=8
num_cat=0
split_feature=0 0 2 1 2 1 0
split_gain=298.178 84.1688 135.66 69.4156 109.87 47.5418 19.6174
threshold=69800.500000000015 27349.500000000004 36.06666666666667 135.28750000000005 33.575000000000003 139.68750000000003 3621.5000000000005
decision_type=2 2 2 2 2 2 2
left_child=1 6 -3 4 -2 -5 -1
right_child=3 2 -4 5 -6 -7 -8
leaf_value=-0.00029631878269651226 0.0028385583127354397 0.0021938531950900174 0.021912028049576704 0.010603153446833873 0.079721694101724749 0.027246079644021204 0.00098531376313113514
leaf_weight=360713 81 4571 1078 1494 109 602 32552
leaf_count=360713 81 4571 1078 1494 109 602 32552
internal_value=1.20203e-11 -0.000103187 0.00595668 0.0180065 0.0469452 0.0153832 -0.000190233
internal_weight=401200 398914 5649 2286 190 2096 393265
internal_count=401200 398914 5649 2286 190 2096 393265
is_linear=0
shrinkage=0.05


Tree=48
num_leaves=8
num_cat=0
split_feature=0 0 1 1 1 2 0
split_gain=273.266 99.3553 152.581 64.4444 191.643 42.2141 18.2496
threshold=86114.500000000015 27349.500000000004 134.57500000000002 139.81250000000003 139.68750000000003 35.733333333333341 9714.5000000000018
decision_type=2 2 2 2 2 2 2
left_child=1 6 -3 4 -2 -5 -1
right_child=3 2 -4 5 -6 -7 -8
leaf_value=-0.00024294330054709841 0.016767842175752345 0.022613575975528377 0.0024974075504836518 -0.023227872644982689 0.068104692050877783 0.022593559710418477 0.0016837961619030539
leaf_weight=380565 1070 1147 5291 123 219 85 12700
leaf_count=380565 1070 1147 5291 123 219 85 12700
internal_value=-1.99296e-11 -7.98592e-05 0.00608132 0.0213226 0.0254899 -0.00450277 -0.000180722
internal_weight=401200 399703 6438 1497 1289 208 393265
internal_count=401200 399703 6438 1497 1289 208 393265
is_linear=0
shrinkage=0.05


Tree=49
num_leaves=8
num_cat=0
split_feature=0 1 1 0 0 1 0
split_gain=247.446 122.207 202.93 74.6898 53.7906 90.0325 9.89065
threshold=57515.000000000007 134.82500000000002 130.48750000000001 110385.00000000001 14229.500000000002 128.51250000000002 903.50000000000011
decision_type=2 2 2 2 2 2 2
left_child=4 2 -2 -3 6 -6 -1
right_child=1 3 -4 -5 5 -7 -8
leaf_value=-0.00033107037233663634 -0.0010927806377410889 0.0061371776225845115 0.085298522758053857 0.024526530137682058 -0.032713928628106452 0.0037248003995819347 0.00032699938794348779
leaf_weight=316481 125 2117 149 747 172 11742 69667
leaf_count=316481 125 2117 149 747 172 11742 69667
internal_value=-5.69948e-13 0.0139855 0.0458864 0.0109336 -0.000110251 0.00319874 -0.000212345
internal_weight=401200 3138 274 2864 398062 11914 386148
internal_count=401200 3138 274 2864 398062 11914 386148
is_linear=0
shrinkage=0.05


Tree=50
num_leaves=8
num_cat=0
split_feature=0 0 2 1 1 2 0
split_gain=227.86 81.2606 149.058 57.8191 171.021 38.5993 15.2251
threshold=86114.500000000015 27349.500000000004 36.06666666666667 139.81250000000003 139.68750000000003 35.733333333333341 1848.5000000000002
decision_type=2 2 2 2 2 2 2
left_child=1 6 -3 4 -2 -5 -1
right_child=3 2 -4 5 -6 -7 -8
leaf_value=-0.000285121084081722 0.015178528146069743 0.0020113555497314373 0.02209519296817895 -0.02289661028520848 0.063674659376377105 0.020919042773106522 0.00063587407057363161
leaf_weight=341606 1070 5320 1118 123 219 85 51659
leaf_count=341606 1070 5320 1118 123 219 85 51659
internal_value=-1.51638e-11 -7.29232e-05 0.00549904 0.0194707 0.023418 -0.00499118 -0.00016414
internal_weight=401200 399703 6438 1497 1289 208 393265
internal_count=401200 399703 6438 1497 1289 208 393265
is_linear=0
shrinkage=0.05


Tree=51
num_leaves=8
num_cat=0
split_feature=0 0 1 2 1 1 0
split_gain=205.643 73.3377 135.982 59.045 114.491 41.1044 13.9359
threshold=86114.500000000015 27349.500000000004 134.57500000000002 35.733333333333341 139.85000000000002 139.77500000000001 5135.5000000000009
decision_type=2 2 2 2 2 2 2
left_child=1 6 -3 4 -2 -5 -1
right_child=3 2 -4 5 -6 -7 -8
leaf_value=-0.00023268527690218467 0.028108315700215981 0.020831176601902444 0.0018407368882896057 -0.016246296787521913 -0.027773086845874786 0.021839009469439244 0.00099831171989172001
leaf_weight=368745 1099 1147 5291 182 100 116 24520
leaf_count=368745 1099 1147 5291 182 100 116 24520
internal_value=-3.1609e-12 -6.9277e-05 0.00522409 0.0184971 0.0234476 -0.00142114 -0.000155933
internal_weight=401200 399703 6438 1497 1199 298 393265
internal_count=401200 399703 6438 1497 1199 298 393265
is_linear=0
shrinkage=0.05


Tree=52
num_leaves=8
num_cat=0
split_feature=0 1 1 2 0 1 0
split_gain=187.869 108.043 184.904 61.1434 39.8534 86.2971 8.86819
threshold=57515.000000000007 134.82500000000002 130.48750000000001 35.733333333333341 17092.000000000004 129.58750000000001 987.50000000000011
decision_type=2 2 2 2 2 2 2
left_child=4 2 -2 -3 6 -6 -1
right_child=1 3 -4 -5 5 -7 -8
leaf_value=-0.00028547720564419939 -0.0026627549350261692 0.013502970717157062 0.079802282832112895 -0.0034322217144308834 -0.036169820807982186 0.0036563977414388578 0.00034073422939069658
leaf_weight=319771 125 2156 149 708 138 9473 68680
leaf_count=319771 125 2156 149 708 138 9473 68680
internal_value=8.84629e-12 0.0121861 0.0421814 0.00931648 -9.60656e-05 0.00308455 -0.00017476
internal_weight=401200 3138 274 2864 398062 9611 388451
internal_count=401200 3138 274 2864 398062 9611 388451
is_linear=0
shrinkage=0.05


Tree=53
num_leaves=8
num_cat=0
split_feature=0 0 2 2 1 1 0
split_gain=175.11 58.5852 139.944 49.5534 103.345 37.0967 11.7224
threshold=86114.500000000015 27349.500000000004 36.06666666666667 35.733333333333341 139.85000000000002 139.77500000000001 9714.5000000000018
decision_type=2 2 2 2 2 2 2
left_child=1 6 -3 4 -2 -5 -1
right_child=3 2 -4 5 -6 -7 -8
leaf_value=-0.00019124672279746278 0.026031932501788438 0.0012878007222517549 0.020747913084324443 -0.015262371150439012 -0.027059582576155664 0.020918670873125569 0.0013529602678698455
leaf_weight=380565 1099 5320 1118 182 100 116 12700
leaf_count=380565 1099 5320 1118 182 100 116 12700
internal_value=7.09107e-12 -6.39273e-05 0.00466717 0.0170688 0.0216039 -0.00117848 -0.000141378
internal_weight=401200 399703 6438 1497 1199 298 393265
internal_count=401200 399703 6438 1497 1199 298 393265
is_linear=0
shrinkage=0.05


Tree=54
num_leaves=8
num_cat=0
split_feature=0 2 1 2 0 1 0
split_gain=158.888 56.8656 103.259 60.1549 40.5195 106.034 7.78817
threshold=69800.500000000015 35.175000000000004 139.63750000000002 34.850000000000001 17092.000000000004 135.28750000000005 903.50000000000011
decision_type=2 2 2 2 2 2 2
left_child=4 3 -3 -2 6 -6 -1
right_child=1 2 -4 -5 5 -7 -8
leaf_value=-0.00026479033324029575 0.016950476211001191 -0.0068326925352086391 0.019916251274380861 0.050864004021809434 0.011454008277470746 -1.7345590670960093e-08 0.00031145350802927897
leaf_weight=316481 678 691 755 162 2736 7727 71970
leaf_count=316481 678 691 755 162 2736 7727 71970
internal_value=7.05221e-12 0.0131443 0.00713373 0.0234909 -7.53239e-05 0.00299513 -0.000158027
internal_weight=401200 2286 1446 840 398914 10463 388451
internal_count=401200 2286 1446 840 398914 10463 388451
is_linear=0
shrinkage=0.05


Tree=55
num_leaves=8
num_cat=0
split_feature=0 0 2 2 1 1 0
split_gain=145.623 48.6004 129.486 44.7868 81.6021 39.5922 10.7258
threshold=86114.500000000015 29957.000000000004 34.391666666666673 35.775000000000013 139.85000000000002 139.77500000000001 3101.5000000000005
decision_type=2 2 2 2 2 2 2
left_child=1 6 -3 4 -2 -5 -1
right_child=3 2 -4 5 -6 -7 -8
leaf_value=-0.00020872248319332958 0.022443710489826098 0.022632642901743678 0.0013802680874253821 -0.031616847128136442 -0.021979268739181282 0.016695931707911286 0.00068235383042833473
leaf_weight=356742 1214 842 4817 89 113 81 37302
leaf_count=356742 1214 842 4817 89 113 81 37302
internal_value=3.55119e-12 -5.8297e-05 0.0045424 0.0155654 0.0186609 -0.00859723 -0.000124369
internal_weight=401200 399703 5659 1497 1327 170 394044
internal_count=401200 399703 5659 1497 1327 170 394044
is_linear=0
shrinkage=0.05


Tree=56
num_leaves=8
num_cat=0
split_feature=0 0 2 2 1 1 0
split_gain=131.424 43.8618 122.544 41.5351 87.524 30.7644 10.0402
threshold=86114.500000000015 29957.000000000004 36.025000000000013 35.733333333333341 139.81250000000003 139.77500000000001 9714.5000000000018
decision_type=2 2 2 2 2 2 2
left_child=1 6 -3 4 -2 -5 -1
right_child=3 2 -4 5 -6 -7 -8
leaf_value=-0.00016564950843075773 0.02350666559367098 0.0010000481455963814 0.020644960415925034 -0.014744295106156841 -0.021016334927057831 0.018204337148927153 0.0012229272360597763
leaf_weight=380565 1076 4704 955 182 123 116 13479
leaf_count=380565 1076 4704 955 182 123 116 13479
internal_value=-2.25397e-12 -5.53821e-05 0.00431528 0.0147872 0.0189393 -0.00191865 -0.000118151
internal_weight=401200 399703 5659 1497 1199 298 394044
internal_count=401200 399703 5659 1497 1199 298 394044
is_linear=0
shrinkage=0.05


Tree=57
num_leaves=8
num_cat=0
split_feature=0 2 2 2 0 1 0
split_gain=120.725 97.8826 179.845 98.099 18.9726 74.3022 4.6544
threshold=48487.000000000007 33.491666666666667 31.866666666666671 36.06666666666667 11313.000000000002 135.28750000000005 863.50000000000011
decision_type=2 2 2 2 2 2 2
left_child=4 2 -2 -3 6 -6 -1
right_child=1 3 -4 -5 5 -7 -8
leaf_value=-0.00023430684651812501 -0.0094303866822115136 0.005007829103207859 0.10022306062186821 0.037475198086904714 0.0073739538212534818 -0.00058774621195921591 0.00022140712325357449
leaf_weight=314790 71 3544 79 249 4113 10192 68162
leaf_count=314790 71 3544 79 249 4113 10192 68162
internal_value=-5.49752e-12 0.00870584 0.0483204 0.00713922 -8.64104e-05 0.00170142 -0.000153194
internal_weight=401200 3943 150 3793 397257 14305 382952
internal_count=401200 3943 150 3793 397257 14305 382952
is_linear=0
shrinkage=0.05


Tree=58
num_leaves=8
num_cat=0
split_feature=0 2 1 0 2 2 0
split_gain=117.526 78.388 142.87 48.2214 143.656 33.3196 9.29113
threshold=110385.00000000001 34.725000000000009 139.63750000000002 33347.000000000007 36.025000000000013 34.70000000000001 11313.000000000002
decision_type=2 2 2 2 2 2 2
left_child=3 5 -3 6 -5 -2 -1
right_child=1 2 -4 4 -6 -7 -8
leaf_value=-0.00014553417690957467 0.042314551579296047 -0.016809241830133926 0.031494544291085814 0.0013842809382836154 0.024736204060578176 0.10631589514017106 0.0012731178650914245
leaf_weight=382952 109 255 383 4813 763 25 11900
leaf_count=382952 109 255 383 4813 763 25 11900
internal_value=9.04871e-12 0.0194899 0.0121882 -3.75754e-05 0.00457968 0.0542551 -0.000102779
internal_weight=401200 772 638 400428 5576 134 394852
internal_count=401200 772 638 400428 5576 134 394852
is_linear=0
shrinkage=0.05


Tree=59
num_leaves=8
num_cat=0
split_feature=0 1 1 0 2 0 2
split_gain=106.067 71.7208 82.323 43.5198 129.649 8.76309 5.45069
threshold=110385.00000000001 139.85000000000002 139.63750000000002 33347.000000000007 36.025000000000013 1562.5000000000002 35.700000000000003
decision_type=2 2 2 2 2 2 2
left_child=3 2 -2 5 -5 -1 -3
right_child=1 6 -4 4 -6 -7 -8
leaf_value=-0.00019628878346694499 0.0072869816311374111 -0.051195812491433956 0.041351324464108774 0.0013150667412558318 0.023499393866911317 0.00046479368090523489 -0.020267570018768312
leaf_weight=335931 389 28 326 4813 763 58921 29
leaf_count=335931 389 28 326 4813 763 58921 29
internal_value=6.21655e-13 0.0185154 0.0228184 -3.56966e-05 0.00435069 -9.76401e-05 -0.0354604
internal_weight=401200 772 715 400428 5576 394852 57
internal_count=401200 772 715 400428 5576 394852 57
is_linear=0
shrinkage=0.05


Tree=60
num_leaves=8
num_cat=0
split_feature=0 2 2 1 0 2 1
split_gain=97.0065 52.8961 80.5413 79.2259 21.2252 93.0808 5.84753
threshold=69800.500000000015 35.733333333333341 35.983333333333341 139.63750000000002 19726.000000000004 34.358333333333341 135.28750000000005
decision_type=2 2 2 2 2 2 2
left_child=4 3 -3 -2 6 -6 -1
right_child=1 2 -4 -5 5 -7 -8
leaf_value=0.00016255053000965858 0.0086663385749840179 -0.013019138561454757 0.040903479507170527 0.033996195795122412 0.013600944124101129 1.7417334409785778e-05 -0.00024934473537458829
leaf_weight=128485 1388 418 83 397 1525 7290 261614
leaf_count=128485 1388 418 83 397 1525 7290 261614
internal_value=-1.04054e-13 0.0102705 -0.00408585 0.0142999 -5.88557e-05 0.00236738 -0.000113681
internal_weight=401200 2286 501 1785 398914 8815 390099
internal_count=401200 2286 501 1785 398914 8815 390099
is_linear=0
shrinkage=0.05


Tree=61
num_leaves=8
num_cat=0
split_feature=0 2 1 0 2 2 0
split_gain=88.7781 74.1195 119.352 36.1937 103.475 30.0709 8.52872
threshold=110385.00000000001 34.725000000000009 139.63750000000002 37952.000000000007 36.025000000000013 34.70000000000001 8398.5000000000018
decision_type=2 2 2 2 2 2 2
left_child=3 5 -3 6 -5 -2 -1
right_child=1 2 -4 4 -6 -7 -8
leaf_value=-0.00013457827211841786 0.039401162976245269 -0.016664396778625603 0.027485099810178035 0.0016312455822550635 0.024704472634983675 0.10020243871212005 0.00099300236799118396
leaf_weight=378160 109 255 383 4170 550 25 17548
leaf_count=378160 109 255 383 4170 550 25 17548
internal_value=-5.62926e-14 0.0169393 0.00983914 -3.2658e-05 0.00431986 0.0507447 -8.45748e-05
internal_weight=401200 772 638 400428 4720 134 395708
internal_count=401200 772 638 400428 4720 134 395708
is_linear=0
shrinkage=0.05


Tree=62
num_leaves=8
num_cat=0
split_feature=0 1 2 2 0 1 0
split_gain=80.8371 52.7054 77.5191 36.7991 17.489 92.33 4.25555
threshold=69800.500000000015 135.37500000000003 33.575000000000003 35.775000000000013 14229.500000000002 135.28750000000005 863.50000000000011
decision_type=2 2 2 2 2 2 2
left_child=4 2 -2 -3 6 -6 -1
right_child=1 3 -4 -5 5 -7 -8
leaf_value=-0.0001929506902736226 -0.0070906502459152244 0.0098333848216587208 0.053826664416056103 -0.0081279828850375976 0.008673564968304218 -0.00085093366785323637 0.00023470391097115404
leaf_weight=314790 81 1716 147 342 3509 9257 71358
leaf_count=314790 81 1716 147 342 3509 9257 71358
internal_value=-1.09551e-11 0.00937554 0.032185 0.00684855 -5.37271e-05 0.00176707 -0.000113923
internal_weight=401200 2286 228 2058 398914 12766 386148
internal_count=401200 2286 228 2058 398914 12766 386148
is_linear=0
shrinkage=0.05


Tree=63
num_leaves=8
num_cat=0
split_feature=0 1 1 0 2 1 2
split_gain=75.0496 67.6993 72.0373 29.7239 96.1677 7.30159 5.1772
threshold=110385.00000000001 139.85000000000002 139.68750000000003 37952.000000000007 36.025000000000013 135.28750000000005 35.700000000000003
decision_type=2 2 2 2 2 2 2
left_child=3 2 -2 5 -5 -1 -3
right_child=1 6 -4 4 -6 -7 -8
leaf_value=0.0002299997944208509 0.0096587104505121944 -0.052201758005789349 0.044702364615553505 0.0013223863956267129 0.023566042852503334 -0.00022729888094906545 -0.022059409577271035
leaf_weight=129991 509 28 206 4170 550 265717 29
leaf_count=129991 509 28 206 4170 550 265717 29
internal_value=-1.42821e-14 0.0155746 0.0197552 -3.00269e-05 0.00391434 -7.70752e-05 -0.0368662
internal_weight=401200 772 715 400428 4720 395708 57
internal_count=401200 772 715 400428 4720 395708 57
is_linear=0
shrinkage=0.05


Tree=64
num_leaves=8
num_cat=0
split_feature=0 1 1 0 1 0 2
split_gain=67.7322 67.7322 60.333 27.1318 108.34 6.10264 0.543458
threshold=110385.00000000001 135.37500000000003 139.63750000000002 29957.000000000004 134.57500000000002 987.50000000000011 34.666666666666679
decision_type=2 2 2 2 2 2 2
left_child=3 6 -3 5 -5 -1 -2
right_child=1 2 -4 4 -6 -7 -8
leaf_value=-0.00017574363962600932 0.068131195044574835 -0.0042388401478964683 0.024654912396745061 0.018159380664569572 0.00036792726245604804 0.00032737003494011298 0.07894567464079176
leaf_weight=319771 26 342 383 1018 5366 74273 21
leaf_count=319771 26 342 383 1018 5366 74273 21
internal_value=1.94695e-12 0.0147959 0.011025 -2.85255e-05 0.00320497 -8.09122e-05 0.0729632
internal_weight=401200 772 725 400428 6384 394044 47
internal_count=401200 772 725 400428 6384 394044 47
is_linear=0
shrinkage=0.05


Tree=65
num_leaves=8
num_cat=0
split_feature=0 2 2 2 0 1 0
split_gain=62.8315 92.7251 219.622 66.1965 10.4724 75.7727 2.99027
threshold=57515.000000000007 33.491666666666667 32.75833333333334 33.575000000000003 11313.000000000002 128.51250000000002 621.50000000000011
decision_type=2 2 2 2 2 2 2
left_child=4 2 -2 -3 6 -6 -1
right_child=1 3 -4 -5 5 -7 -8
leaf_value=-0.00017880045206788932 -0.003794356482103467 -0.048786108906973491 0.15730554426417631 0.0065693209284499246 -0.029413797811197875 0.0016445810438741688 0.00016349578488757219
leaf_weight=302062 56 55 34 2993 199 14911 80890
leaf_count=302062 56 55 34 2993 199 14911 80890
internal_value=3.95702e-13 0.00704737 0.0570656 0.00557045 -5.55558e-05 0.00123554 -0.000106498
internal_weight=401200 3138 90 3048 398062 15110 382952
internal_count=401200 3138 90 3048 398062 15110 382952
is_linear=0
shrinkage=0.05


Tree=66
num_leaves=8
num_cat=0
split_feature=0 1 1 2 0 2 1
split_gain=59.2501 40.6565 127.968 26.8577 15.6775 92.7842 4.54984
threshold=86114.500000000015 139.81250000000003 139.68750000000003 35.700000000000003 19726.000000000004 26.520833333333336 135.28750000000005
decision_type=2 2 2 2 2 2 2
left_child=4 2 -2 -3 6 -6 -1
right_child=1 3 -4 -5 5 -7 -8
leaf_value=0.00015734088762666966 0.0061114054011337671 -0.035276942462142968 0.048061561946795416 0.0024890196180957207 -0.038894726303372068 0.0025497439309289231 -0.00020598686627510993
leaf_weight=128485 1070 72 219 136 137 9467 261614
leaf_count=128485 1070 72 219 136 137 9467 261614
internal_value=-7.82675e-12 0.00992869 0.0132387 -0.0105838 -3.71857e-05 0.00195854 -8.63194e-05
internal_weight=401200 1497 1289 208 399703 9604 390099
internal_count=401200 1497 1289 208 399703 9604 390099
is_linear=0
shrinkage=0.05


Tree=67
num_leaves=8
num_cat=0
split_feature=0 2 1 1 0 1 1
split_gain=53.4733 40.4815 75.2347 24.6018 14.149 89.6486 4.10623
threshold=86114.500000000015 35.733333333333341 139.81250000000003 139.77500000000001 19726.000000000004 134.57500000000002 135.28750000000005
decision_type=2 2 2 2 2 2 2
left_child=4 2 -2 -3 6 -6 -1
right_child=1 3 -4 -5 5 -7 -8
leaf_value=0.00014947384026701212 0.017765969205578463 -0.018529689161536786 -0.023513105323886483 0.010934676615328626 0.011530952508817693 -0.00055256461143137901 -0.0001956875150568077
leaf_weight=128485 1076 182 123 116 1918 7686 261614
leaf_count=128485 1076 182 123 116 1918 7686 261614
internal_value=-4.78208e-12 0.00943226 0.0135313 -0.00706034 -3.53265e-05 0.00186062 -8.20034e-05
internal_weight=401200 1497 1199 298 399703 9604 390099
internal_count=401200 1497 1199 298 399703 9604 390099
is_linear=0
shrinkage=0.05


Tree=68
num_leaves=8
num_cat=0
split_feature=0 2 1 2 0 2 1
split_gain=49.7614 66.93 99.0477 26.3773 18.4268 89.876 5.43194
threshold=110385.00000000001 34.725000000000009 139.63750000000002 34.70000000000001 37952.000000000007 36.025000000000013 135.28750000000005
decision_type=2 2 2 2 2 2 2
left_child=4 3 -3 -2 6 -6 -1
right_child=1 2 -4 -5 5 -7 -8
leaf_value=0.00020336407557849015 0.034182028670650011 -0.018209111380810831 0.022010051808259198 0.091126832485198983 0.00057544379831209094 0.022079158094118943 -0.00019106485287512468
leaf_weight=129991 109 255 383 25 4170 550 265717
leaf_count=129991 109 255 383 25 4170 550 265717
internal_value=-9.95634e-12 0.012682 0.00593499 0.0448061 -2.44502e-05 0.00308117 -6.1494e-05
internal_weight=401200 772 638 134 400428 4720 395708
internal_count=401200 772 638 134 400428 4720 395708
is_linear=0
shrinkage=0.05


Tree=69
num_leaves=8
num_cat=0
split_feature=0 1 1 2 0 2 0
split_gain=44.974 48.4797 167.861 35.138 9.43537 78.4862 2.6529
threshold=69800.500000000015 132.70000000000002 132.37500000000003 35.775000000000013 11313.000000000002 34.358333333333341 595.50000000000011
decision_type=2 2 2 2 2 2 2
left_child=4 2 -2 -3 6 -6 -1
right_child=1 3 -4 -5 5 -7 -8
leaf_value=-0.00015869035797906985 0.010417849364641466 0.0079304320785935842 0.15590570271015169 -0.0095480604979552731 0.0082289237038970682 -0.00058576328211387772 0.00016138448690043632
leaf_weight=300433 114 1806 24 342 3145 12817 82519
leaf_count=300433 114 1806 24 342 3145 12817 82519
internal_value=-3.60427e-12 0.00699313 0.0357201 0.00514754 -4.00745e-05 0.001151 -8.97202e-05
internal_weight=401200 2286 138 2148 398914 15962 382952
internal_count=401200 2286 138 2148 398914 15962 382952
is_linear=0
shrinkage=0.05


Tree=70
num_leaves=8
num_cat=0
split_feature=0 2 1 1 0 1 0
split_gain=42.3984 60.1564 58.6341 21.4556 15.1346 95.4332 4.1866
threshold=110385.00000000001 35.775000000000013 139.85000000000002 139.68750000000003 29957.000000000004 136.77500000000001 987.50000000000011
decision_type=2 2 2 2 2 2 2
left_child=4 2 -2 -3 6 -6 -1
right_child=1 3 -4 -5 5 -7 -8
leaf_value=-0.00014024117967953006 0.019600883747047063 -0.074920209683477887 -0.033675335001732622 -0.010494717183922019 0.0099154271524327636 -0.0025752704284518414 0.00027647298079671619
leaf_weight=319771 664 24 56 28 2539 3845 74273
leaf_count=319771 664 24 56 28 2539 3845 74273
internal_value=2.77276e-12 0.0117063 0.0154572 -0.0402296 -2.25689e-05 0.00239244 -6.16951e-05
internal_weight=401200 772 720 52 400428 6384 394044
internal_count=401200 772 720 52 400428 6384 394044
is_linear=0
shrinkage=0.05


Tree=71
num_leaves=7
num_cat=0
split_feature=0 1 1 0 2 2
split_gain=38.2646 59.2063 48.2537 13.8953 92.3781 5.3064
threshold=110385.00000000001 135.28750000000005 139.63750000000002 42701.500000000007 35.983333333333341 34.32500000000001
decision_type=2 2 2 2 2 2
left_child=3 -2 -3 5 -5 -1
right_child=1 2 -4 4 -6 -7
leaf_value=0.00025420459737669456 0.074660609300647468 -0.0052041262682885102 0.020403417963388695 0.0003330272686635626 0.025459065327566921 -0.00016051645721740132
leaf_weight=104868 35 354 383 3538 408 291614
leaf_count=104868 35 354 383 3538 408 291614
internal_value=9.95537e-13 0.0111209 0.00810346 -2.14405e-05 0.00293096 -5.08243e-05
internal_weight=401200 772 737 400428 3946 396482
internal_count=401200 772 737 400428 3946 396482
is_linear=0
shrinkage=0.05


Tree=72
num_leaves=8
num_cat=0
split_feature=0 2 2 2 1 0 2
split_gain=34.7744 84.049 196.782 63.6122 6.5329 47.7816 22.9601
threshold=57515.000000000007 33.491666666666667 32.75833333333334 33.575000000000003 136.77500000000001 15093.500000000002 36.275000000000006
decision_type=2 2 2 2 2 2 2
left_child=4 2 -2 -3 5 -1 -6
right_child=1 3 -4 -5 6 -7 -8
leaf_value=5.4877217138634679e-05 -0.0047448955409760988 -0.049448236687616873 0.14774818459854408 0.0048159141008232778 -0.001184215109766404 0.0051358630044553285 3.8734635023010398e-05
leaf_weight=153359 56 55 34 2993 47970 4771 191962
leaf_count=153359 56 55 34 2993 47970 4771 191962
internal_value=-3.13506e-12 0.00524286 0.0528636 0.00383674 -4.13305e-05 0.000208178 -0.000205772
internal_weight=401200 3138 90 3048 398062 158130 239932
internal_count=401200 3138 90 3048 398062 158130 239932
is_linear=0
shrinkage=0.05


Tree=73
num_leaves=8
num_cat=0
split_feature=0 2 1 2 0 1 0
split_gain=33.2104 58.3389 87.1779 23.6955 10.9633 96.6255 3.38537
threshold=110385.00000000001 34.725000000000009 139.63750000000002 34.70000000000001 25039.500000000004 129.68750000000003 863.50000000000011
decision_type=2 2 2 2 2 2 2
left_child=4 3 -3 -2 6 -6 -1
right_child=1 2 -4 -5 5 -7 -8
leaf_value=-0.00013020703795078728 0.030282511213503852 -0.01858992491282669 0.019142452204313043 0.084254952430725102 -0.044721907377243048 0.0024666019579099308 0.00023838404472290763
leaf_weight=314790 109 255 383 25 110 7863 77665
leaf_count=314790 109 255 383 25 110 7863 77665
internal_value=1.53277e-12 0.0103605 0.00406133 0.040352 -1.99744e-05 0.00181556 -5.72646e-05
internal_weight=401200 772 638 134 400428 7973 392455
internal_count=401200 772 638 134 400428 7973 392455
is_linear=0
shrinkage=0.05


Tree=74
num_leaves=8
num_cat=0
split_feature=0 2 1 1 1 0 2
split_gain=29.9758 34.6643 67.6095 20.9461 8.0037 70.7844 25.5398
threshold=86114.500000000015 35.733333333333341 139.81250000000003 139.77500000000001 136.83750000000003 29957.000000000004 36.108333333333334
decision_type=2 2 2 2 2 2 2
left_child=4 2 -2 -3 5 -1 -6
right_child=1 3 -4 -5 6 -7 -8
leaf_value=0.00011897500409861658 0.01486953564618323 -0.018782524895537032 -0.024261801944273274 0.0084046857110385235 -0.0013122528908390343 0.0088738256581270738 3.2343658434239225e-05
leaf_weight=158022 1076 182 123 116 43065 2343 196273
leaf_count=158022 1076 182 123 116 43065 2343 196273
internal_value=1.17194e-12 0.00706209 0.0108552 -0.00819958 -2.64495e-05 0.000246887 -0.000209595
internal_weight=401200 1497 1199 298 399703 160365 239338
internal_count=401200 1497 1199 298 399703 160365 239338
is_linear=0
shrinkage=0.05


Tree=75
num_leaves=8
num_cat=0
split_feature=0 2 1 1 0 2 2
split_gain=28.0909 53.7758 52.0793 18.81 8.82387 77.9264 5.00748
threshold=110385.00000000001 35.775000000000013 139.85000000000002 139.68750000000003 48487.000000000007 33.491666666666667 34.358333333333341
decision_type=2 2 2 2 2 2 2
left_child=4 2 -2 -3 6 -6 -1
right_child=1 3 -4 -5 5 -7 -8
leaf_value=0.00025351424579799669 0.01698018132978265 -0.072057286743074656 -0.033229900364364899 -0.011734427671347346 0.038033118743348769 0.00087441226425591465 -0.00014694626981440407
leaf_weight=106745 664 24 56 28 148 3023 290512
leaf_count=106745 664 24 56 28 148 3023 290512
internal_value=1.01243e-12 0.00952853 0.013075 -0.0395757 -1.83704e-05 0.00260872 -3.93405e-05
internal_weight=401200 772 720 52 400428 3171 397257
internal_count=401200 772 720 52 400428 3171 397257
is_linear=0
shrinkage=0.05


Tree=76
num_leaves=8
num_cat=0
split_feature=0 1 1 0 1 0 2
split_gain=25.352 52.2639 49.371 8.33122 83.9053 2.19501 0.592723
threshold=110385.00000000001 135.37500000000003 139.63750000000002 12678.500000000002 128.51250000000002 532.50000000000011 34.666666666666679
decision_type=2 2 2 2 2 2 2
left_child=3 6 -3 5 -5 -1 -2
right_child=1 2 -4 4 -6 -7 -8
leaf_value=-0.00012898719987568971 0.05510130788271244 -0.008068057075578566 0.018069359911095068 -0.029626996733554425 0.0015381109149342886 0.00015488015068869243 0.066395324752444321
leaf_weight=296168 26 342 383 219 15607 88434 21
leaf_count=296168 26 342 383 219 15607 88434 21
internal_value=3.709e-13 0.00905211 0.00573971 -1.74519e-05 0.00110685 -6.37158e-05 0.0601476
internal_weight=401200 772 725 400428 15826 384602 47
internal_count=401200 772 725 400428 15826 384602 47
is_linear=0
shrinkage=0.05


Tree=77
num_leaves=8
num_cat=0
split_feature=0 2 2 2 1 0 2
split_gain=23.018 40.2276 84.0599 72.3146 6.08356 49.0354 21.1854
threshold=69800.500000000015 35.175000000000004 35.600000000000001 34.850000000000001 136.83750000000003 29957.000000000004 36.275000000000006
decision_type=2 2 2 2 2 2 2
left_child=4 3 -3 -2 5 -1 -6
right_child=1 2 -4 -5 6 -7 -8
leaf_value=0.00010926089544830065 0.0065342239696933591 -0.01873763607990216 0.0077254930714074164 0.043717717623085156 -0.0011340581210131102 0.007825677438527712 4.6016862701293183e-05
leaf_weight=158022 678 425 1021 162 47468 2086 191338
leaf_count=158022 678 425 1021 162 47468 2086 191338
internal_value=-2.13627e-12 0.00500293 -5.23976e-05 0.0137053 -2.86696e-05 0.000209796 -0.000188549
internal_weight=401200 2286 1446 840 398914 160108 238806
internal_count=401200 2286 1446 840 398914 160108 238806
is_linear=0
shrinkage=0.05


Tree=78
num_leaves=8
num_cat=0
split_feature=0 2 1 1 0 2 0
split_gain=21.9398 49.7536 48.5108 16.8794 6.73851 75.6685 1.4683
threshold=110385.00000000001 35.775000000000013 139.85000000000002 139.68750000000003 7061.0000000000009 34.425000000000004 532.50000000000011
decision_type=2 2 2 2 2 2 2
left_child=4 2 -2 -3 6 -6 -1
right_child=1 3 -4 -5 5 -7 -8
leaf_value=-0.00012061270954157459 0.015601191183843885 -0.069580805363754425 -0.032858147525361613 -0.012437448890081474 0.0059424477284557055 -0.00067123865472768776 0.00012209255549670343
leaf_weight=296168 664 24 56 28 5533 19806 78921
leaf_count=296168 664 24 56 28 5533 19806 78921
internal_value=-2.77703e-12 0.00842092 0.0118321 -0.0388113 -1.6235e-05 0.00077292 -6.95461e-05
internal_weight=401200 772 720 52 400428 25339 375089
internal_count=401200 772 720 52 400428 25339 375089
is_linear=0
shrinkage=0.05


Tree=79
num_leaves=8
num_cat=0
split_feature=0 2 1 2 0 2 2
split_gain=19.8007 47.801 81.9661 21.2298 6.3179 70.0912 4.02831
threshold=110385.00000000001 34.725000000000009 139.63750000000002 34.70000000000001 48487.000000000007 33.491666666666667 34.358333333333341
decision_type=2 2 2 2 2 2 2
left_child=4 3 -3 -2 6 -6 -1
right_child=1 2 -4 -5 5 -7 -8
leaf_value=0.00022949845538023373 0.02561666391311436 -0.019665792996392532 0.016921314468738617 0.076703863143920914 0.035803879992532976 0.00056272907639840408 -0.00012968075118404614
leaf_weight=106745 109 255 383 25 148 3023 290512
leaf_count=106745 109 255 383 25 148 3023 290512
internal_value=4.09024e-12 0.00799987 0.00229794 0.0351479 -1.54232e-05 0.00220754 -3.31675e-05
internal_weight=401200 772 638 134 400428 3171 397257
internal_count=401200 772 638 134 400428 3171 397257
is_linear=0
shrinkage=0.05


Tree=80
num_leaves=8
num_cat=0
split_feature=0 2 1 1 1 0 2
split_gain=18.2136 29.435 57.8451 18.2554 5.41975 52.8699 21.5905
threshold=86114.500000000015 35.733333333333341 139.81250000000003 139.77500000000001 136.83750000000003 29957.000000000004 36.108333333333334
decision_type=2 2 2 2 2 2 2
left_child=4 2 -2 -3 5 -1 -6
right_child=1 3 -4 -5 6 -7 -8
leaf_value=9.3763007060070956e-05 0.012713328498626842 -0.018438481838329808 -0.023482151256828773 0.006942529513918121 -0.0011851536865836623 0.007660073735791955 5.1121201935658456e-05
leaf_weight=158022 1076 182 123 116 43065 2343 196273
leaf_count=158022 1076 182 123 116 43065 2343 196273
internal_value=1.34805e-11 0.00550485 0.0090002 -0.00855863 -2.06172e-05 0.00020431 -0.000171326
internal_weight=401200 1497 1199 298 399703 160365 239338
internal_count=401200 1497 1199 298 399703 160365 239338
is_linear=0
shrinkage=0.05


Tree=81
num_leaves=8
num_cat=0
split_feature=0 1 1 0 2 0 2
split_gain=16.7651 44.0433 45.3868 5.43778 71.2886 1.10823 0.568808
threshold=110385.00000000001 135.37500000000003 139.63750000000002 5135.5000000000009 34.425000000000004 532.50000000000011 34.666666666666679
decision_type=2 2 2 2 2 2 2
left_child=3 6 -3 5 -5 -1 -2
right_child=1 2 -4 4 -6 -7 -8
leaf_value=-0.00011111063126077156 0.049322972446680075 -0.0089185023429798112 0.016142097047430418 0.0049432207245929697 -0.0006850637902679937 0.00010690126330102363 0.060386801901317781
leaf_weight=296168 26 342 383 7315 24368 72577 21
leaf_count=296168 26 342 383 7315 24368 72577 21
internal_value=4.93304e-13 0.00736116 0.00432041 -1.41919e-05 0.0006144 -6.82012e-05 0.0542664
internal_weight=401200 772 725 400428 31683 368745 47
internal_count=401200 772 725 400428 31683 368745 47
is_linear=0
shrinkage=0.05


Tree=82
num_leaves=8
num_cat=0
split_feature=0 1 1 1 1 0 2
split_gain=15.5066 34.6541 158.576 34.9569 4.01763 38.7068 17.1831
threshold=69800.500000000015 132.70000000000002 132.37500000000003 135.07500000000002 136.83750000000003 3860.5000000000005 36.275000000000006
decision_type=2 2 2 2 2 2 2
left_child=4 2 -2 -3 5 -1 -6
right_child=1 3 -4 -5 6 -7 -8
leaf_value=-9.4246092644768449e-05 0.0038015276561246107 -0.063248683996498592 0.14520823769271374 0.0031642733381503558 -0.0010049843314612829 0.0024552285466254583 5.7792245172485129e-05
leaf_weight=143497 114 20 24 2128 47468 16611 191338
leaf_count=143497 114 20 24 2128 47468 16611 191338
internal_value=-4.90071e-12 0.00410629 0.028394 0.0025459 -2.35313e-05 0.000170259 -0.000153458
internal_weight=401200 2286 138 2148 398914 160108 238806
internal_count=401200 2286 138 2148 398914 160108 238806
is_linear=0
shrinkage=0.05


Tree=83
num_leaves=8
num_cat=0
split_feature=0 2 1 1 1 0 0
split_gain=14.4493 44.4827 43.11 14.7667 4.60994 81.8263 9.87708
threshold=110385.00000000001 35.775000000000013 139.85000000000002 139.68750000000003 128.05000000000004 25039.500000000004 17092.000000000004
decision_type=2 2 2 2 2 2 2
left_child=4 2 -2 -3 5 -1 -6
right_child=1 3 -4 -5 6 -7 -8
leaf_value=-0.00060433897248571072 0.01361238268955824 -0.066605924752851334 -0.032069835199841433 -0.013158271967300348 -3.3269661507900699e-05 -0.044031623181971638 0.0014350774621531984
leaf_weight=7796 664 24 56 28 380714 110 11808
leaf_count=7796 664 24 56 28 380714 110 11808
internal_value=2.7612e-12 0.00683386 0.0100593 -0.0378264 -1.31752e-05 -0.00120856 1.09017e-05
internal_weight=401200 772 720 52 400428 7906 392522
internal_count=401200 772 720 52 400428 7906 392522
is_linear=0
shrinkage=0.05


Tree=84
num_leaves=8
num_cat=0
split_feature=0 2 1 2 1 0 2
split_gain=13.0405 40.6664 74.2169 19.0236 4.40211 48.4771 18.126
threshold=110385.00000000001 34.725000000000009 139.63750000000002 34.70000000000001 136.83750000000003 29957.000000000004 36.108333333333334
decision_type=2 2 2 2 2 2 2
left_child=4 3 -3 -2 5 -1 -6
right_child=1 2 -4 -5 6 -7 -8
leaf_value=7.8319495613774271e-05 0.022509954965442693 -0.019666775313078189 0.015147904783253882 0.070869826793670654 -0.0010719454550936868 0.0069434437298842274 5.6371928998430855e-05
leaf_weight=158022 109 255 383 25 43477 2614 196315
leaf_count=158022 109 255 383 25 43477 2614 196315
internal_value=-3.67836e-12 0.00649216 0.00123295 0.0315323 -1.25165e-05 0.000190034 -0.000148205
internal_weight=401200 772 638 134 400428 160636 239792
internal_count=401200 772 638 134 400428 160636 239792
is_linear=0
shrinkage=0.05


Tree=85
num_leaves=8
num_cat=0
split_feature=0 2 2 1 1 0 0
split_gain=11.838 25.5032 60.3156 16.1471 4.0313 74.1741 6.87256
threshold=86114.500000000015 35.733333333333341 35.600000000000001 139.77500000000001 128.05000000000004 25039.500000000004 13375.000000000002
decision_type=2 2 2 2 2 2 2
left_child=4 2 -2 -3 5 -1 -6
right_child=1 3 -4 -5 6 -7 -8
leaf_value=-0.00057803801400180797 -0.00051271699550209826 -0.017944418814974827 0.023020474151062054 0.0059260463213612301 -3.4584517447357219e-05 -0.043287854605508082 0.0010884412099442019
leaf_weight=7796 781 182 418 116 377671 103 14133
leaf_count=7796 781 182 418 116 377671 103 14133
internal_value=7.98515e-13 0.00443798 0.00769151 -0.00865256 -1.66215e-05 -0.00113496 5.92483e-06
internal_weight=401200 1497 1199 298 399703 7899 391804
internal_count=401200 1497 1199 298 399703 7899 391804
is_linear=0
shrinkage=0.05


Tree=86
num_leaves=8
num_cat=0
split_feature=0 1 1 2 2 0 2
split_gain=10.8312 32.2093 70.4998 23.7789 3.8533 63.0969 6.90237
threshold=69800.500000000015 139.48750000000001 139.63750000000002 34.850000000000001 34.358333333333341 29957.000000000004 36.06666666666667
decision_type=2 2 2 2 2 2 2
left_child=4 3 -3 -2 5 -1 -6
right_child=1 2 -4 -5 6 -7 -8
leaf_value=0.00013536200550975865 0.003990704751680646 -0.01782596768207844 0.007158823458490191 0.019338631341902807 -0.00048113627851042469 0.014737401645155563 4.714494183084779e-05
leaf_weight=106222 678 451 755 402 88905 745 203042
leaf_count=106222 678 451 755 402 88905 745 203042
internal_value=-6.17952e-12 0.00343186 -0.00218458 0.00970354 -1.96665e-05 0.000237062 -0.00011373
internal_weight=401200 2286 1206 1080 398914 106967 291947
internal_count=401200 2286 1206 1080 398914 106967 291947
is_linear=0
shrinkage=0.05


Tree=87
num_leaves=8
num_cat=0
split_feature=0 1 1 1 0 2 2
split_gain=10.418 41.7976 41.7409 4.00179 42.1413 16.0408 3.67164
threshold=110385.00000000001 139.85000000000002 139.68750000000003 136.83750000000003 42701.500000000007 36.275000000000006 35.700000000000003
decision_type=2 2 2 2 2 2 2
left_child=3 2 -2 4 -1 -5 -3
right_child=1 6 -4 5 -6 -7 -8
leaf_value=0.00010137371007778984 0.0014021675953228021 -0.048317121927227293 0.028077589850691916 -0.00095406828876288771 0.0083230388606395558 6.5015545373163364e-05 -0.022933171638127033
leaf_weight=159062 509 28 206 48372 1574 191420 29
leaf_count=159062 509 28 206 48372 1574 191420 29
internal_value=-4.75043e-12 0.00580278 0.00908767 -1.11874e-05 0.000181934 -0.000140559 -0.0354025
internal_weight=401200 772 715 400428 160636 239792 57
internal_count=401200 772 715 400428 160636 239792 57
is_linear=0
shrinkage=0.05


Tree=88
num_leaves=8
num_cat=0
split_feature=0 2 1 1 1 0 0
split_gain=9.40228 40.2116 37.7222 12.2762 3.97378 70.4866 6.64102
threshold=110385.00000000001 35.775000000000013 139.85000000000002 139.68750000000003 128.05000000000004 17092.000000000004 9714.5000000000018
decision_type=2 2 2 2 2 2 2
left_child=4 2 -2 -3 5 -1 -6
right_child=1 3 -4 -5 6 -7 -8
leaf_value=-0.0004227226996136868 0.011902974788323945 -0.063190108227233088 -0.030829343412603651 -0.014457518155021326 -3.542443376573283e-05 -0.033064361727802007 0.00090879235096358682
leaf_weight=7737 664 24 56 28 372921 169 19601
leaf_count=7737 664 24 56 28 372921 169 19601
internal_value=-3.22722e-13 0.00551264 0.00857935 -0.0369495 -1.0628e-05 -0.00112048 1.1726e-05
internal_weight=401200 772 720 52 400428 7906 392522
internal_count=401200 772 720 52 400428 7906 392522
is_linear=0
shrinkage=0.05


Tree=89
num_leaves=8
num_cat=0
split_feature=0 1 1 1 0 2 2
split_gain=8.48556 38.1056 37.3432 3.66799 38.8889 14.7236 0.546017
threshold=110385.00000000001 135.37500000000003 139.63750000000002 136.83750000000003 15093.500000000002 36.108333333333334 34.666666666666679
decision_type=2 2 2 2 2 2 2
left_child=3 6 -3 4 -1 -5 -2
right_child=1 2 -4 5 -6 -7 -8
leaf_value=2.441365312956169e-05 0.044022699674734704 -0.0095999698650244391 0.013131737623451274 -0.00096649809020511214 0.0041994409677593471 5.0424305200960916e-05 0.054862609079905922
leaf_weight=154850 26 342 383 43477 5786 196315 21
leaf_count=154850 26 342 383 43477 5786 196315 21
internal_value=1.0778e-12 0.00523701 0.00240864 -1.00966e-05 0.000174795 -0.000133955 0.0488661
internal_weight=401200 772 725 400428 160636 239792 47
internal_count=401200 772 725 400428 160636 239792 47
is_linear=0
shrinkage=0.05


Tree=90
num_leaves=8
num_cat=0
split_feature=0 2 1 2 1 0 2
split_gain=7.65822 36.9254 60.0007 17.0388 3.63163 65.3177 5.59886
threshold=110385.00000000001 34.725000000000009 139.63750000000002 34.70000000000001 128.05000000000004 25039.500000000004 34.425000000000004
decision_type=2 2 2 2 2 2 2
left_child=4 3 -3 -2 5 -1 -6
right_child=1 2 -4 -5 6 -7 -8
leaf_value=-0.00053074089313590619 0.020297051706445329 -0.018828063145572064 0.012475150504560446 0.066064698457717896 0.00032945831229484529 -0.039330738119103696 -0.00010047152346267469
leaf_weight=7796 109 255 383 25 102483 110 290039
leaf_count=7796 109 255 383 25 102483 110 290039
internal_value=3.65878e-12 0.00497516 -3.6322e-05 0.0288358 -9.59179e-06 -0.00107058 1.17782e-05
internal_weight=401200 772 638 134 400428 7906 392522
internal_count=401200 772 638 134 400428 7906 392522
is_linear=0
shrinkage=0.05


Tree=91
num_leaves=8
num_cat=0
split_feature=0 1 2 2 2 0 0
split_gain=7.15563 30.9393 133.228 33.3646 2.97787 56.0548 6.7198
threshold=69800.500000000015 132.77500000000001 34.358333333333341 35.983333333333341 34.358333333333341 29957.000000000004 29957.000000000004
decision_type=2 2 2 2 2 2 2
left_child=4 2 -2 -3 5 -1 -6
right_child=1 3 -4 -5 6 -7 -8
leaf_value=0.00011384744355180589 0.0025568305809273682 3.4527971208077465e-05 0.12768516196654395 0.032367927374609987 -6.9958125934689106e-05 0.01387693157607077 -0.0021024384951726957
leaf_weight=106222 117 2060 26 83 287822 745 4125
leaf_count=106222 117 2060 26 83 287822 745 4125
internal_value=-8.98178e-13 0.00278943 0.0253074 0.00128682 -1.5985e-05 0.000209704 -9.86756e-05
internal_weight=401200 2286 143 2143 398914 106967 291947
internal_count=401200 2286 143 2143 398914 106967 291947
is_linear=0
shrinkage=0.05


Tree=92
num_leaves=8
num_cat=0
split_feature=0 2 1 1 1 0 0
split_gain=6.89456 37.3965 35.6859 10.9182 3.35644 60.5457 5.24476
threshold=110385.00000000001 35.775000000000013 139.81250000000003 139.68750000000003 128.05000000000004 17092.000000000004 6460.0000000000009
decision_type=2 2 2 2 2 2 2
left_child=4 2 -2 -3 5 -1 -6
right_child=1 3 -4 -5 6 -7 -8
leaf_value=-0.00038242126658596883 0.011831702421643312 -0.06097495431701342 -0.02215310548516837 -0.015016712780509676 -3.7837903105195862e-05 -0.030634871389738905 0.00068927089564871987
leaf_weight=7737 632 24 88 28 365918 169 26604
leaf_count=7737 632 24 88 28 365918 169 26604
internal_value=5.63627e-12 0.00472059 0.007678 -0.0362282 -9.101e-06 -0.0010291 1.14434e-05
internal_weight=401200 772 720 52 400428 7906 392522
internal_count=401200 772 720 52 400428 7906 392522
is_linear=0
shrinkage=0.05


Tree=93
num_leaves=8
num_cat=0
split_feature=0 1 1 1 1 0 2
split_gain=6.24203 23.8011 82.9633 22.4173 2.89858 55.3374 4.56844
threshold=86114.500000000015 139.81250000000003 139.68750000000003 140.00000000000003 128.05000000000004 25039.500000000004 34.391666666666673
decision_type=2 2 2 2 2 2 2
left_child=4 2 -2 -3 5 -1 -6
right_child=1 3 -4 -5 6 -7 -8
leaf_value=-0.00047932765797521727 1.6465302661200551e-05 -0.025186751416096321 0.033793811864096281 0.0087190881562538639 0.00029709610247530738 -0.037369510994374175 -9.3452441189724401e-05
leaf_weight=7796 1070 130 219 78 100824 103 290980
leaf_count=7796 1070 130 219 78 100824 103 290980
internal_value=4.75765e-12 0.00322263 0.00575521 -0.0124721 -1.20696e-05 -0.000960362 7.04849e-06
internal_weight=401200 1497 1289 208 399703 7899 391804
internal_count=401200 1497 1289 208 399703 7899 391804
is_linear=0
shrinkage=0.05


Tree=94
num_leaves=8
num_cat=0
split_feature=0 2 2 2 2 0 0
split_gain=5.73122 74.7378 158.902 66.7192 2.17394 47.4612 6.49922
threshold=57515.000000000007 33.491666666666667 32.75833333333334 33.575000000000003 34.358333333333341 3860.5000000000005 29957.000000000004
decision_type=2 2 2 2 2 2 2
left_child=4 2 -2 -3 5 -1 -6
right_child=1 3 -4 -5 6 -7 -8
leaf_value=-0.00013255351847674555 -0.0047336547236357419 -0.05376827401193706 0.13229832038940753 0.0018052963010896457 -6.1989472588129633e-05 0.0037732941886055014 -0.0022692767241014647
leaf_weight=98421 56 55 34 2993 287822 8445 3374
leaf_count=98421 56 55 34 2993 287822 8445 3374
internal_value=2.29715e-12 0.00212844 0.047034 0.000802492 -1.67789e-05 0.000176103 -8.75646e-05
internal_weight=401200 3138 90 3048 398062 106866 291196
internal_count=401200 3138 90 3048 398062 106866 291196
is_linear=0
shrinkage=0.05


Tree=95
num_leaves=8
num_cat=0
split_feature=0 2 2 1 1 0 2
split_gain=5.53672 23.0861 57.5379 13.5443 2.629 50.1947 3.8098
threshold=86114.500000000015 35.733333333333341 35.63333333333334 139.77500000000001 128.05000000000004 25039.500000000004 34.425000000000004
decision_type=2 2 2 2 2 2 2
left_child=4 2 -2 -3 5 -1 -6
right_child=1 3 -4 -5 6 -7 -8
leaf_value=-0.00045634889120442469 -0.0010014454862921369 -0.01792972889820953 0.022951904627956266 0.0039323342129074295 0.00026887892906611019 -0.03559058946602553 -8.5930000189376739e-05
leaf_weight=7796 842 182 357 116 102443 103 289361
leaf_count=7796 842 182 357 116 102443 103 289361
internal_value=-9.05692e-13 0.00303511 0.00613062 -0.00941966 -1.13673e-05 -0.000914486 6.84009e-06
internal_weight=401200 1497 1199 298 399703 7899 391804
internal_count=401200 1497 1199 298 399703 7899 391804
is_linear=0
shrinkage=0.05


Tree=96
num_leaves=8
num_cat=0
split_feature=0 1 1 1 1 0 0
split_gain=4.99689 23.3711 73.8721 20.5777 2.37267 46.6422 3.81487
threshold=86114.500000000015 139.81250000000003 139.68750000000003 140.00000000000003 128.05000000000004 13375.000000000002 1848.5000000000002
decision_type=2 2 2 2 2 2 2
left_child=4 2 -2 -3 5 -1 -6
right_child=1 3 -4 -5 6 -7 -8
leaf_value=-0.00024317998865551525 -2.2247077844967352e-05 -0.024850718562419601 0.031850743297164301 0.0076341124872366592 -5.8234046393463356e-05 -0.024466080386556833 0.00038253525196767473
leaf_weight=7695 1070 130 219 78 334263 204 57541
leaf_count=7695 1070 130 219 78 334263 204 57541
internal_value=-1.88941e-12 0.00288335 0.00539295 -0.0126689 -1.0799e-05 -0.000868762 6.49808e-06
internal_weight=401200 1497 1289 208 399703 7899 391804
internal_count=401200 1497 1289 208 399703 7899 391804
is_linear=0
shrinkage=0.05


Tree=97
num_leaves=8
num_cat=0
split_feature=0 2 2 2 2 0 0
split_gain=4.54431 70.3746 140.518 59.8165 1.81603 42.4137 5.51359
threshold=57515.000000000007 33.491666666666667 32.75833333333334 33.575000000000003 34.291666666666671 3860.5000000000005 5745.5000000000009
decision_type=2 2 2 2 2 2 2
left_child=4 2 -2 -3 5 -1 -6
right_child=1 3 -4 -5 6 -7 -8
leaf_value=-0.00012802187819011877 -0.0032107066296573196 -0.051062177907336838 0.12565083527827967 0.00155812360059577 -1.8045688669043826e-05 0.0036627654695950782 -0.00085599907267802113
leaf_weight=95313 56 55 34 2993 273603 7998 21148
leaf_count=95313 56 55 34 2993 273603 7998 21148
internal_value=-2.53276e-12 0.00189528 0.0454703 0.00060861 -1.49408e-05 0.000165448 -7.81678e-05
internal_weight=401200 3138 90 3048 398062 103311 294751
internal_count=401200 3138 90 3048 398062 103311 294751
is_linear=0
shrinkage=0.05


Tree=98
num_leaves=8
num_cat=0
split_feature=0 1 2 2 1 0 1
split_gain=4.45063 23.6954 76.9731 25.5284 2.18611 42.4583 9.98161
threshold=86114.500000000015 135.28750000000005 33.575000000000003 35.600000000000001 135.28750000000005 15093.500000000002 135.76250000000002
decision_type=2 2 2 2 2 2 2
left_child=4 2 -2 -3 5 -1 -6
right_child=1 3 -4 -5 6 -7 -8
leaf_value=1.1896123688684521e-05 -0.022584911104705601 -0.0059089526950436488 0.065236402223152787 0.0076184161080245201 -0.00186815223188039 0.0057318309883050414 -3.9514031125221847e-05
leaf_weight=127505 45 680 56 716 7682 3329 261187
leaf_count=127505 45 680 56 716 7682 3329 261187
internal_value=-1.13737e-12 0.00272119 0.0261081 0.00102915 -1.01916e-05 0.000157437 -9.1761e-05
internal_weight=401200 1497 101 1396 399703 130834 268869
internal_count=401200 1497 101 1396 399703 130834 268869
is_linear=0
shrinkage=0.05


Tree=99
num_leaves=8
num_cat=0
split_feature=0 2 2 1 1 0 2
split_gain=4.0167 22.7103 49.6497 12.7244 2.19406 43.5523 3.08262
threshold=86114.500000000015 35.733333333333341 35.63333333333334 139.77500000000001 128.05000000000004 13375.000000000002 34.425000000000004
decision_type=2 2 2 2 2 2 2
left_child=4 2 -2 -3 5 -1 -6
right_child=1 3 -4 -5 6 -7 -8
leaf_value=-0.00023021490377107126 -0.00096981859635428985 -0.018016335728404286 0.021281084376556868 0.0031736909187045589 0.00024265945040554055 -0.023637025281056472 -7.6496975174936957e-05
leaf_weight=7695 842 182 357 116 102443 204 289361
leaf_count=7695 842 182 357 116 102443 204 289361
internal_value=-2.71499e-12 0.00258513 0.00565535 -0.00976787 -9.68203e-06 -0.00083472 6.95123e-06
internal_weight=401200 1497 1199 298 399703 7899 391804
internal_count=401200 1497 1199 298 399703 7899 391804
is_linear=0
shrinkage=0.05


Tree=100
num_leaves=8
num_cat=0
split_feature=0 1 1 2 1 0 0
split_gain=3.62507 23.5676 64.9213 19.7703 1.98014 40.123 3.02656
threshold=86114.500000000015 139.81250000000003 139.68750000000003 35.700000000000003 128.05000000000004 25039.500000000004 1562.5000000000002
decision_type=2 2 2 2 2 2 2
left_child=4 2 -2 -3 5 -1 -6
right_child=1 3 -4 -5 6 -7 -8
leaf_value=-0.00038338144222581919 -0.00010054049230067531 -0.034347566589713101 0.029779145077347215 -0.0019455248380408569 -5.4321531085929436e-05 -0.031795555550731651 0.00032357733925459574
leaf_weight=7796 1070 72 219 136 328637 103 63167
leaf_count=7796 1070 72 219 136 328637 103 63167
internal_value=-2.23172e-12 0.00245587 0.00497599 -0.0131616 -9.19793e-06 -0.000792984 6.60367e-06
internal_weight=401200 1497 1289 208 399703 7899 391804
internal_count=401200 1497 1289 208 399703 7899 391804
is_linear=0
shrinkage=0.05


Tree=101
num_leaves=8
num_cat=0
split_feature=0 1 1 2 1 0 1
split_gain=3.32079 34.5102 51.5859 24.1573 1.71204 35.5564 8.42089
threshold=69800.500000000015 139.48750000000001 139.63750000000002 34.850000000000001 135.28750000000005 15093.500000000002 135.76250000000002
decision_type=2 2 2 2 2 2 2
left_child=4 3 -3 -2 5 -1 -6
right_child=1 2 -4 -5 6 -7 -8
leaf_value=6.0181590380927697e-06 0.0026339754511692883 -0.017293053243036677 0.004079063635539967 0.018103530501167232 -0.0017314072387125954 0.0053100379643077717 -3.5585464915852743e-05
leaf_weight=127505 678 451 755 402 7532 3240 260637
leaf_count=127505 678 451 755 402 7532 3240 260637
internal_value=2.19551e-12 0.00190025 -0.00391333 0.00839209 -1.08895e-05 0.000137457 -8.32156e-05
internal_weight=401200 2286 1206 1080 398914 130745 268169
internal_count=401200 2286 1206 1080 398914 130745 268169
is_linear=0
shrinkage=0.05


Tree=102
num_leaves=8
num_cat=0
split_feature=0 2 2 2 1 0 0
split_gain=3.15439 22.9843 88.8326 87.398 1.90127 31.4547 14.7635
threshold=86114.500000000015 35.175000000000004 34.850000000000001 35.600000000000001 136.83750000000003 42701.500000000007 29957.000000000004
decision_type=2 2 2 2 2 2 2
left_child=4 2 -2 -3 5 -1 -6
right_child=1 3 -4 -5 6 -7 -8
leaf_value=6.1262387466209844e-05 0.002911001731429184 -0.027132340127954614 0.064974606737042917 0.0067611773909386982 -5.1296425424531667e-05 0.0078615753054447294 -0.0034108966247170754
leaf_weight=159062 456 259 66 716 236022 1303 3316
leaf_count=159062 456 259 66 716 236022 1303 3316
internal_value=3.04044e-13 0.00229089 0.0107581 -0.00224233 -8.58004e-06 0.000124642 -9.78433e-05
internal_weight=401200 1497 522 975 399703 160365 239338
internal_count=401200 1497 522 975 399703 160365 239338
is_linear=0
shrinkage=0.05


Tree=103
num_leaves=8
num_cat=0
split_feature=0 2 1 2 1 0 0
split_gain=2.99385 35.8073 47.7909 15.0177 1.93755 38.5569 2.80411
threshold=110385.00000000001 34.725000000000009 139.63750000000002 34.63333333333334 128.05000000000004 16022.000000000002 8017.5000000000009
decision_type=2 2 2 2 2 2 2
left_child=4 3 -3 -2 5 -1 -6
right_child=1 2 -4 -5 6 -7 -8
leaf_value=-0.00025256727562980748 0.0052536098396076883 -0.018595433301639323 0.0093418190883127264 0.039728251530463443 -2.3547747533878463e-05 -0.023854694658585189 0.00054820374524220414
leaf_weight=7729 51 255 383 83 369757 177 22765
leaf_count=7729 51 255 383 83 369757 177 22765
internal_value=1.35941e-12 0.0031107 -0.00182432 0.0266073 -5.99723e-06 -0.000780973 9.61198e-06
internal_weight=401200 772 638 134 400428 7906 392522
internal_count=401200 772 638 134 400428 7906 392522
is_linear=0
shrinkage=0.05


Tree=104
num_leaves=8
num_cat=0
split_feature=0 2 1 1 1 0 2
split_gain=2.70195 34.6286 30.5713 7.80596 1.87933 29.3839 13.7649
threshold=110385.00000000001 35.775000000000013 139.85000000000002 139.68750000000003 136.83750000000003 42701.500000000007 36.275000000000006
decision_type=2 2 2 2 2 2 2
left_child=4 2 -2 -3 5 -1 -6
right_child=1 3 -4 -5 6 -7 -8
leaf_value=5.9376954829013661e-05 0.008793092788062451 -0.057373600391050189 -0.029676297014313086 -0.018513835647276471 -0.00084794673521589438 0.0069246888745296865 9.6078851501833098e-05
leaf_weight=159062 664 24 56 28 48372 1574 191420
leaf_count=159062 664 24 56 28 48372 1574 191420
internal_value=-2.67422e-12 0.00295516 0.00580103 -0.0364491 -5.69737e-06 0.000126647 -9.43545e-05
internal_weight=401200 772 720 52 400428 160636 239792
internal_count=401200 772 720 52 400428 160636 239792
is_linear=0
shrinkage=0.05


Tree=105
num_leaves=8
num_cat=0
split_feature=0 1 2 1 0 2 2
split_gain=2.43851 33.3755 27.1157 1.82648 28.1255 5.51006 0.330469
threshold=110385.00000000001 135.37500000000003 35.775000000000013 130.56250000000003 33347.000000000007 34.425000000000004 34.666666666666679
decision_type=2 2 2 2 2 2 2
left_child=3 6 -3 4 -1 -5 -2
right_child=1 2 -4 5 -6 -7 -8
leaf_value=-0.00020701255686403927 0.039870929775329744 0.002848253681159746 -0.034626657601732475 0.00042038205766080648 -0.014910596213303507 -6.789390135784628e-05 0.048304045200347902
leaf_weight=38549 26 673 52 72194 328 289357 21
leaf_count=38549 26 673 52 72194 328 289357 21
internal_value=4.23366e-12 0.00280741 0.000160398 -5.4125e-06 -0.000331065 2.96044e-05 0.0436389
internal_weight=401200 772 725 400428 38877 361551 47
internal_count=401200 772 725 400428 38877 361551 47
is_linear=0
shrinkage=0.05


Tree=106
num_leaves=8
num_cat=0
split_feature=0 1 1 1 0 0 2
split_gain=2.20076 30.1214 25.9707 1.69491 34.5179 2.63879 0.298248
threshold=110385.00000000001 135.37500000000003 139.63750000000002 128.05000000000004 13375.000000000002 987.50000000000011 34.666666666666679
decision_type=2 2 2 2 2 2 2
left_child=3 6 -3 4 -1 -5 -2
right_child=1 2 -4 5 -6 -7 -8
leaf_value=-0.00018288896481135573 0.037877383197729403 -0.0098621242472694982 0.0090948341117670899 -5.6076204929373855e-05 -0.020681526804987291 0.00026591611844605932 0.04588884257134937
leaf_weight=7695 26 342 383 312634 211 79888 21
leaf_count=7695 26 342 383 312634 211 79888 21
internal_value=-3.71926e-12 0.00266704 0.000152379 -5.14188e-06 -0.000729969 9.45725e-06 0.041457
internal_weight=401200 772 725 400428 7906 392522 47
internal_count=401200 772 725 400428 7906 392522 47
is_linear=0
shrinkage=0.05


Tree=107
num_leaves=8
num_cat=0
split_feature=0 2 2 2 1 0 2
split_gain=2.03457 67.8464 120.199 53.6247 1.26858 24.467 4.14016
threshold=57515.000000000007 33.491666666666667 32.75833333333334 33.575000000000003 130.56250000000003 33347.000000000007 34.291666666666671
decision_type=2 2 2 2 2 2 2
left_child=4 2 -2 -3 5 -1 -6
right_child=1 3 -4 -5 6 -7 -8
leaf_value=-0.00019107693537086424 -0.00097070302747722195 -0.048918609564954585 0.11821050442316955 0.00090384721198448134 0.00037819761845418352 -0.017681134723483663 -6.0950925966017015e-05
leaf_weight=38549 56 55 34 2993 65674 201 293638
leaf_count=38549 56 55 34 2993 65674 201 293638
internal_value=-3.75183e-12 0.00126816 0.0440533 4.81994e-06 -9.99716e-06 -0.0002818 1.93154e-05
internal_weight=401200 3138 90 3048 398062 38750 359312
internal_count=401200 3138 90 3048 398062 38750 359312
is_linear=0
shrinkage=0.05


Tree=108
num_leaves=8
num_cat=0
split_feature=0 1 1 1 2 0 1
split_gain=2.05446 21.8316 55.2502 19.085 1.68436 88.0627 26.3531
threshold=86114.500000000015 139.81250000000003 139.68750000000003 140.00000000000003 36.275000000000006 33347.000000000007 139.27500000000001
decision_type=2 2 2 2 2 2 2
left_child=4 2 -2 -3 6 -6 -1
right_child=1 3 -4 -5 5 -7 -8
leaf_value=6.0190625782994561e-05 -0.00040881904520999606 -0.024914135715136163 0.027155627191202826 0.0063702950874964404 3.6564917404242625e-05 0.018400938830530369 -0.0020307138303535498
leaf_weight=188378 1070 130 219 78 194290 655 16380
leaf_count=188378 1070 130 219 78 194290 655 16380
internal_value=3.11411e-12 0.00184883 0.00427436 -0.0131825 -6.92437e-06 9.82678e-05 -0.000107075
internal_weight=401200 1497 1289 208 399703 194945 204758
internal_count=401200 1497 1289 208 399703 194945 204758
is_linear=0
shrinkage=0.05


Tree=109
num_leaves=8
num_cat=0
split_feature=0 2 2 1 2 0 1
split_gain=1.85415 21.2124 139.3 66.9013 1.52014 81.7379 23.7837
threshold=86114.500000000015 35.483333333333341 35.600000000000001 139.58750000000001 36.275000000000006 19726.000000000004 139.27500000000001
decision_type=2 2 2 2 2 2 2
left_child=4 3 -3 -2 6 -6 -1
right_child=1 2 -4 -5 5 -7 -8
leaf_value=5.7181098001804107e-05 0.0046327988196113341 -0.04559680703359674 0.0061394324325878364 0.073100268438850577 -5.1774685576075142e-06 0.010731711272564663 -0.001929178154626285
leaf_weight=188378 584 159 716 38 193156 1789 16380
leaf_count=188378 584 159 716 38 193156 1789 16380
internal_value=2.67007e-12 0.00175638 -0.00326178 0.0088157 -6.57815e-06 9.33544e-05 -0.000101721
internal_weight=401200 1497 875 622 399703 194945 204758
internal_count=401200 1497 875 622 399703 194945 204758
is_linear=0
shrinkage=0.05


Tree=110
num_leaves=8
num_cat=0
split_feature=0 2 1 1 1 0 0
split_gain=1.67337 21.9394 44.3798 11.1791 1.42438 30.4969 2.16976
threshold=86114.500000000015 35.733333333333341 139.81250000000003 139.77500000000001 128.05000000000004 25039.500000000004 987.50000000000011
decision_type=2 2 2 2 2 2 2
left_child=4 2 -2 -3 5 -1 -6
right_child=1 3 -4 -5 6 -7 -8
leaf_value=-0.00031390150799846068 0.0079385914673620224 -0.018204352038574744 -0.023765382885448334 0.0016573323547069371 -5.2058600288094333e-05 -0.027699959133435221 0.00024097159009717277
leaf_weight=7796 1076 182 123 116 312634 103 79170
leaf_count=7796 1076 182 123 116 312634 103 79170
internal_value=3.0023e-12 0.00166856 0.00468622 -0.010473 -6.24924e-06 -0.000671005 7.15264e-06
internal_weight=401200 1497 1199 298 399703 7899 391804
internal_count=401200 1497 1199 298 399703 7899 391804
is_linear=0
shrinkage=0.05


Tree=111
num_leaves=8
num_cat=0
split_feature=1 0 2 0 0 2 0
split_gain=1.60566 35.3005 161.755 14.7948 14.4118 148.161 1.60753
threshold=136.83750000000003 42701.500000000007 35.283333333333339 1944.5000000000002 10793.000000000002 36.275000000000006 2331.5000000000005
decision_type=2 2 2 2 2 2 2
left_child=1 3 -3 -1 6 -6 -2
right_child=4 2 -4 -5 5 -7 -8
leaf_value=-0.0001593607355522852 4.1200272742570836e-05 0.0039602083746780852 0.078971323038140931 0.0011895874996904125 -0.0061990913360565857 0.0060072991477723601 -0.00044859080902226814
leaf_weight=135137 211293 1722 75 23925 6997 3856 18195
leaf_count=135137 211293 1722 75 23925 6997 3856 18195
internal_value=3.80554e-13 0.000122267 0.00709089 4.35387e-05 -8.18324e-05 -0.00186224 2.36709e-06
internal_weight=401200 160859 1797 159062 240341 10853 229488
internal_count=401200 160859 1797 159062 240341 10853 229488
is_linear=0
shrinkage=0.05


Tree=112
num_leaves=8
num_cat=0
split_feature=0 1 2 2 2 0 0
split_gain=1.84028 30.3204 113.85 29.601 1.29504 49.1345 7.87927
threshold=69800.500000000015 132.77500000000001 34.358333333333341 34.63333333333334 34.358333333333341 29957.000000000004 29957.000000000004
decision_type=2 2 2 2 2 2 2
left_child=4 2 -2 -3 5 -1 -6
right_child=1 3 -4 -5 6 -7 -8
leaf_value=5.0981733285324116e-05 0.0026751247210762444 -0.024864285373896886 0.11834627940104558 0.0013200152280729884 -3.1541183768510766e-05 0.012936527223682543 -0.0022323937328927448
leaf_weight=106222 117 114 26 2029 287822 745 4125
leaf_count=106222 117 114 26 2029 287822 745 4125
internal_value=-2.65752e-12 0.0014146 0.0237062 -7.28967e-05 -8.10645e-06 0.000140727 -6.26376e-05
