tree
version=v4
num_class=1
num_tree_per_iteration=1
label_index=0
max_feature_idx=2
objective=regression
feature_names=population centroid_X centroid_Y
feature_infos=[0:213252] [122.88124999999999:153.99375000000001] [24.004166666666663:45.579166666666666]
tree_sizes=847 863 863 869 867 865 870 865 872 867 872 875 867 870 880 868 873 869 871 878 867 865 873 873 872 866 872 867 873 880 870 877 872 873 870 877 874 873 880 868 877 870 878 886 882 871 872 874 885 874 876 871 887 870 886 879 865 787 781 881 879 882 874 893 880 886 878 896 785 884 783 876 784 884 781 885 871 882 866 886 873 869 868 887 876 870 890 873 878 897 877 874 888 894 879 875 880 873 886 879 868 888 892 861 876 882 877 871 872 874 876 891 874 878 913 877 878 873 879 884 892 873 880 887 877 881 794 873 914 877 915 891 878 927 876 903 887 878 881 876 922 794 908 880 885 885 876 890 924 907 877 795 881 892 884 927 797 908 882 881 797 881 891 877 886 879 801 894 880 885 900 881 892 885 887 880 888 922 884 895 918 884 800 913 901 884 892 799 880 926 890 906 889 806 882 883 927 892 881 894

Tree=0
num_leaves=8
num_cat=0
split_feature=0 0 0 1 2 0 0
split_gain=69921 15782 7533.01 5502.24 3445.55 971.771 793.696
threshold=27349.500000000004 86114.500000000015 9714.5000000000018 136.83750000000003 34.70000000000001 3008.5000000000005 16022.000000000002
decision_type=2 2 2 2 2 2 2
left_child=2 4 5 -3 -2 -1 -4
right_child=1 3 6 -5 -6 -7 -8
leaf_value=0.098119847193203158 0.2768780280429961 0.53278181832376847 0.12683053718713935 0.32891961819628779 0.19399549956096288 0.10839166762156044 0.15200638318865958
leaf_weight=355947 1706 494 7101 1003 4732 24618 5599
leaf_count=355947 1706 494 7101 1003 4732 24618 5599
internal_value=0.103013 0.249961 0.100048 0.396193 0.215958 0.0987843 0.13793
internal_weight=401200 7935 393265 1497 6438 380565 12700
internal_count=401200 7935 393265 1497 6438 380565 12700
is_linear=0
shrinkage=1


Tree=1
num_leaves=8
num_cat=0
split_feature=0 0 0 2 1 0 0
split_gain=63386.9 11379.6 10321.6 4670.87 4492.97 1514.71 1065.64
threshold=37952.000000000007 12678.500000000002 110385.00000000001 34.75833333333334 136.77500000000001 4576.5000000000009 25039.500000000004
decision_type=2 2 2 2 2 2 2
left_child=1 5 4 -4 -2 -1 -3
right_child=2 6 3 -5 -6 -7 -8
leaf_value=-0.004483937498314469 0.20141469209297902 0.037587117751559596 0.55962465228615232 0.2698795856661716 0.10160180907031723 0.010248745164289324 0.071619709408671683
leaf_weight=366283 1862 7853 182 590 2858 18319 3253
leaf_count=366283 1862 7853 182 590 2858 18319 3253
internal_value=9.06809e-12 -0.00234135 0.168699 0.338187 0.140977 -0.0037822 0.0475554
internal_weight=401200 395708 5492 772 4720 384602 11106
internal_count=401200 395708 5492 772 4720 384602 11106
is_linear=0
shrinkage=0.05


Tree=2
num_leaves=8
num_cat=0
split_feature=0 0 0 2 1 0 0
split_gain=57206.7 10272.4 9315.26 4215.46 4054.9 1515.65 844.106
threshold=37952.000000000007 13375.000000000002 110385.00000000001 34.75833333333334 136.77500000000001 4576.5000000000009 25039.500000000004
decision_type=2 2 2 2 2 2 2
left_child=1 5 4 -4 -2 -1 -3
right_child=2 6 3 -5 -6 -7 -8
leaf_value=-0.0042597405871959487 0.19134395795401135 0.037275187767036276 0.5316434089954083 0.2563856091337689 0.096521719364205644 0.010193820281788495 0.068038724687166888
leaf_weight=366283 1862 7089 182 590 2858 19083 3253
leaf_count=366283 1862 7089 182 590 2858 19083 3253
internal_value=5.4598e-11 -0.00222429 0.160264 0.321278 0.133928 -0.00354401 0.0469516
internal_weight=401200 395708 5492 772 4720 385366 10342
internal_count=401200 395708 5492 772 4720 385366 10342
is_linear=0
shrinkage=0.05


Tree=3
num_leaves=8
num_cat=0
split_feature=0 0 0 1 2 0 0
split_gain=51657.9 10086.7 7809.39 4265.58 2706.64 1017.36 812.177
threshold=33347.000000000007 86114.500000000015 10256.500000000002 136.83750000000003 34.70000000000001 19726.000000000004 2834.5000000000005
decision_type=2 2 2 2 2 2 2
left_child=2 4 6 -3 -2 -4 -1
right_child=1 3 5 -5 -6 -7 -8
leaf_value=-0.0042331589493754826 0.16940393969534506 0.37522069563267202 0.025002119093003074 0.19572412519607088 0.08431721776723862 0.053767158043101143 0.0047540872305949951
leaf_weight=354340 1264 494 8701 1003 3587 4753 27058
leaf_count=354340 1264 494 8701 1003 3587 4753 27058
internal_value=1.28841e-10 0.1415 -0.00227488 0.254957 0.106488 0.0351642 -0.00359557
internal_weight=401200 6348 394852 1497 4851 13454 381398
internal_count=401200 6348 394852 1497 4851 13454 381398
is_linear=0
shrinkage=0.05


Tree=4
num_leaves=8
num_cat=0
split_feature=0 0 0 2 1 0 0
split_gain=46767.4 8367.61 7862.87 3565.34 3375.25 1118.78 776.213
threshold=37952.000000000007 12678.500000000002 110385.00000000001 34.75833333333334 136.77500000000001 4576.5000000000009 23092.000000000004
decision_type=2 2 2 2 2 2 2
left_child=1 5 4 -4 -2 -1 -3
right_child=2 6 3 -5 -6 -7 -8
leaf_value=-0.0038497473919850418 0.17309287867951983 0.030803968741706652 0.48630020186141298 0.23315644014689882 0.086581512593238652 0.0088118435126106082 0.058298058612521853
leaf_weight=366283 1862 7078 182 590 2858 18319 4028
leaf_count=366283 1862 7078 182 590 2858 18319 4028
internal_value=1.18874e-10 -0.00201112 0.144905 0.292835 0.12071 -0.00324666 0.0407757
internal_weight=401200 395708 5492 772 4720 384602 11106
internal_count=401200 395708 5492 772 4720 384602 11106
is_linear=0
shrinkage=0.05


Tree=5
num_leaves=8
num_cat=0
split_feature=0 0 0 2 1 0 2
split_gain=42343.7 8879.66 6171.37 3217.72 3123.06 1131.94 897.014
threshold=42701.500000000007 13375.000000000002 110385.00000000001 34.75833333333334 136.62500000000003 5970.5000000000009 34.70000000000001
decision_type=2 2 2 2 2 2 2
left_child=1 5 4 -4 -2 -1 -3
right_child=2 6 3 -5 -6 -7 -8
leaf_value=-0.0035578093412017282 0.1806304696216251 0.064139770725231318 0.46198519589481779 0.22149862340951373 0.088911250104867251 0.011215715640782867 0.033054350386311132
leaf_weight=371932 1493 3301 182 590 2453 13434 7815
leaf_count=371932 1493 3301 182 590 2453 13434 7815
internal_value=-1.85039e-11 -0.00177195 0.148908 0.278194 0.123614 -0.0030428 0.0422855
internal_weight=401200 396482 4718 772 3946 385366 11116
internal_count=401200 396482 4718 772 3946 385366 11116
is_linear=0
shrinkage=0.05


Tree=6
num_leaves=8
num_cat=0
split_feature=0 0 0 1 2 0 0
split_gain=38286.8 8669.96 4847.78 3304.37 2255.23 675.897 519.703
threshold=29957.000000000004 86114.500000000015 9209.0000000000018 136.90000000000001 34.70000000000001 18277.500000000004 2605.5000000000005
decision_type=2 2 2 2 2 2 2
left_child=2 4 6 -3 -2 -4 -1
right_child=1 3 5 -5 -6 -7 -8
leaf_value=-0.0036785127544960981 0.13976659551110077 0.32667759433090093 0.018788277560674412 0.16909451786884089 0.067673195918286855 0.041823562975328341 0.0034295858737562294
leaf_weight=351964 1463 499 9564 998 4196 4774 27742
leaf_count=351964 1463 499 9564 998 4196 4774 27742
internal_value=-1.9614e-11 0.114618 -0.0020815 0.221622 0.0863112 0.0264581 -0.00315918
internal_weight=401200 7156 394044 1497 5659 14338 379706
internal_count=401200 7156 394044 1497 5659 14338 379706
is_linear=0
shrinkage=0.05


Tree=7
num_leaves=8
num_cat=0
split_feature=0 0 0 2 1 0 2
split_gain=34809.3 7178.46 5188.27 2720.59 2614.33 1048.88 769.894
threshold=42701.500000000007 14229.500000000002 110385.00000000001 34.75833333333334 136.77500000000001 6460.0000000000009 34.666666666666679
decision_type=2 2 2 2 2 2 2
left_child=1 5 4 -4 -2 -1 -3
right_child=2 6 3 -5 -6 -7 -8
leaf_value=-0.0031869055252970188 0.1627977269194768 0.061438318170867749 0.42255205872294666 0.20142143156568881 0.079328855809087093 0.011448511623150462 0.031022072148653018
leaf_weight=373491 1536 2887 182 590 2410 12657 7447
leaf_count=373491 1536 2887 182 590 2410 12657 7447
internal_value=1.15342e-10 -0.00160659 0.135011 0.253553 0.11182 -0.00270719 0.0395194
internal_weight=401200 396482 4718 772 3946 386148 10334
internal_count=401200 396482 4718 772 3946 386148 10334
is_linear=0
shrinkage=0.05


Tree=8
num_leaves=8
num_cat=0
split_feature=0 0 2 0 2 1 0
split_gain=31423.2 8080.75 4001.62 3305.07 1412.54 550.097 446.535
threshold=27349.500000000004 69800.500000000015 35.075000000000003 9209.0000000000018 34.70000000000001 135.28750000000005 2605.5000000000005
decision_type=2 2 2 2 2 2 2
left_child=3 4 -3 6 -2 -5 -1
right_child=1 2 -4 5 -6 -7 -8
leaf_value=-0.0033352417767058386 0.10694594214991569 0.27193827694528316 0.13132723096733778 0.037391123553515336 0.050990331114906154 0.015561732591105945 0.003253514547940073
leaf_weight=351964 1557 756 1530 4166 4092 9393 27742
leaf_count=351964 1557 756 1530 4166 4092 9393 27742
internal_value=1.60642e-11 0.0985108 0.177829 -0.00198768 0.066413 0.0222688 -0.00285386
internal_weight=401200 7935 2286 393265 5649 13559 379706
internal_count=401200 7935 2286 393265 5649 13559 379706
is_linear=0
shrinkage=0.05


Tree=9
num_leaves=8
num_cat=0
split_feature=0 0 0 2 1 0 2
split_gain=28536 5874.03 4470.48 2304.79 2184.89 860.485 631.159
threshold=42701.500000000007 14229.500000000002 110385.00000000001 34.75833333333334 136.96250000000001 3514.5000000000005 34.666666666666679
decision_type=2 2 2 2 2 2 2
left_child=1 5 4 -4 -2 -1 -3
right_child=2 6 3 -5 -6 -7 -8
leaf_value=-0.0030868757412995159 0.14260621770445644 0.055593557485482829 0.38782753941121995 0.18429543260800638 0.067670963119617511 0.0063002472187564289 0.028053845631863361
leaf_weight=359959 1740 2887 182 590 2206 26189 7447
leaf_count=359959 1740 2887 182 590 2206 26189 7447
internal_value=-1.51571e-10 -0.00145463 0.122242 0.232278 0.100714 -0.00245023 0.0357476
internal_weight=401200 396482 4718 772 3946 386148 10334
internal_count=401200 396482 4718 772 3946 386148 10334
is_linear=0
shrinkage=0.05


Tree=10
num_leaves=8
num_cat=0
split_feature=0 0 2 0 1 1 0
split_gain=25788.9 6156.94 3373.6 3187.65 1187.74 482.806 397.733
threshold=29957.000000000004 69800.500000000015 35.075000000000003 9714.5000000000018 134.57500000000002 135.28750000000005 2331.5000000000005
decision_type=2 2 2 2 2 2 2
left_child=3 4 -3 6 -2 -5 -1
right_child=1 2 -4 5 -6 -7 -8
leaf_value=-0.0030424912640102855 0.11418903799555591 0.2481710467014521 0.11906454240574556 0.036444763923836589 0.050543994768221315 0.015906546402400513 0.0028012752230892578
leaf_weight=348796 899 756 1530 4122 3971 9357 31769
leaf_count=348796 899 756 1530 4122 3971 9357 31769
internal_value=2.68983e-11 0.0940682 0.161761 -0.00170832 0.0622928 0.0221873 -0.00255466
internal_weight=401200 7156 2286 394044 4870 13479 380565
internal_count=401200 7156 2286 394044 4870 13479 380565
is_linear=0
shrinkage=0.05


Tree=11
num_leaves=8
num_cat=0
split_feature=0 0 2 0 1 2 0
split_gain=23373.7 6565.93 3044.69 2039.4 1212.71 410.361 202.949
threshold=25039.500000000004 69800.500000000015 35.041666666666671 7061.0000000000009 134.70000000000002 34.56666666666667 1802.5000000000002
decision_type=2 2 2 2 2 2 2
left_child=3 4 -3 6 -2 -5 -1
right_child=1 2 -4 5 -6 -7 -8
leaf_value=-0.0029461414707507151 0.097902829539721514 0.23600665962157816 0.11323140718854492 0.02727200282173918 0.044113658154472039 0.010155442974051463 0.001087935771218327
leaf_weight=340772 1316 753 1533 4864 5143 12502 34317
leaf_count=340772 1316 753 1533 4864 5143 12502 34317
internal_value=-7.51381e-11 0.0808477 0.153673 -0.00180151 0.055073 0.0149496 -0.00257706
internal_weight=401200 8745 2286 392455 6459 17366 375089
internal_count=401200 8745 2286 392455 6459 17366 375089
is_linear=0
shrinkage=0.05


Tree=12
num_leaves=8
num_cat=0
split_feature=0 0 0 2 1 0 2
split_gain=21259.7 4391.6 3684.76 1892.85 1710.5 758.617 512.349
threshold=42701.500000000007 16022.000000000002 110385.00000000001 34.725000000000009 136.96250000000001 6460.0000000000009 34.666666666666679
decision_type=2 2 2 2 2 2 2
left_child=1 5 4 -4 -2 -1 -3
right_child=2 6 3 -5 -6 -7 -8
leaf_value=-0.0024800052991581275 0.1230336952223389 0.053319265864743018 0.37624713129072052 0.16953095830626624 0.056730793636707647 0.0093044207298461305 0.026256749990963193
leaf_weight=373491 1740 2405 134 638 2206 14175 6411
leaf_count=373491 1740 2405 134 638 2206 14175 6411
internal_value=-2.31897e-11 -0.00125555 0.105512 0.205412 0.0859672 -0.00204911 0.0336394
internal_weight=401200 396482 4718 772 3946 387666 8816
internal_count=401200 396482 4718 772 3946 387666 8816
is_linear=0
shrinkage=0.05


Tree=13
num_leaves=8
num_cat=0
split_feature=0 0 0 2 1 0 1
split_gain=19211 3810.89 3337.89 1798.15 1347.27 519.351 425.023
threshold=37952.000000000007 86114.500000000015 13375.000000000002 34.75833333333334 134.57500000000002 3514.5000000000005 136.90000000000001
decision_type=2 2 2 2 2 2 2
left_child=2 4 5 -3 -2 -1 -4
right_child=1 3 6 -5 -6 -7 -8
leaf_value=-0.0025289125920956185 0.13342755507372631 0.25759236637789468 0.037857204635692615 0.12985209834754519 0.054612151223925813 0.0048677182117631097 0.017498790865992979
leaf_weight=359959 647 364 4696 1133 3348 25407 5646
leaf_count=359959 647 364 4696 1133 3348 25407 5646
internal_value=8.54598e-11 0.0928724 -0.00128897 0.160913 0.0673765 -0.00204126 0.026743
internal_weight=401200 5492 395708 1497 3995 385366 10342
internal_count=401200 5492 395708 1497 3995 385366 10342
is_linear=0
shrinkage=0.05


Tree=14
num_leaves=8
num_cat=0
split_feature=0 0 2 0 1 1 0
split_gain=17414.1 5012.02 2426.84 1483.81 955.261 315.727 201.817
threshold=25039.500000000004 69800.500000000015 35.075000000000003 8017.5000000000009 134.70000000000002 135.46250000000006 2094.5000000000005
decision_type=2 2 2 2 2 2 2
left_child=3 4 -3 6 -2 -5 -1
right_child=1 2 -4 5 -6 -7 -8
leaf_value=-0.0025199829548562761 0.085277514395199289 0.20669959817653294 0.097197625314682914 0.024174844987464677 0.037538059485774551 0.0087675598132515003 0.0016455787914459318
leaf_weight=345628 1316 756 1530 4950 5143 10129 31748
leaf_count=345628 1316 756 1530 4950 5143 10129 31748
internal_value=-6.3264e-11 0.069784 0.133411 -0.00155498 0.0472648 0.0138253 -0.00216954
internal_weight=401200 8745 2286 392455 6459 15079 377376
internal_count=401200 8745 2286 392455 6459 15079 377376
is_linear=0
shrinkage=0.05


Tree=15
num_leaves=8
num_cat=0
split_feature=0 0 0 2 1 0 1
split_gain=15808 3257.41 2971.93 1528.57 1390.16 550.091 403.31
threshold=42701.500000000007 16022.000000000002 110385.00000000001 34.725000000000009 138.42500000000004 6213.5000000000009 136.77500000000001
decision_type=2 2 2 2 2 2 2
left_child=1 5 4 -4 -2 -1 -3
right_child=2 6 3 -5 -6 -7 -8
leaf_value=-0.0021433001555991888 0.10315308048602592 0.041362880595739206 0.33422016384663866 0.14845762673566895 0.043798468690290145 0.0076388475892615248 0.019741482384297935
leaf_weight=372718 1970 3763 134 638 1976 14948 5053
leaf_count=372718 1970 3763 134 638 1976 14948 5053
internal_value=-3.22992e-11 -0.00108267 0.0909832 0.180701 0.0734306 -0.00176611 0.0289703
internal_weight=401200 396482 4718 772 3946 387666 8816
internal_count=401200 396482 4718 772 3946 387666 8816
is_linear=0
shrinkage=0.05


Tree=16
num_leaves=8
num_cat=0
split_feature=0 0 0 2 2 1 0
split_gain=14281.7 3979.85 1442.58 1388.24 1083.45 304.949 250.988
threshold=27349.500000000004 86114.500000000015 10256.500000000002 35.175000000000004 34.666666666666679 135.28750000000005 2094.5000000000005
decision_type=2 2 2 2 2 2 2
left_child=2 4 6 -3 -2 -4 -1
right_child=1 3 5 -5 -6 -7 -8
leaf_value=-0.0022868187139804623 0.085638805643317023 0.2056509345891204 0.02794732652693302 0.10461494996245856 0.037747490482460178 0.010527038350954018 0.0021128651292081782
leaf_weight=345628 1558 522 3611 975 4880 8256 35770
leaf_count=345628 1558 522 3611 975 4880 8256 35770
internal_value=2.17497e-11 0.0664124 -0.00134002 0.139846 0.0493372 0.0158278 -0.00187419
internal_weight=401200 7935 393265 1497 6438 11867 381398
internal_count=401200 7935 393265 1497 6438 11867 381398
is_linear=0
shrinkage=0.05


Tree=17
num_leaves=8
num_cat=0
split_feature=0 0 0 2 1 0 1
split_gain=13015.4 2647.89 2508.08 1312.41 1227.29 452.792 333.417
threshold=42701.500000000007 16022.000000000002 110385.00000000001 34.725000000000009 134.70000000000002 4252.5000000000009 136.77500000000001
decision_type=2 2 2 2 2 2 2
left_child=1 5 4 -4 -2 -1 -3
right_child=2 6 3 -5 -6 -7 -8
leaf_value=-0.0020281177728506085 0.13514162824358991 0.037381058350678634 0.3072266166223519 0.13509927856324236 0.055115231054416097 0.0051994472831659701 0.017722218021619222
leaf_weight=364627 558 3763 134 638 3388 23039 5053
leaf_count=364627 558 3763 134 638 3388 23039 5053
internal_value=-1.30719e-11 -0.000982393 0.0825564 0.164976 0.0664317 -0.00159858 0.0261133
internal_weight=401200 396482 4718 772 3946 387666 8816
internal_count=401200 396482 4718 772 3946 387666 8816
is_linear=0
shrinkage=0.05


Tree=18
num_leaves=8
num_cat=0
split_feature=0 0 2 0 0 0 2
split_gain=11799.8 2846.94 2024.05 1308.39 1043.37 459.039 349.098
threshold=48487.000000000007 17092.000000000004 34.75833333333334 110385.00000000001 86114.500000000015 6460.0000000000009 34.666666666666679
decision_type=2 2 2 2 2 2 2
left_child=1 5 3 -2 -4 -1 -3
right_child=2 6 4 -5 -6 -7 -8
leaf_value=-0.0018355856216114436 0.11991643291681511 0.043720859107170398 0.040270507088583762 0.26729078901890707 0.10182144434667223 0.0070965885119960914 0.021238145638756492
leaf_weight=373491 873 2358 1755 182 1133 14960 6448
leaf_count=373491 873 2358 1755 182 1133 14960 6448
internal_value=2.37155e-11 -0.000854289 0.0860696 0.14534 0.0644177 -0.00149159 0.0272584
internal_weight=401200 397257 3943 1055 2888 388451 8806
internal_count=401200 397257 3943 1055 2888 388451 8806
is_linear=0
shrinkage=0.05


Tree=19
num_leaves=8
num_cat=0
split_feature=0 0 2 0 1 2 0
split_gain=10656.6 3289.79 1722.25 872.663 655.72 241.009 144.983
threshold=25039.500000000004 69800.500000000015 35.075000000000003 8017.5000000000009 134.70000000000002 34.56666666666667 1718.5000000000002
decision_type=2 2 2 2 2 2 2
left_child=3 4 -3 6 -2 -5 -1
right_child=1 2 -4 5 -6 -7 -8
leaf_value=-0.0020165534846265224 0.067839731815013488 0.16787886547673711 0.07563231849884676 0.020768927038071549 0.02828708515521889 0.0066574578966737746 0.0012331343486023968
leaf_weight=339190 1316 756 1530 4190 5143 10889 38186
leaf_count=339190 1316 756 1530 4190 5143 10889 38186
internal_value=-2.30878e-11 0.0545902 0.106139 -0.00121642 0.0363458 0.0105786 -0.00168772
internal_weight=401200 8745 2286 392455 6459 15079 377376
internal_count=401200 8745 2286 392455 6459 15079 377376
is_linear=0
shrinkage=0.05


Tree=20
num_leaves=8
num_cat=0
split_feature=0 0 2 0 0 0 1
split_gain=9679.64 2329.87 1720.5 1122.03 911.474 375.054 299.259
threshold=48487.000000000007 17092.000000000004 34.75833333333334 110385.00000000001 110385.00000000001 3514.5000000000005 136.90000000000001
decision_type=2 2 2 2 2 2 2
left_child=1 5 3 -2 -4 -1 -3
right_child=2 6 4 -5 -6 -7 -8
leaf_value=-0.0017873744442162107 0.10905654477243572 0.034854576428881803 0.043759276853425289 0.24553231335767023 0.11342831609360243 0.0041719492620308799 0.016325933310672953
leaf_weight=359959 873 3960 2298 182 590 28492 4846
leaf_count=359959 873 3960 2298 182 590 28492 4846
internal_value=6.38382e-11 -0.000773743 0.0779545 0.1326 0.0579922 -0.00135027 0.0246581
internal_weight=401200 397257 3943 1055 2888 388451 8806
internal_count=401200 397257 3943 1055 2888 388451 8806
is_linear=0
shrinkage=0.05


Tree=21
num_leaves=8
num_cat=0
split_feature=0 0 2 0 0 2 0
split_gain=8784.49 2530.5 1610.17 727.151 635.802 449.021 436.913
threshold=57515.000000000007 19726.000000000004 34.75833333333334 110385.00000000001 110385.00000000001 34.425000000000004 6460.0000000000009
decision_type=2 2 2 2 2 2 2
left_child=1 6 3 -2 -4 -3 -1
right_child=2 5 4 -5 -6 -7 -8
leaf_value=-0.0015793280509572051 0.11902460981198032 0.051562230917883325 0.047831232633765444 0.23325569220296632 0.10775690445455455 0.021448448349180027 0.0067087972676202028
leaf_weight=373491 594 1533 1772 182 590 6430 16608
leaf_count=373491 594 1533 1772 182 590 6430 16608
internal_value=-3.26835e-11 -0.000656899 0.0833291 0.145816 0.0628 0.0272458 -0.00122647
internal_weight=401200 398062 3138 776 2362 7963 390099
internal_count=401200 398062 3138 776 2362 7963 390099
is_linear=0
shrinkage=0.05


Tree=22
num_leaves=8
num_cat=0
split_feature=0 0 0 2 1 2 0
split_gain=7960.98 1973.69 1113.06 868.084 836.858 247.51 155.157
threshold=33347.000000000007 110385.00000000001 10256.500000000002 34.725000000000009 139.02500000000001 34.425000000000004 1718.5000000000002
decision_type=2 2 2 2 2 2 2
left_child=2 4 6 -3 -2 -4 -1
right_child=1 3 5 -5 -6 -7 -8
leaf_value=-0.0017473906437686572 0.062815269552479222 0.24616740083516536 0.02572174322966609 0.1061774599981906 0.023905266521983382 0.009556195702052038 0.0014671991702887267
leaf_weight=339190 3048 134 3067 638 2528 10387 42208
leaf_count=339190 3048 134 3067 638 2528 10387 42208
internal_value=1.97322e-11 0.0555484 -0.000893046 0.130476 0.0451746 0.0132413 -0.00139164
internal_weight=401200 6348 394852 772 5576 13454 381398
internal_count=401200 6348 394852 772 5576 13454 381398
is_linear=0
shrinkage=0.05


Tree=23
num_leaves=8
num_cat=0
split_feature=0 0 1 0 0 2 0
split_gain=7304.67 2054.68 1372.02 776.85 549.953 350.242 310.675
threshold=57515.000000000007 18277.500000000004 136.96250000000001 110385.00000000001 110385.00000000001 34.425000000000004 4758.5000000000009
decision_type=2 2 2 2 2 2 2
left_child=1 6 3 -2 -4 -3 -1
right_child=2 5 4 -5 -6 -7 -8
leaf_value=-0.0014858609660426108 0.098614353702329072 0.043546690527347547 0.032939220497018626 0.20175455778038931 0.092150088116852907 0.018383943007850227 0.0046114599985720003
leaf_weight=367118 987 1719 1379 224 548 7073 22152
leaf_count=367118 987 1719 1379 224 548 7073 22152
internal_value=-8.20832e-11 -0.000599019 0.0759869 0.117692 0.0497776 0.0233037 -0.00113888
internal_weight=401200 398062 3138 1211 1927 8792 389270
internal_count=401200 398062 3138 1211 1927 8792 389270
is_linear=0
shrinkage=0.05


Tree=24
num_leaves=8
num_cat=0
split_feature=0 0 2 1 0 2 0
split_gain=6592.46 1863.47 1265.4 651.537 466.273 350.019 318.377
threshold=57515.000000000007 19726.000000000004 34.75833333333334 130.48750000000001 86114.500000000015 34.425000000000004 7061.0000000000009
decision_type=2 2 2 2 2 2 2
left_child=1 6 3 -2 -4 -3 -1
right_child=2 5 4 -5 -6 -7 -8
leaf_value=-0.0013435849685411677 0.023027111411094668 0.044844398521426375 0.032658600999971442 0.14765779291223821 0.077125727002067532 0.018256907054783653 0.0060826829318540408
leaf_weight=375089 125 1533 1229 651 1133 6430 15010
leaf_count=375089 125 1533 1229 651 1133 6430 15010
internal_value=-3.67095e-11 -0.000569068 0.0721875 0.127582 0.0539885 0.0233754 -0.00105784
internal_weight=401200 398062 3138 776 2362 7963 390099
internal_count=401200 398062 3138 776 2362 7963 390099
is_linear=0
shrinkage=0.05


Tree=25
num_leaves=8
num_cat=0
split_feature=0 0 2 1 1 0 0
split_gain=5961.65 2086.32 1101.44 415.745 397.083 291.857 266.064
threshold=69800.500000000015 19726.000000000004 35.075000000000003 134.70000000000002 130.48750000000001 2834.5000000000005 110385.00000000001
decision_type=2 2 2 2 2 2 2
left_child=1 5 4 -3 -2 -1 -4
right_child=2 3 6 -5 -6 -7 -8
leaf_value=-0.0014394099385640928 0.02940290241405882 0.044225429481179863 0.040520064598262677 0.017878380478387419 0.14295594872814926 0.0033001704468459321 0.08398993042431678
leaf_weight=354340 87 1912 981 6903 669 35759 549
leaf_count=354340 87 1912 981 6903 669 35759 549
internal_value=-9.04465e-12 -0.000461393 0.0805145 0.0235931 0.129888 -0.00100495 0.0561181
internal_weight=401200 398914 2286 8815 756 390099 1530
internal_count=401200 398914 2286 8815 756 390099 1530
is_linear=0
shrinkage=0.05


Tree=26
num_leaves=8
num_cat=0
split_feature=0 0 0 1 2 1 0
split_gain=5428.98 1120.23 1057.19 812.291 688.888 180.722 147.539
threshold=42701.500000000007 110385.00000000001 12678.500000000002 134.70000000000002 34.725000000000009 136.90000000000001 1718.5000000000002
decision_type=2 2 2 2 2 2 2
left_child=2 3 6 -2 -3 -4 -1
right_child=1 4 5 -5 -6 -7 -8
leaf_value=-0.0014465783878205589 0.098441256158801616 0.21146248027459899 0.02080452726079586 0.033336054069428016 0.08675562283929239 0.0084205728522443995 0.0015881706919482702
leaf_weight=339190 558 134 5406 3388 638 6474 45412
leaf_count=339190 558 134 5406 3388 638 6474 45412
internal_value=-5.24245e-11 0.053319 -0.000634477 0.0425425 0.108402 0.0140559 -0.00108825
internal_weight=401200 4718 396482 3946 772 11880 384602
internal_count=401200 4718 396482 3946 772 11880 384602
is_linear=0
shrinkage=0.05


Tree=27
num_leaves=8
num_cat=0
split_feature=0 0 2 0 2 1 0
split_gain=4952.6 1698.76 968.489 362.957 349.775 270.213 241.348
threshold=69800.500000000015 19726.000000000004 35.175000000000004 110385.00000000001 34.70000000000001 139.63750000000002 6460.0000000000009
decision_type=2 2 2 2 2 2 2
left_child=1 6 3 -2 -3 -4 -1
right_child=2 4 5 -5 -6 -7 -8
leaf_value=-0.0011732702934774506 0.09632552487827005 0.037172349308331687 0.025987316583931531 0.17075449508936416 0.015041173192515396 0.069258102510149119 0.0049867236138875955
leaf_weight=373491 617 2487 691 223 6328 755 16608
leaf_count=373491 617 2487 691 223 6328 755 16608
internal_value=-2.06884e-11 -0.000420537 0.073385 0.116085 0.0212851 0.0485803 -0.000911016
internal_weight=401200 398914 2286 840 8815 1446 390099
internal_count=401200 398914 2286 840 8815 1446 390099
is_linear=0
shrinkage=0.05


Tree=28
num_leaves=8
num_cat=0
split_feature=0 0 1 0 0 2 0
split_gain=4486 1233.19 957.797 510.923 368.563 222.683 167.934
threshold=57515.000000000007 16022.000000000002 136.96250000000001 110385.00000000001 110385.00000000001 34.600000000000001 2331.5000000000005
decision_type=2 2 2 2 2 2 2
left_child=1 6 3 -2 -4 -3 -1
right_child=2 5 4 -5 -6 -7 -8
leaf_value=-0.0012725662544441387 0.078921981183425152 0.029141458529049449 0.023865159392961997 0.16256643231026829 0.072337549163477274 0.01228048055601501 0.0021922063808155023
leaf_weight=348796 987 2617 1379 224 548 7779 38870
leaf_count=348796 987 2617 1379 224 548 7779 38870
internal_value=1.48629e-11 -0.000469429 0.0595481 0.0943938 0.0376497 0.0165249 -0.000925165
internal_weight=401200 398062 3138 1211 1927 10396 387666
internal_count=401200 398062 3138 1211 1927 10396 387666
is_linear=0
shrinkage=0.05


Tree=29
num_leaves=8
num_cat=0
split_feature=0 0 1 2 0 2 0
split_gain=4082.92 1140.12 549.022 453.434 446.923 164.495 88.129
threshold=29957.000000000004 86114.500000000015 139.38750000000002 34.600000000000001 10256.500000000002 34.32500000000001 1386.5000000000002
decision_type=2 2 2 2 2 2 2
left_child=4 3 -3 -2 6 -6 -1
right_child=1 2 -4 -5 5 -7 -8
leaf_value=-0.001279997149645733 0.054317909432613623 0.11585129987637417 0.053090219718438608 0.019787357839556895 0.019533375929625924 0.0056022470301252576 0.00098089325434717206
leaf_weight=331862 1209 552 945 4450 2692 9954 49536
leaf_count=331862 1209 552 945 4450 2692 9954 49536
internal_value=-2.07435e-12 0.0374293 0.0762326 0.0271645 -0.000679732 0.00856782 -0.000986353
internal_weight=401200 7156 1497 5659 394044 12646 381398
internal_count=401200 7156 1497 5659 394044 12646 381398
is_linear=0
shrinkage=0.05


Tree=30
num_leaves=8
num_cat=0
split_feature=0 0 2 1 1 0 0
split_gain=3719.13 1256.51 768.932 587.817 277.202 192.743 178.534
threshold=69800.500000000015 19726.000000000004 34.725000000000009 130.48750000000001 134.70000000000002 110385.00000000001 3101.5000000000005
decision_type=2 2 2 2 2 2 2
left_child=1 6 3 -2 -3 -4 -1
right_child=2 4 5 -5 -6 -7 -8
leaf_value=-0.0011133393050817145 0.0055509098302358867 0.035150586220554648 0.037442606810893585 0.1502948387551703 0.013636817660209159 0.071459461753271211 0.0027118007657850065
leaf_weight=356742 87 1912 1199 362 6903 638 33357
leaf_count=356742 87 1912 1199 362 6903 638 33357
internal_value=9.67698e-12 -0.000364426 0.0635934 0.122249 0.0183032 0.0492568 -0.000786255
internal_weight=401200 398914 2286 449 8815 1837 390099
internal_count=401200 398914 2286 449 8815 1837 390099
is_linear=0
shrinkage=0.05


Tree=31
num_leaves=8
num_cat=0
split_feature=0 0 1 0 2 1 0
split_gain=3373.33 796.653 544.952 527.483 482.615 154.154 72.6423
threshold=37952.000000000007 110385.00000000001 134.82500000000002 10256.500000000002 34.725000000000009 136.96250000000001 1386.5000000000002
decision_type=2 2 2 2 2 2 2
left_child=3 2 -2 6 -3 -5 -1
right_child=1 4 -4 5 -6 -7 -8
leaf_value=-0.0011603302972190098 0.070935059579165835 0.17226622317250428 0.023948634711367295 0.014408842898988859 0.067886490588511414 0.0040094958139023354 0.00089231967770804976
leaf_weight=331862 730 134 3990 6708 638 7602 49536
leaf_count=331862 730 134 3990 6708 638 7602 49536
internal_value=5.1582e-11 0.0389171 0.0312156 -0.000540128 0.0860042 0.00888433 -0.000893732
internal_weight=401200 5492 4720 395708 772 14310 381398
internal_count=401200 5492 4720 395708 772 14310 381398
is_linear=0
shrinkage=0.05


Tree=32
num_leaves=8
num_cat=0
split_feature=0 0 2 1 1 1 0
split_gain=3098.59 1026.41 680.318 339.838 224.318 223.42 165.32
threshold=69800.500000000015 21220.000000000004 35.175000000000004 130.48750000000001 139.63750000000002 139.08750000000003 7061.0000000000009
decision_type=2 2 2 2 2 2 2
left_child=1 6 3 -2 -4 -3 -1
right_child=2 5 4 -5 -6 -7 -8
leaf_value=-0.00090742928512830764 0.00027070782821753928 0.023944317432448969 0.016671611710455586 0.10464382240274157 0.056096795726296125 0.0068259993997996345 0.0043170204154627202
leaf_weight=375089 87 4944 691 753 755 3102 15779
leaf_count=375089 87 4944 691 753 755 3102 15779
internal_value=-2.03243e-11 -0.000332637 0.0580462 0.0938337 0.0372567 0.0173446 -0.000696523
internal_weight=401200 398914 2286 840 1446 8046 390868
internal_count=401200 398914 2286 840 1446 8046 390868
is_linear=0
shrinkage=0.05


Tree=33
num_leaves=8
num_cat=0
split_feature=0 0 2 1 0 2 0
split_gain=2802.27 738.947 693.487 579.371 252.729 174.173 112.453
threshold=57515.000000000007 17092.000000000004 34.725000000000009 130.48750000000001 110385.00000000001 26.520833333333336 2605.5000000000005
decision_type=2 2 2 2 2 2 2
left_child=1 6 3 -2 -4 -3 -1
right_child=2 5 4 -5 -6 -7 -8
leaf_value=-0.00098378591742597941 -0.0051449310421943671 -0.04371416605444569 0.025305718307863812 0.11412667448077699 0.06186161212226067 0.014119008879308635 0.0019323334046812688
leaf_weight=351964 125 132 1826 549 638 9479 36487
leaf_count=351964 125 132 1826 549 638 9479 36487
internal_value=3.89265e-11 -0.000371018 0.0470645 0.0920066 0.0347711 0.0133247 -0.000709876
internal_weight=401200 398062 3138 674 2464 9611 388451
internal_count=401200 398062 3138 674 2464 9611 388451
is_linear=0
shrinkage=0.05


Tree=34
num_leaves=8
num_cat=0
split_feature=0 0 2 1 1 1 0
split_gain=2556.35 837.791 592.233 274.032 220.936 205.143 153.718
threshold=69800.500000000015 23092.000000000004 35.25833333333334 130.48750000000001 139.63750000000002 134.70000000000002 7061.0000000000009
decision_type=2 2 2 2 2 2 2
left_child=1 6 3 -2 -4 -3 -1
right_child=2 5 4 -5 -6 -7 -8
leaf_value=-0.00082185769374831352 0.00051441929977515653 0.032979480166774822 0.011104266867501501 0.093970581364713923 0.050915375383526335 0.012241149653120334 0.0040962166570364571
leaf_weight=375089 87 1506 648 797 754 5728 16591
leaf_count=375089 87 1506 648 797 754 5728 16591
internal_value=4.5381e-11 -0.000302133 0.0527231 0.084773 0.0325148 0.0165585 -0.000613535
internal_weight=401200 398914 2286 884 1402 7234 391680
internal_count=401200 398914 2286 884 1402 7234 391680
is_linear=0
shrinkage=0.05


Tree=35
num_leaves=8
num_cat=0
split_feature=0 2 0 0 0 2 0
split_gain=2308.74 657.17 495.939 363.608 301.168 148.64 74.6401
threshold=48487.000000000007 34.725000000000009 13375.000000000002 110385.00000000001 86114.500000000015 26.520833333333336 1562.5000000000002
decision_type=2 2 2 2 2 2 2
left_child=2 3 6 -2 -3 -4 -1
right_child=1 4 5 -5 -6 -7 -8
leaf_value=-0.00095514755092492736 0.061963422611276422 0.01374442429530124 -0.037887269267697393 0.15097388870346903 0.045993830390777486 0.010336279410501088 0.0011257487022594602
leaf_weight=335931 798 1800 162 134 1211 11729 49435
leaf_count=335931 798 1800 162 134 1211 11729 49435
internal_value=8.51364e-12 0.0380715 -0.000377881 0.0747611 0.0267149 0.00967929 -0.000688209
internal_weight=401200 3943 397257 932 3011 11891 385366
internal_count=401200 3943 397257 932 3011 11891 385366
is_linear=0
shrinkage=0.05


Tree=36
num_leaves=8
num_cat=0
split_feature=0 0 1 1 1 1 0
split_gain=2102.21 691.145 511.459 249.176 234.044 181.012 124.238
threshold=69800.500000000015 23092.000000000004 139.38750000000002 130.48750000000001 139.58750000000001 134.70000000000002 8017.5000000000009
decision_type=2 2 2 2 2 2 2
left_child=1 6 3 -2 -4 -3 -1
right_child=2 5 4 -5 -6 -7 -8
leaf_value=-0.00073019253253013344 -0.0038883625561821054 0.030465043918446084 -0.0021848285166950494 0.085038869187575722 0.042406009615517222 0.01098460585725148 0.0040171089023638149
leaf_weight=377376 87 1506 429 833 937 5728 14304
leaf_count=377376 87 1506 429 833 937 5728 14304
internal_value=-7.12419e-12 -0.000273984 0.0478111 0.0766294 0.028402 0.0150401 -0.000556823
internal_weight=401200 398914 2286 920 1366 7234 391680
internal_count=401200 398914 2286 920 1366 7234 391680
is_linear=0
shrinkage=0.05


Tree=37
num_leaves=8
num_cat=0
split_feature=0 0 1 1 1 2 0
split_gain=1897.24 623.925 483.256 344.468 180.962 136.403 103.102
threshold=69800.500000000015 21220.000000000004 135.56250000000003 130.48750000000001 139.08750000000003 35.900000000000006 2605.5000000000005
decision_type=2 2 2 2 2 2 2
left_child=1 6 3 -2 -3 -4 -1
right_child=2 4 5 -5 -6 -7 -8
leaf_value=-0.0008139763294174948 -0.0036939409743437825 0.019461577511319068 0.029033537282140226 0.10512911570226904 0.0040554582967355654 0.08447646470427389 0.0018985417390362106
leaf_weight=351964 87 4944 1637 443 3102 119 38904
leaf_count=351964 87 4944 1637 443 3102 119 38904
internal_value=-2.28612e-12 -0.000260285 0.0454206 0.0872657 0.013522 0.0327908 -0.000543993
internal_weight=401200 398914 2286 530 8046 1756 390868
internal_count=401200 398914 2286 530 8046 1756 390868
is_linear=0
shrinkage=0.05


Tree=38
num_leaves=8
num_cat=0
split_feature=0 2 0 1 0 2 0
split_gain=1724.61 554.59 367.041 309.284 247.532 135.245 56.6488
threshold=48487.000000000007 34.725000000000009 12678.500000000002 130.48750000000001 110385.00000000001 26.520833333333336 964.50000000000011
decision_type=2 2 2 2 2 2 2
left_child=2 3 6 -2 -3 -4 -1
right_child=1 4 5 -5 -6 -7 -8
leaf_value=-0.00087766315401009178 0.0031008214625360083 0.015038527637528094 -0.036244622008765444 0.079672517500490078 0.050120358183092462 0.0086550539976922424 0.00073489388155896181
leaf_weight=318923 159 2373 170 773 638 12485 65679
leaf_count=318923 159 2373 170 773 638 12485 65679
internal_value=-1.53406e-11 0.0329047 -0.000326597 0.0666093 0.022472 0.0080519 -0.000602285
internal_weight=401200 3943 397257 932 3011 12655 384602
internal_count=401200 3943 397257 932 3011 12655 384602
is_linear=0
shrinkage=0.05


Tree=39
num_leaves=8
num_cat=0
split_feature=0 0 2 1 2 2 0
split_gain=1577.68 512.842 423.453 338.917 163.36 120.815 94.3336
threshold=69800.500000000015 23092.000000000004 34.725000000000009 130.48750000000001 26.291666666666668 35.900000000000006 5324.5000000000009
decision_type=2 2 2 2 2 2 2
left_child=1 6 3 -2 -3 -4 -1
right_child=2 4 5 -5 -6 -7 -8
leaf_value=-0.00067101879973854406 -0.0036642901171212911 -0.064178237560040804 0.027405245331597407 0.10624278538078276 0.013686206838349466 0.079500715672468941 0.0026875618184166485
leaf_weight=369519 87 68 1718 362 7166 119 22161
leaf_count=369519 87 68 1718 362 7166 119 22161
internal_value=-2.15373e-11 -0.000237354 0.041419 0.0849468 0.0129543 0.03078 -0.000480992
internal_weight=401200 398914 2286 449 7234 1837 391680
internal_count=401200 398914 2286 449 7234 1837 391680
is_linear=0
shrinkage=0.05


Tree=40
num_leaves=8
num_cat=0
split_feature=0 0 2 2 0 2 0
split_gain=1427.37 510.117 342.701 299.632 143.083 148.05 36.2168
threshold=29957.000000000004 110385.00000000001 34.425000000000004 34.725000000000009 9209.0000000000018 34.32500000000001 964.50000000000011
decision_type=2 2 2 2 2 2 2
left_child=4 2 -2 -3 6 -6 -1
right_child=1 3 -4 -5 5 -7 -8
leaf_value=-0.00080022899298817232 0.04550731712552547 0.12848919499943506 0.012698690158910148 0.046244079117490955 0.01415306514183527 0.0018266611492805966 0.00053149699668236642
leaf_weight=318923 932 134 5452 638 3111 11227 60783
leaf_count=318923 932 134 5452 638 3111 11227 60783
internal_value=3.51746e-11 0.0221307 0.0174884 0.0605198 -0.000401903 0.00450119 -0.000587047
internal_weight=401200 7156 6384 772 394044 14338 379706
internal_count=401200 7156 6384 772 394044 14338 379706
is_linear=0
shrinkage=0.05


Tree=41
num_leaves=8
num_cat=0
split_feature=0 0 1 1 1 2 0
split_gain=1315.53 413.392 387.474 194.544 187.543 151.94 76.9626
threshold=69800.500000000015 23092.000000000004 139.38750000000002 139.63750000000002 130.48750000000001 26.291666666666668 3621.5000000000005
decision_type=2 2 2 2 2 2 2
left_child=1 6 4 -4 -2 -3 -1
right_child=2 5 3 -5 -6 -7 -8
leaf_value=-0.00064084147417096818 -0.0069487064455946287 -0.062760546956868737 -4.7058943177401139e-05 0.037902755932697402 0.070200627517862976 0.012332852397588669 0.0019565965261626847
leaf_weight=360713 87 68 611 755 833 7166 30967
leaf_count=360713 87 68 611 755 833 7166 30967
internal_value=-2.48813e-11 -0.00021674 0.0378217 0.0209281 0.062905 0.011627 -0.000435483
internal_weight=401200 398914 2286 1366 920 7234 391680
internal_count=401200 398914 2286 1366 920 7234 391680
is_linear=0
shrinkage=0.05


Tree=42
num_leaves=8
num_cat=0
split_feature=0 0 1 1 1 2 0
split_gain=1187.26 374.124 352.832 255.172 165.551 118.662 61.4862
threshold=69800.500000000015 19726.000000000004 135.56250000000003 130.48750000000001 134.70000000000002 35.900000000000006 1562.5000000000002
decision_type=2 2 2 2 2 2 2
left_child=1 6 3 -2 -3 -4 -1
right_child=2 4 5 -5 -6 -7 -8
leaf_value=-0.00068814747063803674 -0.0066012690635933284 0.023000016473292154 0.021634472291131499 0.087060604289880453 0.0063741477244328125 0.073346401743215175 0.0011271581435836045
leaf_weight=335931 87 1912 1637 443 6903 119 54168
leaf_count=335931 87 1912 1637 443 6903 119 54168
internal_value=-5.38052e-12 -0.000205903 0.0359306 0.0716859 0.00998035 0.0251389 -0.000436079
internal_weight=401200 398914 2286 530 8815 1756 390099
internal_count=401200 398914 2286 530 8815 1756 390099
is_linear=0
shrinkage=0.05


Tree=43
num_leaves=8
num_cat=0
split_feature=0 1 0 1 0 1 0
split_gain=1077.44 387.487 269.507 228.161 153.416 131.178 45.2302
threshold=57515.000000000007 136.96250000000001 16022.000000000002 130.48750000000001 110385.00000000001 127.81250000000001 1010.5000000000001
decision_type=2 2 2 2 2 2 2
left_child=2 3 6 -2 -3 -4 -1
right_child=1 4 5 -5 -6 -7 -8
leaf_value=-0.00069012696796610278 -0.012623414655029775 0.0063613272279479357 -0.04586358254989692 0.058710003793273902 0.037634609041422823 0.0083033778540750041 0.00073770700513019899
leaf_weight=320599 125 1379 113 1086 548 10283 67067
leaf_count=320599 125 1379 113 1086 548 10283 67067
internal_value=7.09141e-12 0.0291833 -0.000230058 0.0513469 0.0152548 0.00771461 -0.000443109
internal_weight=401200 3138 398062 1211 1927 10396 387666
internal_count=401200 3138 398062 1211 1927 10396 387666
is_linear=0
shrinkage=0.05


Tree=44
num_leaves=8
num_cat=0
split_feature=0 0 1 2 0 1 0
split_gain=980.076 343.112 430.643 248.431 141.983 116.334 27.3199
threshold=37952.000000000007 110385.00000000001 134.82500000000002 34.725000000000009 10256.500000000002 136.90000000000001 664.50000000000011
decision_type=2 2 2 2 2 2 2
left_child=4 2 -2 -3 6 -6 -1
right_child=1 3 -4 -5 5 -7 -8
leaf_value=-0.00068689857413857308 0.051231383921527499 0.11376911601774507 0.0094626178050397393 0.038879907622402038 0.0095233964800445232 0.00047172231371463071 0.0003688955579596043
leaf_weight=304704 730 134 3990 638 6524 7786 76694
leaf_count=304704 730 134 3990 638 6524 7786 76694
internal_value=-1.81326e-12 0.0209769 0.0159226 0.0518788 -0.000291137 0.00459843 -0.000474593
internal_weight=401200 5492 4720 772 395708 14310 381398
internal_count=401200 5492 4720 772 395708 14310 381398
is_linear=0
shrinkage=0.05


Tree=45
num_leaves=8
num_cat=0
split_feature=0 2 1 0 1 0 0
split_gain=901.813 299.215 349.52 281.698 149.927 134.135 58.8331
threshold=69800.500000000015 34.666666666666679 130.48750000000001 25039.500000000004 134.70000000000002 110385.00000000001 8017.5000000000009
decision_type=2 2 2 2 2 2 2
left_child=3 2 -2 6 -5 -3 -1
right_child=1 5 -4 4 -6 -7 -8
leaf_value=-0.00047227898591690738 -0.0091001367003753272 0.01444102868688648 0.1084854274149581 0.025236928282874584 0.006324133348585859 0.041788673393331283 0.0027126702655872522
leaf_weight=377376 87 1277 231 1316 5143 691 15079
leaf_count=377376 87 1277 231 1316 5143 691 15079
internal_value=1.13792e-11 0.0313148 0.0763158 -0.000179451 0.0101776 0.0240433 -0.000349906
internal_weight=401200 2286 318 398914 6459 1968 392455
internal_count=401200 2286 318 398914 6459 1968 392455
is_linear=0
shrinkage=0.05


Tree=46
num_leaves=8
num_cat=0
split_feature=0 1 0 1 2 1 0
split_gain=813.887 283.624 254.232 163.298 152.239 137.694 53.6125
threshold=69800.500000000015 139.38750000000002 25039.500000000004 139.63750000000002 26.520833333333336 130.48750000000001 5970.5000000000009
decision_type=2 2 2 2 2 2 2
left_child=2 5 6 -3 -4 -2 -1
right_child=1 3 4 -5 -6 -7 -8
leaf_value=-0.00046968744172350699 -0.0086451297176295318 -0.0039215083860482799 -0.054545494275433683 0.030847434988677109 0.010586309199582379 0.057460583517012623 0.0021554112098420403
leaf_weight=371932 87 611 91 755 6368 833 20523
leaf_count=371932 87 611 91 755 6368 833 20523
internal_value=8.13851e-12 0.029749 -0.000170479 0.0152956 0.00966868 0.0512093 -0.000332411
internal_weight=401200 2286 398914 1366 6459 920 392455
internal_count=401200 2286 398914 1366 6459 920 392455
is_linear=0
shrinkage=0.05


Tree=47
num_leaves=8
num_cat=0
split_feature=0 2 1 0 2 0 0
split_gain=734.533 263.995 297.051 229.444 140.044 121.159 49.6556
threshold=69800.500000000015 34.666666666666679 130.48750000000001 25039.500000000004 34.425000000000004 110385.00000000001 1802.5000000000002
decision_type=2 2 2 2 2 2 2
left_child=3 2 -2 6 -5 -3 -1
right_child=1 5 -4 4 -6 -7 -8
leaf_value=-0.00053481892298300497 -0.0082128731041461577 0.01230548335692919 0.10018812749228437 0.025062985993654502 0.0057713479080788964 0.03829660740116269 0.0011283756655739014
leaf_weight=340772 87 1277 231 1143 5316 691 51683
leaf_count=340772 87 1277 231 1143 5316 691 51683
internal_value=-1.43857e-12 0.0282616 0.0705312 -0.000161955 0.00918524 0.0214314 -0.00031579
internal_weight=401200 2286 318 398914 6459 1968 392455
internal_count=401200 2286 318 398914 6459 1968 392455
is_linear=0
shrinkage=0.05


Tree=48
num_leaves=8
num_cat=0
split_feature=0 1 1 0 1 1 1
split_gain=665.899 289.785 180.805 165.496 117.43 116.383 28.1492
threshold=57515.000000000007 136.96250000000001 130.48750000000001 14229.500000000002 139.63750000000002 127.81250000000001 135.28750000000005
decision_type=2 2 2 2 2 2 2
left_child=3 2 -2 6 -3 -5 -1
right_child=1 4 -4 5 -6 -7 -8
leaf_value=0.00024903422569436893 -0.014836580932140351 -0.0010483879969459982 0.048663988613785 -0.041610890638458638 0.023650745617409635 0.0061402867268556087 -0.00065920259625856662
leaf_weight=127236 125 995 1086 129 932 11785 258912
leaf_count=127236 125 995 1086 129 932 11785 258912
internal_value=-4.49128e-12 0.0229426 0.0421094 -0.000180861 0.0108974 0.00562326 -0.000359938
internal_weight=401200 3138 1211 398062 1927 11914 386148
internal_count=401200 3138 1211 398062 1927 11914 386148
is_linear=0
shrinkage=0.05


Tree=49
num_leaves=8
num_cat=0
split_feature=0 0 1 2 1 1 0
split_gain=608.006 243.444 217.233 159.187 206.583 62.2193 42.8458
threshold=86114.500000000015 25039.500000000004 134.70000000000002 34.725000000000009 130.48750000000001 139.63750000000002 1562.5000000000002
decision_type=2 2 2 2 2 2 2
left_child=1 6 -3 4 -2 -5 -1
right_child=3 2 -4 5 -6 -7 -8
leaf_value=-0.00050111265004490913 -0.017996813382132579 0.026746877979068492 0.0047481120347582541 0.013335336577032446 0.087020621747434926 0.036060873476052628 0.00098680124900637069
leaf_weight=335931 59 1388 5860 649 227 562 56524
leaf_count=335931 59 1388 5860 649 227 562 56524
internal_value=-7.99006e-12 -0.00011912 0.0089609 0.0318054 0.0653562 0.0238818 -0.000286813
internal_weight=401200 399703 7248 1497 286 1211 392455
internal_count=401200 399703 7248 1497 286 1211 392455
is_linear=0
shrinkage=0.05


Tree=50
num_leaves=8
num_cat=0
split_feature=0 2 1 0 2 2 0
split_gain=553.835 224.37 237.361 168.583 135.684 108.718 36.3844
threshold=69800.500000000015 34.666666666666679 130.48750000000001 23092.000000000004 36.025000000000013 35.900000000000006 1154.5000000000002
decision_type=2 2 2 2 2 2 2
left_child=3 2 -2 6 -5 -3 -1
right_child=1 5 -4 4 -6 -7 -8
leaf_value=-0.00049778369094069476 -0.0068805732303994825 0.015262297856792196 0.090019190824264059 0.0037925654132996423 0.020339835016849137 0.064567330980501256 0.00078759130113144685
leaf_weight=325414 87 1849 231 5647 1587 119 66266
leaf_count=325414 87 1849 231 5647 1587 119 66266
internal_value=6.35816e-12 0.0245404 0.0635089 -0.00014063 0.00742272 0.0182436 -0.000280319
internal_weight=401200 2286 318 398914 7234 1968 391680
internal_count=401200 2286 318 398914 7234 1968 391680
is_linear=0
shrinkage=0.05


Tree=51
num_leaves=8
num_cat=0
split_feature=0 0 1 1 1 1 0
split_gain=508.922 195.684 199.913 145.446 144.19 130.135 37.852
threshold=86114.500000000015 25039.500000000004 134.70000000000002 139.38750000000002 139.63750000000002 130.41250000000005 8017.5000000000009
decision_type=2 2 2 2 2 2 2
left_child=1 6 -3 5 -5 -2 -1
right_child=3 2 -4 4 -6 -7 -8
leaf_value=-0.00035748532044291292 -0.036216405415680351 0.02509399999214218 0.0039904053834085781 -0.0064714008796347344 0.033310477464754816 0.056367190191686269 0.0021971903438937736
leaf_weight=377376 41 1388 5860 383 562 511 15079
leaf_count=377376 41 1388 5860 383 562 511 15079
internal_value=9.49197e-12 -0.000108983 0.00803177 0.0290987 0.0171872 0.0494905 -0.000259329
internal_weight=401200 399703 7248 1497 945 552 392455
internal_count=401200 399703 7248 1497 945 552 392455
is_linear=0
shrinkage=0.05


Tree=52
num_leaves=8
num_cat=0
split_feature=0 1 1 0 0 2 1
split_gain=462.175 282.966 364.379 331.197 78.0812 105.376 17.8814
threshold=42701.500000000007 134.70000000000002 130.48750000000001 110385.00000000001 10256.500000000002 34.425000000000004 135.28750000000005
decision_type=2 2 2 2 2 2 2
left_child=4 2 -2 -3 6 -6 -1
right_child=1 3 -4 -5 5 -7 -8
leaf_value=0.00016344139294205404 -0.0071637647443919018 0.0043146161105233078 0.076406952090213962 0.041095220773334967 0.011155527354139253 0.0011076195621249963 -0.00056479587875502121
leaf_weight=125764 197 3388 386 747 3356 11728 255634
leaf_count=125764 197 3388 386 747 3356 11728 255634
internal_value=-7.85217e-12 0.015557 0.0481678 0.0109591 -0.000185123 0.00334315 -0.000324663
internal_weight=401200 4718 583 4135 396482 15084 381398
internal_count=401200 4718 583 4135 396482 15084 381398
is_linear=0
shrinkage=0.05


Tree=53
num_leaves=8
num_cat=0
split_feature=0 0 1 1 1 1 0
split_gain=422.135 160.625 190.216 134.535 126.976 113.839 31.6053
threshold=86114.500000000015 25039.500000000004 127.81250000000001 139.38750000000002 139.63750000000002 130.41250000000005 964.50000000000011
decision_type=2 2 2 2 2 2 2
left_child=1 6 -3 5 -5 -2 -1
right_child=3 2 -4 4 -6 -7 -8
leaf_value=-0.00045092226899961509 -0.03404739939993838 -0.067981868174420784 0.0081480809699468436 -0.007155830848611911 0.030175931165757133 0.052545437084806183 0.00069898836383794057
leaf_weight=318923 41 83 7165 383 562 511 73532
leaf_count=318923 41 83 7165 383 562 511 73532
internal_value=-6.48467e-13 -9.92561e-05 0.00727628 0.0265016 0.0150457 0.0461137 -0.00023547
internal_weight=401200 399703 7248 1497 945 552 392455
internal_count=401200 399703 7248 1497 945 552 392455
is_linear=0
shrinkage=0.05


Tree=54
num_leaves=8
num_cat=0
split_feature=0 1 1 0 0 1 1
split_gain=383.659 284.651 321.162 272.229 76.2557 110.877 16.1149
threshold=48487.000000000007 134.70000000000002 130.48750000000001 110385.00000000001 10256.500000000002 139.08750000000003 136.96250000000001
decision_type=2 2 2 2 2 2 2
left_child=4 2 -2 -3 6 -6 -1
right_child=1 3 -4 -5 5 -7 -8
leaf_value=9.712452412250023e-05 -0.0019566603139652022 0.0036372876213729105 0.08792969436015724 0.037646003215108692 0.0063179445129577065 -0.0024413489228881026 -0.00056447395116135271
leaf_weight=155172 159 2772 265 747 10292 5567 226226
leaf_count=155172 159 2772 265 747 10292 5567 226226
internal_value=9.3694e-12 0.0155198 0.0542223 0.0108565 -0.000154042 0.00324316 -0.000295302
internal_weight=401200 3943 424 3519 397257 15859 381398
internal_count=401200 3943 424 3519 397257 15859 381398
is_linear=0
shrinkage=0.05


Tree=55
num_leaves=8
num_cat=0
split_feature=0 2 1 2 0 2 1
split_gain=351.493 193.386 180.47 106.172 103.443 134.35 24.1913
threshold=69800.500000000015 34.666666666666679 130.48750000000001 35.900000000000006 17092.000000000004 26.520833333333336 135.28750000000005
decision_type=2 2 2 2 2 2 2
left_child=4 2 -2 -3 6 -6 -1
right_child=1 3 -4 -5 5 -7 -8
leaf_value=0.00031864187352869798 -0.0056489674877589465 0.010758062692237197 0.078844063300074957 0.059482435475127042 -0.042834050698231346 0.0054678910062546798 -0.00052080336847255295
leaf_weight=128009 87 1849 231 119 146 10317 260442
leaf_count=128009 87 1849 231 119 146 10317 260442
internal_value=7.4695e-12 0.0195501 0.055728 0.0137043 -0.000112033 0.00479389 -0.000244175
internal_weight=401200 2286 318 1968 398914 10463 388451
internal_count=401200 2286 318 1968 398914 10463 388451
is_linear=0
shrinkage=0.05


Tree=56
num_leaves=8
num_cat=0
split_feature=0 1 0 1 1 1 0
split_gain=324.83 119.151 119.11 160.34 110.9 96.1458 26.6185
threshold=86114.500000000015 139.38750000000002 25039.500000000004 127.81250000000001 139.63750000000002 130.41250000000005 664.50000000000011
decision_type=2 2 2 2 2 2 2
left_child=2 5 6 -4 -3 -2 -1
right_child=1 4 3 -5 -6 -7 -8
leaf_value=-0.00042534619639405125 -0.031964744094804654 -0.0082821761887744271 -0.062831432076103727 0.0070646118245036226 0.026606465878753899 0.047614978375952188 0.00056295993806353053
leaf_weight=304704 41 383 83 7165 562 511 87751
leaf_count=304704 41 383 83 7165 562 511 87751
internal_value=1.1827e-11 0.0232475 -8.70683e-05 0.0062642 0.0124664 0.0417042 -0.000204366
internal_weight=401200 1497 399703 7248 945 552 392455
internal_count=401200 1497 399703 7248 945 552 392455
is_linear=0
shrinkage=0.05


Tree=57
num_leaves=7
num_cat=0
split_feature=0 2 2 0 2 1
split_gain=300.968 196.922 569.492 141.603 211.499 26.0642
threshold=110385.00000000001 34.600000000000001 34.666666666666679 25039.500000000004 34.425000000000004 136.96250000000001
decision_type=2 2 2 2 2 2
left_child=3 -2 -3 5 -5 -1
right_child=1 2 -4 4 -6 -7
leaf_value=0.00029602898964470868 -0.092273767628977377 0.19930592137575151 0.024563226271986788 0.025333473959139416 0.0030084910017168951 -0.00053286869467002575
leaf_weight=160373 31 50 691 1260 6713 232082
leaf_count=160373 31 50 691 1260 6713 232082
internal_value=1.66788e-12 0.0311891 0.0363542 -6.01307e-05 0.00653658 -0.000194148
internal_weight=401200 772 741 400428 7973 392455
internal_count=401200 772 741 400428 7973 392455
is_linear=0
shrinkage=0.05


Tree=58
num_leaves=7
num_cat=0
split_feature=0 2 2 0 2 0
split_gain=271.623 177.722 513.967 128.267 201.974 26.7316
threshold=110385.00000000001 34.600000000000001 34.666666666666679 27349.500000000004 36.275000000000006 4758.5000000000009
decision_type=2 2 2 2 2 2
left_child=3 -2 -3 5 -5 -1
right_child=1 2 -4 4 -6 -7
leaf_value=-0.00028791132613105138 -0.087660081444248084 0.18934062564373016 0.023335064320074324 0.00307454259832062 0.026719590394564396 0.0013667584530540171
leaf_weight=367118 31 50 691 6103 1060 26147
leaf_count=367118 31 50 691 6103 1060 26147
internal_value=1.35543e-12 0.0296297 0.0345365 -5.71241e-05 0.0065736 -0.000177897
internal_weight=401200 772 741 400428 7163 393265
internal_count=401200 772 741 400428 7163 393265
is_linear=0
shrinkage=0.05


Tree=59
num_leaves=8
num_cat=0
split_feature=0 1 2 0 0 2 0
split_gain=248.457 224.872 501.596 168.686 57.3997 147.207 11.7756
threshold=57515.000000000007 134.82500000000002 33.875000000000007 110385.00000000001 9209.0000000000018 34.358333333333341 607.50000000000011
decision_type=2 2 2 2 2 2 2
left_child=4 2 -2 -3 6 -6 -1
right_child=1 3 -4 -5 5 -7 -8
leaf_value=-0.00038462694497817221 0.019560375501308146 0.0026659310589921496 0.17859533759263846 0.03030194522865326 0.011288889173555116 0.00030746512951038835 0.0003029717613606377
leaf_weight=301214 209 2117 65 747 3866 14490 78492
leaf_count=301214 209 2117 65 747 3866 14490 78492
internal_value=-3.18889e-12 0.0140141 0.0572876 0.00987407 -0.000110476 0.00262029 -0.000242488
internal_weight=401200 3138 274 2864 398062 18356 379706
internal_count=401200 3138 274 2864 398062 18356 379706
is_linear=0
shrinkage=0.05


Tree=60
num_leaves=8
num_cat=0
split_feature=0 1 2 2 0 1 1
split_gain=225.854 103.446 94.4515 89.6855 80.3126 174.175 19.2698
threshold=86114.500000000015 139.38750000000002 35.600000000000001 34.850000000000001 17092.000000000004 139.15000000000003 135.28750000000005
decision_type=2 2 2 2 2 2 2
left_child=4 3 -3 -2 6 -6 -1
right_child=1 2 -4 -5 5 -7 -8
leaf_value=0.00030908681577368344 0.02733486285800801 -0.018293147887474989 0.018382045375627955 0.080506820736142501 0.0090220257286916256 -0.0037574167427064306 -0.00044011807785545042
leaf_weight=128009 456 233 712 96 6911 4341 260442
leaf_count=128009 456 233 712 96 6911 4341 260442
internal_value=1.50057e-12 0.0193848 0.00933938 0.0365822 -7.26016e-05 0.00409174 -0.000193227
internal_weight=401200 1497 945 552 399703 11252 388451
internal_count=401200 1497 945 552 399703 11252 388451
is_linear=0
shrinkage=0.05


Tree=61
num_leaves=8
num_cat=0
split_feature=0 1 2 0 0 1 2
split_gain=207.061 201.255 453.475 148.042 47.4821 95.9454 13.4012
threshold=57515.000000000007 134.82500000000002 33.875000000000007 110385.00000000001 12678.500000000002 139.15000000000003 34.63333333333334
decision_type=2 2 2 2 2 2 2
left_child=4 2 -2 -3 6 -6 -1
right_child=1 3 -4 -5 5 -7 -8
leaf_value=0.00024447763528799777 0.017859628693196194 0.0021242183736366223 0.16907359902675337 0.028013991228388338 0.0058961851936416886 -0.0029714565499277456 -0.00039767827044811843
leaf_weight=116590 209 2117 65 747 8788 4672 268012
leaf_count=116590 209 2117 65 747 8788 4672 268012
internal_value=-6.38694e-12 0.0127935 0.0537316 0.00887689 -0.000100853 0.0028182 -0.000203012
internal_weight=401200 3138 274 2864 398062 13460 384602
internal_count=401200 3138 274 2864 398062 13460 384602
is_linear=0
shrinkage=0.05


Tree=62
num_leaves=8
num_cat=0
split_feature=0 1 2 0 0 2 0
split_gain=188.022 171.482 520.035 115.264 52.758 111.487 12.8803
threshold=69800.500000000015 132.77500000000001 33.833333333333336 110385.00000000001 12678.500000000002 26.520833333333336 607.50000000000011
decision_type=2 2 2 2 2 2 2
left_child=4 2 -2 -3 6 -6 -1
right_child=1 3 -4 -5 5 -7 -8
leaf_value=-0.00034510581959001625 0.01405879315843276 0.002278647626586556 0.23803490111056497 0.02661329209804535 -0.03484577543531675 0.0034147936495611876 0.00035707477439787653
leaf_weight=301214 109 1396 34 747 193 14119 83388
leaf_count=301214 109 1396 34 747 193 14119 83388
internal_value=5.00061e-13 0.0142987 0.0673119 0.0107611 -8.19393e-05 0.00289884 -0.000192862
internal_weight=401200 2286 143 2143 398914 14312 384602
internal_count=401200 2286 143 2143 398914 14312 384602
is_linear=0
shrinkage=0.05


Tree=63
num_leaves=8
num_cat=0
split_feature=0 1 2 0 0 2 0
split_gain=172.323 193.404 193.972 112.346 23.6127 138.895 8.14542
threshold=37952.000000000007 139.02500000000001 36.491666666666667 110385.00000000001 7061.0000000000009 34.32500000000001 582.50000000000011
decision_type=2 2 2 2 2 2 2
left_child=4 3 -3 -2 6 -6 -1
right_child=1 2 -4 -5 5 -7 -8
leaf_value=-0.00032960997615425809 0.015180715386131798 -0.0060191557230032397 0.03172114161240995 0.052133849442803443 0.0092623974508288052 -0.00065132177903300939 0.00025148150671852794
leaf_weight=299583 2515 2355 398 224 4527 16092 75506
leaf_count=299583 2515 2355 398 224 4527 16092 75506
internal_value=1.11095e-11 0.00879595 -0.000563058 0.0182028 -0.000122078 0.00152528 -0.000212635
internal_weight=401200 5492 2753 2739 395708 20619 375089
internal_count=401200 5492 2753 2739 395708 20619 375089
is_linear=0
shrinkage=0.05


Tree=64
num_leaves=8
num_cat=0
split_feature=0 1 2 0 0 2 1
split_gain=160.882 150.34 471.203 101.762 42.2141 102.723 11.9175
threshold=69800.500000000015 132.77500000000001 33.833333333333336 110385.00000000001 12678.500000000002 26.520833333333336 135.37500000000003
decision_type=2 2 2 2 2 2 2
left_child=4 2 -2 -3 6 -6 -1
right_child=1 3 -4 -5 5 -7 -8
leaf_value=0.00021877140807243569 0.012173043563961983 0.0019440449185600707 0.22537412047386171 0.024808990947373582 -0.033640202053779149 0.0030857971845431771 -0.00037173808954472269
leaf_weight=128126 109 1396 34 747 193 14119 256476
leaf_count=128126 109 1396 34 747 193 14119 256476
internal_value=8.5179e-12 0.0132265 0.0628642 0.00991423 -7.57952e-05 0.00259054 -0.000175016
internal_weight=401200 2286 143 2143 398914 14312 384602
internal_count=401200 2286 143 2143 398914 14312 384602
is_linear=0
shrinkage=0.05


Tree=65
num_leaves=8
num_cat=0
split_feature=0 1 1 0 0 1 0
split_gain=145.854 208.575 226.681 122.779 26.2944 90.4347 8.39612
threshold=48487.000000000007 134.70000000000002 130.48750000000001 110385.00000000001 9209.0000000000018 139.08750000000003 582.50000000000011
decision_type=2 2 2 2 2 2 2
left_child=4 2 -2 -3 6 -6 -1
right_child=1 3 -4 -5 5 -7 -8
leaf_value=-0.00030402772042931837 -0.00449893389529777 0.00072911584692313645 0.071017138069530708 0.023568541679277001 0.0044301727659899117 -0.0030951651617304701 0.0002722022391179522
leaf_weight=299583 159 2772 265 747 11410 6141 80123
leaf_count=299583 159 2772 265 747 11410 6141 80123
internal_value=1.56989e-11 0.00956912 0.0426986 0.00557738 -9.49789e-05 0.0017971 -0.000182436
internal_weight=401200 3943 424 3519 397257 17551 379706
internal_count=401200 3943 424 3519 397257 17551 379706
is_linear=0
shrinkage=0.05


Tree=66
num_leaves=8
num_cat=0
split_feature=0 1 2 1 0 2 1
split_gain=134.284 82.9042 90.8732 83.9467 46.2444 148.227 16.5597
threshold=86114.500000000015 139.38750000000002 34.850000000000001 139.63750000000002 25039.500000000004 36.275000000000006 136.96250000000001
decision_type=2 2 2 2 2 2 2
left_child=4 2 -2 -3 6 -6 -1
right_child=1 3 -4 -5 5 -7 -8
leaf_value=0.00026164293631924265 0.021034374457922878 -0.012097702317767202 0.074557255138643086 0.018256600537864341 0.00067205754210832112 0.019733012489464852 -0.00039905874152257369
leaf_weight=160373 456 383 96 562 6020 1228 232082
leaf_count=160373 456 383 96 562 6020 1228 232082
internal_value=-4.29328e-12 0.0149472 0.0303427 0.00595427 -5.59815e-05 0.00390148 -0.000129069
internal_weight=401200 1497 552 945 399703 7248 392455
internal_count=401200 1497 552 945 399703 7248 392455
is_linear=0
shrinkage=0.05


Tree=67
num_leaves=8
num_cat=0
split_feature=0 1 2 1 0 2 0
split_gain=122.923 148.679 93.7642 78.2729 26.1385 115.975 7.50411
threshold=57515.000000000007 139.43750000000003 35.56666666666667 130.48750000000001 9209.0000000000018 34.358333333333341 607.50000000000011
decision_type=2 2 2 2 2 2 2
left_child=4 3 -3 -2 6 -6 -1
right_child=1 2 -4 -5 5 -7 -8
leaf_value=-0.00028025789697671595 -0.016684673905372618 -0.022956805368168996 0.0058279084571175224 0.024635540775581926 0.0094593028623207957 -0.00028780490093143998 0.00026864185615820051
leaf_weight=301214 125 364 1270 1379 3866 14490 78492
leaf_count=301214 125 364 1270 1379 3866 14490 78492
internal_value=-1.68808e-12 0.00985723 -0.000584353 0.0212013 -7.77065e-05 0.00176506 -0.000166791
internal_weight=401200 3138 1634 1504 398062 18356 379706
internal_count=401200 3138 1634 1504 398062 18356 379706
is_linear=0
shrinkage=0.05


Tree=68
num_leaves=7
num_cat=0
split_feature=0 2 2 0 2 1
split_gain=114.664 158.583 438.972 52.6882 162.524 15.5085
threshold=110385.00000000001 34.600000000000001 34.666666666666679 29957.000000000004 36.025000000000013 135.28750000000005
decision_type=2 2 2 2 2 2
left_child=3 -2 -3 5 -5 -1
right_child=1 2 -4 4 -6 -7
leaf_value=0.00033800474655597273 -0.091543131093344388 0.1669513224512339 0.013534278292128044 0.0010368074983068286 0.023013063901316081 -0.00032968525336537943
leaf_weight=129580 31 50 691 5387 997 264464
leaf_count=129580 31 50 691 5387 997 264464
internal_value=-9.28659e-12 0.0192512 0.0238863 -3.71151e-05 0.00446888 -0.000110118
internal_weight=401200 772 741 400428 6384 394044
internal_count=401200 772 741 400428 6384 394044
is_linear=0
shrinkage=0.05


Tree=69
num_leaves=8
num_cat=0
split_feature=0 1 2 2 0 1 0
split_gain=105.578 140.519 402.704 96.4117 26.4885 109.902 7.14792
threshold=69800.500000000015 132.77500000000001 33.833333333333336 35.900000000000006 10256.500000000002 139.08750000000003 607.50000000000011
decision_type=2 2 2 2 2 2 2
left_child=4 2 -2 -3 6 -6 -1
right_child=1 3 -4 -5 5 -7 -8
leaf_value=-0.00026039595343346007 0.011841630347824973 0.0049408494140893017 0.20893789363258028 0.051250035650715113 0.0048176774831274003 -0.0034277054807745387 0.00027081585496600494
leaf_weight=301214 109 2024 34 119 11190 6326 80184
leaf_count=301214 109 2024 34 119 11190 6326 80184
internal_value=-6.20669e-12 0.0107146 0.0587037 0.00751238 -6.14009e-05 0.00183981 -0.000148716
internal_weight=401200 2286 143 2143 398914 17516 381398
internal_count=401200 2286 143 2143 398914 17516 381398
is_linear=0
shrinkage=0.05


Tree=70
num_leaves=7
num_cat=0
split_feature=0 2 2 0 2 2
split_gain=100.583 143.848 396.172 42.7938 148.065 13.7256
threshold=110385.00000000001 34.600000000000001 34.666666666666679 29957.000000000004 36.541666666666671 34.56666666666667
decision_type=2 2 2 2 2 2
left_child=3 -2 -3 5 -5 -1
right_child=1 2 -4 4 -6 -7
leaf_value=0.00035691054145788064 -0.087491277364953879 0.15835671409219504 0.012610524308405461 0.0012165096273089497 0.024663262619496952 -0.00029091106205477205
leaf_weight=115787 31 50 691 5619 765 278257
leaf_count=115787 31 50 691 5619 765 278257
internal_value=8.40672e-12 0.0180304 0.022445 -3.47615e-05 0.00402615 -0.000100553
internal_weight=401200 772 741 400428 6384 394044
internal_count=401200 772 741 400428 6384 394044
is_linear=0
shrinkage=0.05


Tree=71
num_leaves=8
num_cat=0
split_feature=0 1 1 1 0 2 1
split_gain=91.1178 71.1074 119.606 74.242 28.1695 128.294 10.7681
threshold=86114.500000000015 139.81250000000003 139.68750000000003 140.09999999999999 19726.000000000004 26.520833333333336 135.28750000000005
decision_type=2 2 2 2 2 2 2
left_child=4 2 -2 -3 6 -6 -1
right_child=1 3 -4 -5 5 -7 -8
leaf_value=0.00026287331296361591 0.0097995329929393866 -0.03073287825157613 0.050355945384665715 0.041243504830028699 -0.045409821387190019 0.0033242489888922152 -0.00029607256129753203
leaf_weight=128485 1070 162 219 46 137 9467 261614
leaf_count=128485 1070 162 219 46 137 9467 261614
internal_value=-6.23193e-12 0.0123126 0.01669 -0.014815 -4.61141e-05 0.00262906 -0.000111975
internal_weight=401200 1497 1289 208 399703 9604 390099
internal_count=401200 1497 1289 208 399703 9604 390099
is_linear=0
shrinkage=0.05


Tree=72
num_leaves=7
num_cat=0
split_feature=0 2 2 0 2 1
split_gain=83.5325 129.286 358.745 35.145 151.672 12.5116
threshold=110385.00000000001 34.600000000000001 34.666666666666679 33347.000000000007 34.425000000000004 136.96250000000001
decision_type=2 2 2 2 2 2
left_child=3 -2 -3 5 -5 -1
right_child=1 2 -4 4 -6 -7
leaf_value=0.00025101614206455642 -0.083606689675681065 0.14994890705496075 0.01125802665991997 0.024222203813427153 0.00056226468634919496 -0.00032146424001873702
leaf_weight=161478 31 50 691 789 4787 233374
leaf_count=161478 31 50 691 789 4787 233374
internal_value=8.21366e-12 0.0164313 0.0206164 -3.16784e-05 0.00391013 -8.73436e-05
internal_weight=401200 772 741 400428 5576 394852
internal_count=401200 772 741 400428 5576 394852
is_linear=0
shrinkage=0.05


Tree=73
num_leaves=8
num_cat=0
split_feature=0 2 1 1 0 1 0
split_gain=75.6982 64.4705 159.834 44.1356 23.718 136.459 5.95238
threshold=86114.500000000015 34.725000000000009 135.56250000000003 139.85000000000002 9209.0000000000018 139.08750000000003 582.50000000000011
decision_type=2 2 2 2 2 2 2
left_child=4 2 -2 -3 6 -6 -1
right_child=1 3 -4 -5 5 -7 -8
leaf_value=-0.00023279980259106534 0.049986990886799837 0.010010894648918271 -0.047662231764372662 -0.017603759095072748 0.0047850660698517374 -0.0037816777832451322 0.00025237901023674895
leaf_weight=299583 235 1043 51 168 12647 7350 80123
leaf_count=299583 235 1043 51 168 12647 7350 80123
internal_value=-7.84178e-13 0.0112225 0.032574 0.00617996 -4.20315e-05 0.00163632 -0.000130421
internal_weight=401200 1497 286 1211 399703 19997 379706
internal_count=401200 1497 286 1211 399703 19997 379706
is_linear=0
shrinkage=0.05


Tree=74
num_leaves=7
num_cat=0
split_feature=0 2 2 0 2 2
split_gain=68.9417 121.185 316.406 30.094 140.143 10.4921
threshold=110385.00000000001 34.600000000000001 34.666666666666679 29957.000000000004 36.025000000000013 34.56666666666667
decision_type=2 2 2 2 2 2
left_child=3 -2 -3 5 -5 -1
right_child=1 2 -4 4 -6 -7
leaf_value=0.0003160141161929958 -0.081925701542246737 0.14044035869836807 0.010190494097607528 0.00018965897150942788 0.020596712316155674 -0.0002503832556572474
leaf_weight=115787 31 50 691 5387 997 278257
leaf_count=115787 31 50 691 5387 997 278257
internal_value=1.4195e-12 0.0149274 0.0189793 -2.87791e-05 0.00337666 -8.39515e-05
internal_weight=401200 772 741 400428 6384 394044
internal_count=401200 772 741 400428 6384 394044
is_linear=0
shrinkage=0.05


Tree=75
num_leaves=8
num_cat=0
split_feature=0 1 2 1 0 2 0
split_gain=64.3939 148.184 311.024 61.1027 14.866 200.277 2.54365
threshold=57515.000000000007 134.82500000000002 33.875000000000007 139.43750000000003 3301.5000000000005 34.32500000000001 582.50000000000011
decision_type=2 2 2 2 2 2 2
left_child=4 2 -2 -3 6 -6 -1
right_child=1 3 -4 -5 5 -7 -8
leaf_value=-0.00021693450442937631 0.012554483069329742 0.01219130584156156 0.13778563695458265 -0.0025626368878946173 0.0073031701633043677 -0.0010967224581545606 0.00014277047647371957
leaf_weight=299583 209 1230 65 1634 9254 30432 58793
leaf_count=299583 209 1230 65 1634 9254 30432 58793
internal_value=1.17182e-11 0.00713445 0.0422626 0.00377373 -5.62423e-05 0.000861968 -0.000157923
internal_weight=401200 3138 274 2864 398062 39686 358376
internal_count=401200 3138 274 2864 398062 39686 358376
is_linear=0
shrinkage=0.05


Tree=76
num_leaves=8
num_cat=0
split_feature=0 1 2 0 2 1 2
split_gain=61.4215 117.082 124.592 24.6175 127.771 8.63915 7.92725
threshold=110385.00000000001 139.85000000000002 34.600000000000001 21220.000000000004 36.233333333333334 139.88750000000002 34.291666666666671
decision_type=2 2 2 2 2 2 2
left_child=3 2 -2 6 -5 -3 -1
right_child=1 5 -4 4 -6 -7 -8
leaf_value=0.00029016124390085903 -0.078453629920559542 -0.072700969922927114 0.024030958429763192 -0.00019227439707663666 0.014984941060211568 -0.033619083521457822 -0.00022238473553108998
leaf_weight=102119 31 31 684 7877 1683 26 288749
leaf_count=102119 31 31 684 7877 1683 26 288749
internal_value=8.0854e-12 0.0140897 0.0195876 -2.71641e-05 0.00247961 -0.0548741 -8.84759e-05
internal_weight=401200 772 715 400428 9560 57 390868
internal_count=401200 772 715 400428 9560 57 390868
is_linear=0
shrinkage=0.05


Tree=77
num_leaves=8
num_cat=0
split_feature=0 1 2 2 0 1 0
split_gain=56.1609 55.1406 93.8038 77.6933 17.0853 157.997 3.98193
threshold=86114.500000000015 139.38750000000002 34.850000000000001 35.600000000000001 7061.0000000000009 134.70000000000002 582.50000000000011
decision_type=2 2 2 2 2 2 2
left_child=4 2 -2 -3 6 -6 -1
right_child=1 3 -4 -5 5 -7 -8
leaf_value=-0.00020173065308898741 0.012764870680525507 -0.022729276372079815 0.067143928385727733 0.010533586722338216 0.0080539766643980062 -0.0011151393008499947 0.00020455815776468245
leaf_weight=299583 456 233 96 712 6322 18292 75506
leaf_count=299583 456 233 96 712 6322 18292 75506
internal_value=-7.71695e-12 0.00966639 0.0222221 0.00233227 -3.62034e-05 0.00123991 -0.000119944
internal_weight=401200 1497 552 945 399703 24614 375089
internal_count=401200 1497 552 945 399703 24614 375089
is_linear=0
shrinkage=0.05


Tree=78
num_leaves=8
num_cat=0
split_feature=0 1 2 0 1 0 1
split_gain=52.7233 106.298 113.224 21.9349 177.027 8.68178 7.79683
threshold=110385.00000000001 139.85000000000002 34.600000000000001 37952.000000000007 134.82500000000002 1802.5000000000002 139.88750000000002
decision_type=2 2 2 2 2 2 2
left_child=3 2 -2 5 -5 -1 -3
right_child=1 6 -4 4 -6 -7 -8
leaf_value=-0.00015961759369628324 -0.075169193023635505 -0.06959259394676455 0.022528373310614747 0.026001535485154149 -0.00077863721024533296 0.00051771409006227031 -0.032464806735515599
leaf_weight=340772 31 31 684 730 3990 54936 26
leaf_count=340772 31 31 684 730 3990 54936 26
internal_value=5.26655e-14 0.013054 0.0182925 -2.51673e-05 0.00336321 -6.55839e-05 -0.0526571
internal_weight=401200 772 715 400428 4720 395708 57
internal_count=401200 772 715 400428 4720 395708 57
is_linear=0
shrinkage=0.05


Tree=79
num_leaves=8
num_cat=0
split_feature=0 1 2 2 1 0 0
split_gain=47.9507 129.346 325.754 88.7515 11.8164 120.033 46.8553
threshold=69800.500000000015 132.77500000000001 33.833333333333336 35.900000000000006 137.85000000000005 2834.5000000000005 2920.5000000000005
decision_type=2 2 2 2 2 2 2
left_child=4 2 -2 -3 5 -1 -6
right_child=1 3 -4 -5 6 -7 -8
leaf_value=-0.00024373469326504041 0.011114891297226653 0.0016812819679702076 0.18838284005794456 0.046112715612564775 -5.4081383092938e-05 0.0035647481317785073 -0.002573723153562493
leaf_weight=157386 109 2024 34 119 197354 23820 20354
leaf_count=157386 109 2024 34 119 197354 23820 20354
internal_value=3.22197e-12 0.00722085 0.0532625 0.00414854 -4.13795e-05 0.0002569 -0.000289648
internal_weight=401200 2286 143 2143 398914 181206 217708
internal_count=401200 2286 143 2143 398914 181206 217708
is_linear=0
shrinkage=0.05


Tree=80
num_leaves=8
num_cat=0
split_feature=0 2 2 1 0 2 1
split_gain=46.8235 98.6747 244.786 85.5997 17.6361 127.494 7.34649
threshold=110385.00000000001 34.725000000000009 34.600000000000001 139.63750000000002 33347.000000000007 36.025000000000013 136.96250000000001
decision_type=2 2 2 2 2 2 2
left_child=4 2 -2 -3 6 -6 -1
right_child=1 3 -4 -5 5 -7 -8
leaf_value=0.00019612610699505062 -0.071875181649961789 -0.018335597795598648 0.088381448952318406 0.019053662056711263 -0.00024168424977041099 0.02175747299280633 -0.00024255021120192478
leaf_weight=161478 31 255 103 383 4813 763 233374
leaf_count=161478 31 255 103 383 4813 763 233374
internal_value=-5.34283e-12 0.012302 0.0513072 0.00410968 -2.37175e-05 0.0027686 -6.31499e-05
internal_weight=401200 772 134 638 400428 5576 394852
internal_count=401200 772 134 638 400428 5576 394852
is_linear=0
shrinkage=0.05


Tree=81
num_leaves=8
num_cat=0
split_feature=0 1 1 0 1 1 0
split_gain=42.2582 96.9269 98.866 16.2856 154.728 7.03664 6.95696
threshold=110385.00000000001 139.85000000000002 139.68750000000003 37952.000000000007 134.82500000000002 139.88750000000002 1562.5000000000002
decision_type=2 2 2 2 2 2 2
left_child=3 2 -2 6 -5 -3 -1
right_child=1 5 -4 4 -6 -7 -8
leaf_value=-0.00014579377448646792 0.0048610619278459978 -0.067149713539308126 0.045914918466389759 0.024061596846743805 -0.00097512109576255307 -0.031878316975556889 0.00043963629977434313
leaf_weight=335931 509 31 206 730 3990 26 59777
leaf_count=335931 509 31 206 730 3990 26 59777
internal_value=-1.18421e-12 0.0116869 0.0166892 -2.25316e-05 0.00289708 -0.051061 -5.73567e-05
internal_weight=401200 772 715 400428 4720 57 395708
internal_count=401200 772 715 400428 4720 57 395708
is_linear=0
shrinkage=0.05


Tree=82
num_leaves=8
num_cat=0
split_feature=0 2 2 2 0 1 1
split_gain=38.1381 91.6614 91.9916 18.7296 14.8278 192.137 7.25115
threshold=110385.00000000001 35.775000000000013 34.600000000000001 35.81666666666667 42701.500000000007 134.70000000000002 136.96250000000001
decision_type=2 2 2 2 2 2 2
left_child=4 2 -2 -3 6 -6 -1
right_child=1 3 -4 -5 5 -7 -8
leaf_value=0.00020517008200655331 -0.068524474770792071 -0.028308495975309808 0.019523597094507454 -0.089465403627781645 0.030214828658702127 -0.0014491131288684473 -0.00022971401948202833
leaf_weight=162241 31 31 689 21 558 3388 234241
leaf_count=162241 31 31 689 21 558 3388 234241
internal_value=-1.05412e-12 0.0111025 0.0157326 -0.0530065 -2.1405e-05 0.00302845 -5.17588e-05
internal_weight=401200 772 720 52 400428 3946 396482
internal_count=401200 772 720 52 400428 3946 396482
is_linear=0
shrinkage=0.05


Tree=83
num_leaves=8
num_cat=0
split_feature=0 1 1 2 0 2 0
split_gain=34.9929 114.856 287.856 80.2714 8.92942 146.052 2.18734
threshold=69800.500000000015 132.77500000000001 130.48750000000001 35.900000000000006 4758.5000000000009 34.358333333333341 543.50000000000011
decision_type=2 2 2 2 2 2 2
left_child=4 2 -2 -3 6 -6 -1
right_child=1 3 -4 -5 5 -7 -8
leaf_value=-0.00016428012817748029 -0.0073598549968894866 0.00092697655087292739 0.13797568229160137 0.043182421411473715 0.0069876802657098946 -0.0010779879817210886 0.00014616546754907394
leaf_weight=296978 87 2024 56 119 7279 24517 70140
leaf_count=296978 87 2024 56 119 7279 24517 70140
internal_value=-1.29492e-11 0.00616852 0.0495548 0.00327341 -3.53491e-05 0.000768471 -0.000104968
internal_weight=401200 2286 143 2143 398914 31796 367118
internal_count=401200 2286 143 2143 398914 31796 367118
is_linear=0
shrinkage=0.05


Tree=84
num_leaves=8
num_cat=0
split_feature=0 2 2 1 0 2 2
split_gain=34.205 93.9381 207.387 76.0303 12.6745 120.005 4.16514
threshold=110385.00000000001 34.725000000000009 34.600000000000001 139.63750000000002 17092.000000000004 26.520833333333336 34.291666666666671
decision_type=2 2 2 2 2 2 2
left_child=4 2 -2 -3 6 -6 -1
right_child=1 3 -4 -5 5 -7 -8
leaf_value=0.00020536185344015745 -0.064810452442015373 -0.018632281936851205 0.082696791702103853 0.016605138261231056 -0.041027173619328838 0.0021696310554144976 -0.00016713269716120744
leaf_weight=101642 31 255 103 383 163 11814 286809
leaf_count=101642 31 255 103 383 163 11814 286809
internal_value=3.32936e-12 0.0105145 0.048572 0.00252122 -2.02713e-05 0.00158175 -6.96659e-05
internal_weight=401200 772 134 638 400428 11977 388451
internal_count=401200 772 134 638 400428 11977 388451
is_linear=0
shrinkage=0.05


Tree=85
num_leaves=8
num_cat=0
split_feature=0 1 2 0 2 1 0
split_gain=30.87 89.5343 87.4049 11.5083 106.141 6.32137 3.58547
threshold=110385.00000000001 139.85000000000002 35.81666666666667 15093.500000000002 26.520833333333336 139.88750000000002 649.50000000000011
decision_type=2 2 2 2 2 2 2
left_child=3 2 -2 6 -5 -3 -1
right_child=1 5 -4 4 -6 -7 -8
leaf_value=-0.00014892333258661637 0.017837482018755905 -0.065567870486167176 -0.085700940943899614 -0.036830830307646174 0.0019290506053878899 -0.032137178801573241 0.00022175887697518134
leaf_weight=303851 694 31 21 179 13328 26 83070
leaf_count=303851 694 31 21 179 13328 26 83070
internal_value=-9.09428e-12 0.00998876 0.0147965 -1.92577e-05 0.00141539 -0.0503188 -6.93397e-05
internal_weight=401200 772 715 400428 13507 57 386921
internal_count=401200 772 715 400428 13507 57 386921
is_linear=0
shrinkage=0.05


Tree=86
num_leaves=8
num_cat=0
split_feature=0 1 1 2 1 0 0
split_gain=28.3081 50.3422 102.539 72.7929 9.54565 107.48 50.016
threshold=86114.500000000015 135.37500000000003 130.48750000000001 34.600000000000001 137.85000000000005 2834.5000000000005 2920.5000000000005
decision_type=2 2 2 2 2 2 2
left_child=4 2 -2 -3 5 -1 -6
right_child=1 3 -4 -5 6 -7 -8
leaf_value=-0.00023444899142118457 -0.011254684046163399 -0.072956414421399426 0.078826688361518529 0.0057956323955110764 -2.7669576442717862e-06 0.0033476938190312826 -0.0025800751232479394
leaf_weight=157386 59 30 68 1340 197354 24154 20809
leaf_count=157386 59 30 68 1340 197354 24154 20809
internal_value=-6.05764e-12 0.00686282 0.0369779 0.00407114 -2.57032e-05 0.000242157 -0.000248598
internal_weight=401200 1497 127 1370 399703 181540 218163
internal_count=401200 1497 127 1370 399703 181540 218163
is_linear=0
shrinkage=0.05


Tree=87
num_leaves=8
num_cat=0
split_feature=0 2 2 1 0 1 1
split_gain=25.9243 83.327 182.285 72.6149 9.8818 120.804 4.83243
threshold=110385.00000000001 34.725000000000009 34.600000000000001 139.68750000000003 37952.000000000007 134.82500000000002 136.96250000000001
decision_type=2 2 2 2 2 2 2
left_child=4 2 -2 -3 6 -6 -1
right_child=1 3 -4 -5 5 -7 -8
leaf_value=0.00016522367966278153 -0.061301959330035793 -0.012501107823848726 0.076990322638483877 0.021767763844461042 0.020957622299200462 -0.0011648627109317935 -0.00019015823852556337
leaf_weight=161880 31 375 103 263 730 3990 233828
leaf_count=161880 31 375 103 263 730 3990 233828
internal_value=-8.04245e-13 0.00915369 0.0449973 0.0016254 -1.76477e-05 0.00225662 -4.47752e-05
internal_weight=401200 772 134 638 400428 4720 395708
internal_count=401200 772 134 638 400428 4720 395708
is_linear=0
shrinkage=0.05


Tree=88
num_leaves=8
num_cat=0
split_feature=0 1 1 1 2 0 0
split_gain=23.6825 47.6603 90.1328 55.7687 7.91311 113.079 14.8023
threshold=86114.500000000015 139.81250000000003 139.68750000000003 140.09999999999999 26.520833333333336 27349.500000000004 14229.500000000002
decision_type=2 2 2 2 2 2 2
left_child=4 2 -2 -3 5 -1 -6
right_child=1 3 -4 -5 6 -7 -8
leaf_value=-0.00095281164432971287 0.0038793585819483813 -0.029728101120318897 0.039085941013271952 0.032654075130172398 -4.9784492554608872e-05 -0.057634709758704973 0.0016432037904780452
leaf_weight=7755 1070 162 219 46 378492 89 13367
leaf_count=7755 1070 162 219 46 378492 89 13367
internal_value=-1.7943e-12 0.00627713 0.00986093 -0.015932 -2.35096e-05 -0.00159594 7.96632e-06
internal_weight=401200 1497 1289 208 399703 7844 391859
internal_count=401200 1497 1289 208 399703 7844 391859
is_linear=0
shrinkage=0.05


Tree=89
num_leaves=8
num_cat=0
split_feature=0 1 1 2 1 0 0
split_gain=21.8767 139.083 129.47 53.5832 4.85845 72.3826 37.0983
threshold=48487.000000000007 134.70000000000002 130.48750000000001 35.983333333333341 137.85000000000005 2094.5000000000005 2920.5000000000005
decision_type=2 2 2 2 2 2 2
left_child=4 2 -2 -3 5 -1 -6
right_child=1 3 -4 -5 6 -7 -8
leaf_value=-0.00026757894375466077 -0.0049102401583449654 -0.0012854438111664108 0.052160937358748244 0.022427502722417798 9.5236406754009693e-06 0.0025293712716531044 -0.0022744194530484436
leaf_weight=153115 159 3262 265 257 197354 27248 19540
leaf_count=153115 159 3262 265 257 197354 27248 19540
internal_value=4.01003e-12 0.00370598 0.0307592 0.000446363 -3.67839e-05 0.000154965 -0.000196237
internal_weight=401200 3943 424 3519 397257 180363 216894
internal_count=401200 3943 424 3519 397257 180363 216894
is_linear=0
shrinkage=0.05


Tree=90
num_leaves=8
num_cat=0
split_feature=0 2 1 2 1 0 0
split_gain=21.7401 79.3138 77.4641 13.3537 7.54746 89.3732 40.525
threshold=110385.00000000001 35.775000000000013 139.85000000000002 35.81666666666667 137.85000000000005 2834.5000000000005 2920.5000000000005
decision_type=2 2 2 2 2 2 2
left_child=4 2 -2 -3 5 -1 -6
right_child=1 3 -4 -5 6 -7 -8
leaf_value=-0.0002152788052924696 0.017452296404818813 -0.03039796789807658 -0.043783940215195931 -0.082037401199340831 9.047459546667599e-06 0.0030326514480563424 -0.0022907560173992115
leaf_weight=157386 664 31 56 21 197354 24474 21214
leaf_count=157386 664 31 56 21 197354 24474 21214
internal_value=-6.48315e-12 0.00838252 0.0126895 -0.0512524 -1.6161e-05 0.000221815 -0.000214169
internal_weight=401200 772 720 52 400428 181860 218568
internal_count=401200 772 720 52 400428 181860 218568
is_linear=0
shrinkage=0.05


Tree=91
num_leaves=8
num_cat=0
split_feature=0 1 1 2 2 0 0
split_gain=19.9457 45.3479 88.2482 63.929 7.08393 103.171 11.7553
threshold=86114.500000000015 135.37500000000003 130.48750000000001 34.600000000000001 26.520833333333336 25039.500000000004 17092.000000000004
decision_type=2 2 2 2 2 2 2
left_child=4 2 -2 -3 5 -1 -6
right_child=1 3 -4 -5 6 -7 -8
leaf_value=-0.00085442249004975791 -0.01040263135554427 -0.069074504176775617 0.073166214619927547 0.0047271525180366918 -3.8543649994794926e-05 -0.051717562530890548 0.001612433532614387
leaf_weight=7743 59 30 68 1340 380763 101 11096
leaf_count=7743 59 30 68 1340 380763 101 11096
internal_value=-9.6912e-12 0.00576065 0.0343429 0.00311106 -2.15753e-05 -0.00150934 8.20593e-06
internal_weight=401200 1497 127 1370 399703 7844 391859
internal_count=401200 1497 127 1370 399703 7844 391859
is_linear=0
shrinkage=0.05


Tree=92
num_leaves=8
num_cat=0
split_feature=0 2 2 1 2 0 0
split_gain=18.2617 74.4708 159.946 69.8654 7.34289 127.817 18.3029
threshold=110385.00000000001 34.725000000000009 34.600000000000001 139.63750000000002 34.600000000000001 2834.5000000000005 2834.5000000000005
decision_type=2 2 2 2 2 2 2
left_child=4 2 -2 -3 5 -1 -6
right_child=1 3 -4 -5 6 -7 -8
leaf_value=-0.00025941379975364369 -0.058005087606368522 -0.019712067456806408 0.071536689593447653 0.014066561992345839 -6.679689909470417e-06 0.0050012276994914869 -0.0012578252173434206
leaf_weight=105737 31 255 103 383 248603 12962 33126
leaf_count=105737 31 255 103 383 248603 12962 33126
internal_value=1.18392e-11 0.00768269 0.0415681 0.000565699 -1.48117e-05 0.000315051 -0.000153791
internal_weight=401200 772 134 638 400428 118699 281729
internal_count=401200 772 134 638 400428 118699 281729
is_linear=0
shrinkage=0.05


Tree=93
num_leaves=8
num_cat=0
split_feature=0 1 1 1 2 0 0
split_gain=17.2522 106.973 255.703 53.6636 4.98408 110.097 14.3528
threshold=57515.000000000007 132.70000000000002 130.48750000000001 139.43750000000003 34.32500000000001 3008.5000000000005 2834.5000000000005
decision_type=2 2 2 2 2 2 2
left_child=4 2 -2 -3 5 -1 -6
right_child=1 3 -4 -5 6 -7 -8
leaf_value=-0.00025469805646943154 -0.01409600510597229 0.0087689545649118957 0.088752387871599614 -0.0049573428504798229 -9.4268819342168872e-06 0.0052927143394376434 -0.0011098001671129868
leaf_weight=95242 125 1262 117 1634 259494 9871 33455
leaf_count=95242 125 1262 117 1634 259494 9871 33455
internal_value=-4.37465e-12 0.00369285 0.0356282 0.00102421 -2.91114e-05 0.000266251 -0.00013509
internal_weight=401200 3138 242 2896 398062 105113 292949
internal_count=401200 3138 242 2896 398062 105113 292949
is_linear=0
shrinkage=0.05


Tree=94
num_leaves=8
num_cat=0
split_feature=0 2 1 2 2 0 0
split_gain=16.8504 71.6081 70.1959 11.9995 6.01706 104.466 15.2224
threshold=110385.00000000001 35.775000000000013 139.85000000000002 35.81666666666667 34.600000000000001 2834.5000000000005 2834.5000000000005
decision_type=2 2 2 2 2 2 2
left_child=4 2 -2 -3 5 -1 -6
right_child=1 3 -4 -5 6 -7 -8
leaf_value=-0.00023497138101253838 0.01600613792466157 -0.029515404758914829 -0.042286566857780733 -0.078466499703271061 -5.874364654282261e-06 0.0045209102997350262 -0.001146885748332814
leaf_weight=105737 664 31 56 21 248603 12962 33126
leaf_count=105737 664 31 56 21 248603 12962 33126
internal_value=5.51412e-12 0.00737986 0.0114723 -0.0492841 -1.42279e-05 0.000284374 -0.000140036
internal_weight=401200 772 720 52 400428 118699 281729
internal_count=401200 772 720 52 400428 118699 281729
is_linear=0
shrinkage=0.05


Tree=95
num_leaves=8
num_cat=0
split_feature=0 1 1 2 2 0 0
split_gain=15.6925 40.7807 73.2875 57.7647 6.40947 95.1138 9.84786
threshold=86114.500000000015 135.37500000000003 130.48750000000001 34.600000000000001 26.520833333333336 25039.500000000004 25039.500000000004
decision_type=2 2 2 2 2 2 2
left_child=4 2 -2 -3 5 -1 -6
right_child=1 3 -4 -5 6 -7 -8
leaf_value=-0.00080548284177474273 -0.0085622577343956903 -0.066020119587580361 0.067594143978374849 0.0041332569401433218 -2.4973262723631549e-05 -0.04964206748374618 0.0018481919135356524
leaf_weight=7743 59 30 68 1340 384712 101 7147
leaf_count=7743 59 30 68 1340 384712 101 7147
internal_value=1.47994e-12 0.00510968 0.0322144 0.00259705 -1.91372e-05 -0.00143431 9.19084e-06
internal_weight=401200 1497 127 1370 399703 7844 391859
internal_count=401200 1497 127 1370 399703 7844 391859
is_linear=0
shrinkage=0.05


Tree=96
num_leaves=8
num_cat=0
split_feature=0 1 2 2 1 0 0
split_gain=14.1625 38.1778 82.4379 64.5474 5.81231 81.4249 8.88004
threshold=86114.500000000015 139.43750000000003 34.850000000000001 35.600000000000001 128.05000000000004 25039.500000000004 14229.500000000002
decision_type=2 2 2 2 2 2 2
left_child=4 2 -2 -3 5 -1 -6
right_child=1 3 -4 -5 6 -7 -8
leaf_value=-0.00077751420659950626 0.0053873192184000166 -0.025287272128349487 0.052434705847348918 0.0058876805460604791 -3.5830641913778162e-05 -0.045526188857925753 0.0012758360354622861
leaf_weight=7796 456 217 117 707 378445 103 13359
leaf_count=7796 456 217 117 707 378445 103 13359
internal_value=-4.10367e-12 0.0048542 0.0149939 -0.00143371 -1.81803e-05 -0.00136102 8.89212e-06
internal_weight=401200 1497 573 924 399703 7899 391804
internal_count=401200 1497 573 924 399703 7899 391804
is_linear=0
shrinkage=0.05


Tree=97
num_leaves=8
num_cat=0
split_feature=0 2 1 2 2 0 0
split_gain=13.7487 65.0022 63.7683 10.8295 5.7713 101.039 15.0779
threshold=110385.00000000001 35.775000000000013 139.85000000000002 35.81666666666667 34.600000000000001 48487.000000000007 2834.5000000000005
decision_type=2 2 2 2 2 2 2
left_child=4 2 -2 -3 5 -1 -6
right_child=1 3 -4 -5 6 -7 -8
leaf_value=0.00018142991995490938 0.014886505130947714 -0.028540681831298337 -0.040673287212848665 -0.075044225794928421 -2.5404484726565936e-06 0.02195951055561271 -0.001138124340665636
leaf_weight=118164 664 31 56 21 248603 535 33126
leaf_count=118164 664 31 56 21 248603 535 33126
internal_value=-3.40769e-12 0.00666612 0.0105652 -0.047321 -1.28519e-05 0.000279588 -0.000136064
internal_weight=401200 772 720 52 400428 118699 281729
internal_count=401200 772 720 52 400428 118699 281729
is_linear=0
shrinkage=0.05


Tree=98
num_leaves=8
num_cat=0
split_feature=0 2 2 1 1 0 2
split_gain=12.4082 62.0312 142.867 71.3006 5.38343 63.2529 33.2678
threshold=110385.00000000001 34.725000000000009 34.70000000000001 139.63750000000002 137.85000000000005 2094.5000000000005 36.275000000000006
decision_type=2 2 2 2 2 2 2
left_child=4 2 -2 -3 5 -1 -6
right_child=1 3 -4 -5 6 -7 -8
leaf_value=-0.00021525515980605305 0.012533638414439805 -0.020647609677969244 0.14506084384024143 0.013476202393792006 -0.0015994271065689009 0.0023409083433027105 8.8535723539495738e-05
leaf_weight=153115 109 255 25 383 34699 28745 183869
leaf_count=153115 109 255 25 383 34699 28745 183869
internal_value=7.59547e-12 0.00633281 0.0372589 -0.000162625 -1.22093e-05 0.000188775 -0.000179439
internal_weight=401200 772 134 638 400428 181860 218568
internal_count=401200 772 134 638 400428 181860 218568
is_linear=0
shrinkage=0.05


Tree=99
num_leaves=8
num_cat=0
split_feature=0 1 1 1 2 0 0
split_gain=11.1984 59.6136 76.9011 5.72724 5.08303 119.264 12.9652
threshold=110385.00000000001 139.85000000000002 139.68750000000003 139.88750000000002 34.425000000000004 69800.500000000015 2537.5000000000005
decision_type=2 2 2 2 2 2 2
left_child=4 2 -2 -3 5 -1 -6
right_child=1 3 -4 -5 6 -7 -8
leaf_value=0.00022362623604079736 -0.00049259316812915279 -0.057708206292121644 0.035714761692198733 -0.025887298927857329 6.7725015034732026e-06 0.050731886910577111 -0.0009927201848668279
leaf_weight=110272 509 31 206 26 252816 117 37223
leaf_count=110272 509 31 206 26 252816 117 37223
internal_value=7.94334e-12 0.00601617 0.00993918 -0.0431934 -1.15988e-05 0.000277159 -0.0001215
internal_weight=401200 772 715 57 400428 110389 290039
internal_count=401200 772 715 57 400428 110389 290039
is_linear=0
shrinkage=0.05


Tree=100
num_leaves=8
num_cat=0
split_feature=0 2 2 2 1 0 0
split_gain=10.1065 60.5513 55.6466 9.39297 5.0257 64.281 8.56927
threshold=110385.00000000001 35.775000000000013 34.600000000000001 35.81666666666667 128.05000000000004 7663.5000000000009 14229.500000000002
decision_type=2 2 2 2 2 2 2
left_child=4 2 -2 -3 5 -1 -6
right_child=1 3 -4 -5 6 -7 -8
leaf_value=-0.00036685904209170548 -0.056053198729791955 -0.028900285257447152 0.012427030961165755 -0.072209737130573812 -3.0936726251657272e-05 -0.024039487603851814 0.0012254330080160403
leaf_weight=7608 31 31 689 21 378445 298 14077
leaf_count=7608 31 31 689 21 378445 298 14077
internal_value=5.08038e-12 0.00571537 0.00947858 -0.0463906 -1.10189e-05 -0.00125915 1.41204e-05
internal_weight=401200 772 720 52 400428 7906 392522
internal_count=401200 772 720 52 400428 7906 392522
is_linear=0
shrinkage=0.05


Tree=101
num_leaves=8
num_cat=0
split_feature=0 2 2 2 2 0 0
split_gain=9.12114 59.0029 127.328 63.9402 4.72973 88.3511 13.4568
threshold=110385.00000000001 34.725000000000009 34.600000000000001 35.600000000000001 34.600000000000001 3514.5000000000005 2834.5000000000005
decision_type=2 2 2 2 2 2 2
left_child=4 2 -2 -3 5 -1 -6
right_child=1 3 -4 -5 6 -7 -8
leaf_value=-0.00018816348426217293 -0.053250540168054639 -0.022952730704768463 0.062330127395327811 0.010458800506351113 4.1325400718127942e-06 0.0044601418516816427 -0.001068669590277067
leaf_weight=107401 31 217 103 421 248603 11298 33126
leaf_count=107401 31 217 103 421 248603 11298 33126
internal_value=-4.72143e-12 0.0054296 0.0355913 -0.00090531 -1.04679e-05 0.000254271 -0.000122009
internal_weight=401200 772 134 638 400428 118699 281729
internal_count=401200 772 134 638 400428 118699 281729
is_linear=0
shrinkage=0.05


Tree=102
num_leaves=8
num_cat=0
split_feature=0 1 1 1 2 0 0
split_gain=8.51634 89.825 218.63 42.636 3.42774 80.7938 10.2748
threshold=57515.000000000007 132.70000000000002 130.48750000000001 139.43750000000003 34.291666666666671 5745.5000000000009 2834.5000000000005
decision_type=2 2 2 2 2 2 2
left_child=4 2 -2 -3 5 -1 -6
right_child=1 3 -4 -5 6 -7 -8
leaf_value=-0.00011282791853724848 -0.01411998518705368 0.0070524401733247357 0.080980971328213691 -0.0051824977174441183 -1.201239678782042e-06 0.00597425476187575 -0.00092856527817499845
leaf_weight=97537 125 1262 117 1634 261023 5774 33728
leaf_count=97537 125 1262 117 1634 261023 5774 33728
internal_value=7.83448e-12 0.00259457 0.0318586 0.000149164 -2.04535e-05 0.000227376 -0.000107318
internal_weight=401200 3138 242 2896 398062 103311 294751
internal_count=401200 3138 242 2896 398062 103311 294751
is_linear=0
shrinkage=0.05


Tree=103
num_leaves=8
num_cat=0
split_feature=0 1 1 2 1 0 0
split_gain=8.593 55.1974 129.29 124.059 4.59342 60.2326 7.16817
threshold=110385.00000000001 139.81250000000003 139.77500000000001 35.733333333333341 128.05000000000004 7663.5000000000009 25039.500000000004
decision_type=2 2 2 2 2 2 2
left_child=4 2 -2 -3 5 -1 -6
right_child=1 3 -4 -5 6 -7 -8
leaf_value=-0.00033967083715233902 0.0046651970122901492 0.0014721235739333289 0.09625853673532242 -0.1346464977684346 -1.6675631655773594e-05 -0.023254716482588509 0.0015083387504902608
leaf_weight=7608 639 70 41 22 384659 298 7863
leaf_count=7608 639 70 41 22 384659 298 7863
internal_value=2.87495e-12 0.00527006 0.0101877 -0.031078 -1.01603e-05 -0.00120341 1.38735e-05
internal_weight=401200 772 680 92 400428 7906 392522
internal_count=401200 772 680 92 400428 7906 392522
is_linear=0
shrinkage=0.05


Tree=104
num_leaves=8
num_cat=0
split_feature=0 1 1 2 2 0 0
split_gain=7.79235 34.9101 59.6973 51.9308 4.60881 74.634 6.25585
threshold=86114.500000000015 135.37500000000003 130.48750000000001 34.600000000000001 26.520833333333336 8398.5000000000018 9209.0000000000018
decision_type=2 2 2 2 2 2 2
left_child=4 2 -2 -3 5 -1 -6
right_child=1 3 -4 -5 6 -7 -8
leaf_value=-0.000312271746874332 -0.0081235478490085927 -0.063784060080846153 0.060609968499664005 0.0027324723492640614 -3.5483179616516985e-05 -0.027607044497051755 0.0008778125425554467
leaf_weight=7585 59 30 68 1340 372114 259 19745
leaf_count=7585 59 30 68 1340 372114 259 19745
internal_value=-1.31889e-11 0.00360065 0.0286786 0.00127591 -1.34855e-05 -0.00121351 1.0536e-05
internal_weight=401200 1497 127 1370 399703 7844 391859
internal_count=401200 1497 127 1370 399703 7844 391859
is_linear=0
shrinkage=0.05


Tree=105
num_leaves=8
num_cat=0
split_feature=0 2 2 1 1 0 2
split_gain=7.22052 56.2649 176.109 101.258 4.15545 51.5594 29.2877
threshold=110385.00000000001 34.666666666666679 34.600000000000001 135.37500000000003 137.85000000000005 1802.5000000000002 36.275000000000006
decision_type=2 2 2 2 2 2 2
left_child=4 2 -2 -3 5 -1 -6
right_child=1 3 -4 -5 6 -7 -8
leaf_value=-0.00021494786130205501 -0.049375340246385145 0.10832131022498721 0.10230799758434295 -0.0031791991595901663 -0.0014885779648942156 0.0020216662522310209 9.5196271120597803e-05
leaf_weight=150782 31 21 50 670 34699 31078 183869
leaf_count=150782 31 21 50 670 34699 31078 183869
internal_value=3.59363e-13 0.00483089 0.0442563 0.000209384 -9.31366e-06 0.000167266 -0.000156238
internal_weight=401200 772 81 691 400428 181860 218568
internal_count=401200 772 81 691 400428 181860 218568
is_linear=0
shrinkage=0.05


Tree=106
num_leaves=8
num_cat=0
split_feature=0 2 1 2 2 0 0
split_gain=6.51652 53.8273 49.7739 8.48227 4.08059 100.801 11.7697
threshold=110385.00000000001 35.775000000000013 139.85000000000002 35.81666666666667 34.425000000000004 69800.500000000015 2537.5000000000005
decision_type=2 2 2 2 2 2 2
left_child=4 2 -2 -3 5 -1 -6
right_child=1 3 -4 -5 6 -7 -8
leaf_value=0.00020065947981436207 0.011955279417347208 -0.027917606768108186 -0.037130883655377797 -0.069073986723309472 1.4898170225996973e-05 0.0466350293567038 -0.00093740147793584794
leaf_weight=110272 664 31 56 21 252816 117 37223
leaf_count=110272 664 31 56 21 252816 117 37223
internal_value=-5.73058e-12 0.00458935 0.00813747 -0.0445385 -8.84798e-06 0.000249875 -0.000107318
internal_weight=401200 772 720 52 400428 110389 290039
internal_count=401200 772 720 52 400428 110389 290039
is_linear=0
shrinkage=0.05


Tree=107
num_leaves=8
num_cat=0
split_feature=0 2 2 1 1 0 2
split_gain=5.88116 49.7854 158.939 90.6547 3.82608 51.1883 5.92585
threshold=110385.00000000001 34.666666666666679 34.600000000000001 135.37500000000003 128.05000000000004 14229.500000000002 34.425000000000004
decision_type=2 2 2 2 2 2 2
left_child=4 2 -2 -3 5 -1 -6
right_child=1 3 -4 -5 6 -7 -8
leaf_value=-0.00044430862303908346 -0.047504335737997491 0.10230748092844373 0.096594835638999954 -0.003193637267199915 0.00034035443609009493 -0.025880712907522769 -0.0001019520719342468
leaf_weight=7703 31 21 50 670 102483 203 290039
leaf_count=7703 31 21 50 670 102483 203 290039
internal_value=3.56761e-13 0.00435988 0.0414458 1.26196e-05 -8.40557e-06 -0.00109743 1.35291e-05
internal_weight=401200 772 81 691 400428 7906 392522
internal_count=401200 772 81 691 400428 7906 392522
is_linear=0
shrinkage=0.05


Tree=108
num_leaves=8
num_cat=0
split_feature=0 1 1 2 2 0 0
split_gain=5.4728 29.7128 90.971 45.9404 3.86754 67.5934 5.53889
threshold=86114.500000000015 134.95000000000002 130.41250000000005 34.600000000000001 26.520833333333336 27349.500000000004 9209.0000000000018
decision_type=2 2 2 2 2 2 2
left_child=4 2 -2 -3 5 -1 -6
right_child=1 3 -4 -5 6 -7 -8
leaf_value=-0.00061336729915117277 -0.014514596360485729 -0.059784904321034754 0.098990411623831723 0.0027506749034194966 -3.2598347051699447e-05 -0.044436656122796993 0.00082677033053704923
leaf_weight=7755 41 30 31 1395 372114 89 19745
leaf_count=7755 41 30 31 1395 372114 89 19745
internal_value=4.31707e-12 0.00301753 0.0343556 0.00143414 -1.13015e-05 -0.0011106 1.07035e-05
internal_weight=401200 1497 72 1425 399703 7844 391859
internal_count=401200 1497 72 1425 399703 7844 391859
is_linear=0
shrinkage=0.05


Tree=109
num_leaves=8
num_cat=0
split_feature=0 2 1 2 1 0 0
split_gain=5.03622 47.8585 44.146 7.65525 3.47239 108.28 14.9889
threshold=110385.00000000001 35.775000000000013 139.85000000000002 35.81666666666667 134.70000000000002 48487.000000000007 3981.5000000000005
decision_type=2 2 2 2 2 2 2
left_child=4 2 -2 -3 5 -1 -6
right_child=1 3 -4 -5 6 -7 -8
leaf_value=0.00012891076091501661 0.010975673055859754 -0.026499581601350537 -0.035252185910940169 -0.065598145553043913 1.5477920182591421e-05 0.026218328104916973 -0.0012196024984010379
leaf_weight=122286 664 31 56 21 250507 399 27236
leaf_count=122286 664 31 56 21 250507 399 27236
internal_value=1.08167e-11 0.00403455 0.00738017 -0.0422894 -7.77836e-06 0.00021376 -0.000105636
internal_weight=401200 772 720 52 400428 122685 277743
internal_count=401200 772 720 52 400428 122685 277743
is_linear=0
shrinkage=0.05


Tree=110
num_leaves=8
num_cat=0
split_feature=0 2 2 2 1 2 0
split_gain=4.54519 44.7035 141.87 92.1838 3.26969 50.0517 41.8858
threshold=110385.00000000001 34.666666666666679 34.600000000000001 34.70000000000001 139.08750000000003 36.275000000000006 29957.000000000004
decision_type=2 2 2 2 2 2 2
left_child=4 2 -2 -3 6 -6 -1
right_child=1 3 -4 -5 5 -7 -8
leaf_value=3.5193489059139797e-05 -0.04506329307633062 -0.089152649204645842 0.091078772664070135 0.0034664256220085054 -0.002578653576817407 0.00011500462687522786 0.0054809353218926229
leaf_weight=207770 31 28 50 663 19194 169872 3592
leaf_count=207770 31 28 50 663 19194 169872 3592
internal_value=6.67665e-12 0.00383283 0.038975 -0.00028659 -7.38944e-06 -0.000158456 0.000127741
internal_weight=401200 772 81 691 400428 189066 211362
internal_count=401200 772 81 691 400428 189066 211362
is_linear=0
shrinkage=0.05


Tree=111
num_leaves=8
num_cat=0
split_feature=0 1 2 2 0 2 1
split_gain=4.13732 81.895 193.409 81.1565 2.86979 44.3309 5.59171
threshold=69800.500000000015 132.77500000000001 33.833333333333336 35.900000000000006 582.50000000000011 34.291666666666671 135.28750000000005
decision_type=2 2 2 2 2 2 2
left_child=4 2 -2 -3 6 -6 -1
right_child=1 3 -4 -5 5 -7 -8
leaf_value=-0.00040569674247238223 0.0062803954022739999 -0.0026829365537807404 0.14287176903556376 0.039804833245506717 0.0020738041809612749 -0.00038135983705983877 5.814011551322142e-05
leaf_weight=95278 109 2024 34 119 24360 74971 204305
leaf_count=95278 109 2024 34 119 24360 74971 204305
internal_value=-4.0078e-12 0.00212105 0.0387567 -0.000323606 -1.21548e-05 0.000220746 -8.93764e-05
internal_weight=401200 2286 143 2143 398914 99331 299583
internal_count=401200 2286 143 2143 398914 99331 299583
is_linear=0
shrinkage=0.05


Tree=112
num_leaves=8
num_cat=0
split_feature=0 2 1 2 1 0 0
split_gain=4.37602 43.1279 45.7687 6.90886 3.20727 44.3676 4.82524
threshold=110385.00000000001 35.775000000000013 139.63750000000002 35.81666666666667 128.05000000000004 14229.500000000002 8017.5000000000009
decision_type=2 2 2 2 2 2 2
left_child=4 2 -2 -3 5 -1 -6
right_child=1 3 -4 -5 6 -7 -8
leaf_value=-0.00039627402318407235 -0.0047896888724726101 -0.025213774101388073 0.020488938346817465 -0.062357405253819054 -3.0666320748001605e-05 -0.024077462105842062 0.00071934809274672845
leaf_weight=7703 386 31 334 21 369757 203 22765
leaf_count=7703 386 31 334 21 369757 203 22765
internal_value=4.88055e-12 0.00376082 0.00693679 -0.0402141 -7.25062e-06 -0.00100433 1.28321e-05
internal_weight=401200 772 720 52 400428 7906 392522
internal_count=401200 772 720 52 400428 7906 392522
is_linear=0
shrinkage=0.05


Tree=113
num_leaves=8
num_cat=0
split_feature=0 1 1 1 1 0 1
split_gain=3.94935 43.0748 71.1327 4.63422 2.93834 90.6917 14.719
threshold=110385.00000000001 139.85000000000002 139.68750000000003 139.88750000000002 134.70000000000002 48487.000000000007 135.76250000000002
decision_type=2 2 2 2 2 2 2
left_child=4 2 -2 -3 5 -1 -6
right_child=1 3 -4 -5 6 -7 -8
leaf_value=0.00011925001273409611 -0.0031254110978605242 -0.051313795197394589 0.03169749895816 -0.022689927082795366 -0.0015645314207102146 0.023995964542815561 -6.6333664570263271e-06
