{"learner":{"attributes":{"scikit_learn":"{\"_estimator_type\": \"regressor\"}"},"feature_names":["population","centroid_X","centroid_Y"],"feature_types":["int","float","float"],"gradient_booster":{"model":{"gbtree_model_param":{"num_parallel_tree":"1","num_trees":"200"},"iteration_indptr":[0,1,2,3,4,5,6,7,8,9,10,11,12,13,14,15,16,17,18,19,20,21,22,23,24,25,26,27,28,29,30,31,32,33,34,35,36,37,38,39,40,41,42,43,44,45,46,47,48,49,50,51,52,53,54,55,56,57,58,59,60,61,62,63,64,65,66,67,68,69,70,71,72,73,74,75,76,77,78,79,80,81,82,83,84,85,86,87,88,89,90,91,92,93,94,95,96,97,98,99,100,101,102,103,104,105,106,107,108,109,110,111,112,113,114,115,116,117,118,119,120,121,122,123,124,125,126,127,128,129,130,131,132,133,134,135,136,137,138,139,140,141,142,143,144,145,146,147,148,149,150,151,152,153,154,155,156,157,158,159,160,161,162,163,164,165,166,167,168,169,170,171,172,173,174,175,176,177,178,179,180,181,182,183,184,185,186,187,188,189,190,191,192,193,194,195,196,197,198,199,200],"tree_info":[0,0,0,0,0,0,0,0,0,0,0,0,0,0,0,0,0,0,0,0,0,0,0,0,0,0,0,0,0,0,0,0,0,0,0,0,0,0,0,0,0,0,0,0,0,0,0,0,0,0,0,0,0,0,0,0,0,0,0,0,0,0,0,0,0,0,0,0,0,0,0,0,0,0,0,0,0,0,0,0,0,0,0,0,0,0,0,0,0,0,0,0,0,0,0,0,0,0,0,0,0,0,0,0,0,0,0,0,0,0,0,0,0,0,0,0,0,0,0,0,0,0,0,0,0,0,0,0,0,0,0,0,0,0,0,0,0,0,0,0,0,0,0,0,0,0,0,0,0,0,0,0,0,0,0,0,0,0,0,0,0,0,0,0,0,0,0,0,0,0,0,0,0,0,0,0,0,0,0,0,0,0,0,0,0,0,0,0,0,0,0,0,0,0,0,0,0,0,0,0],"trees":[{"base_weights":[-7.0749025E-4,-5.5393383E-2,3.3449945E0,-8.055957E-2,9.0792674E-1,2.7782745E0,6.7573214E0,-4.75507E-3,7.929398E-3,3.1795274E-2,6.1825104E-2,2.2025879E-1,1.23018004E-1,3.5026538E-1,1.8127747E-1],"categories":[],"categories_nodes":[],"categories_segments":[],"categories_sizes":[],"default_left":[0,0,0,0,0,0,0,0,0,0,0,0,0,0,0],"id":0,"left_children":[1,3,5,7,9,11,13,-1,-1,-1,-1,-1,-1,-1,-1],"loss_changes":[5.8669566E4,7.6492314E3,9.878914E3,1.0693773E3,7.140542E2,2.2375898E3,4.4073047E2,0E0,0E0,0E0,0E0,0E0,0E0,0E0,0E0],"parents":[2147483647,0,0,1,1,2,2,3,3,4,4,5,5,6,6],"right_children":[2,4,6,8,10,12,14,-1,-1,-1,-1,-1,-1,-1,-1],"split_conditions":[3.3022E4,1.2757E4,1.03884E5,3.917E3,1.9879E4,1.3466875E2,1.3985625E2,-4.75507E-3,7.929398E-3,3.1795274E-2,6.1825104E-2,2.2025879E-1,1.23018004E-1,3.5026538E-1,1.8127747E-1],"split_indices":[0,0,0,0,0,1,1,0,0,0,0,0,0,0,0],"split_type":[0,0,0,0,0,0,0,0,0,0,0,0,0,0,0],"sum_hessian":[3.20654E5,3.15502E5,5.152E3,3.07474E5,8.028E3,4.426E3,7.26E2,2.89852E5,1.7622E4,4.4E3,3.628E3,7.13E2,3.713E3,6.67E2,5.9E1],"tree_param":{"num_deleted":"0","num_feature":"3","num_nodes":"15","size_leaf_vector":"1"}},{"base_weights":[-5.1262556E-4,-5.5793025E-2,2.9953928E0,-8.056602E-2,6.813602E-1,2.176304E0,5.424525E0,-4.5615747E-3,5.061151E-3,2.4104966E-2,5.196966E-2,1.7635359E-1,9.318009E-2,2.1505038E-1,3.2563102E-1],"categories":[],"categories_nodes":[],"categories_segments":[],"categories_sizes":[],"default_left":[0,0,0,0,0,0,0,0,0,0,0,0,0,0,0],"id":1,"left_children":[1,3,5,7,9,11,13,-1,-1,-1,-1,-1,-1,-1,-1],"loss_changes":[5.319185E4,5.759201E3,1.1518887E4,5.916135E2,7.2903516E2,1.8087461E3,1.6496758E3,0E0,0E0,0E0,0E0,0E0,0E0,0E0,0E0],"parents":[2147483647,0,0,1,1,2,2,3,3,4,4,5,5,6,6],"right_children":[2,4,6,8,10,12,14,-1,-1,-1,-1,-1,-1,-1,-1],"split_conditions":[2.9348E4,9.999E3,7.8639E4,3.512E3,1.829E4,1.3478125E2,1.03884E5,-4.5615747E-3,5.061151E-3,2.4104966E-2,5.196966E-2,1.7635359E-1,9.318009E-2,2.1505038E-1,3.2563102E-1],"split_indices":[0,0,0,0,0,1,0,0,0,0,0,0,0,0,0],"split_type":[0,0,0,0,0,0,0,0,0,0,0,0,0,0,0],"sum_hessian":[3.21168E5,3.15354E5,5.814E3,3.05105E5,1.0249E4,4.355E3,1.459E3,2.88199E5,1.6906E4,6.592E3,3.657E3,8.09E2,3.546E3,7.3E2,7.29E2],"tree_param":{"num_deleted":"0","num_feature":"3","num_nodes":"15","size_leaf_vector":"1"}},{"base_weights":[1.0347994E-4,-5.3248588E-2,2.840484E0,-7.7399254E-2,6.1647356E-1,2.0877142E0,5.0806236E0,-4.4115083E-3,3.3348487E-3,2.0014523E-2,4.7086157E-2,1.7995112E-1,8.974047E-2,1.9570588E-1,3.0981088E-1],"categories":[],"categories_nodes":[],"categories_segments":[],"categories_sizes":[],"default_left":[0,0,0,0,0,0,0,0,0,0,0,0,0,0,0],"id":2,"left_children":[1,3,5,7,9,11,13,-1,-1,-1,-1,-1,-1,-1,-1],"loss_changes":[4.86747E4,5.099619E3,9.933285E3,4.749624E2,7.6973535E2,1.9335957E3,1.8125391E3,0E0,0E0,0E0,0E0,0E0,0E0,0E0,0E0],"parents":[2147483647,0,0,1,1,2,2,3,3,4,4,5,5,6,6],"right_children":[2,4,6,8,10,12,14,-1,-1,-1,-1,-1,-1,-1,-1],"split_conditions":[2.9348E4,9.434E3,7.8639E4,2.75E3,1.696E4,3.44125E1,1.03884E5,-4.4115083E-3,3.3348487E-3,2.0014523E-2,4.7086157E-2,1.7995112E-1,8.974047E-2,1.9570588E-1,3.0981088E-1],"split_indices":[0,0,0,0,0,2,0,0,0,0,0,0,0,0,0],"split_type":[0,0,0,0,0,0,0,0,0,0,0,0,0,0,0],"sum_hessian":[3.2119E5,3.15273E5,5.917E3,3.04304E5,1.0969E4,4.436E3,1.481E3,2.83032E5,2.1272E4,6.596E3,4.373E3,7.11E2,3.725E3,7.35E2,7.46E2],"tree_param":{"num_deleted":"0","num_feature":"3","num_nodes":"15","size_leaf_vector":"1"}},{"base_weights":[-1.0577489E-3,-4.436137E-2,3.133563E0,-6.922986E-2,8.216164E-1,2.235477E0,4.895297E0,-4.0526995E-3,7.833242E-3,3.1010969E-2,6.1656963E-2,1.9274916E-1,9.412827E-2,1.955142E-1,2.928195E-1],"categories":[],"categories_nodes":[],"categories_segments":[],"categories_sizes":[],"default_left":[0,0,0,0,0,0,0,0,0,0,0,0,0,0,0],"id":3,"left_children":[1,3,5,7,9,11,13,-1,-1,-1,-1,-1,-1,-1,-1],"loss_changes":[4.3552062E4,6.8157725E3,6.862617E3,8.2178796E2,7.284165E2,1.6240449E3,1.2790273E3,0E0,0E0,0E0,0E0,0E0,0E0,0E0,0E0],"parents":[2147483647,0,0,1,1,2,2,3,3,4,4,5,5,6,6],"right_children":[2,4,6,8,10,12,14,-1,-1,-1,-1,-1,-1,-1,-1],"split_conditions":[3.7868E4,1.2757E4,7.8639E4,4.405E3,2.3963E4,1.3478125E2,1.03884E5,-4.0526995E-3,7.833242E-3,3.1010969E-2,6.1656963E-2,1.9274916E-1,9.412827E-2,1.955142E-1,2.928195E-1],"split_indices":[0,0,0,0,0,1,0,0,0,0,0,0,0,0,0],"split_type":[0,0,0,0,0,0,0,0,0,0,0,0,0,0,0],"sum_hessian":[3.20838E5,3.16471E5,4.367E3,3.07641E5,8.83E3,2.9E3,1.467E3,2.92342E5,1.5299E4,5.937E3,2.893E3,5.1E2,2.39E3,7.37E2,7.3E2],"tree_param":{"num_deleted":"0","num_feature":"3","num_nodes":"15","size_leaf_vector":"1"}},{"base_weights":[6.311388E-5,-4.1275997E-2,2.975183E0,-6.555095E-2,8.086995E-1,2.0954123E0,4.7032943E0,-3.8363785E-3,7.93837E-3,3.0368268E-2,6.058186E-2,1.7849511E-1,8.9464955E-2,1.8433535E-1,2.8347751E-1],"categories":[],"categories_nodes":[],"categories_segments":[],"categories_sizes":[],"default_left":[0,0,0,0,0,0,0,0,0,0,0,0,0,0,0],"id":4,"left_children":[1,3,5,7,9,11,13,-1,-1,-1,-1,-1,-1,-1,-1],"loss_changes":[3.950499E4,6.5369624E3,6.6432695E3,7.722888E2,7.09978E2,1.2887432E3,1.350252E3,0E0,0E0,0E0,0E0,0E0,0E0,0E0,0E0],"parents":[2147483647,0,0,1,1,2,2,3,3,4,4,5,5,6,6],"right_children":[2,4,6,8,10,12,14,-1,-1,-1,-1,-1,-1,-1,-1],"split_conditions":[3.7868E4,1.2757E4,7.8639E4,4.593E3,2.3963E4,1.3478125E2,1.03884E5,-3.8363785E-3,7.93837E-3,3.0368268E-2,6.058186E-2,1.7849511E-1,8.9464955E-2,1.8433535E-1,2.8347751E-1],"split_indices":[0,0,0,0,0,1,0,0,0,0,0,0,0,0,0],"split_type":[0,0,0,0,0,0,0,0,0,0,0,0,0,0,0],"sum_hessian":[3.21198E5,3.16801E5,4.397E3,3.08009E5,8.792E3,2.921E3,1.476E3,2.93394E5,1.4615E4,5.871E3,2.921E3,4.93E2,2.428E3,7.31E2,7.45E2],"tree_param":{"num_deleted":"0","num_feature":"3","num_nodes":"15","size_leaf_vector":"1"}},{"base_weights":[1.2257101E-4,-4.7948282E-2,2.2744417E0,-6.7166984E-2,4.8090056E-1,1.6812708E0,4.3174734E0,-3.7935337E-3,2.6355037E-3,1.5763586E-2,3.6304925E-2,1.4106253E-1,7.3189184E-2,1.6844422E-1,2.6357692E-1],"categories":[],"categories_nodes":[],"categories_segments":[],"categories_sizes":[],"default_left":[0,0,0,0,0,0,0,0,0,0,0,0,0,0,0],"id":5,"left_children":[1,3,5,7,9,11,13,-1,-1,-1,-1,-1,-1,-1,-1],"loss_changes":[3.5097938E4,3.195524E3,8.0165625E3,3.165448E2,4.4660107E2,1.2581797E3,1.2614883E3,0E0,0E0,0E0,0E0,0E0,0E0,0E0,0E0],"parents":[2147483647,0,0,1,1,2,2,3,3,4,4,5,5,6,6],"right_children":[2,4,6,8,10,12,14,-1,-1,-1,-1,-1,-1,-1,-1],"split_conditions":[2.6455E4,8.917E3,7.8639E4,2.75E3,1.5743E4,3.4379166E1,1.03884E5,-3.7935337E-3,2.6355037E-3,1.5763586E-2,3.6304925E-2,1.4106253E-1,7.3189184E-2,1.6844422E-1,2.6357692E-1],"split_indices":[0,0,0,0,0,2,0,0,0,0,0,0,0,0,0],"split_type":[0,0,0,0,0,0,0,0,0,0,0,0,0,0,0],"sum_hessian":[3.21022E5,3.14382E5,6.64E3,3.03362E5,1.102E4,5.153E3,1.487E3,2.82829E5,2.0533E4,6.584E3,4.436E3,8.16E2,4.337E3,7.57E2,7.3E2],"tree_param":{"num_deleted":"0","num_feature":"3","num_nodes":"15","size_leaf_vector":"1"}},{"base_weights":[2.9088542E-4,-4.0701438E-2,2.5038364E0,-6.311071E-2,5.4056853E-1,1.8119855E0,4.2783933E0,-3.6081055E-3,2.8299184E-3,1.8660495E-2,4.5526583E-2,1.5175009E-1,7.675245E-2,3.6921197E-1,1.98731E-1],"categories":[],"categories_nodes":[],"categories_segments":[],"categories_sizes":[],"default_left":[0,0,0,0,0,0,0,0,0,0,0,0,0,0,0],"id":6,"left_children":[1,3,5,7,9,11,13,-1,-1,-1,-1,-1,-1,-1,-1],"loss_changes":[3.2922055E4,4.1114897E3,6.3061406E3,3.2932385E2,7.2377637E2,1.2390342E3,1.2175156E3,0E0,0E0,0E0,0E0,0E0,0E0,0E0,0E0],"parents":[2147483647,0,0,1,1,2,2,3,3,4,4,5,5,6,6],"right_children":[2,4,6,8,10,12,14,-1,-1,-1,-1,-1,-1,-1,-1],"split_conditions":[3.3022E4,9.434E3,7.8639E4,2.75E3,1.9879E4,1.3466875E2,1.3533125E2,-3.6081055E-3,2.8299184E-3,1.8660495E-2,4.5526583E-2,1.5175009E-1,7.675245E-2,3.6921197E-1,1.98731E-1],"split_indices":[0,0,0,0,0,1,1,0,0,0,0,0,0,0,0],"split_type":[0,0,0,0,0,0,0,0,0,0,0,0,0,0,0],"sum_hessian":[3.20786E5,3.15623E5,5.163E3,3.03911E5,1.1712E4,3.722E3,1.441E3,2.82549E5,2.1362E4,8.071E3,3.641E3,6.78E2,3.044E3,1.18E2,1.323E3],"tree_param":{"num_deleted":"0","num_feature":"3","num_nodes":"15","size_leaf_vector":"1"}},{"base_weights":[3.0610035E-4,-3.2472484E-2,2.8528705E0,-5.3448986E-2,8.4953946E-1,2.3118722E0,4.9524336E0,-3.1897107E-3,1.1351254E-2,6.300438E-2,3.4424987E-2,2.1877936E-1,9.873482E-2,2.5673145E-1,1.4949009E-1],"categories":[],"categories_nodes":[],"categories_segments":[],"categories_sizes":[],"default_left":[0,0,0,0,0,0,0,0,0,0,0,0,0,0,0],"id":7,"left_children":[1,3,5,7,9,11,13,-1,-1,-1,-1,-1,-1,-1,-1],"loss_changes":[2.998417E4,5.865821E3,4.0806895E3,8.9860956E2,4.825957E2,1.9788936E3,1.8856836E2,0E0,0E0,0E0,0E0,0E0,0E0,0E0,0E0],"parents":[2147483647,0,0,1,1,2,2,3,3,4,4,5,5,6,6],"right_children":[2,4,6,8,10,12,14,-1,-1,-1,-1,-1,-1,-1,-1],"split_conditions":[4.3574E4,1.5743E4,1.03884E5,6.532E3,1.3524374E2,1.3466875E2,3.5770832E1,-3.1897107E-3,1.1351254E-2,6.300438E-2,3.4424987E-2,2.1877936E-1,9.873482E-2,2.5673145E-1,1.4949009E-1],"split_indices":[0,0,0,0,1,1,2,0,0,0,0,0,0,0,0],"split_type":[0,0,0,0,0,0,0,0,0,0,0,0,0,0,0],"sum_hessian":[3.20666E5,3.17028E5,3.638E3,3.09668E5,7.36E3,2.901E3,7.37E2,2.98656E5,1.1012E4,2.064E3,5.296E3,3.99E2,2.502E3,6.67E2,7E1],"tree_param":{"num_deleted":"0","num_feature":"3","num_nodes":"15","size_leaf_vector":"1"}},{"base_weights":[-3.1805853E-4,-3.4284744E-2,2.4285111E0,-5.2842908E-2,6.7497605E-1,1.9904025E0,4.594423E0,-3.0597837E-3,8.675331E-3,2.513553E-2,4.8645478E-2,1.7147803E-1,8.612492E-2,2.3570521E-1,8.384877E-2],"categories":[],"categories_nodes":[],"categories_segments":[],"categories_sizes":[],"default_left":[0,0,0,0,0,0,0,0,0,0,0,0,0,0,0],"id":8,"left_children":[1,3,5,7,9,11,13,-1,-1,-1,-1,-1,-1,-1,-1],"loss_changes":[2.651692E4,4.172544E3,4.1607715E3,5.8409045E2,4.1240356E2,1.3954785E3,2.1955078E2,0E0,0E0,0E0,0E0,0E0,0E0,0E0,0E0],"parents":[2147483647,0,0,1,1,2,2,3,3,4,4,5,5,6,6],"right_children":[2,4,6,8,10,12,14,-1,-1,-1,-1,-1,-1,-1,-1],"split_conditions":[3.7868E4,1.3644E4,1.03884E5,5.948E3,2.3963E4,1.3478125E2,3.58125E1,-3.0597837E-3,8.675331E-3,2.513553E-2,4.8645478E-2,1.7147803E-1,8.612492E-2,2.3570521E-1,8.384877E-2],"split_indices":[0,0,0,0,0,1,2,0,0,0,0,0,0,0,0],"split_type":[0,0,0,0,0,0,0,0,0,0,0,0,0,0,0],"sum_hessian":[3.2141E5,3.16982E5,4.428E3,3.08904E5,8.078E3,3.691E3,7.37E2,2.97914E5,1.099E4,5.127E3,2.951E3,5.7E2,3.121E3,7.05E2,3.2E1],"tree_param":{"num_deleted":"0","num_feature":"3","num_nodes":"15","size_leaf_vector":"1"}},{"base_weights":[6.506937E-4,-3.217948E-2,2.3438277E0,-4.8473995E-2,7.33581E-1,1.9283811E0,4.3385124E0,-2.8831197E-3,1.0042662E-2,5.8998503E-2,2.9787464E-2,1.693794E-1,8.30054E-2,2.258176E-1,1.1301916E-1],"categories":[],"categories_nodes":[],"categories_segments":[],"categories_sizes":[],"default_left":[0,0,0,0,0,0,0,0,0,0,0,0,0,0,0],"id":9,"left_children":[1,3,5,7,9,11,13,-1,-1,-1,-1,-1,-1,-1,-1],"loss_changes":[2.4708143E4,3.952513E3,3.635875E3,7.1060223E2,4.0256055E2,1.4132578E3,2.3020215E2,0E0,0E0,0E0,0E0,0E0,0E0,0E0,0E0],"parents":[2147483647,0,0,1,1,2,2,3,3,4,4,5,5,6,6],"right_children":[2,4,6,8,10,12,14,-1,-1,-1,-1,-1,-1,-1,-1],"split_conditions":[3.7868E4,1.5743E4,1.03884E5,6.532E3,3.45125E1,1.3478125E2,1.3985625E2,-2.8831197E-3,1.0042662E-2,5.8998503E-2,2.9787464E-2,1.693794E-1,8.30054E-2,2.258176E-1,1.1301916E-1],"split_indices":[0,0,0,0,2,1,1,0,0,0,0,0,0,0,0],"split_type":[0,0,0,0,0,0,0,0,0,0,0,0,0,0,0],"sum_hessian":[3.2118E5,3.16747E5,4.433E3,3.10152E5,6.595E3,3.677E3,7.56E2,2.99132E5,1.102E4,1.547E3,5.048E3,5.62E2,3.115E3,6.91E2,6.5E1],"tree_param":{"num_deleted":"0","num_feature":"3","num_nodes":"15","size_leaf_vector":"1"}},{"base_weights":[-6.756591E-4,-3.3473678E-2,2.0193646E0,-5.1098518E-2,4.5428476E-1,1.4127843E0,3.526871E0,-2.9686878E-3,2.728169E-3,1.5110539E-2,3.4137186E-2,1.18501656E-1,5.9753876E-2,1.3461608E-1,2.1829402E-1],"categories":[],"categories_nodes":[],"categories_segments":[],"categories_sizes":[],"default_left":[0,0,0,0,0,0,0,0,0,0,0,0,0,0,0],"id":10,"left_children":[1,3,5,7,9,11,13,-1,-1,-1,-1,-1,-1,-1,-1],"loss_changes":[2.126487E4,2.7152437E3,4.66425E3,2.6654816E2,3.816587E2,7.4962256E2,9.6911523E2,0E0,0E0,0E0,0E0,0E0,0E0,0E0,0E0],"parents":[2147483647,0,0,1,1,2,2,3,3,4,4,5,5,6,6],"right_children":[2,4,6,8,10,12,14,-1,-1,-1,-1,-1,-1,-1,-1],"split_conditions":[3.3022E4,9.999E3,7.8639E4,2.75E3,1.829E4,1.3466875E2,1.03884E5,-2.9686878E-3,2.728169E-3,1.5110539E-2,3.4137186E-2,1.18501656E-1,5.9753876E-2,1.3461608E-1,2.1829402E-1],"split_indices":[0,0,0,0,0,1,0,0,0,0,0,0,0,0,0],"split_type":[0,0,0,0,0,0,0,0,0,0,0,0,0,0,0],"sum_hessian":[3.20953E5,3.1583E5,5.123E3,3.0482E5,1.101E4,3.66E3,1.463E3,2.82683E5,2.2137E4,6.617E3,4.393E3,6.69E2,2.991E3,7.44E2,7.19E2],"tree_param":{"num_deleted":"0","num_feature":"3","num_nodes":"15","size_leaf_vector":"1"}},{"base_weights":[-2.4245575E-5,-2.7101515E-2,2.3370767E0,-4.393795E-2,6.844724E-1,1.8860871E0,4.1148477E0,-2.7015782E-3,6.586797E-3,5.3761672E-2,2.664567E-2,1.7191209E-1,7.746131E-2,2.1150771E-1,6.777536E-2],"categories":[],"categories_nodes":[],"categories_segments":[],"categories_sizes":[],"default_left":[0,0,0,0,0,0,0,0,0,0,0,0,0,0,0],"id":11,"left_children":[1,3,5,7,9,11,13,-1,-1,-1,-1,-1,-1,-1,-1],"loss_changes":[2.029451E4,3.7982268E3,2.906045E3,5.491942E2,4.3112378E2,1.5100527E3,2.0645703E2,0E0,0E0,0E0,0E0,0E0,0E0,0E0,0E0],"parents":[2147483647,0,0,1,1,2,2,3,3,4,4,5,5,6,6],"right_children":[2,4,6,8,10,12,14,-1,-1,-1,-1,-1,-1,-1,-1],"split_conditions":[4.3574E4,1.5743E4,1.03884E5,4.593E3,1.3524374E2,1.3524374E2,3.58125E1,-2.7015782E-3,6.586797E-3,5.3761672E-2,2.664567E-2,1.7191209E-1,7.746131E-2,2.1150771E-1,6.777536E-2],"split_indices":[0,0,0,0,1,1,2,0,0,0,0,0,0,0,0],"split_type":[0,0,0,0,0,0,0,0,0,0,0,0,0,0,0],"sum_hessian":[3.20688E5,3.1702E5,3.668E3,3.09697E5,7.323E3,2.934E3,7.34E2,2.92873E5,1.6824E4,2.038E3,5.285E3,5.15E2,2.419E3,7.02E2,3.2E1],"tree_param":{"num_deleted":"0","num_feature":"3","num_nodes":"15","size_leaf_vector":"1"}},{"base_weights":[-4.1732067E-4,-2.5390547E-2,2.1512454E0,-4.3093357E-2,5.9432656E-1,1.7376426E0,3.7800112E0,-2.6118564E-3,4.7714314E-3,5.3012438E-2,2.437276E-2,1.6638432E-1,7.553675E-2,3.2693562E-1,1.7881241E-1],"categories":[],"categories_nodes":[],"categories_segments":[],"categories_sizes":[],"default_left":[0,0,0,0,0,0,0,0,0,0,0,0,0,0,0],"id":12,"left_children":[1,3,5,7,9,11,13,-1,-1,-1,-1,-1,-1,-1,-1],"loss_changes":[1.7258277E4,3.4832808E3,2.4496016E3,3.9100568E2,4.3649707E2,1.0384834E3,3.0017285E2,0E0,0E0,0E0,0E0,0E0,0E0,0E0,0E0],"parents":[2147483647,0,0,1,1,2,2,3,3,4,4,5,5,6,6],"right_children":[2,4,6,8,10,12,14,-1,-1,-1,-1,-1,-1,-1,-1],"split_conditions":[4.3574E4,1.3644E4,1.03884E5,3.778E3,3.42625E1,3.44125E1,1.3533125E2,-2.6118564E-3,4.7714314E-3,5.3012438E-2,2.437276E-2,1.6638432E-1,7.553675E-2,3.2693562E-1,1.7881241E-1],"split_indices":[0,0,0,0,2,2,1,0,0,0,0,0,0,0,0],"split_type":[0,0,0,0,0,0,0,0,0,0,0,0,0,0,0],"sum_hessian":[3.2117E5,3.1749E5,3.68E3,3.08677E5,8.813E3,2.943E3,7.37E2,2.89566E5,1.9111E4,1.636E3,7.177E3,3.59E2,2.584E3,4E1,6.97E2],"tree_param":{"num_deleted":"0","num_feature":"3","num_nodes":"15","size_leaf_vector":"1"}},{"base_weights":[7.0394424E-4,-2.3778647E-2,2.1161723E0,-4.2276416E-2,5.252655E-1,1.4663165E0,3.0717447E0,-2.5067213E-3,3.8610192E-3,1.797515E-2,4.1128885E-2,1.4654033E-1,5.796335E-2,2.6858348E-1,1.4338118E-1],"categories":[],"categories_nodes":[],"categories_segments":[],"categories_sizes":[],"default_left":[0,0,0,0,0,0,0,0,0,0,0,0,0,0,0],"id":13,"left_children":[1,3,5,7,9,11,13,-1,-1,-1,-1,-1,-1,-1,-1],"loss_changes":[1.6614086E4,3.22075E3,2.2564902E3,2.880907E2,5.079131E2,9.695908E2,6.1825586E2,0E0,0E0,0E0,0E0,0E0,0E0,0E0,0E0],"parents":[2147483647,0,0,1,1,2,2,3,3,4,4,5,5,6,6],"right_children":[2,4,6,8,10,12,14,-1,-1,-1,-1,-1,-1,-1,-1],"split_conditions":[4.3574E4,1.198E4,7.8639E4,3.512E3,2.3963E4,1.3478125E2,1.3533125E2,-2.5067213E-3,3.8610192E-3,1.797515E-2,4.1128885E-2,1.4654033E-1,5.796335E-2,2.6858348E-1,1.4338118E-1],"split_indices":[0,0,0,0,0,1,1,0,0,0,0,0,0,0,0],"split_type":[0,0,0,0,0,0,0,0,0,0,0,0,0,0,0],"sum_hessian":[3.20774E5,3.17109E5,3.665E3,3.06778E5,1.0331E4,2.189E3,1.476E3,2.87852E5,1.8926E4,6.64E3,3.691E3,3.72E2,1.817E3,1.1E2,1.366E3],"tree_param":{"num_deleted":"0","num_feature":"3","num_nodes":"15","size_leaf_vector":"1"}},{"base_weights":[-5.4067024E-4,-2.9530557E-2,1.5611229E0,-4.277661E-2,3.151494E-1,1.1507728E0,2.7721908E0,-2.4671007E-3,1.5038846E-3,2.7379874E-2,1.0695818E-2,9.071825E-2,4.7625225E-2,2.7059323E-1,1.2867492E-1],"categories":[],"categories_nodes":[],"categories_segments":[],"categories_sizes":[],"default_left":[0,0,0,0,0,0,0,0,0,0,0,0,0,0,0],"id":14,"left_children":[1,3,5,7,9,11,13,-1,-1,-1,-1,-1,-1,-1,-1],"loss_changes":[1.4551656E4,1.4408309E3,2.895251E3,1.4536444E2,2.7423767E2,5.681592E2,7.0607324E2,0E0,0E0,0E0,0E0,0E0,0E0,0E0,0E0],"parents":[2147483647,0,0,1,1,2,2,3,3,4,4,5,5,6,6],"right_children":[2,4,6,8,10,12,14,-1,-1,-1,-1,-1,-1,-1,-1],"split_conditions":[2.9348E4,8.917E3,7.8639E4,2.269E3,1.3524374E2,1.3524374E2,1.3524374E2,-2.4671007E-3,1.5038846E-3,2.7379874E-2,1.0695818E-2,9.071825E-2,4.7625225E-2,2.7059323E-1,1.2867492E-1],"split_indices":[0,0,0,0,1,1,1,0,0,0,0,0,0,0,0],"split_type":[0,0,0,0,0,0,0,0,0,0,0,0,0,0,0],"sum_hessian":[3.21414E5,3.15561E5,5.853E3,3.03887E5,1.1674E4,4.379E3,1.474E3,2.78767E5,2.512E4,3.535E3,8.139E3,9.98E2,3.381E3,9.4E1,1.38E3],"tree_param":{"num_deleted":"0","num_feature":"3","num_nodes":"15","size_leaf_vector":"1"}},{"base_weights":[3.9746397E-4,-2.4106903E-2,1.7702898E0,-3.8869888E-2,4.1526204E-1,1.4061444E0,3.4756532E0,-2.3114884E-3,2.3341274E-3,3.7549976E-2,1.6006785E-2,1.2581803E-1,6.0160674E-2,1.842597E-1,5.9708774E-2],"categories":[],"categories_nodes":[],"categories_segments":[],"categories_sizes":[],"default_left":[0,0,0,0,0,0,0,0,0,0,0,0,0,0,0],"id":15,"left_children":[1,3,5,7,9,11,13,-1,-1,-1,-1,-1,-1,-1,-1],"loss_changes":[1.3923098E4,2.0539722E3,2.6980283E3,1.9291019E2,3.2756226E2,8.006631E2,3.4514844E2,0E0,0E0,0E0,0E0,0E0,0E0,0E0,0E0],"parents":[2147483647,0,0,1,1,2,2,3,3,4,4,5,5,6,6],"right_children":[2,4,6,8,10,12,14,-1,-1,-1,-1,-1,-1,-1,-1],"split_conditions":[3.7868E4,1.1256E4,1.03884E5,2.666E3,3.44125E1,1.3478125E2,1.3985625E2,-2.3114884E-3,2.3341274E-3,3.7549976E-2,1.6006785E-2,1.2581803E-1,6.0160674E-2,1.842597E-1,5.9708774E-2],"split_indices":[0,0,0,0,2,1,1,0,0,0,0,0,0,0,0],"split_type":[0,0,0,0,0,0,0,0,0,0,0,0,0,0,0],"sum_hessian":[3.2102E5,3.16641E5,4.379E3,3.06352E5,1.0289E4,3.616E3,7.63E2,2.82087E5,2.4265E4,2.264E3,8.025E3,5.5E2,3.066E3,6.96E2,6.7E1],"tree_param":{"num_deleted":"0","num_feature":"3","num_nodes":"15","size_leaf_vector":"1"}},{"base_weights":[6.9057866E-4,-2.4551872E-2,1.5589516E0,-3.8157802E-2,3.514267E-1,1.1097564E0,2.6753793E0,-2.2441917E-3,1.3299895E-3,1.1998064E-2,2.845939E-2,1.0195308E-1,4.7398917E-2,2.9774493E-1,1.1919453E-1],"categories":[],"categories_nodes":[],"categories_segments":[],"categories_sizes":[],"default_left":[0,0,0,0,0,0,0,0,0,0,0,0,0,0,0],"id":16,"left_children":[1,3,5,7,9,11,13,-1,-1,-1,-1,-1,-1,-1,-1],"loss_changes":[1.2604052E4,1.613129E3,2.546787E3,1.3255524E2,2.666339E2,5.3923047E2,1.3266084E3,0E0,0E0,0E0,0E0,0E0,0E0,0E0,0E0],"parents":[2147483647,0,0,1,1,2,2,3,3,4,4,5,5,6,6],"right_children":[2,4,6,8,10,12,14,-1,-1,-1,-1,-1,-1,-1,-1],"split_conditions":[3.3022E4,9.999E3,7.8639E4,2.07E3,1.9879E4,3.4379166E1,1.3533125E2,-2.2441917E-3,1.3299895E-3,1.1998064E-2,2.845939E-2,1.0195308E-1,4.7398917E-2,2.9774493E-1,1.1919453E-1],"split_indices":[0,0,0,0,0,2,1,0,0,0,0,0,0,0,0],"split_type":[0,0,0,0,0,0,0,0,0,0,0,0,0,0,0],"sum_hessian":[3.20424E5,3.15321E5,5.103E3,3.04313E5,1.1008E4,3.646E3,1.457E3,2.75681E5,2.8632E4,7.288E3,3.72E3,5.32E2,3.114E3,1.11E2,1.346E3],"tree_param":{"num_deleted":"0","num_feature":"3","num_nodes":"15","size_leaf_vector":"1"}},{"base_weights":[3.2495413E-4,-2.6673459E-2,1.2903429E0,-3.7019014E-2,2.5552478E-1,8.2448983E-1,2.2364914E0,-2.162672E-3,8.3918666E-4,2.4321917E-2,7.750013E-3,3.210637E-2,7.381058E-2,1.8593056E-1,9.4976634E-2],"categories":[],"categories_nodes":[],"categories_segments":[],"categories_sizes":[],"default_left":[0,0,0,0,0,0,0,0,0,0,0,0,0,0,0],"id":17,"left_children":[1,3,5,7,9,11,13,-1,-1,-1,-1,-1,-1,-1,-1],"loss_changes":[1.116906E4,9.171024E2,2.888377E3,1.0164203E2,2.5749036E2,5.197434E2,1.0464111E3,0E0,0E0,0E0,0E0,0E0,0E0,0E0,0E0],"parents":[2147483647,0,0,1,1,2,2,3,3,4,4,5,5,6,6],"right_children":[2,4,6,8,10,12,14,-1,-1,-1,-1,-1,-1,-1,-1],"split_conditions":[2.6455E4,8.917E3,6.2301E4,1.749E3,1.3524374E2,3.6054165E1,3.47125E1,-2.162672E-3,8.3918666E-4,2.4321917E-2,7.750013E-3,3.210637E-2,7.381058E-2,1.8593056E-1,9.4976634E-2],"split_indices":[0,0,0,0,1,2,2,0,0,0,0,0,0,0,0],"split_type":[0,0,0,0,0,0,0,0,0,0,0,0,0,0,0],"sum_hessian":[3.20678E5,3.14109E5,6.569E3,3.03005E5,1.1104E4,4.408E3,2.161E3,2.71541E5,3.1464E4,3.362E3,7.742E3,3.452E3,9.56E2,3.91E2,1.77E3],"tree_param":{"num_deleted":"0","num_feature":"3","num_nodes":"15","size_leaf_vector":"1"}},{"base_weights":[8.1317866E-4,-1.8478885E-2,1.6440834E0,-3.0236725E-2,5.3132915E-1,1.3425201E0,2.836506E0,-1.875904E-3,5.4320646E-3,4.85094E-2,2.1357087E-2,1.350188E-1,5.58826E-2,2.2832826E-1,1.2573956E-1],"categories":[],"categories_nodes":[],"categories_segments":[],"categories_sizes":[],"default_left":[0,0,0,0,0,0,0,0,0,0,0,0,0,0,0],"id":18,"left_children":[1,3,5,7,9,11,13,-1,-1,-1,-1,-1,-1,-1,-1],"loss_changes":[1.0171382E4,2.0501199E3,1.3197168E3,3.139891E2,3.0153247E2,8.9512354E2,3.583496E2,0E0,0E0,0E0,0E0,0E0,0E0,0E0,0E0],"parents":[2147483647,0,0,1,1,2,2,3,3,4,4,5,5,6,6],"right_children":[2,4,6,8,10,12,14,-1,-1,-1,-1,-1,-1,-1,-1],"split_conditions":[4.3574E4,1.696E4,1.03884E5,5.223E3,3.4379166E1,1.3478125E2,3.46875E1,-1.875904E-3,5.4320646E-3,4.85094E-2,2.1357087E-2,1.350188E-1,5.58826E-2,2.2832826E-1,1.2573956E-1],"split_indices":[0,0,0,0,2,1,2,0,0,0,0,0,0,0,0],"split_type":[0,0,0,0,0,0,0,0,0,0,0,0,0,0,0],"sum_hessian":[3.20833E5,3.17115E5,3.718E3,3.1048E5,6.635E3,2.976E3,7.42E2,2.95016E5,1.5464E4,1.265E3,5.37E3,4.15E2,2.561E3,1.06E2,6.36E2],"tree_param":{"num_deleted":"0","num_feature":"3","num_nodes":"15","size_leaf_vector":"1"}},{"base_weights":[6.4510334E-4,-1.5900092E-2,1.7992613E0,-2.8531486E-2,5.1816547E-1,3.5014777E0,1.5984719E0,-1.7132603E-3,6.909215E-3,4.411167E-2,2.0579765E-2,2.9656893E-2,1.9283645E-1,6.089397E-2,1.3015543E-1],"categories":[],"categories_nodes":[],"categories_segments":[],"categories_sizes":[],"default_left":[0,0,0,0,0,0,0,0,0,0,0,0,0,0,0],"id":19,"left_children":[1,3,5,7,9,11,13,-1,-1,-1,-1,-1,-1,-1,-1],"loss_changes":[9.536418E3,2.142196E3,9.70376E2,2.965519E2,2.8285107E2,3.0265234E2,9.86688E2,0E0,0E0,0E0,0E0,0E0,0E0,0E0,0E0],"parents":[2147483647,0,0,1,1,2,2,3,3,4,4,5,5,6,6],"right_children":[2,4,6,8,10,12,14,-1,-1,-1,-1,-1,-1,-1,-1],"split_conditions":[5.1374E4,1.696E4,1.3478125E2,7.232E3,3.45125E1,3.1545834E1,1.03884E5,-1.7132603E-3,6.909215E-3,4.411167E-2,2.0579765E-2,2.9656893E-2,1.9283645E-1,6.089397E-2,1.3015543E-1],"split_indices":[0,0,1,0,2,2,0,0,0,0,0,0,0,0,0],"split_type":[0,0,0,0,0,0,0,0,0,0,0,0,0,0,0],"sum_hessian":[3.20451E5,3.17535E5,2.916E3,3.10203E5,7.332E3,2.99E2,2.617E3,2.99893E5,1.031E4,1.652E3,5.68E3,3.4E1,2.65E2,1.906E3,7.11E2],"tree_param":{"num_deleted":"0","num_feature":"3","num_nodes":"15","size_leaf_vector":"1"}},{"base_weights":[2.3776933E-4,-1.3252941E-2,1.9340494E0,-2.5570048E-2,5.728427E-1,4.201125E0,1.7576009E0,-1.6505126E-3,7.1391896E-3,2.1702506E-2,5.1317465E-2,1.558383E-1,2.939281E-1,6.766283E-2,1.2569602E-1],"categories":[],"categories_nodes":[],"categories_segments":[],"categories_sizes":[],"default_left":[0,0,0,0,0,0,0,0,0,0,0,0,0,0,0],"id":20,"left_children":[1,3,5,7,9,11,13,-1,-1,-1,-1,-1,-1,-1,-1],"loss_changes":[8.37495E3,2.30147E3,8.527295E2,3.911313E2,4.108069E2,1.9396387E2,6.1663574E2,0E0,0E0,0E0,0E0,0E0,0E0,0E0,0E0],"parents":[2147483647,0,0,1,1,2,2,3,3,4,4,5,5,6,6],"right_children":[2,4,6,8,10,12,14,-1,-1,-1,-1,-1,-1,-1,-1],"split_conditions":[6.2301E4,1.9879E4,1.3254375E2,6.532E3,3.6054165E1,1.3056876E2,1.03884E5,-1.6505126E-3,7.1391896E-3,2.1702506E-2,5.1317465E-2,1.558383E-1,2.939281E-1,6.766283E-2,1.2569602E-1],"split_indices":[0,0,1,0,2,1,0,0,0,0,0,0,0,0,0],"split_type":[0,0,0,0,0,0,0,0,0,0,0,0,0,0,0],"sum_hessian":[3.21011E5,3.18792E5,2.219E3,3.12235E5,6.557E3,1.52E2,2.067E3,2.99024E5,1.3211E4,5.028E3,1.529E3,1.01E2,5.1E1,1.356E3,7.11E2],"tree_param":{"num_deleted":"0","num_feature":"3","num_nodes":"15","size_leaf_vector":"1"}},{"base_weights":[6.9199613E-4,-1.6034484E-2,1.4293154E0,-2.6767297E-2,4.3583897E-1,1.007187E0,2.0481753E0,-1.6271238E-3,4.192773E-3,3.8331717E-2,1.6677769E-2,9.3426526E-2,3.9059184E-2,2.5681707E-1,9.046241E-2],"categories":[],"categories_nodes":[],"categories_segments":[],"categories_sizes":[],"default_left":[0,0,0,0,0,0,0,0,0,0,0,0,0,0,0],"id":21,"left_children":[1,3,5,7,9,11,13,-1,-1,-1,-1,-1,-1,-1,-1],"loss_changes":[7.662698E3,1.5372742E3,9.591421E2,1.9781363E2,2.475437E2,4.2408276E2,1.0603057E3,0E0,0E0,0E0,0E0,0E0,0E0,0E0,0E0],"parents":[2147483647,0,0,1,1,2,2,3,3,4,4,5,5,6,6],"right_children":[2,4,6,8,10,12,14,-1,-1,-1,-1,-1,-1,-1,-1],"split_conditions":[4.3574E4,1.5743E4,7.8639E4,4.998E3,1.3455624E2,1.3524374E2,1.3524374E2,-1.6271238E-3,4.192773E-3,3.8331717E-2,1.6677769E-2,9.3426526E-2,3.9059184E-2,2.5681707E-1,9.046241E-2],"split_indices":[0,0,0,0,1,1,1,0,0,0,0,0,0,0,0],"split_type":[0,0,0,0,0,0,0,0,0,0,0,0,0,0,0],"sum_hessian":[3.20661E5,3.16955E5,3.706E3,3.09606E5,7.349E3,2.211E3,1.495E3,2.94248E5,1.5358E4,1.728E3,5.621E3,4.52E2,1.759E3,1E2,1.395E3],"tree_param":{"num_deleted":"0","num_feature":"3","num_nodes":"15","size_leaf_vector":"1"}},{"base_weights":[-2.9399214E-4,-1.6064044E-2,1.3685908E0,-2.4873452E-2,4.0151042E-1,1.1064358E0,2.4082212E0,-1.6368603E-3,2.7628418E-3,4.1006878E-2,1.5358073E-2,1.321223E-1,4.4404842E-2,1.2839502E-1,2.377832E-2],"categories":[],"categories_nodes":[],"categories_segments":[],"categories_sizes":[],"default_left":[0,0,0,0,0,0,0,0,0,0,0,0,0,0,0],"id":22,"left_children":[1,3,5,7,9,11,13,-1,-1,-1,-1,-1,-1,-1,-1],"loss_changes":[6.929703E3,1.1674523E3,9.830991E2,1.9585121E2,2.577224E2,9.7056714E2,2.1979297E2,0E0,0E0,0E0,0E0,0E0,0E0,0E0,0E0],"parents":[2147483647,0,0,1,1,2,2,3,3,4,4,5,5,6,6],"right_children":[2,4,6,8,10,12,14,-1,-1,-1,-1,-1,-1,-1,-1],"split_conditions":[4.3574E4,1.696E4,1.03884E5,2.75E3,1.3335625E2,3.44125E1,1.3985625E2,-1.6368603E-3,2.7628418E-3,4.1006878E-2,1.5358073E-2,1.321223E-1,4.4404842E-2,1.2839502E-1,2.377832E-2],"split_indices":[0,0,0,0,1,2,1,0,0,0,0,0,0,0,0],"split_type":[0,0,0,0,0,0,0,0,0,0,0,0,0,0,0],"sum_hessian":[3.20997E5,3.17346E5,3.651E3,3.10794E5,6.552E3,2.924E3,7.27E2,2.83022E5,2.7772E4,1.198E3,5.354E3,3.57E2,2.567E3,6.7E2,5.7E1],"tree_param":{"num_deleted":"0","num_feature":"3","num_nodes":"15","size_leaf_vector":"1"}},{"base_weights":[1.6582188E-4,-1.9680684E-2,9.41384E-1,-2.7013311E-2,1.9716862E-1,6.0675836E-1,1.595836E0,-1.6342638E-3,9.0671575E-4,2.1846151E-2,6.451573E-3,2.140106E-2,6.5912984E-2,1.612086E-1,7.011976E-2],"categories":[],"categories_nodes":[],"categories_segments":[],"categories_sizes":[],"default_left":[0,0,0,0,0,0,0,0,0,0,0,0,0,0,0],"id":23,"left_children":[1,3,5,7,9,11,13,-1,-1,-1,-1,-1,-1,-1,-1],"loss_changes":[5.997309E3,4.999892E2,1.447105E3,7.7887634E1,1.6773569E2,5.5609863E2,6.829629E2,0E0,0E0,0E0,0E0,0E0,0E0,0E0,0E0],"parents":[2147483647,0,0,1,1,2,2,3,3,4,4,5,5,6,6],"right_children":[2,4,6,8,10,12,14,-1,-1,-1,-1,-1,-1,-1,-1],"split_conditions":[2.6455E4,9.434E3,6.2301E4,1.655E3,3.4345833E1,3.6129166E1,1.3533125E2,-1.6342638E-3,9.0671575E-4,2.1846151E-2,6.451573E-3,2.140106E-2,6.5912984E-2,1.612086E-1,7.011976E-2],"split_indices":[0,0,0,0,2,2,1,0,0,0,0,0,0,0,0],"split_type":[0,0,0,0,0,0,0,0,0,0,0,0,0,0,0],"sum_hessian":[3.21047E5,3.14422E5,6.625E3,3.04142E5,1.028E4,4.39E3,2.235E3,2.70198E5,3.3944E4,2.269E3,8.011E3,3.515E3,8.75E2,2.29E2,2.006E3],"tree_param":{"num_deleted":"0","num_feature":"3","num_nodes":"15","size_leaf_vector":"1"}},{"base_weights":[-7.765997E-4,-1.4984922E-2,1.2341509E0,-2.4253538E-2,2.8178045E-1,9.431357E-1,2.4053645E0,-1.5431731E-3,1.4067391E-3,2.7866846E-2,1.0533659E-2,4.0326197E-2,1.04761735E-1,1.709206E-1,9.1245614E-2],"categories":[],"categories_nodes":[],"categories_segments":[],"categories_sizes":[],"default_left":[0,0,0,0,0,0,0,0,0,0,0,0,0,0,0],"id":24,"left_children":[1,3,5,7,9,11,13,-1,-1,-1,-1,-1,-1,-1,-1],"loss_changes":[5.636631E3,8.735986E2,1.2340898E3,1.0665115E2,1.878883E2,4.534912E2,3.9453906E2,0E0,0E0,0E0,0E0,0E0,0E0,0E0,0E0],"parents":[2147483647,0,0,1,1,2,2,3,3,4,4,5,5,6,6],"right_children":[2,4,6,8,10,12,14,-1,-1,-1,-1,-1,-1,-1,-1],"split_conditions":[4.3574E4,1.2757E4,1.03884E5,1.848E3,3.4379166E1,3.6054165E1,3.5479168E1,-1.5431731E-3,1.4067391E-3,2.7866846E-2,1.0533659E-2,4.0326197E-2,1.04761735E-1,1.709206E-1,9.1245614E-2],"split_indices":[0,0,0,0,2,2,2,0,0,0,0,0,0,0,0],"split_type":[0,0,0,0,0,0,0,0,0,0,0,0,0,0,0],"sum_hessian":[3.21234E5,3.17585E5,3.649E3,3.07971E5,9.614E3,2.93E3,7.19E2,2.73469E5,3.4502E4,1.965E3,7.649E3,2.627E3,3.03E2,2.53E2,4.66E2],"tree_param":{"num_deleted":"0","num_feature":"3","num_nodes":"15","size_leaf_vector":"1"}},{"base_weights":[3.9429922E-4,-1.7075127E-2,9.326339E-1,-2.4873547E-2,1.842768E-1,6.588495E-1,1.7349987E0,-1.4945206E-3,5.8371265E-4,1.8045131E-2,5.3576E-3,2.6167814E-2,6.365615E-2,2.145196E-1,7.9272516E-2],"categories":[],"categories_nodes":[],"categories_segments":[],"categories_sizes":[],"default_left":[0,0,0,0,0,0,0,0,0,0,0,0,0,0,0],"id":25,"left_children":[1,3,5,7,9,11,13,-1,-1,-1,-1,-1,-1,-1,-1],"loss_changes":[5.230685E3,4.9507623E2,1.2921235E3,5.5654495E1,1.5994962E2,3.6396228E2,5.392217E2,0E0,0E0,0E0,0E0,0E0,0E0,0E0,0E0],"parents":[2147483647,0,0,1,1,2,2,3,3,4,4,5,5,6,6],"right_children":[2,4,6,8,10,12,14,-1,-1,-1,-1,-1,-1,-1,-1],"split_conditions":[2.9348E4,8.917E3,7.8639E4,1.447E3,1.3524374E2,3.60125E1,1.3254375E2,-1.4945206E-3,5.8371265E-4,1.8045131E-2,5.3576E-3,2.6167814E-2,6.365615E-2,2.145196E-1,7.9272516E-2],"split_indices":[0,0,0,0,1,2,1,0,0,0,0,0,0,0,0],"split_type":[0,0,0,0,0,0,0,0,0,0,0,0,0,0,0],"sum_hessian":[3.21173E5,3.1527E5,5.903E3,3.03519E5,1.1751E4,4.408E3,1.495E3,2.66885E5,3.6634E4,3.566E3,8.185E3,3.619E3,7.89E2,7.5E1,1.42E3],"tree_param":{"num_deleted":"0","num_feature":"3","num_nodes":"15","size_leaf_vector":"1"}},{"base_weights":[3.4330442E-4,-1.4346745E-2,1.0639313E0,-1.9561758E-2,3.5084298E-1,8.460421E-1,2.1066704E0,-1.2414397E-3,4.372777E-3,3.9887216E-2,1.2507617E-2,3.570813E-2,8.870903E-2,1.1469539E-1,1.3055736E-2],"categories":[],"categories_nodes":[],"categories_segments":[],"categories_sizes":[],"default_left":[0,0,0,0,0,0,0,0,0,0,0,0,0,0,0],"id":26,"left_children":[1,3,5,7,9,11,13,-1,-1,-1,-1,-1,-1,-1,-1],"loss_changes":[5.0185874E3,6.034292E2,9.8532275E2,1.7608539E2,1.997417E2,4.3774048E2,2.5720972E2,0E0,0E0,0E0,0E0,0E0,0E0,0E0,0E0],"parents":[2147483647,0,0,1,1,2,2,3,3,4,4,5,5,6,6],"right_children":[2,4,6,8,10,12,14,-1,-1,-1,-1,-1,-1,-1,-1],"split_conditions":[3.7868E4,1.9879E4,1.03884E5,5.948E3,1.3335625E2,3.60125E1,3.5770832E1,-1.2414397E-3,4.372777E-3,3.9887216E-2,1.2507617E-2,3.570813E-2,8.870903E-2,1.1469539E-1,1.3055736E-2],"split_indices":[0,0,0,0,1,2,2,0,0,0,0,0,0,0,0],"split_type":[0,0,0,0,0,0,0,0,0,0,0,0,0,0,0],"sum_hessian":[3.21197E5,3.16826E5,4.371E3,3.1237E5,4.456E3,3.623E3,7.48E2,2.97721E5,1.4649E4,8.13E2,3.643E3,3.18E3,4.43E2,6.78E2,7E1],"tree_param":{"num_deleted":"0","num_feature":"3","num_nodes":"15","size_leaf_vector":"1"}},{"base_weights":[1.8779066E-4,-1.0914935E-2,1.2076354E0,-2.0056538E-2,3.1115678E-1,2.1680918E0,9.369288E-1,-1.2845751E-3,1.9275508E-3,1.0884774E-2,3.0971525E-2,8.278564E-2,1.4355445E-1,3.3756524E-2,8.2287244E-2],"categories":[],"categories_nodes":[],"categories_segments":[],"categories_sizes":[],"default_left":[0,0,0,0,0,0,0,0,0,0,0,0,0,0,0],"id":27,"left_children":[1,3,5,7,9,11,13,-1,-1,-1,-1,-1,-1,-1,-1],"loss_changes":[4.308071E3,9.375606E2,7.511289E2,1.0226499E2,2.5255133E2,2.0676025E2,4.1994934E2,0E0,0E0,0E0,0E0,0E0,0E0,0E0,0E0],"parents":[2147483647,0,0,1,1,2,2,3,3,4,4,5,5,6,6],"right_children":[2,4,6,8,10,12,14,-1,-1,-1,-1,-1,-1,-1,-1],"split_conditions":[5.1374E4,1.4643E4,3.47125E1,2.666E3,3.62875E1,7.8639E4,1.03884E5,-1.2845751E-3,1.9275508E-3,1.0884774E-2,3.0971525E-2,8.278564E-2,1.4355445E-1,3.3756524E-2,8.2287244E-2],"split_indices":[0,0,2,0,2,0,0,0,0,0,0,0,0,0,0],"split_type":[0,0,0,0,0,0,0,0,0,0,0,0,0,0,0],"sum_hessian":[3.21345E5,3.18422E5,2.923E3,3.09638E5,8.784E3,6.35E2,2.288E3,2.82481E5,2.7157E4,6.747E3,2.037E3,3.77E2,2.58E2,1.678E3,6.1E2],"tree_param":{"num_deleted":"0","num_feature":"3","num_nodes":"15","size_leaf_vector":"1"}},{"base_weights":[1.0416239E-4,-1.5887883E-2,7.5696856E-1,-2.1745263E-2,1.2672716E-1,5.469615E-1,1.4922038E0,-1.3060302E-3,3.647764E-4,1.3891009E-2,2.98413E-3,2.1127174E-2,5.7756778E-2,1.1248034E-1,5.5219032E-2],"categories":[],"categories_nodes":[],"categories_segments":[],"categories_sizes":[],"default_left":[0,0,0,0,0,0,0,0,0,0,0,0,0,0,0],"id":28,"left_children":[1,3,5,7,9,11,13,-1,-1,-1,-1,-1,-1,-1,-1],"loss_changes":[3.8858064E3,2.6264554E2,1.0216289E3,3.8373825E1,1.2556918E2,3.891405E2,4.2025464E2,0E0,0E0,0E0,0E0,0E0,0E0,0E0,0E0],"parents":[2147483647,0,0,1,1,2,2,3,3,4,4,5,5,6,6],"right_children":[2,4,6,8,10,12,14,-1,-1,-1,-1,-1,-1,-1,-1],"split_conditions":[2.6455E4,8.011E3,7.8639E4,1.233E3,1.3524374E2,3.62875E1,1.3691875E2,-1.3060302E-3,3.647764E-4,1.3891009E-2,2.98413E-3,2.1127174E-2,5.7756778E-2,1.1248034E-1,5.5219032E-2],"split_indices":[0,0,0,0,1,2,1,0,0,0,0,0,0,0,0],"split_type":[0,0,0,0,0,0,0,0,0,0,0,0,0,0,0],"sum_hessian":[3.2103E5,3.14392E5,6.638E3,3.01993E5,1.2399E4,5.17E3,1.468E3,2.62452E5,3.9541E4,3.806E3,8.593E3,4.299E3,8.71E2,4.89E2,9.79E2],"tree_param":{"num_deleted":"0","num_feature":"3","num_nodes":"15","size_leaf_vector":"1"}},{"base_weights":[3.0493454E-4,-1.4745284E-2,7.1537995E-1,-2.0559812E-2,1.2558344E-1,5.689127E-1,1.8543146E0,-1.2560285E-3,2.3257441E-4,1.3730179E-2,2.9424455E-3,6.088366E-2,2.2558931E-2,2.1176521E-1,8.4718876E-2],"categories":[],"categories_nodes":[],"categories_segments":[],"categories_sizes":[],"default_left":[0,0,0,0,0,0,0,0,0,0,0,0,0,0,0],"id":29,"left_children":[1,3,5,7,9,11,13,-1,-1,-1,-1,-1,-1,-1,-1],"loss_changes":[3.4557422E3,2.5661627E2,1.0988845E3,3.4722816E1,1.2435832E2,4.4576367E2,2.5048706E2,0E0,0E0,0E0,0E0,0E0,0E0,0E0,0E0],"parents":[2147483647,0,0,1,1,2,2,3,3,4,4,5,5,6,6],"right_children":[2,4,6,8,10,12,14,-1,-1,-1,-1,-1,-1,-1,-1],"split_conditions":[2.6455E4,8.011E3,1.03884E5,9.82E2,1.3524374E2,3.44125E1,1.3533125E2,-1.2560285E-3,2.3257441E-4,1.3730179E-2,2.9424455E-3,6.088366E-2,2.2558931E-2,2.1176521E-1,8.4718876E-2],"split_indices":[0,0,0,0,1,2,1,0,0,0,0,0,0,0,0],"split_type":[0,0,0,0,0,0,0,0,0,0,0,0,0,0,0],"sum_hessian":[3.21095E5,3.14481E5,6.614E3,3.01973E5,1.2508E4,5.867E3,7.47E2,2.55714E5,4.6259E4,3.864E3,8.644E3,8.94E2,4.973E3,3.9E1,7.08E2],"tree_param":{"num_deleted":"0","num_feature":"3","num_nodes":"15","size_leaf_vector":"1"}},{"base_weights":[7.06838E-5,-8.768245E-3,1.2511674E0,-1.6115554E-2,3.39069E-1,2.7944517E0,1.067002E0,-1.0680879E-3,2.6470996E-3,1.132676E-2,3.8288742E-2,8.873468E-2,1.6738644E-1,3.9804958E-2,7.768803E-2],"categories":[],"categories_nodes":[],"categories_segments":[],"categories_sizes":[],"default_left":[0,0,0,0,0,0,0,0,0,0,0,0,0,0,0],"id":30,"left_children":[1,3,5,7,9,11,13,-1,-1,-1,-1,-1,-1,-1,-1],"loss_changes":[3.5498308E3,8.1466437E2,6.2515405E2,1.13100945E2,3.1576886E2,1.04011475E2,2.6018115E2,0E0,0E0,0E0,0E0,0E0,0E0,0E0,0E0],"parents":[2147483647,0,0,1,1,2,2,3,3,4,4,5,5,6,6],"right_children":[2,4,6,8,10,12,14,-1,-1,-1,-1,-1,-1,-1,-1],"split_conditions":[6.2301E4,1.9879E4,1.3533125E2,3.917E3,3.62875E1,1.3050626E2,1.03884E5,-1.0680879E-3,2.6470996E-3,1.132676E-2,3.8288742E-2,8.873468E-2,1.6738644E-1,3.9804958E-2,7.768803E-2],"split_indices":[0,0,1,0,2,1,0,0,0,0,0,0,0,0,0],"split_type":[0,0,0,0,0,0,0,0,0,0,0,0,0,0,0],"sum_hessian":[3.20999E5,3.18752E5,2.247E3,3.12163E5,6.589E3,2.32E2,2.015E3,2.90126E5,2.2037E4,5.22E3,1.369E3,8.9E1,1.43E2,1.303E3,7.12E2],"tree_param":{"num_deleted":"0","num_feature":"3","num_nodes":"15","size_leaf_vector":"1"}},{"base_weights":[2.0509787E-4,-7.955864E-3,1.1696489E0,-1.5301653E-2,3.029031E-1,2.8188071E0,1.0340482E0,-9.340527E-4,4.20002E-3,3.039752E-2,9.670839E-3,6.6947766E-2,2.0272087E-1,3.906634E-2,7.813016E-2],"categories":[],"categories_nodes":[],"categories_segments":[],"categories_sizes":[],"default_left":[0,0,0,0,0,0,0,0,0,0,0,0,0,0,0],"id":31,"left_children":[1,3,5,7,9,11,13,-1,-1,-1,-1,-1,-1,-1,-1],"loss_changes":[3.061388E3,7.274335E2,4.8254858E2,1.0444109E2,2.450246E2,2.7639087E2,2.693318E2,0E0,0E0,0E0,0E0,0E0,0E0,0E0,0E0],"parents":[2147483647,0,0,1,1,2,2,3,3,4,4,5,5,6,6],"right_children":[2,4,6,8,10,12,14,-1,-1,-1,-1,-1,-1,-1,-1],"split_conditions":[6.2301E4,1.829E4,1.3363126E2,7.601E3,1.3524374E2,1.3050626E2,1.3965625E2,-9.340527E-4,4.20002E-3,3.039752E-2,9.670839E-3,6.6947766E-2,2.0272087E-1,3.906634E-2,7.813016E-2],"split_indices":[0,0,1,0,1,1,1,0,0,0,0,0,0,0,0],"split_type":[0,0,0,0,0,0,0,0,0,0,0,0,0,0,0],"sum_hessian":[3.20763E5,3.18545E5,2.218E3,3.11196E5,7.349E3,1.61E2,2.057E3,3.00958E5,1.0238E4,1.935E3,5.414E3,7.8E1,8.3E1,1.4E3,6.57E2],"tree_param":{"num_deleted":"0","num_feature":"3","num_nodes":"15","size_leaf_vector":"1"}},{"base_weights":[5.321465E-4,-7.514225E-3,1.1722151E0,-1.3814914E-2,3.8090295E-1,1.6735487E0,8.3096737E-1,-1.0082967E-3,2.1432964E-3,1.2104854E-2,4.28378E-2,1.2682496E-1,7.357814E-2,-2.9495652E-3,7.01169E-2],"categories":[],"categories_nodes":[],"categories_segments":[],"categories_sizes":[],"default_left":[0,0,0,0,0,0,0,0,0,0,0,0,0,0,0],"id":32,"left_children":[1,3,5,7,9,11,13,-1,-1,-1,-1,-1,-1,-1,-1],"loss_changes":[3.0202573E3,7.786873E2,3.6685425E2,1.12713684E2,3.3443683E2,1.3472437E2,6.665438E2,0E0,0E0,0E0,0E0,0E0,0E0,0E0,0E0],"parents":[2147483647,0,0,1,1,2,2,3,3,4,4,5,5,6,6],"right_children":[2,4,6,8,10,12,14,-1,-1,-1,-1,-1,-1,-1,-1],"split_conditions":[6.2301E4,2.3963E4,1.3840625E2,2.666E3,3.6054165E1,1.3254375E2,1.3960625E2,-1.0082967E-3,2.1432964E-3,1.2104854E-2,4.28378E-2,1.2682496E-1,7.357814E-2,-2.9495652E-3,7.01169E-2],"split_indices":[0,0,1,0,2,1,1,0,0,0,0,0,0,0,0],"split_type":[0,0,0,0,0,0,0,0,0,0,0,0,0,0,0],"sum_hessian":[3.20347E5,3.18167E5,2.18E3,3.13093E5,5.074E3,8.75E2,1.305E3,2.81549E5,3.1544E4,3.934E3,1.14E3,1.55E2,7.2E2,5.12E2,7.93E2],"tree_param":{"num_deleted":"0","num_feature":"3","num_nodes":"15","size_leaf_vector":"1"}},{"base_weights":[9.885364E-4,-7.723341E-3,9.443575E-1,-1.3418765E-2,2.9691282E-1,2.0671632E0,7.6946163E-1,-8.545189E-4,4.3208743E-3,9.84358E-3,3.2394093E-2,4.924319E-2,1.2681136E-1,2.517396E-2,7.303075E-2],"categories":[],"categories_nodes":[],"categories_segments":[],"categories_sizes":[],"default_left":[0,0,0,0,0,0,0,0,0,0,0,0,0,0,0],"id":33,"left_children":[1,3,5,7,9,11,13,-1,-1,-1,-1,-1,-1,-1,-1],"loss_changes":[2.6388047E3,5.520081E2,5.6899414E2,1.1448741E2,2.0437756E2,1.8702405E2,4.651012E2,0E0,0E0,0E0,0E0,0E0,0E0,0E0,0E0],"parents":[2147483647,0,0,1,1,2,2,3,3,4,4,5,5,6,6],"right_children":[2,4,6,8,10,12,14,-1,-1,-1,-1,-1,-1,-1,-1],"split_conditions":[5.1374E4,1.9879E4,1.3533125E2,7.601E3,3.62875E1,1.3050626E2,1.03884E5,-8.545189E-4,4.3208743E-3,9.84358E-3,3.2394093E-2,4.924319E-2,1.2681136E-1,2.517396E-2,7.303075E-2],"split_indices":[0,0,1,0,2,1,0,0,0,0,0,0,0,0,0],"split_type":[0,0,0,0,0,0,0,0,0,0,0,0,0,0,0],"sum_hessian":[3.21071E5,3.18138E5,2.933E3,3.12304E5,5.834E3,3.88E2,2.545E3,3.0123E5,1.1074E4,4.546E3,1.288E3,1.22E2,2.66E2,1.844E3,7.01E2],"tree_param":{"num_deleted":"0","num_feature":"3","num_nodes":"15","size_leaf_vector":"1"}},{"base_weights":[2.0113669E-4,-6.8548424E-3,1.0132418E0,-1.2736106E-2,3.0592674E-1,2.3841696E0,8.427772E-1,-8.338663E-4,3.5841358E-3,9.959671E-3,3.608165E-2,6.508293E-2,1.4947172E-1,2.814453E-2,7.0254326E-2],"categories":[],"categories_nodes":[],"categories_segments":[],"categories_sizes":[],"default_left":[0,0,0,0,0,0,0,0,0,0,0,0,0,0,0],"id":34,"left_children":[1,3,5,7,9,11,13,-1,-1,-1,-1,-1,-1,-1,-1],"loss_changes":[2.2962134E3,5.8686755E2,5.092229E2,1.0418976E2,2.605301E2,1.3975903E2,3.0829297E2,0E0,0E0,0E0,0E0,0E0,0E0,0E0,0E0],"parents":[2147483647,0,0,1,1,2,2,3,3,4,4,5,5,6,6],"right_children":[2,4,6,8,10,12,14,-1,-1,-1,-1,-1,-1,-1,-1],"split_conditions":[6.2301E4,2.1724E4,1.3533125E2,6.532E3,3.62875E1,1.3050626E2,1.3965625E2,-8.338663E-4,3.5841358E-3,9.959671E-3,3.608165E-2,6.508293E-2,1.4947172E-1,2.814453E-2,7.0254326E-2],"split_indices":[0,0,1,0,2,1,1,0,0,0,0,0,0,0,0],"split_type":[0,0,0,0,0,0,0,0,0,0,0,0,0,0,0],"sum_hessian":[3.21229E5,3.19012E5,2.217E3,3.13129E5,5.883E3,2.38E2,1.979E3,2.99166E5,1.3963E4,4.687E3,1.196E3,9.1E1,1.47E2,1.328E3,6.51E2],"tree_param":{"num_deleted":"0","num_feature":"3","num_nodes":"15","size_leaf_vector":"1"}},{"base_weights":[-4.3304986E-4,-1.133417E-2,5.191818E-1,-1.521452E-2,9.517904E-2,3.75545E-1,1.0111187E0,-9.5860934E-4,3.0186024E-4,1.1796403E-2,1.6836686E-3,1.2447751E-2,4.4308946E-2,8.079605E-2,3.0949458E-2],"categories":[],"categories_nodes":[],"categories_segments":[],"categories_sizes":[],"default_left":[0,0,0,0,0,0,0,0,0,0,0,0,0,0,0],"id":35,"left_children":[1,3,5,7,9,11,13,-1,-1,-1,-1,-1,-1,-1,-1],"loss_changes":[1.8149717E3,1.2971751E2,4.6332837E2,2.5468834E1,9.546281E1,3.2882526E2,3.471825E2,0E0,0E0,0E0,0E0,0E0,0E0,0E0,0E0],"parents":[2147483647,0,0,1,1,2,2,3,3,4,4,5,5,6,6],"right_children":[2,4,6,8,10,12,14,-1,-1,-1,-1,-1,-1,-1,-1],"split_conditions":[2.6455E4,8.917E3,7.8639E4,9.82E2,1.3524374E2,3.60125E1,3.5345833E1,-9.5860934E-4,3.0186024E-4,1.1796403E-2,1.6836686E-3,1.2447751E-2,4.4308946E-2,8.079605E-2,3.0949458E-2],"split_indices":[0,0,0,0,1,2,2,0,0,0,0,0,0,0,0],"split_type":[0,0,0,0,0,0,0,0,0,0,0,0,0,0,0],"sum_hessian":[3.20408E5,3.13829E5,6.579E3,3.02802E5,1.1027E4,5.099E3,1.48E3,2.55265E5,4.7537E4,3.349E3,7.678E3,4.092E3,1.007E3,5.76E2,9.04E2],"tree_param":{"num_deleted":"0","num_feature":"3","num_nodes":"15","size_leaf_vector":"1"}},{"base_weights":[4.268504E-4,-6.5845335E-3,1.0235488E0,-1.2787299E-2,2.1231697E-1,2.6694636E0,8.509895E-1,-8.7382965E-4,9.2178705E-4,3.0596321E-2,5.681203E-3,6.849583E-2,1.7400703E-1,3.085856E-2,7.21707E-2],"categories":[],"categories_nodes":[],"categories_segments":[],"categories_sizes":[],"default_left":[0,0,0,0,0,0,0,0,0,0,0,0,0,0,0],"id":36,"left_children":[1,3,5,7,9,11,13,-1,-1,-1,-1,-1,-1,-1,-1],"loss_changes":[2.3028853E3,4.3293555E2,6.092207E2,4.5398888E1,3.4616013E2,1.9213257E2,2.7050745E2,0E0,0E0,0E0,0E0,0E0,0E0,0E0,0E0],"parents":[2147483647,0,0,1,1,2,2,3,3,4,4,5,5,6,6],"right_children":[2,4,6,8,10,12,14,-1,-1,-1,-1,-1,-1,-1,-1],"split_conditions":[6.2301E4,1.5743E4,1.3524374E2,1.612E3,3.44125E1,1.3050626E2,1.3969376E2,-8.7382965E-4,9.2178705E-4,3.0596321E-2,5.681203E-3,6.849583E-2,1.7400703E-1,3.085856E-2,7.21707E-2],"split_indices":[0,0,1,0,2,1,1,0,0,0,0,0,0,0,0],"split_type":[0,0,0,0,0,0,0,0,0,0,0,0,0,0,0],"sum_hessian":[3.21017E5,3.18837E5,2.18E3,3.10056E5,8.781E3,2E2,1.98E3,2.69572E5,4.0484E4,1.734E3,7.047E3,8.2E1,1.18E2,1.427E3,5.53E2],"tree_param":{"num_deleted":"0","num_feature":"3","num_nodes":"15","size_leaf_vector":"1"}},{"base_weights":[4.4685072E-4,-1.023015E-2,5.096141E-1,-1.3489845E-2,9.366075E-2,4.0029168E-1,1.3662215E0,-8.5509656E-4,3.7551924E-4,1.402053E-2,1.9690364E-3,1.4183571E-2,4.780451E-2,7.5802974E-2,-1.72124E-2],"categories":[],"categories_nodes":[],"categories_segments":[],"categories_sizes":[],"default_left":[0,0,0,0,0,0,0,0,0,0,0,0,0,0,0],"id":37,"left_children":[1,3,5,7,9,11,13,-1,-1,-1,-1,-1,-1,-1,-1],"loss_changes":[1.7448212E3,1.064655E2,6.145824E2,2.3121288E1,9.6893005E1,3.7802014E2,1.9329163E2,0E0,0E0,0E0,0E0,0E0,0E0,0E0,0E0],"parents":[2147483647,0,0,1,1,2,2,3,3,4,4,5,5,6,6],"right_children":[2,4,6,8,10,12,14,-1,-1,-1,-1,-1,-1,-1,-1],"split_conditions":[2.6455E4,9.999E3,1.03884E5,1.144E3,3.4345833E1,3.6054165E1,1.3985625E2,-8.5509656E-4,3.7551924E-4,1.402053E-2,1.9690364E-3,1.4183571E-2,4.780451E-2,7.5802974E-2,-1.72124E-2],"split_indices":[0,0,0,0,2,2,1,0,0,0,0,0,0,0,0],"split_type":[0,0,0,0,0,0,0,0,0,0,0,0,0,0,0],"sum_hessian":[3.20943E5,3.14356E5,6.587E3,3.04797E5,9.559E3,5.848E3,7.39E2,2.60066E5,4.4731E4,2.148E3,7.411E3,4.84E3,1.008E3,6.8E2,5.9E1],"tree_param":{"num_deleted":"0","num_feature":"3","num_nodes":"15","size_leaf_vector":"1"}},{"base_weights":[-8.1825134E-4,-6.704884E-3,8.431204E-1,-1.1771312E-2,1.7321022E-1,1.9974387E0,7.1083915E-1,-7.9855707E-4,7.875692E-4,4.393166E-3,2.3164866E-2,3.972842E-2,1.3471985E-1,2.3006348E-2,6.124233E-2],"categories":[],"categories_nodes":[],"categories_segments":[],"categories_sizes":[],"default_left":[0,0,0,0,0,0,0,0,0,0,0,0,0,0,0],"id":38,"left_children":[1,3,5,7,9,11,13,-1,-1,-1,-1,-1,-1,-1,-1],"loss_changes":[1.5957708E3,2.9077542E2,3.3264624E2,3.586383E1,2.1610739E2,1.7876282E2,2.5543347E2,0E0,0E0,0E0,0E0,0E0,0E0,0E0,0E0],"parents":[2147483647,0,0,1,1,2,2,3,3,4,4,5,5,6,6],"right_children":[2,4,6,8,10,12,14,-1,-1,-1,-1,-1,-1,-1,-1],"split_conditions":[6.2301E4,1.5743E4,1.3533125E2,1.569E3,3.6254166E1,1.3050626E2,1.3965625E2,-7.9855707E-4,7.875692E-4,4.393166E-3,2.3164866E-2,3.972842E-2,1.3471985E-1,2.3006348E-2,6.124233E-2],"split_indices":[0,0,1,0,2,1,1,0,0,0,0,0,0,0,0],"split_type":[0,0,0,0,0,0,0,0,0,0,0,0,0,0,0],"sum_hessian":[3.21202E5,3.18982E5,2.22E3,3.1025E5,8.732E3,2.21E2,1.999E3,2.69177E5,4.1073E4,6.752E3,1.98E3,8.5E1,1.36E2,1.35E3,6.49E2],"tree_param":{"num_deleted":"0","num_feature":"3","num_nodes":"15","size_leaf_vector":"1"}},{"base_weights":[-4.0510079E-4,-5.969201E-3,7.906469E-1,-1.1797799E-2,1.5719764E-1,1.3217955E0,3.993732E-1,-7.5624645E-4,6.4194377E-4,2.3710284E-2,3.7675907E-3,1.1386185E-1,5.5444986E-2,-1.827255E-2,4.239926E-2],"categories":[],"categories_nodes":[],"categories_segments":[],"categories_sizes":[],"default_left":[0,0,0,0,0,0,0,0,0,0,0,0,0,0,0],"id":39,"left_children":[1,3,5,7,9,11,13,-1,-1,-1,-1,-1,-1,-1,-1],"loss_changes":[1.4115692E3,3.0287744E2,4.628872E2,2.5205177E1,2.848098E2,1.8020618E2,4.4656226E2,0E0,0E0,0E0,0E0,0E0,0E0,0E0,0E0],"parents":[2147483647,0,0,1,1,2,2,3,3,4,4,5,5,6,6],"right_children":[2,4,6,8,10,12,14,-1,-1,-1,-1,-1,-1,-1,-1],"split_conditions":[6.2301E4,1.2757E4,1.3936874E2,1.701E3,3.44125E1,1.3254375E2,1.3960625E2,-7.5624645E-4,6.4194377E-4,2.3710284E-2,3.7675907E-3,1.1386185E-1,5.5444986E-2,-1.827255E-2,4.239926E-2],"split_indices":[0,0,1,0,2,1,1,0,0,0,0,0,0,0,0],"split_type":[0,0,0,0,0,0,0,0,0,0,0,0,0,0,0],"sum_hessian":[3.20692E5,3.18457E5,2.235E3,3.07478E5,1.0979E4,9.43E2,1.292E3,2.70896E5,3.6582E4,2.248E3,8.731E3,1.63E2,7.8E2,4.78E2,8.14E2],"tree_param":{"num_deleted":"0","num_feature":"3","num_nodes":"15","size_leaf_vector":"1"}},{"base_weights":[6.453314E-4,-5.506102E-3,6.5901524E-1,-9.532654E-3,2.0799947E-1,1.8869245E0,5.1767313E-1,-5.8579014E-4,3.2766273E-3,2.7049566E-2,5.556603E-3,6.533451E-2,1.7895986E-1,1.7105056E-2,4.9397428E-2],"categories":[],"categories_nodes":[],"categories_segments":[],"categories_sizes":[],"default_left":[0,0,0,0,0,0,0,0,0,0,0,0,0,0,0],"id":40,"left_children":[1,3,5,7,9,11,13,-1,-1,-1,-1,-1,-1,-1,-1],"loss_changes":[1.3006901E3,2.7355676E2,5.110957E2,5.118423E1,1.8968756E2,2.7609937E2,2.1901227E2,0E0,0E0,0E0,0E0,0E0,0E0,0E0,0E0],"parents":[2147483647,0,0,1,1,2,2,3,3,4,4,5,5,6,6],"right_children":[2,4,6,8,10,12,14,-1,-1,-1,-1,-1,-1,-1,-1],"split_conditions":[5.1374E4,1.9879E4,1.3466875E2,8.917E3,1.3466875E2,7.8639E4,1.03884E5,-5.8579014E-4,3.2766273E-3,2.7049566E-2,5.556603E-3,6.533451E-2,1.7895986E-1,1.7105056E-2,4.9397428E-2],"split_indices":[0,0,1,0,1,0,0,0,0,0,0,0,0,0,0],"split_type":[0,0,0,0,0,0,0,0,0,0,0,0,0,0,0],"sum_hessian":[3.21155E5,3.18187E5,2.968E3,3.12302E5,5.885E3,3E2,2.668E3,3.0348E5,8.822E3,1.321E3,4.564E3,2.3E2,7E1,1.949E3,7.19E2],"tree_param":{"num_deleted":"0","num_feature":"3","num_nodes":"15","size_leaf_vector":"1"}},{"base_weights":[-6.185891E-5,-7.328212E-3,4.511228E-1,-1.1802446E-2,6.528848E-2,1.1852562E0,3.451993E-1,-7.3057594E-4,1.21003344E-4,1.1651146E-2,9.644662E-4,3.62041E-2,1.576754E-1,1.2019782E-2,4.563507E-2],"categories":[],"categories_nodes":[],"categories_segments":[],"categories_sizes":[],"default_left":[0,0,0,0,0,0,0,0,0,0,0,0,0,0,0],"id":41,"left_children":[1,3,5,7,9,11,13,-1,-1,-1,-1,-1,-1,-1,-1],"loss_changes":[1.05326E3,1.0273007E2,3.9391833E2,1.1899025E1,1.4156728E2,5.695155E2,2.639887E2,0E0,0E0,0E0,0E0,0E0,0E0,0E0,0E0],"parents":[2147483647,0,0,1,1,2,2,3,3,4,4,5,5,6,6],"right_children":[2,4,6,8,10,12,14,-1,-1,-1,-1,-1,-1,-1,-1],"split_conditions":[3.3022E4,5.948E3,3.44125E1,7.7E2,3.42625E1,3.4029167E1,1.03884E5,-7.3057594E-4,1.21003344E-4,1.1651146E-2,9.644662E-4,3.62041E-2,1.576754E-1,1.2019782E-2,4.563507E-2],"split_indices":[0,0,2,0,2,2,0,0,0,0,0,0,0,0,0],"split_type":[0,0,0,0,0,0,0,0,0,0,0,0,0,0,0],"sum_hessian":[3.21256E5,3.16169E5,5.087E3,2.97823E5,1.8346E4,6.35E2,4.452E3,2.48702E5,4.9121E4,3.944E3,1.4402E4,5.2E2,1.15E2,3.764E3,6.88E2],"tree_param":{"num_deleted":"0","num_feature":"3","num_nodes":"15","size_leaf_vector":"1"}},{"base_weights":[-3.944324E-4,-5.267241E-3,7.012227E-1,-8.478615E-3,1.8883266E-1,2.0182307E0,5.930779E-1,-5.4622395E-4,2.5237305E-3,3.0327214E-2,5.0316206E-3,4.6133112E-2,1.709578E-1,1.9423874E-2,5.0970394E-2],"categories":[],"categories_nodes":[],"categories_segments":[],"categories_sizes":[],"default_left":[0,0,0,0,0,0,0,0,0,0,0,0,0,0,0],"id":42,"left_children":[1,3,5,7,9,11,13,-1,-1,-1,-1,-1,-1,-1,-1],"loss_changes":[1.0979432E3,1.988052E2,3.094923E2,4.524185E1,1.9094298E2,2.3900482E2,1.7718475E2,0E0,0E0,0E0,0E0,0E0,0E0,0E0,0E0],"parents":[2147483647,0,0,1,1,2,2,3,3,4,4,5,5,6,6],"right_children":[2,4,6,8,10,12,14,-1,-1,-1,-1,-1,-1,-1,-1],"split_conditions":[6.2301E4,2.3963E4,1.3254375E2,7.601E3,3.4379166E1,3.35875E1,1.3965625E2,-5.4622395E-4,2.5237305E-3,3.0327214E-2,5.0316206E-3,4.6133112E-2,1.709578E-1,1.9423874E-2,5.0970394E-2],"split_indices":[0,0,1,0,2,2,1,0,0,0,0,0,0,0,0],"split_type":[0,0,0,0,0,0,0,0,0,0,0,0,0,0,0],"sum_hessian":[3.21134E5,3.18924E5,2.21E3,3.13738E5,5.186E3,1.61E2,2.049E3,3.01244E5,1.2494E4,8.99E2,4.287E3,9.5E1,6.6E1,1.391E3,6.58E2],"tree_param":{"num_deleted":"0","num_feature":"3","num_nodes":"15","size_leaf_vector":"1"}},{"base_weights":[3.0519784E-4,-4.1858586E-3,6.6026026E-1,-8.434177E-3,1.7532933E-1,1.0160925E0,4.0353492E-1,-5.6108995E-4,1.7126056E-3,-5.7335567E-2,9.778512E-3,1.2662922E-1,4.620506E-2,-2.0287393E-2,4.4644378E-2],"categories":[],"categories_nodes":[],"categories_segments":[],"categories_sizes":[],"default_left":[0,0,0,0,0,0,0,0,0,0,0,0,0,0,0],"id":43,"left_children":[1,3,5,7,9,11,13,-1,-1,-1,-1,-1,-1,-1,-1],"loss_changes":[9.5243195E2,2.4342078E2,1.9636462E2,3.710389E1,1.9857823E2,1.1482843E2,5.0476276E2,0E0,0E0,0E0,0E0,0E0,0E0,0E0,0E0],"parents":[2147483647,0,0,1,1,2,2,3,3,4,4,5,5,6,6],"right_children":[2,4,6,8,10,12,14,-1,-1,-1,-1,-1,-1,-1,-1],"split_conditions":[6.2301E4,1.829E4,1.3936874E2,4.405E3,2.6520834E1,3.28625E1,1.3960625E2,-5.6108995E-4,1.7126056E-3,-5.7335567E-2,9.778512E-3,1.2662922E-1,4.620506E-2,-2.0287393E-2,4.4644378E-2],"split_indices":[0,0,1,0,2,2,1,0,0,0,0,0,0,0,0],"split_type":[0,0,0,0,0,0,0,0,0,0,0,0,0,0,0],"sum_hessian":[3.21335E5,3.19168E5,2.167E3,3.11794E5,7.374E3,9.02E2,1.265E3,2.92684E5,1.911E4,1.07E2,7.267E3,4.4E1,8.58E2,4.77E2,7.88E2],"tree_param":{"num_deleted":"0","num_feature":"3","num_nodes":"15","size_leaf_vector":"1"}},{"base_weights":[-2.450978E-4,-6.4301915E-3,4.4759414E-1,-9.518533E-3,7.4087955E-2,1.2336756E0,3.4411332E-1,-6.167022E-4,3.9234004E-4,-3.7933737E-2,4.2432225E-3,3.3811595E-2,1.8394215E-1,1.1750876E-2,5.8360707E-2],"categories":[],"categories_nodes":[],"categories_segments":[],"categories_sizes":[],"default_left":[0,0,0,0,0,0,0,0,0,0,0,0,0,0,0],"id":44,"left_children":[1,3,5,7,9,11,13,-1,-1,-1,-1,-1,-1,-1,-1],"loss_changes":[8.8956836E2,7.877569E1,3.5375903E2,1.4916546E1,1.05338745E2,6.7862427E2,3.464116E2,0E0,0E0,0E0,0E0,0E0,0E0,0E0,0E0],"parents":[2147483647,0,0,1,1,2,2,3,3,4,4,5,5,6,6],"right_children":[2,4,6,8,10,12,14,-1,-1,-1,-1,-1,-1,-1,-1],"split_conditions":[3.7868E4,9.999E3,3.44125E1,1.233E3,2.6520834E1,3.40625E1,3.60125E1,-6.167022E-4,3.9234004E-4,-3.7933737E-2,4.2432225E-3,3.3811595E-2,1.8394215E-1,1.1750876E-2,5.8360707E-2],"split_indices":[0,0,2,0,2,2,2,0,0,0,0,0,0,0,0],"split_type":[0,0,0,0,0,0,0,0,0,0,0,0,0,0,0],"sum_hessian":[3.21142E5,3.16772E5,4.37E3,3.05075E5,1.1697E4,5.02E2,3.868E3,2.62514E5,4.2561E4,1.45E2,1.1552E4,4.14E2,8.8E1,3.421E3,4.47E2],"tree_param":{"num_deleted":"0","num_feature":"3","num_nodes":"15","size_leaf_vector":"1"}},{"base_weights":[3.9154224E-4,-3.2518914E-3,8.0608535E-1,-7.124967E-3,2.0458478E-1,2.0476937E0,5.2782494E-1,-5.07208E-4,1.7215115E-3,5.4219966E-3,3.004536E-2,1.1469834E-1,-5.104009E-2,3.4844894E-2,-1.0564694E-2],"categories":[],"categories_nodes":[],"categories_segments":[],"categories_sizes":[],"default_left":[0,0,0,0,0,0,0,0,0,0,0,0,0,0,0],"id":45,"left_children":[1,3,5,7,9,11,13,-1,-1,-1,-1,-1,-1,-1,-1],"loss_changes":[9.429048E2,2.5740598E2,4.9417517E2,3.938689E1,2.2258469E2,2.1045435E2,1.4919464E2,0E0,0E0,0E0,0E0,0E0,0E0,0E0,0E0],"parents":[2147483647,0,0,1,1,2,2,3,3,4,4,5,5,6,6],"right_children":[2,4,6,8,10,12,14,-1,-1,-1,-1,-1,-1,-1,-1],"split_conditions":[7.8639E4,2.3963E4,3.47125E1,4.405E3,3.6129166E1,1.3560625E2,3.5770832E1,-5.07208E-4,1.7215115E-3,5.4219966E-3,3.004536E-2,1.1469834E-1,-5.104009E-2,3.4844894E-2,-1.0564694E-2],"split_indices":[0,0,2,0,2,1,2,0,0,0,0,0,0,0,0],"split_type":[0,0,0,0,0,0,0,0,0,0,0,0,0,0,0],"sum_hessian":[3.21199E5,3.19758E5,1.441E3,3.13913E5,5.845E3,2.58E2,1.183E3,2.92654E5,2.1259E4,4.709E3,1.136E3,2.4E2,1.8E1,9.63E2,2.2E2],"tree_param":{"num_deleted":"0","num_feature":"3","num_nodes":"15","size_leaf_vector":"1"}},{"base_weights":[4.2645403E-4,-4.260516E-3,5.12523E-1,-7.8077344E-3,1.20229125E-1,1.3621318E0,4.1313687E-1,-5.3482753E-4,7.040018E-4,-4.7419637E-2,6.8129995E-3,1.3553602E-2,1.21854834E-1,1.0894111E-2,4.772191E-2],"categories":[],"categories_nodes":[],"categories_segments":[],"categories_sizes":[],"default_left":[0,0,0,0,0,0,0,0,0,0,0,0,0,0,0],"id":46,"left_children":[1,3,5,7,9,11,13,-1,-1,-1,-1,-1,-1,-1,-1],"loss_changes":[7.711699E2,1.4060008E2,2.4324237E2,1.9574596E1,1.5175806E2,3.5207074E2,2.7544946E2,0E0,0E0,0E0,0E0,0E0,0E0,0E0,0E0],"parents":[2147483647,0,0,1,1,2,2,3,3,4,4,5,5,6,6],"right_children":[2,4,6,8,10,12,14,-1,-1,-1,-1,-1,-1,-1,-1],"split_conditions":[5.1374E4,1.4643E4,1.3478125E2,1.848E3,1.2804375E2,1.3056876E2,1.3969376E2,-5.3482753E-4,7.040018E-4,-4.7419637E-2,6.8129995E-3,1.3553602E-2,1.21854834E-1,1.0894111E-2,4.772191E-2],"split_indices":[0,0,1,0,1,1,1,0,0,0,0,0,0,0,0],"split_type":[0,0,0,0,0,0,0,0,0,0,0,0,0,0,0],"sum_hessian":[3.21287E5,3.18378E5,2.909E3,3.09562E5,8.816E3,2.98E2,2.611E3,2.73471E5,3.6091E4,1.26E2,8.69E3,1.51E2,1.47E2,1.924E3,6.87E2],"tree_param":{"num_deleted":"0","num_feature":"3","num_nodes":"15","size_leaf_vector":"1"}},{"base_weights":[9.716746E-5,-6.2799235E-3,3.0517232E-1,-8.525199E-3,4.87875E-2,-1.4979033E0,3.2883734E-1,-5.669204E-4,1.3831815E-4,8.09389E-3,-5.6204484E-5,-8.079798E-2,3.315593E-2,4.5526765E-2,1.14237955E-2],"categories":[],"categories_nodes":[],"categories_segments":[],"categories_sizes":[],"default_left":[0,0,0,0,0,0,0,0,0,0,0,0,0,0,0],"id":47,"left_children":[1,3,5,7,9,11,13,-1,-1,-1,-1,-1,-1,-1,-1],"loss_changes":[6.241623E2,3.8857174E1,2.8276093E2,9.591721E0,6.94962E1,2.7298355E1,3.777295E2,0E0,0E0,0E0,0E0,0E0,0E0,0E0,0E0],"parents":[2147483647,0,0,1,1,2,2,3,3,4,4,5,5,6,6],"right_children":[2,4,6,8,10,12,14,-1,-1,-1,-1,-1,-1,-1,-1],"split_conditions":[2.6455E4,8.011E3,1.2804375E2,6.23E2,1.3524374E2,1.03884E5,1.3466875E2,-5.669204E-4,1.3831815E-4,8.09389E-3,-5.6204484E-5,-8.079798E-2,3.315593E-2,4.5526765E-2,1.14237955E-2],"split_indices":[0,0,1,0,1,0,1,0,0,0,0,0,0,0,0],"split_type":[0,0,0,0,0,0,0,0,0,0,0,0,0,0,0],"sum_hessian":[3.20815E5,3.14251E5,6.564E3,3.01944E5,1.2307E4,8.1E1,6.483E3,2.41721E5,6.0223E4,3.765E3,8.542E3,7.8E1,3E0,9.48E2,5.535E3],"tree_param":{"num_deleted":"0","num_feature":"3","num_nodes":"15","size_leaf_vector":"1"}},{"base_weights":[4.901304E-4,-4.576438E-3,3.645559E-1,-7.7703423E-3,7.783939E-2,2.7769983E-1,1.1372442E0,-5.3027965E-4,2.349223E-4,1.2517448E-2,1.422338E-3,2.1760842E-2,-2.5899617E-2,8.452898E-2,2.0168452E-2],"categories":[],"categories_nodes":[],"categories_segments":[],"categories_sizes":[],"default_left":[0,0,0,0,0,0,0,0,0,0,0,0,0,0,0],"id":48,"left_children":[1,3,5,7,9,11,13,-1,-1,-1,-1,-1,-1,-1,-1],"loss_changes":[5.9130914E2,8.3227646E1,2.9371667E2,1.0760658E1,1.00474594E2,4.9770462E2,1.764834E2,0E0,0E0,0E0,0E0,0E0,0E0,0E0,0E0],"parents":[2147483647,0,0,1,1,2,2,3,3,4,4,5,5,6,6],"right_children":[2,4,6,8,10,12,14,-1,-1,-1,-1,-1,-1,-1,-1],"split_conditions":[3.7868E4,9.999E3,3.60125E1,7.7E2,3.44125E1,3.57375E1,1.4078125E2,-5.3027965E-4,2.349223E-4,1.2517448E-2,1.422338E-3,2.1760842E-2,-2.5899617E-2,8.452898E-2,2.0168452E-2],"split_indices":[0,0,2,0,2,2,1,0,0,0,0,0,0,0,0],"split_type":[0,0,0,0,0,0,0,0,0,0,0,0,0,0,0],"sum_hessian":[3.20559E5,3.16164E5,4.395E3,3.04373E5,1.1791E4,3.957E3,4.38E2,2.47985E5,5.6388E4,2.62E3,9.171E3,3.305E3,6.52E2,2.46E2,1.92E2],"tree_param":{"num_deleted":"0","num_feature":"3","num_nodes":"15","size_leaf_vector":"1"}},{"base_weights":[1.1545955E-4,-3.0491392E-3,6.82004E-1,-6.158736E-3,1.87582E-1,1.1682447E0,2.9347184E-1,-4.300593E-4,1.0744225E-3,4.260168E-3,3.138913E-2,1.1683323E-1,4.9533125E-2,-2.2129122E-2,4.2083643E-2],"categories":[],"categories_nodes":[],"categories_segments":[],"categories_sizes":[],"default_left":[0,0,0,0,0,0,0,0,0,0,0,0,0,0,0],"id":49,"left_children":[1,3,5,7,9,11,13,-1,-1,-1,-1,-1,-1,-1,-1],"loss_changes":[6.9275354E2,1.8942938E2,2.784544E2,2.123299E1,2.308819E2,1.2474695E2,3.3717572E2,0E0,0E0,0E0,0E0,0E0,0E0,0E0,0E0],"parents":[2147483647,0,0,1,1,2,2,3,3,4,4,5,5,6,6],"right_children":[2,4,6,8,10,12,14,-1,-1,-1,-1,-1,-1,-1,-1],"split_conditions":[7.8639E4,2.6455E4,3.5479168E1,3.641E3,3.6054165E1,3.45125E1,1.3965625E2,-4.300593E-4,1.0744225E-3,4.260168E-3,3.138913E-2,1.1683323E-1,4.9533125E-2,-2.2129122E-2,4.2083643E-2],"split_indices":[0,0,2,0,2,2,1,0,0,0,0,0,0,0,0],"split_type":[0,0,0,0,0,0,0,0,0,0,0,0,0,0,0],"sum_hessian":[3.21021E5,3.19543E5,1.478E3,3.14419E5,5.124E3,6.52E2,8.26E2,2.889E5,2.5519E4,4.162E3,9.62E2,7.8E1,5.74E2,3.53E2,4.73E2],"tree_param":{"num_deleted":"0","num_feature":"3","num_nodes":"15","size_leaf_vector":"1"}},{"base_weights":[2.0243118E-4,-2.9629408E-3,4.541206E-1,-6.1091143E-3,1.0780173E-1,1.7041122E0,3.561694E-1,-3.7573476E-4,1.5954253E-3,1.7682377E-2,8.3013804E-4,2.274186E-2,1.5274833E-1,2.5610868E-2,-6.5475563E-3],"categories":[],"categories_nodes":[],"categories_segments":[],"categories_sizes":[],"default_left":[0,0,0,0,0,0,0,0,0,0,0,0,0,0,0],"id":50,"left_children":[1,3,5,7,9,11,13,-1,-1,-1,-1,-1,-1,-1,-1],"loss_changes":[4.6060236E2,1.1094381E2,2.68778E2,1.6543262E1,1.9711746E2,2.6306656E2,1.5730463E2,0E0,0E0,0E0,0E0,0E0,0E0,0E0,0E0],"parents":[2147483647,0,0,1,1,2,2,3,3,4,4,5,5,6,6],"right_children":[2,4,6,8,10,12,14,-1,-1,-1,-1,-1,-1,-1,-1],"split_conditions":[6.2301E4,1.5743E4,1.3254375E2,6.532E3,1.3524374E2,1.3050626E2,3.57375E1,-3.7573476E-4,1.5954253E-3,1.7682377E-2,8.3013804E-4,2.274186E-2,1.5274833E-1,2.5610868E-2,-6.5475563E-3],"split_indices":[0,0,1,0,1,1,2,0,0,0,0,0,0,0,0],"split_type":[0,0,0,0,0,0,0,0,0,0,0,0,0,0,0],"sum_hessian":[3.20561E5,3.18346E5,2.215E3,3.09558E5,8.788E3,1.55E2,2.06E3,2.98525E5,1.1033E4,2.374E3,6.414E3,8.4E1,7.1E1,1.56E3,5E2],"tree_param":{"num_deleted":"0","num_feature":"3","num_nodes":"15","size_leaf_vector":"1"}},{"base_weights":[-1.7437532E-4,-2.11489E-3,8.450452E-1,-5.79836E-3,1.3957246E-1,1.050814E0,-6.118286E-1,-4.2418606E-4,5.968772E-4,2.4863582E-2,2.5919848E-3,2.9639963E-2,1.2844251E-1,-1.6184643E-2,-1.01072304E-1],"categories":[],"categories_nodes":[],"categories_segments":[],"categories_sizes":[],"default_left":[0,0,0,0,0,0,0,0,0,0,0,0,0,0,0],"id":51,"left_children":[1,3,5,7,9,11,13,-1,-1,-1,-1,-1,-1,-1,-1],"loss_changes":[5.2557056E2,1.6685791E2,2.2325262E2,1.48415575E1,2.5409616E2,4.408435E2,3.4907505E1,0E0,0E0,0E0,0E0,0E0,0E0,0E0,0E0],"parents":[2147483647,0,0,1,1,2,2,3,3,4,4,5,5,6,6],"right_children":[2,4,6,8,10,12,14,-1,-1,-1,-1,-1,-1,-1,-1],"split_conditions":[1.03884E5,1.9879E4,1.3981876E2,1.701E3,1.3466875E2,1.3969376E2,3.5770832E1,-4.2418606E-4,5.968772E-4,2.4863582E-2,2.5919848E-3,2.9639963E-2,1.2844251E-1,-1.6184643E-2,-1.01072304E-1],"split_indices":[0,0,1,0,1,1,2,0,0,0,0,0,0,0,0],"split_type":[0,0,0,0,0,0,0,0,0,0,0,0,0,0,0],"sum_hessian":[3.20428E5,3.19699E5,7.29E2,3.11603E5,8.096E3,6.4E2,8.9E1,2.7063E5,4.0973E4,1.59E3,6.506E3,4.97E2,1.43E2,7.9E1,1E1],"tree_param":{"num_deleted":"0","num_feature":"3","num_nodes":"15","size_leaf_vector":"1"}},{"base_weights":[-2.9156092E-4,-3.744677E-3,5.001899E-1,-5.489071E-3,7.944567E-2,1.6153932E0,4.1885448E-1,-4.045161E-4,5.986385E-4,-9.884828E-4,2.2727003E-2,1.8986987E-2,1.5404521E-1,2.6488787E-2,-3.6870267E-3],"categories":[],"categories_nodes":[],"categories_segments":[],"categories_sizes":[],"default_left":[0,0,0,0,0,0,0,0,0,0,0,0,0,0,0],"id":52,"left_children":[1,3,5,7,9,11,13,-1,-1,-1,-1,-1,-1,-1,-1],"loss_changes":[5.5561847E2,4.6337086E1,1.9644128E2,1.4206005E1,2.4410162E2,2.6215808E2,1.1275223E2,0E0,0E0,0E0,0E0,0E0,0E0,0E0,0E0],"parents":[2147483647,0,0,1,1,2,2,3,3,4,4,5,5,6,6],"right_children":[2,4,6,8,10,12,14,-1,-1,-1,-1,-1,-1,-1,-1],"split_conditions":[6.2301E4,1.9879E4,1.3254375E2,1.749E3,3.62875E1,1.3050626E2,3.5770832E1,-4.045161E-4,5.986385E-4,-9.884828E-4,2.2727003E-2,1.8986987E-2,1.5404521E-1,2.6488787E-2,-3.6870267E-3],"split_indices":[0,0,1,0,2,1,2,0,0,0,0,0,0,0,0],"split_type":[0,0,0,0,0,0,0,0,0,0,0,0,0,0,0],"sum_hessian":[3.21487E5,3.19289E5,2.198E3,3.12736E5,6.553E3,1.43E2,2.055E3,2.72191E5,4.0545E4,5.186E3,1.367E3,8.1E1,6.2E1,1.677E3,3.78E2],"tree_param":{"num_deleted":"0","num_feature":"3","num_nodes":"15","size_leaf_vector":"1"}},{"base_weights":[-4.6490028E-4,-3.0656718E-3,5.6474924E-1,-5.325697E-3,1.5925807E-1,3.2357162E-1,1.060846E0,2.3908894E-4,-5.1171234E-4,2.785454E-3,3.110849E-2,4.248282E-2,-3.1572472E-2,8.9600615E-2,-1.1865121E-2],"categories":[],"categories_nodes":[],"categories_segments":[],"categories_sizes":[],"default_left":[0,0,0,0,0,0,0,0,0,0,0,0,0,0,0],"id":53,"left_children":[1,3,5,7,9,11,13,-1,-1,-1,-1,-1,-1,-1,-1],"loss_changes":[4.7209836E2,1.1728251E2,1.7428506E2,1.5643235E1,2.1025714E2,5.0359726E2,4.5677496E2,0E0,0E0,0E0,0E0,0E0,0E0,0E0,0E0],"parents":[2147483647,0,0,1,1,2,2,3,3,4,4,5,5,6,6],"right_children":[2,4,6,8,10,12,14,-1,-1,-1,-1,-1,-1,-1,-1],"split_conditions":[7.8639E4,2.9348E4,1.3965625E2,1.3524374E2,3.60125E1,3.5479168E1,3.5770832E1,2.3908894E-4,-5.1171234E-4,2.785454E-3,3.110849E-2,4.248282E-2,-3.1572472E-2,8.9600615E-2,-1.1865121E-2],"split_indices":[0,0,1,1,2,2,2,0,0,0,0,0,0,0,0],"split_type":[0,0,0,0,0,0,0,0,0,0,0,0,0,0,0],"sum_hessian":[3.21146E5,3.1968E5,1.466E3,3.15295E5,4.385E3,9.92E2,4.74E2,1.03066E5,2.12229E5,3.588E3,7.97E2,6.4E2,3.52E2,3.02E2,1.72E2],"tree_param":{"num_deleted":"0","num_feature":"3","num_nodes":"15","size_leaf_vector":"1"}},{"base_weights":[7.041658E-4,-1.8871551E-3,5.6822056E-1,-5.0027063E-3,1.6381928E-1,1.4717472E0,3.7620664E-1,-3.577342E-4,7.128163E-4,2.8094245E-2,4.1565555E-3,-5.511428E-3,9.359522E-2,3.1916485E-3,4.9359497E-2],"categories":[],"categories_nodes":[],"categories_segments":[],"categories_sizes":[],"default_left":[0,0,0,0,0,0,0,0,0,0,0,0,0,0,0],"id":54,"left_children":[1,3,5,7,9,11,13,-1,-1,-1,-1,-1,-1,-1,-1],"loss_changes":[4.720529E2,1.6496788E2,2.5035306E2,1.2999325E1,1.891733E2,1.6182361E2,2.3061958E2,0E0,0E0,0E0,0E0,0E0,0E0,0E0,0E0],"parents":[2147483647,0,0,1,1,2,2,3,3,4,4,5,5,6,6],"right_children":[2,4,6,8,10,12,14,-1,-1,-1,-1,-1,-1,-1,-1],"split_conditions":[7.8639E4,2.3963E4,3.47125E1,2.666E3,3.4379166E1,3.35875E1,1.3969376E2,-3.577342E-4,7.128163E-4,2.8094245E-2,4.1565555E-3,-5.511428E-3,9.359522E-2,3.1916485E-3,4.9359497E-2],"split_indices":[0,0,2,0,2,2,1,0,0,0,0,0,0,0,0],"split_type":[0,0,0,0,0,0,0,0,0,0,0,0,0,0,0],"sum_hessian":[3.20981E5,3.19527E5,1.454E3,3.13635E5,5.892E3,2.49E2,1.205E3,2.82115E5,3.152E4,9.88E2,4.904E3,5.1E1,1.98E2,8.01E2,4.04E2],"tree_param":{"num_deleted":"0","num_feature":"3","num_nodes":"15","size_leaf_vector":"1"}},{"base_weights":[-1.4626663E-5,-3.6397295E-3,3.153912E-1,-5.4995934E-3,4.2109624E-2,1.1011822E0,2.2066078E-1,7.6435004E-5,-4.4890266E-4,-3.6350157E-2,2.6201287E-3,3.367899E-2,1.4588766E-1,3.7226323E-3,3.1348284E-2],"categories":[],"categories_nodes":[],"categories_segments":[],"categories_sizes":[],"default_left":[0,0,0,0,0,0,0,0,0,0,0,0,0,0,0],"id":55,"left_children":[1,3,5,7,9,11,13,-1,-1,-1,-1,-1,-1,-1,-1],"loss_changes":[3.6687592E2,2.6992981E1,2.701872E2,7.452587E0,9.8298904E1,2.9389047E2,1.9342719E2,0E0,0E0,0E0,0E0,0E0,0E0,0E0,0E0],"parents":[2147483647,0,0,1,1,2,2,3,3,4,4,5,5,6,6],"right_children":[2,4,6,8,10,12,14,-1,-1,-1,-1,-1,-1,-1,-1],"split_conditions":[4.3574E4,9.999E3,3.44125E1,1.3533125E2,2.6520834E1,3.3895832E1,1.3969376E2,7.6435004E-5,-4.4890266E-4,-3.6350157E-2,2.6201287E-3,3.367899E-2,1.4588766E-1,3.7226323E-3,3.1348284E-2],"split_indices":[0,0,2,1,2,2,1,0,0,0,0,0,0,0,0],"split_type":[0,0,0,0,0,0,0,0,0,0,0,0,0,0,0],"sum_hessian":[3.2086E5,3.17219E5,3.641E3,3.04831E5,1.2388E4,3.86E2,3.255E3,1.00921E5,2.0391E5,1.59E2,1.2229E4,3.18E2,6.8E1,2.398E3,8.57E2],"tree_param":{"num_deleted":"0","num_feature":"3","num_nodes":"15","size_leaf_vector":"1"}},{"base_weights":[-3.5635053E-4,-2.9390429E-3,3.7429708E-1,-4.7127255E-3,1.0441886E-1,7.2258055E-1,6.0969826E-2,1.9370664E-4,-4.4473694E-4,-6.3514575E-2,6.4437203E-3,-1.2692918E-2,4.059669E-2,-2.194683E-2,2.346485E-2],"categories":[],"categories_nodes":[],"categories_segments":[],"categories_sizes":[],"default_left":[0,0,0,0,0,0,0,0,0,0,0,0,0,0,0],"id":56,"left_children":[1,3,5,7,9,11,13,-1,-1,-1,-1,-1,-1,-1,-1],"loss_changes":[3.1050818E2,6.0689526E1,2.3953107E2,1.1259074E1,1.7496646E2,9.176849E1,2.3822363E2,0E0,0E0,0E0,0E0,0E0,0E0,0E0,0E0],"parents":[2147483647,0,0,1,1,2,2,3,3,4,4,5,5,6,6],"right_children":[2,4,6,8,10,12,14,-1,-1,-1,-1,-1,-1,-1,-1],"split_conditions":[6.2301E4,2.3963E4,3.5479168E1,1.3524374E2,1.2804375E2,1.3050626E2,1.3965625E2,1.9370664E-4,-4.4473694E-4,-6.3514575E-2,6.4437203E-3,-1.2692918E-2,4.059669E-2,-2.194683E-2,2.346485E-2],"split_indices":[0,0,2,1,1,1,1,0,0,0,0,0,0,0,0],"split_type":[0,0,0,0,0,0,0,0,0,0,0,0,0,0,0],"sum_hessian":[3.2089E5,3.18698E5,2.192E3,3.13523E5,5.175E3,1.035E3,1.157E3,1.02684E5,2.10839E5,8.6E1,5.089E3,8.6E1,9.49E2,5.2E2,6.37E2],"tree_param":{"num_deleted":"0","num_feature":"3","num_nodes":"15","size_leaf_vector":"1"}},{"base_weights":[-5.2498683E-5,-2.7535346E-3,3.927487E-1,-4.8666485E-3,4.3460354E-2,5.5897903E-1,-1.9496706E-1,-3.7308186E-4,2.537951E-4,-4.2367287E-2,2.7842321E-3,1.9082308E-2,6.721825E-2,-2.793741E-2,7.6687686E-2],"categories":[],"categories_nodes":[],"categories_segments":[],"categories_sizes":[],"default_left":[0,0,0,0,0,0,0,0,0,0,0,0,0,0,0],"id":57,"left_children":[1,3,5,7,9,11,13,-1,-1,-1,-1,-1,-1,-1,-1],"loss_changes":[3.4053546E2,3.1130999E1,2.1469492E2,7.8653064E0,1.5202422E2,2.3559448E2,3.105475E2,0E0,0E0,0E0,0E0,0E0,0E0,0E0,0E0],"parents":[2147483647,0,0,1,1,2,2,3,3,4,4,5,5,6,6],"right_children":[2,4,6,8,10,12,14,-1,-1,-1,-1,-1,-1,-1,-1],"split_conditions":[6.2301E4,9.999E3,3.57375E1,6.23E2,1.2804375E2,1.3965625E2,3.60125E1,-3.7308186E-4,2.537951E-4,-4.2367287E-2,2.7842321E-3,1.9082308E-2,6.721825E-2,-2.793741E-2,7.6687686E-2],"split_indices":[0,0,2,0,1,1,2,0,0,0,0,0,0,0,0],"split_type":[0,0,0,0,0,0,0,0,0,0,0,0,0,0,0],"sum_hessian":[3.20956E5,3.18769E5,2.187E3,3.04835E5,1.3934E4,1.705E3,4.82E2,2.41742E5,6.3093E4,1.84E2,1.375E4,1.397E3,3.08E2,4.01E2,8.1E1],"tree_param":{"num_deleted":"0","num_feature":"3","num_nodes":"15","size_leaf_vector":"1"}},{"base_weights":[4.445029E-4,-9.885972E-4,6.2826866E-1,-4.1102273E-3,1.2085275E-1,8.1030047E-1,-5.8885026E-1,-3.439878E-4,3.3525898E-4,-6.552421E-2,7.100334E-3,1.9609578E-2,1.0558118E-1,-1.6778884E-2,-8.484602E-2],"categories":[],"categories_nodes":[],"categories_segments":[],"categories_sizes":[],"default_left":[0,0,0,0,0,0,0,0,0,0,0,0,0,0,0],"id":58,"left_children":[1,3,5,7,9,11,13,-1,-1,-1,-1,-1,-1,-1,-1],"loss_changes":[2.88791E2,1.2180525E2,1.6434201E2,9.353208E0,2.4315768E2,3.4299167E2,2.465585E1,0E0,0E0,0E0,0E0,0E0,0E0,0E0,0E0],"parents":[2147483647,0,0,1,1,2,2,3,3,4,4,5,5,6,6],"right_children":[2,4,6,8,10,12,14,-1,-1,-1,-1,-1,-1,-1,-1],"split_conditions":[1.03884E5,1.9879E4,1.3981876E2,7.7E2,2.6520834E1,1.3969376E2,3.5770832E1,-3.439878E-4,3.3525898E-4,-6.552421E-2,7.100334E-3,1.9609578E-2,1.0558118E-1,-1.6778884E-2,-8.484602E-2],"split_indices":[0,0,1,0,2,1,2,0,0,0,0,0,0,0,0],"split_type":[0,0,0,0,0,0,0,0,0,0,0,0,0,0,0],"sum_hessian":[3.20965E5,3.20239E5,7.26E2,3.12244E5,7.995E3,6.33E2,9.3E1,2.48589E5,6.3655E4,1.12E2,7.883E3,4.84E2,1.49E2,8.1E1,1.2E1],"tree_param":{"num_deleted":"0","num_feature":"3","num_nodes":"15","size_leaf_vector":"1"}},{"base_weights":[1.8432454E-4,-2.8501635E-3,2.1905053E-1,-4.6857824E-3,3.955217E-2,1.352203E-1,9.362527E-1,-3.2840465E-4,2.4338508E-4,9.390081E-3,-6.426705E-4,1.8319791E-2,-6.6983975E-3,6.804054E-2,1.3237222E-2],"categories":[],"categories_nodes":[],"categories_segments":[],"categories_sizes":[],"default_left":[0,0,0,0,0,0,0,0,0,0,0,0,0,0,0],"id":59,"left_children":[1,3,5,7,9,11,13,-1,-1,-1,-1,-1,-1,-1,-1],"loss_changes":[2.1340149E2,2.466848E1,2.635484E2,5.4628677E0,1.021835E2,2.454306E2,1.2905692E2,0E0,0E0,0E0,0E0,0E0,0E0,0E0,0E0],"parents":[2147483647,0,0,1,1,2,2,3,3,4,4,5,5,6,6],"right_children":[2,4,6,8,10,12,14,-1,-1,-1,-1,-1,-1,-1,-1],"split_conditions":[3.7868E4,8.917E3,3.60125E1,9.12E2,1.3466875E2,1.3925626E2,1.4089375E2,-3.2840465E-4,2.4338508E-4,9.390081E-3,-6.426705E-4,1.8319791E-2,-6.6983975E-3,6.804054E-2,1.3237222E-2],"split_indices":[0,0,2,0,1,1,1,0,0,0,0,0,0,0,0],"split_type":[0,0,0,0,0,0,0,0,0,0,0,0,0,0,0],"sum_hessian":[3.21307E5,3.16918E5,4.389E3,3.03772E5,1.3146E4,3.935E3,4.54E2,2.53773E5,4.9999E4,3.43E3,9.716E3,2.116E3,1.819E3,2.75E2,1.79E2],"tree_param":{"num_deleted":"0","num_feature":"3","num_nodes":"15","size_leaf_vector":"1"}},{"base_weights":[2.8673105E-4,-2.8612413E-3,2.2755437E-1,-4.434635E-3,2.9565224E-2,7.769206E-1,1.1453634E-1,-3.263808E-4,1.4635692E-4,7.2103566E-3,-9.6259493E-4,-5.87882E-2,4.671446E-2,9.1123645E-4,3.9320536E-2],"categories":[],"categories_nodes":[],"categories_segments":[],"categories_sizes":[],"default_left":[0,0,0,0,0,0,0,0,0,0,0,0,0,0,0],"id":60,"left_children":[1,3,5,7,9,11,13,-1,-1,-1,-1,-1,-1,-1,-1],"loss_changes":[2.2983441E2,1.6166927E1,2.720606E2,4.6564856E0,8.208077E1,2.3534622E2,2.3585843E2,0E0,0E0,0E0,0E0,0E0,0E0,0E0,0E0],"parents":[2147483647,0,0,1,1,2,2,3,3,4,4,5,5,6,6],"right_children":[2,4,6,8,10,12,14,-1,-1,-1,-1,-1,-1,-1,-1],"split_conditions":[3.7868E4,8.011E3,1.3533125E2,5.04E2,1.3524374E2,1.2804375E2,3.6054165E1,-3.263808E-4,1.4635692E-4,7.2103566E-3,-9.6259493E-4,-5.87882E-2,4.671446E-2,9.1123645E-4,3.9320536E-2],"split_indices":[0,0,1,0,1,1,2,0,0,0,0,0,0,0,0],"split_type":[0,0,0,0,0,0,0,0,0,0,0,0,0,0,0],"sum_hessian":[3.21243E5,3.16859E5,4.384E3,3.022E5,1.4659E4,7.43E2,3.641E3,2.35303E5,6.6897E4,4.375E3,1.0284E4,5.3E1,6.9E2,3.189E3,4.52E2],"tree_param":{"num_deleted":"0","num_feature":"3","num_nodes":"15","size_leaf_vector":"1"}},{"base_weights":[-1.9036466E-4,-1.9389068E-3,3.768137E-1,-4.0083867E-3,4.934843E-2,1.8989279E0,2.8535897E-1,1.5587271E-4,-3.2610536E-4,1.5751608E-2,-5.6107866E-4,-1.9947743E-2,3.506658E-1,2.1059921E-2,-2.1729616E-2],"categories":[],"categories_nodes":[],"categories_segments":[],"categories_sizes":[],"default_left":[0,0,0,0,0,0,0,0,0,0,0,0,0,0,0],"id":61,"left_children":[1,3,5,7,9,11,13,-1,-1,-1,-1,-1,-1,-1,-1],"loss_changes":[2.1133109E2,3.386998E1,2.0331337E2,5.4943805E0,1.9919409E2,9.8942786E2,1.3802776E2,0E0,0E0,0E0,0E0,0E0,0E0,0E0,0E0],"parents":[2147483647,0,0,1,1,2,2,3,3,4,4,5,5,6,6],"right_children":[2,4,6,8,10,12,14,-1,-1,-1,-1,-1,-1,-1,-1],"split_conditions":[7.8639E4,1.198E4,3.45125E1,3.42875E1,3.4320835E1,3.35875E1,1.3981876E2,1.5587271E-4,-3.2610536E-4,1.5751608E-2,-5.6107866E-4,-1.9947743E-2,3.506658E-1,2.1059921E-2,-2.1729616E-2],"split_indices":[0,0,2,2,2,2,1,0,0,0,0,0,0,0,0],"split_type":[0,0,0,0,0,0,0,0,0,0,0,0,0,0,0],"sum_hessian":[3.20573E5,3.19098E5,1.475E3,3.06726E5,1.2372E4,7.8E1,1.397E3,7.9985E4,2.26741E5,2.293E3,1.0079E4,5.7E1,2.1E1,1.177E3,2.2E2],"tree_param":{"num_deleted":"0","num_feature":"3","num_nodes":"15","size_leaf_vector":"1"}},{"base_weights":[-4.049649E-4,-2.3804798E-3,4.3705243E-1,-3.49297E-3,5.0235447E-2,1.4592155E0,2.5101385E-1,2.5645408E-4,-3.3229208E-4,-1.400797E-3,1.7584465E-2,-4.6623005E-3,1.00081675E-1,-2.6879082E-3,4.4884518E-2],"categories":[],"categories_nodes":[],"categories_segments":[],"categories_sizes":[],"default_left":[0,0,0,0,0,0,0,0,0,0,0,0,0,0,0],"id":62,"left_children":[1,3,5,7,9,11,13,-1,-1,-1,-1,-1,-1,-1,-1],"loss_changes":[2.772002E2,1.8691887E1,2.723819E2,8.500895E0,1.5602094E2,1.8703351E2,2.4187228E2,0E0,0E0,0E0,0E0,0E0,0E0,0E0,0E0],"parents":[2147483647,0,0,1,1,2,2,3,3,4,4,5,5,6,6],"right_children":[2,4,6,8,10,12,14,-1,-1,-1,-1,-1,-1,-1,-1],"split_conditions":[7.8639E4,2.1724E4,3.46875E1,3.4345833E1,3.6054165E1,3.35875E1,1.3969376E2,2.5645408E-4,-3.3229208E-4,-1.400797E-3,1.7584465E-2,-4.6623005E-3,1.00081675E-1,-2.6879082E-3,4.4884518E-2],"split_indices":[0,0,2,2,2,2,1,0,0,0,0,0,0,0,0],"split_type":[0,0,0,0,0,0,0,0,0,0,0,0,0,0,0],"sum_hessian":[3.20747E5,3.1931E5,1.437E3,3.12703E5,6.607E3,2.16E2,1.221E3,8.3729E4,2.28974E5,5.249E3,1.358E3,5.7E1,1.59E2,8.33E2,3.88E2],"tree_param":{"num_deleted":"0","num_feature":"3","num_nodes":"15","size_leaf_vector":"1"}},{"base_weights":[-7.169379E-4,-1.7139921E-3,4.2203483E-1,-3.6314058E-3,1.0081216E-1,5.854295E-1,-7.7252877E-1,2.2910908E-4,-3.4693454E-4,9.772585E-4,2.7242845E-2,5.0153467E-3,7.404851E-2,-7.530048E-2,-1.21806795E-2],"categories":[],"categories_nodes":[],"categories_segments":[],"categories_sizes":[],"default_left":[0,0,0,0,0,0,0,0,0,0,0,0,0,0,0],"id":63,"left_children":[1,3,5,7,9,11,13,-1,-1,-1,-1,-1,-1,-1,-1],"loss_changes":[1.3525111E2,6.2932045E1,1.4962622E2,8.536522E0,2.1202524E2,2.8903345E2,3.424484E1,0E0,0E0,0E0,0E0,0E0,0E0,0E0,0E0],"parents":[2147483647,0,0,1,1,2,2,3,3,4,4,5,5,6,6],"right_children":[2,4,6,8,10,12,14,-1,-1,-1,-1,-1,-1,-1,-1],"split_conditions":[1.03884E5,2.6455E4,1.3981876E2,3.45125E1,3.62875E1,1.3965625E2,3.5704166E1,2.2910908E-4,-3.4693454E-4,9.772585E-4,2.7242845E-2,5.0153467E-3,7.404851E-2,-7.530048E-2,-1.21806795E-2],"split_indices":[0,0,1,2,2,1,2,0,0,0,0,0,0,0,0],"split_type":[0,0,0,0,0,0,0,0,0,0,0,0,0,0,0],"sum_hessian":[3.20862E5,3.20112E5,7.5E2,3.1424E5,5.872E3,6.62E2,8.8E1,9.0208E4,2.24032E5,4.968E3,9.04E2,4.33E2,2.29E2,3.3E1,5.5E1],"tree_param":{"num_deleted":"0","num_feature":"3","num_nodes":"15","size_leaf_vector":"1"}},{"base_weights":[5.574768E-4,-1.5139699E-3,3.0129558E-1,-3.7176646E-3,3.171753E-2,6.642607E-1,5.0098587E-2,-2.8080083E-4,1.8494079E-4,1.0548928E-2,-8.651608E-4,1.02384746E-1,2.8623227E-2,-1.9491505E-2,2.5025968E-2],"categories":[],"categories_nodes":[],"categories_segments":[],"categories_sizes":[],"default_left":[0,0,0,0,0,0,0,0,0,0,0,0,0,0,0],"id":64,"left_children":[1,3,5,7,9,11,13,-1,-1,-1,-1,-1,-1,-1,-1],"loss_changes":[2.0025496E2,2.338052E1,2.0032909E2,4.215494E0,1.7449423E2,1.083064E2,2.5956525E2,0E0,0E0,0E0,0E0,0E0,0E0,0E0,0E0],"parents":[2147483647,0,0,1,1,2,2,3,3,4,4,5,5,6,6],"right_children":[2,4,6,8,10,12,14,-1,-1,-1,-1,-1,-1,-1,-1],"split_conditions":[6.2301E4,6.532E3,3.5345833E1,5.54E2,3.4320835E1,3.3329166E1,1.3965625E2,-2.8080083E-4,1.8494079E-4,1.0548928E-2,-8.651608E-4,1.02384746E-1,2.8623227E-2,-1.9491505E-2,2.5025968E-2],"split_indices":[0,0,2,0,2,2,1,0,0,0,0,0,0,0,0],"split_type":[0,0,0,0,0,0,0,0,0,0,0,0,0,0,0],"sum_hessian":[3.21447E5,3.19253E5,2.194E3,2.99403E5,1.985E4,8.94E2,1.3E3,2.38386E5,6.1017E4,4.259E3,1.5591E4,4.9E1,8.45E2,6.58E2,6.42E2],"tree_param":{"num_deleted":"0","num_feature":"3","num_nodes":"15","size_leaf_vector":"1"}},{"base_weights":[-2.3325567E-5,-1.4554015E-3,3.0667344E-1,-3.2245554E-3,6.1082248E-2,4.5962575E-1,-5.462695E-1,1.253355E-4,-2.9823734E-4,-5.3138465E-2,3.8827178E-3,1.1852145E-2,8.6540245E-2,-4.980951E-2,3.0797059E-2],"categories":[],"categories_nodes":[],"categories_segments":[],"categories_sizes":[],"default_left":[0,0,0,0,0,0,0,0,0,0,0,0,0,0,0],"id":65,"left_children":[1,3,5,7,9,11,13,-1,-1,-1,-1,-1,-1,-1,-1],"loss_changes":[1.4090268E2,3.5329704E1,1.9577063E2,4.8769693E0,1.6402966E2,3.5643695E2,1.228127E2,0E0,0E0,0E0,0E0,0E0,0E0,0E0,0E0],"parents":[2147483647,0,0,1,1,2,2,3,3,4,4,5,5,6,6],"right_children":[2,4,6,8,10,12,14,-1,-1,-1,-1,-1,-1,-1,-1],"split_conditions":[7.8639E4,1.696E4,1.3981876E2,1.3513126E2,1.2804375E2,1.3969376E2,1.4009375E2,1.253355E-4,-2.9823734E-4,-5.3138465E-2,3.8827178E-3,1.1852145E-2,8.6540245E-2,-4.980951E-2,3.0797059E-2],"split_indices":[0,0,1,1,1,1,1,0,0,0,0,0,0,0,0],"split_type":[0,0,0,0,0,0,0,0,0,0,0,0,0,0,0],"sum_hessian":[3.20797E5,3.19311E5,1.486E3,3.10531E5,8.78E3,1.262E3,2.24E2,1.00445E5,2.10086E5,1.23E2,8.657E3,1.079E3,1.83E2,1.62E2,6.2E1],"tree_param":{"num_deleted":"0","num_feature":"3","num_nodes":"15","size_leaf_vector":"1"}},{"base_weights":[2.698136E-4,-1.3114652E-3,3.4151697E-1,-2.6054531E-3,6.754015E-2,1.8997667E0,2.3997901E-1,2.110729E-4,-2.9668256E-4,-6.342241E-4,1.9421222E-2,-1.402456E-2,3.2670936E-1,-3.128264E-4,4.3045934E-2],"categories":[],"categories_nodes":[],"categories_segments":[],"categories_sizes":[],"default_left":[0,0,0,0,0,0,0,0,0,0,0,0,0,0,0],"id":66,"left_children":[1,3,5,7,9,11,13,-1,-1,-1,-1,-1,-1,-1,-1],"loss_changes":[1.7349503E2,2.8514162E1,2.3236292E2,7.1377983E0,1.5201025E2,9.185447E2,2.1377753E2,0E0,0E0,0E0,0E0,0E0,0E0,0E0,0E0],"parents":[2147483647,0,0,1,1,2,2,3,3,4,4,5,5,6,6],"right_children":[2,4,6,8,10,12,14,-1,-1,-1,-1,-1,-1,-1,-1],"split_conditions":[7.8639E4,2.3963E4,1.3254375E2,1.3524374E2,3.6054165E1,3.35875E1,1.3969376E2,2.110729E-4,-2.9668256E-4,-6.342241E-4,1.9421222E-2,-1.402456E-2,3.2670936E-1,-3.128264E-4,4.3045934E-2],"split_indices":[0,0,1,1,2,2,1,0,0,0,0,0,0,0,0],"split_type":[0,0,0,0,0,0,0,0,0,0,0,0,0,0,0],"sum_hessian":[3.21512E5,3.20034E5,1.478E3,3.14135E5,5.899E3,8.5E1,1.393E3,1.02953E5,2.11182E5,4.723E3,1.176E3,6.1E1,2.4E1,1.001E3,3.92E2],"tree_param":{"num_deleted":"0","num_feature":"3","num_nodes":"15","size_leaf_vector":"1"}},{"base_weights":[-1.3047874E-4,-1.950508E-3,2.625409E-1,6.0300413E-3,-7.227307E-3,3.9549685E-1,-1.9915943E-1,-3.8088099E-6,6.68687E-3,-3.2543714E-4,-1.6809762E-2,2.4234304E-2,-3.129146E-2,-2.2931201E-2,4.403157E-2],"categories":[],"categories_nodes":[],"categories_segments":[],"categories_sizes":[],"default_left":[0,0,0,0,0,0,0,0,0,0,0,0,0,0,0],"id":67,"left_children":[1,3,5,7,9,11,13,-1,-1,-1,-1,-1,-1,-1,-1],"loss_changes":[1.5339934E2,1.341972E1,1.3593369E2,9.891101E1,4.5334488E1,1.5782925E2,1.4126265E2,0E0,0E0,0E0,0E0,0E0,0E0,0E0,0E0],"parents":[2147483647,0,0,1,1,2,2,3,3,4,4,5,5,6,6],"right_children":[2,4,6,8,10,12,14,-1,-1,-1,-1,-1,-1,-1,-1],"split_conditions":[6.2301E4,1.3679375E2,3.57375E1,1.0621E4,5.1374E4,1.3985625E2,3.5970833E1,-3.8088099E-6,6.68687E-3,-3.2543714E-4,-1.6809762E-2,2.4234304E-2,-3.129146E-2,-2.2931201E-2,4.403157E-2],"split_indices":[0,1,2,0,0,1,2,0,0,0,0,0,0,0,0],"split_type":[0,0,0,0,0,0,0,0,0,0,0,0,0,0,0],"sum_hessian":[3.20862E5,3.18659E5,2.203E3,1.26835E5,1.91824E5,1.711E3,4.92E2,1.21052E5,5.783E3,1.91411E5,4.13E2,1.576E3,1.35E2,3.99E2,9.3E1],"tree_param":{"num_deleted":"0","num_feature":"3","num_nodes":"15","size_leaf_vector":"1"}},{"base_weights":[-1.7087169E-4,-1.1028246E-3,2.0259668E-1,-3.2440056E-3,3.567355E-2,5.2441406E-1,-3.1302784E-2,-2.4324782E-4,1.4109032E-4,-3.721877E-2,2.265452E-3,1.9852115E-2,1.4794865E-1,-5.4791998E-2,1.3113412E-2],"categories":[],"categories_nodes":[],"categories_segments":[],"categories_sizes":[],"default_left":[0,0,0,0,0,0,0,0,0,0,0,0,0,0,0],"id":68,"left_children":[1,3,5,7,9,11,13,-1,-1,-1,-1,-1,-1,-1,-1],"loss_changes":[6.0716362E1,2.5185633E1,1.10733246E2,2.9717984E0,1.324303E2,1.8607405E2,2.6895178E2,0E0,0E0,0E0,0E0,0E0,0E0,0E0,0E0],"parents":[2147483647,0,0,1,1,2,2,3,3,4,4,5,5,6,6],"right_children":[2,4,6,8,10,12,14,-1,-1,-1,-1,-1,-1,-1,-1],"split_conditions":[7.8639E4,8.011E3,3.5479168E1,5.54E2,2.6520834E1,1.3960625E2,3.56125E1,-2.4324782E-4,1.4109032E-4,-3.721877E-2,2.265452E-3,1.9852115E-2,1.4794865E-1,-5.4791998E-2,1.3113412E-2],"split_indices":[0,0,2,0,2,1,2,0,0,0,0,0,0,0,0],"split_type":[0,0,0,0,0,0,0,0,0,0,0,0,0,0,0],"sum_hessian":[3.21291E5,3.19826E5,1.465E3,3.02234E5,1.7592E4,6.14E2,8.51E2,2.38501E5,6.3733E4,2.1E2,1.7382E4,5.89E2,2.5E1,1.81E2,6.7E2],"tree_param":{"num_deleted":"0","num_feature":"3","num_nodes":"15","size_leaf_vector":"1"}},{"base_weights":[4.596974E-4,-1.2722762E-3,2.503276E-1,-2.6390154E-3,3.9896343E-2,3.8286653E-1,-2.288044E-1,-2.1216155E-4,2.8943006E-4,1.0692506E-2,-1.3157482E-3,1.1157973E-2,6.437353E-2,-2.4894042E-2,3.9273076E-2],"categories":[],"categories_nodes":[],"categories_segments":[],"categories_sizes":[],"default_left":[0,0,0,0,0,0,0,0,0,0,0,0,0,0,0],"id":69,"left_children":[1,3,5,7,9,11,13,-1,-1,-1,-1,-1,-1,-1,-1],"loss_changes":[1.3893549E2,1.7940228E1,1.4078108E2,4.172212E0,1.1802705E2,2.4893288E2,1.335004E2,0E0,0E0,0E0,0E0,0E0,0E0,0E0,0E0],"parents":[2147483647,0,0,1,1,2,2,3,3,4,4,5,5,6,6],"right_children":[2,4,6,8,10,12,14,-1,-1,-1,-1,-1,-1,-1,-1],"split_conditions":[6.2301E4,1.3644E4,3.57375E1,1.117E3,1.3524374E2,1.3969376E2,3.5970833E1,-2.1216155E-4,2.8943006E-4,1.0692506E-2,-1.3157482E-3,1.1157973E-2,6.437353E-2,-2.4894042E-2,3.9273076E-2],"split_indices":[0,0,2,0,1,1,2,0,0,0,0,0,0,0,0],"split_type":[0,0,0,0,0,0,0,0,0,0,0,0,0,0,0],"sum_hessian":[3.21033E5,3.18828E5,2.205E3,3.08588E5,1.024E4,1.728E3,4.77E2,2.59243E5,4.9345E4,2.82E3,7.42E3,1.474E3,2.54E2,3.79E2,9.8E1],"tree_param":{"num_deleted":"0","num_feature":"3","num_nodes":"15","size_leaf_vector":"1"}},{"base_weights":[6.177463E-4,-1.4707652E-3,2.2778161E-1,7.7474294E-3,-5.933233E-3,1.3835425E0,1.8737063E-1,-1.5422695E-4,6.2540546E-3,-1.251746E-3,1.2547158E-5,-1.2949372E-2,1.401288E-1,3.3427533E-3,2.4304949E-2],"categories":[],"categories_nodes":[],"categories_segments":[],"categories_sizes":[],"default_left":[0,0,0,0,0,0,0,0,0,0,0,0,0,0,0],"id":70,"left_children":[1,3,5,7,9,11,13,-1,-1,-1,-1,-1,-1,-1,-1],"loss_changes":[1.5227567E2,1.3083091E1,1.3527048E2,1.3185457E2,2.531514E1,2.320481E2,1.0175754E2,0E0,0E0,0E0,0E0,0E0,0E0,0E0,0E0],"parents":[2147483647,0,0,1,1,2,2,3,3,4,4,5,5,6,6],"right_children":[2,4,6,8,10,12,14,-1,-1,-1,-1,-1,-1,-1,-1],"split_conditions":[5.1374E4,1.3524374E2,3.3329166E1,3.917E3,3.6054165E1,3.16875E1,1.3965625E2,-1.5422695E-4,6.2540546E-3,-1.251746E-3,1.2547158E-5,-1.2949372E-2,1.401288E-1,3.3427533E-3,2.4304949E-2],"split_indices":[0,1,2,0,2,2,1,0,0,0,0,0,0,0,0],"split_type":[0,0,0,0,0,0,0,0,0,0,0,0,0,0,0],"sum_hessian":[3.20954E5,3.18035E5,2.919E3,1.03738E5,2.14297E5,9.3E1,2.826E3,9.4975E4,8.763E3,5.2407E4,1.6189E5,4.5E1,4.8E1,2.018E3,8.08E2],"tree_param":{"num_deleted":"0","num_feature":"3","num_nodes":"15","size_leaf_vector":"1"}},{"base_weights":[1.8998866E-4,-7.913145E-4,4.2902622E-1,-2.1660447E-3,6.45674E-2,5.952522E-1,-1.0690136E0,1.4892848E-4,-2.3544606E-4,-2.0446283E-4,1.9563677E-2,3.620875E-2,-4.0598694E-2,-1.3727367E-2,-7.5655274E-2],"categories":[],"categories_nodes":[],"categories_segments":[],"categories_sizes":[],"default_left":[0,0,0,0,0,0,0,0,0,0,0,0,0,0,0],"id":71,"left_children":[1,3,5,7,9,11,13,-1,-1,-1,-1,-1,-1,-1,-1],"loss_changes":[1.3510753E2,2.8782272E1,1.8570836E2,4.1043625E0,1.480272E2,1.23223755E2,2.4384102E1,0E0,0E0,0E0,0E0,0E0,0E0,0E0,0E0],"parents":[2147483647,0,0,1,1,2,2,3,3,4,4,5,5,6,6],"right_children":[2,4,6,8,10,12,14,-1,-1,-1,-1,-1,-1,-1,-1],"split_conditions":[1.03884E5,2.3963E4,3.5770832E1,1.3533125E2,3.6129166E1,1.3985625E2,1.3969376E2,1.4892848E-4,-2.3544606E-4,-2.0446283E-4,1.9563677E-2,3.620875E-2,-4.0598694E-2,-1.3727367E-2,-7.5655274E-2],"split_indices":[0,0,2,1,2,1,1,0,0,0,0,0,0,0,0],"split_type":[0,0,0,0,0,0,0,0,0,0,0,0,0,0,0],"sum_hessian":[3.2105E5,3.20322E5,7.28E2,3.13728E5,6.594E3,6.58E2,7E1,1.03775E5,2.09953E5,5.453E3,1.141E3,6.05E2,5.3E1,2.8E1,4.2E1],"tree_param":{"num_deleted":"0","num_feature":"3","num_nodes":"15","size_leaf_vector":"1"}},{"base_weights":[9.78198E-4,-4.2320768E-4,6.0454804E-1,-1.5594923E-3,8.1137374E-2,2.6505435E0,4.5387205E-1,-1.2380017E-4,1.2099537E-3,-3.7174908E-4,2.9862458E-2,6.4536326E-2,1.8287711E-1,2.9677993E-2,-4.6541385E-2],"categories":[],"categories_nodes":[],"categories_segments":[],"categories_sizes":[],"default_left":[0,0,0,0,0,0,0,0,0,0,0,0,0,0,0],"id":72,"left_children":[1,3,5,7,9,11,13,-1,-1,-1,-1,-1,-1,-1,-1],"loss_changes":[2.7166595E2,2.969737E1,2.2334702E2,7.461328E0,2.0129755E2,4.4862274E1,1.3796707E2,0E0,0E0,0E0,0E0,0E0,0E0,0E0,0E0],"parents":[2147483647,0,0,1,1,2,2,3,3,4,4,5,5,6,6],"right_children":[2,4,6,8,10,12,14,-1,-1,-1,-1,-1,-1,-1,-1],"split_conditions":[1.03884E5,3.3022E4,1.3533125E2,9.999E3,3.60125E1,3.35875E1,1.3985625E2,-1.2380017E-4,1.2099537E-3,-3.7174908E-4,2.9862458E-2,6.4536326E-2,1.8287711E-1,2.9677993E-2,-4.6541385E-2],"split_indices":[0,0,1,0,2,2,1,0,0,0,0,0,0,0,0],"split_type":[0,0,0,0,0,0,0,0,0,0,0,0,0,0,0],"sum_hessian":[3.2117E5,3.20431E5,7.39E2,3.16033E5,4.398E3,4.5E1,6.94E2,3.05179E5,1.0854E4,3.758E3,6.4E2,2.4E1,2.1E1,6.33E2,6.1E1],"tree_param":{"num_deleted":"0","num_feature":"3","num_nodes":"15","size_leaf_vector":"1"}},{"base_weights":[2.990652E-4,-1.3258716E-3,3.5206273E-1,7.1677E-3,-6.9320886E-3,5.37502E-1,-2.8023714E-1,5.0730963E-5,1.0628966E-2,-2.2335982E-4,-5.315891E-3,1.5529104E-2,6.3450396E-2,-2.4177982E-2,2.1425093E-2],"categories":[],"categories_nodes":[],"categories_segments":[],"categories_sizes":[],"default_left":[0,0,0,0,0,0,0,0,0,0,0,0,0,0,0],"id":73,"left_children":[1,3,5,7,9,11,13,-1,-1,-1,-1,-1,-1,-1,-1],"loss_changes":[1.834805E2,1.5214914E1,1.7381888E2,1.605767E2,4.715044E1,1.8775964E2,4.97427E1,0E0,0E0,0E0,0E0,0E0,0E0,0E0,0E0],"parents":[2147483647,0,0,1,1,2,2,3,3,4,4,5,5,6,6],"right_children":[2,4,6,8,10,12,14,-1,-1,-1,-1,-1,-1,-1,-1],"split_conditions":[7.8639E4,1.3679375E2,3.57375E1,1.696E4,1.829E4,1.3965625E2,3.5895832E1,5.0730963E-5,1.0628966E-2,-2.2335982E-4,-5.315891E-3,1.5529104E-2,6.3450396E-2,-2.4177982E-2,2.1425093E-2],"split_indices":[0,1,2,0,0,1,2,0,0,0,0,0,0,0,0],"split_type":[0,0,0,0,0,0,0,0,0,0,0,0,0,0,0],"sum_hessian":[3.20989E5,3.19518E5,1.471E3,1.27043E5,1.92475E5,1.138E3,3.33E2,1.23353E5,3.69E3,1.87822E5,4.653E3,8.74E2,2.64E2,2.6E2,7.3E1],"tree_param":{"num_deleted":"0","num_feature":"3","num_nodes":"15","size_leaf_vector":"1"}},{"base_weights":[7.1915856E-4,-1.3233025E-3,2.2202072E-1,-2.1911492E-3,3.1884506E-2,1.0162758E0,1.3007088E-1,-1.9165117E-4,1.4887012E-4,-1.8621242E-3,1.2575291E-2,6.312457E-3,7.966487E-2,1.0989449E-2,-1.6215963E-2],"categories":[],"categories_nodes":[],"categories_segments":[],"categories_sizes":[],"default_left":[0,0,0,0,0,0,0,0,0,0,0,0,0,0,0],"id":74,"left_children":[1,3,5,7,9,11,13,-1,-1,-1,-1,-1,-1,-1,-1],"loss_changes":[1.4516527E2,9.171424E0,2.1383293E2,2.6318295E0,1.23095E2,1.5511789E2,1.07899796E2,0E0,0E0,0E0,0E0,0E0,0E0,0E0,0E0],"parents":[2147483647,0,0,1,1,2,2,3,3,4,4,5,5,6,6],"right_children":[2,4,6,8,10,12,14,-1,-1,-1,-1,-1,-1,-1,-1],"split_conditions":[5.1374E4,1.5743E4,1.3478125E2,5.04E2,3.62125E1,1.3050626E2,1.3981876E2,-1.9165117E-4,1.4887012E-4,-1.8621242E-3,1.2575291E-2,6.312457E-3,7.966487E-2,1.0989449E-2,-1.6215963E-2],"split_indices":[0,0,1,0,2,1,1,0,0,0,0,0,0,0,0],"split_type":[0,0,0,0,0,0,0,0,0,0,0,0,0,0,0],"sum_hessian":[3.21154E5,3.18222E5,2.932E3,3.10122E5,8.1E3,2.99E2,2.633E3,2.35358E5,7.4764E4,6.164E3,1.936E3,1.2E2,1.79E2,2.201E3,4.32E2],"tree_param":{"num_deleted":"0","num_feature":"3","num_nodes":"15","size_leaf_vector":"1"}},{"base_weights":[2.4341536E-4,-1.0187341E-3,5.5684793E-1,-1.7653191E-3,6.270235E-2,7.0872235E-1,-1.0178889E0,2.0516422E-4,-2.7939046E-4,-1.1957416E-3,3.385101E-2,1.877657E-2,7.856666E-2,2.92183E-2,-6.610684E-2],"categories":[],"categories_nodes":[],"categories_segments":[],"categories_sizes":[],"default_left":[0,0,0,0,0,0,0,0,0,0,0,0,0,0,0],"id":75,"left_children":[1,3,5,7,9,11,13,-1,-1,-1,-1,-1,-1,-1,-1],"loss_changes":[2.2574155E2,1.52528105E1,1.7747797E2,7.1089845E0,1.9765149E2,1.884674E2,3.603691E1,0E0,0E0,0E0,0E0,0E0,0E0,0E0,0E0],"parents":[2147483647,0,0,1,1,2,2,3,3,4,4,5,5,6,6],"right_children":[2,4,6,8,10,12,14,-1,-1,-1,-1,-1,-1,-1,-1],"split_conditions":[1.03884E5,3.7868E4,1.3985625E2,1.3674374E2,3.60125E1,1.3969376E2,3.5670834E1,2.0516422E-4,-2.7939046E-4,-1.1957416E-3,3.385101E-2,1.877657E-2,7.856666E-2,2.92183E-2,-6.610684E-2],"split_indices":[0,0,1,1,2,1,2,0,0,0,0,0,0,0,0],"split_type":[0,0,0,0,0,0,0,0,0,0,0,0,0,0,0],"sum_hessian":[3.21323E5,3.20601E5,7.22E2,3.16893E5,3.708E3,6.61E2,6.1E1,1.24993E5,1.919E5,3.254E3,4.54E2,4.82E2,1.79E2,9E0,5.2E1],"tree_param":{"num_deleted":"0","num_feature":"3","num_nodes":"15","size_leaf_vector":"1"}},{"base_weights":[2.1815664E-4,-1.058862E-3,2.688739E-1,6.657328E-3,-4.784281E-3,3.9867327E-1,-5.107268E-1,1.3956777E-4,1.6956126E-2,-1.1672637E-3,5.8313275E-5,8.735163E-3,7.878501E-2,-4.2076256E-2,1.5993785E-2],"categories":[],"categories_nodes":[],"categories_segments":[],"categories_sizes":[],"default_left":[0,0,0,0,0,0,0,0,0,0,0,0,0,0,0],"id":76,"left_children":[1,3,5,7,9,11,13,-1,-1,-1,-1,-1,-1,-1,-1],"loss_changes":[1.1015634E2,9.186359E0,1.5472824E2,1.3373473E2,2.380346E1,3.4264606E2,6.151877E1,0E0,0E0,0E0,0E0,0E0,0E0,0E0,0E0],"parents":[2147483647,0,0,1,1,2,2,3,3,4,4,5,5,6,6],"right_children":[2,4,6,8,10,12,14,-1,-1,-1,-1,-1,-1,-1,-1],"split_conditions":[7.8639E4,1.3524374E2,1.3981876E2,2.6455E4,3.60125E1,1.3969376E2,1.4009375E2,1.3956777E-4,1.6956126E-2,-1.1672637E-3,5.8313275E-5,8.735163E-3,7.878501E-2,-4.2076256E-2,1.5993785E-2],"split_indices":[0,1,1,0,2,1,1,0,0,0,0,0,0,0,0],"split_type":[0,0,0,0,0,0,0,0,0,0,0,0,0,0,0],"sum_hessian":[3.21073E5,3.19559E5,1.514E3,1.04048E5,2.15511E5,1.3E3,2.14E2,1.02857E5,1.191E3,5.2315E4,1.63196E5,1.097E3,2.03E2,1.53E2,6.1E1],"tree_param":{"num_deleted":"0","num_feature":"3","num_nodes":"15","size_leaf_vector":"1"}},{"base_weights":[-6.900377E-4,-1.2787869E-3,2.5130007E-1,6.3470337E-3,-6.3274E-3,3.7967762E-1,-9.436305E-1,1.0733011E-4,1.1499366E-2,-1.8413311E-3,3.0257495E-5,3.640106E-3,5.4126628E-2,-4.483213E-3,-7.26845E-2],"categories":[],"categories_nodes":[],"categories_segments":[],"categories_sizes":[],"default_left":[0,0,0,0,0,0,0,0,0,0,0,0,0,0,0],"id":77,"left_children":[1,3,5,7,9,11,13,-1,-1,-1,-1,-1,-1,-1,-1],"loss_changes":[4.760823E1,1.2325725E1,1.1653627E2,1.19793625E2,4.0728024E1,1.4605875E2,3.1580727E1,0E0,0E0,0E0,0E0,0E0,0E0,0E0,0E0],"parents":[2147483647,0,0,1,1,2,2,3,3,4,4,5,5,6,6],"right_children":[2,4,6,8,10,12,14,-1,-1,-1,-1,-1,-1,-1,-1],"split_conditions":[1.03884E5,1.3679375E2,3.5770832E1,2.6455E4,3.6129166E1,1.3969376E2,1.3969376E2,1.0733011E-4,1.1499366E-2,-1.8413311E-3,3.0257495E-5,3.640106E-3,5.4126628E-2,-4.483213E-3,-7.26845E-2],"split_indices":[0,1,2,0,2,1,1,0,0,0,0,0,0,0,0],"split_type":[0,0,0,0,0,0,0,0,0,0,0,0,0,0,0],"sum_hessian":[3.20883E5,3.2014E5,7.43E2,1.27521E5,1.92619E5,6.74E2,6.9E1,1.25175E5,2.346E3,3.567E4,1.56949E5,4.73E2,2.01E2,2.8E1,4.1E1],"tree_param":{"num_deleted":"0","num_feature":"3","num_nodes":"15","size_leaf_vector":"1"}},{"base_weights":[3.8304765E-4,-6.2143814E-4,2.1745595E-1,-1.1333128E-3,7.489389E-2,6.971716E-1,-1.5568168E-1,-1.5405113E-3,-2.686157E-5,4.47312E-2,7.8158994E-4,9.6205436E-2,2.574346E-2,-5.648452E-2,4.521414E-3],"categories":[],"categories_nodes":[],"categories_segments":[],"categories_sizes":[],"default_left":[0,0,0,0,0,0,0,0,0,0,0,0,0,0,0],"id":78,"left_children":[1,3,5,7,9,11,13,-1,-1,-1,-1,-1,-1,-1,-1],"loss_changes":[7.001393E1,1.2355101E1,2.652837E2,5.6159506E0,1.0447192E2,1.3998718E2,2.0091107E2,0E0,0E0,0E0,0E0,0E0,0E0,0E0,0E0],"parents":[2147483647,0,0,1,1,2,2,3,3,4,4,5,5,6,6],"right_children":[2,4,6,8,10,12,14,-1,-1,-1,-1,-1,-1,-1,-1],"split_conditions":[7.8639E4,4.3574E4,3.5479168E1,1.2804375E2,3.35125E1,3.45125E1,3.56125E1,-1.5405113E-3,-2.686157E-5,4.47312E-2,7.8158994E-4,9.6205436E-2,2.574346E-2,-5.648452E-2,4.521414E-3],"split_indices":[0,0,2,1,2,2,2,0,0,0,0,0,0,0,0],"split_type":[0,0,0,0,0,0,0,0,0,0,0,0,0,0,0],"sum_hessian":[3.21088E5,3.19614E5,1.474E3,3.17467E5,2.147E3,6.43E2,8.31E2,6.246E3,3.11221E5,1.4E2,2.007E3,7.7E1,5.66E2,1.64E2,6.67E2],"tree_param":{"num_deleted":"0","num_feature":"3","num_nodes":"15","size_leaf_vector":"1"}},{"base_weights":[3.580952E-4,-7.475318E-4,1.5868278E-1,-1.429249E-3,4.0677894E-2,1.0080475E0,9.391036E-2,-1.5959375E-4,2.2504035E-4,-4.4077244E-2,3.299214E-3,-5.8918577E-2,6.944894E-2,9.106589E-3,-1.8714203E-2],"categories":[],"categories_nodes":[],"categories_segments":[],"categories_sizes":[],"default_left":[0,0,0,0,0,0,0,0,0,0,0,0,0,0,0],"id":79,"left_children":[1,3,5,7,9,11,13,-1,-1,-1,-1,-1,-1,-1,-1],"loss_changes":[5.611242E1,8.990148E0,1.2182591E2,3.2736185E0,1.20575516E2,1.389451E2,8.588302E1,0E0,0E0,0E0,0E0,0E0,0E0,0E0,0E0],"parents":[2147483647,0,0,1,1,2,2,3,3,4,4,5,5,6,6],"right_children":[2,4,6,8,10,12,14,-1,-1,-1,-1,-1,-1,-1,-1],"split_conditions":[6.2301E4,2.3963E4,1.3254375E2,6.23E2,3.16875E1,1.2780625E2,1.3981876E2,-1.5959375E-4,2.2504035E-4,-4.4077244E-2,3.299214E-3,-5.8918577E-2,6.944894E-2,9.106589E-3,-1.8714203E-2],"split_indices":[0,0,1,0,2,1,1,0,0,0,0,0,0,0,0],"split_type":[0,0,0,0,0,0,0,0,0,0,0,0,0,0,0],"sum_hessian":[3.20546E5,3.18328E5,2.218E3,3.13179E5,5.149E3,1.52E2,2.066E3,2.41422E5,7.1757E4,1.33E2,5.016E3,2.1E1,1.31E2,1.741E3,3.25E2],"tree_param":{"num_deleted":"0","num_feature":"3","num_nodes":"15","size_leaf_vector":"1"}},{"base_weights":[-8.126787E-4,-1.3164306E-3,2.1818823E-1,7.5358357E-3,-5.5610407E-3,1.1923573E0,5.5898286E-2,1.03973856E-4,1.223107E-2,-7.81296E-5,-2.1379238E-3,2.3015022E-2,1.2953569E-1,-1.64784E-2,2.3390932E-2],"categories":[],"categories_nodes":[],"categories_segments":[],"categories_sizes":[],"default_left":[0,0,0,0,0,0,0,0,0,0,0,0,0,0,0],"id":80,"left_children":[1,3,5,7,9,11,13,-1,-1,-1,-1,-1,-1,-1,-1],"loss_changes":[3.5428852E1,1.2038865E1,1.1618486E2,1.3432735E2,3.2209076E1,1.0152348E2,1.0191466E2,0E0,0E0,0E0,0E0,0E0,0E0,0E0,0E0],"parents":[2147483647,0,0,1,1,2,2,3,3,4,4,5,5,6,6],"right_children":[2,4,6,8,10,12,14,-1,-1,-1,-1,-1,-1,-1,-1],"split_conditions":[1.03884E5,1.3524374E2,3.46875E1,1.696E4,3.917E3,3.46625E1,1.3965625E2,1.03973856E-4,1.223107E-2,-7.81296E-5,-2.1379238E-3,2.3015022E-2,1.2953569E-1,-1.64784E-2,2.3390932E-2],"split_indices":[0,1,2,0,0,2,1,0,0,0,0,0,0,0,0],"split_type":[0,0,0,0,0,0,0,0,0,0,0,0,0,0,0],"sum_hessian":[3.21122E5,3.2039E5,7.32E2,1.03835E5,2.16555E5,1E2,6.32E2,1.01504E5,2.331E3,1.95541E5,2.1014E4,7E1,3E1,3.27E2,3.05E2],"tree_param":{"num_deleted":"0","num_feature":"3","num_nodes":"15","size_leaf_vector":"1"}},{"base_weights":[1.12889684E-4,-1.2548299E-3,1.18264794E-1,5.3694565E-3,-3.565815E-3,6.304132E-1,5.679535E-2,-2.4338928E-4,5.0471663E-3,-7.1024326E-5,-1.2652486E-3,2.0787908E-2,1.9965887E-1,-1.1216985E-4,3.1060575E-2],"categories":[],"categories_nodes":[],"categories_segments":[],"categories_sizes":[],"default_left":[0,0,0,0,0,0,0,0,0,0,0,0,0,0,0],"id":81,"left_children":[1,3,5,7,9,11,13,-1,-1,-1,-1,-1,-1,-1,-1],"loss_changes":[5.185404E1,4.856145E0,1.1542095E2,8.027536E1,1.0967639E1,2.7537988E2,1.0943781E2,0E0,0E0,0E0,0E0,0E0,0E0,0E0,0E0],"parents":[2147483647,0,0,1,1,2,2,3,3,4,4,5,5,6,6],"right_children":[2,4,6,8,10,12,14,-1,-1,-1,-1,-1,-1,-1,-1],"split_conditions":[4.3574E4,3.42875E1,3.44125E1,2.75E3,3.917E3,1.3409375E2,3.60125E1,-2.4338928E-4,5.0471663E-3,-7.1024326E-5,-1.2652486E-3,2.0787908E-2,1.9965887E-1,-1.1216985E-4,3.1060575E-2],"split_indices":[0,2,2,0,0,1,2,0,0,0,0,0,0,0,0],"split_type":[0,0,0,0,0,0,0,0,0,0,0,0,0,0,0],"sum_hessian":[3.20872E5,3.17205E5,3.667E3,8.2039E4,2.35166E5,3.88E2,3.279E3,7.4106E4,7.933E3,2.14048E5,2.1118E4,3.7E2,1.8E1,2.973E3,3.06E2],"tree_param":{"num_deleted":"0","num_feature":"3","num_nodes":"15","size_leaf_vector":"1"}},{"base_weights":[-2.0660636E-4,-7.842122E-4,2.4985208E-1,7.047409E-3,-4.5581437E-3,9.906417E-1,-2.0146506E-1,1.5377802E-4,1.9579314E-2,-1.1478892E-3,7.0597525E-5,3.8587015E-2,1.4945738E-1,-5.4130223E-2,1.1210739E-2],"categories":[],"categories_nodes":[],"categories_segments":[],"categories_sizes":[],"default_left":[0,0,0,0,0,0,0,0,0,0,0,0,0,0,0],"id":82,"left_children":[1,3,5,7,9,11,13,-1,-1,-1,-1,-1,-1,-1,-1],"loss_changes":[4.6378593E1,9.468752E0,2.484029E2,1.591082E2,2.374789E1,1.1139642E2,1.752523E2,0E0,0E0,0E0,0E0,0E0,0E0,0E0,0E0],"parents":[2147483647,0,0,1,1,2,2,3,3,4,4,5,5,6,6],"right_children":[2,4,6,8,10,12,14,-1,-1,-1,-1,-1,-1,-1,-1],"split_conditions":[1.03884E5,1.3524374E2,3.5504166E1,2.9348E4,3.60125E1,3.5429165E1,1.3965625E2,1.5377802E-4,1.9579314E-2,-1.1478892E-3,7.0597525E-5,3.8587015E-2,1.4945738E-1,-5.4130223E-2,1.1210739E-2],"split_indices":[0,1,2,0,2,2,1,0,0,0,0,0,0,0,0],"split_type":[0,0,0,0,0,0,0,0,0,0,0,0,0,0,0],"sum_hessian":[3.21091E5,3.20356E5,7.35E2,1.04173E5,2.16183E5,2.76E2,4.59E2,1.03113E5,1.06E3,5.2957E4,1.63226E5,2.55E2,2.1E1,1.47E2,3.12E2],"tree_param":{"num_deleted":"0","num_feature":"3","num_nodes":"15","size_leaf_vector":"1"}},{"base_weights":[6.0586055E-5,-5.052262E-4,2.4178044E-1,-3.6880597E-2,2.2257416E-4,7.1643853E-1,-3.2677613E-2,-5.5217865E-4,-5.0965376E-2,-2.8730776E-5,2.8378179E-3,2.9924586E-2,1.1652137E-1,-8.799565E-2,1.8333353E-2],"categories":[],"categories_nodes":[],"categories_segments":[],"categories_sizes":[],"default_left":[0,0,0,0,0,0,0,0,0,0,0,0,0,0,0],"id":83,"left_children":[1,3,5,7,9,11,13,-1,-1,-1,-1,-1,-1,-1,-1],"loss_changes":[4.3923943E1,8.482499E0,9.782236E1,1.594758E2,1.4157284E1,4.5376617E1,3.3431238E2,0E0,0E0,0E0,0E0,0E0,0E0,0E0,0E0],"parents":[2147483647,0,0,1,1,2,2,3,3,4,4,5,5,6,6],"right_children":[2,4,6,8,10,12,14,-1,-1,-1,-1,-1,-1,-1,-1],"split_conditions":[1.03884E5,1.2804375E2,3.5504166E1,1.3644E4,3.3022E4,3.5454166E1,3.56125E1,-5.5217865E-4,-5.0965376E-2,-2.8730776E-5,2.8378179E-3,2.9924586E-2,1.1652137E-1,-8.799565E-2,1.8333353E-2],"split_indices":[0,1,2,0,0,2,2,0,0,0,0,0,0,0,0],"split_type":[0,0,0,0,0,0,0,0,0,0,0,0,0,0,0],"sum_hessian":[3.21147E5,3.20402E5,7.45E2,6.28E3,3.14122E5,2.7E2,4.75E2,6.124E3,1.56E2,3.09759E5,4.363E3,2.58E2,1.2E1,8.6E1,3.89E2],"tree_param":{"num_deleted":"0","num_feature":"3","num_nodes":"15","size_leaf_vector":"1"}},{"base_weights":[-4.8493684E-4,-1.0903958E-3,1.3000375E-1,-3.3418626E-2,-4.4600244E-4,2.7160996E-1,-6.841296E-1,-5.961851E-4,-4.0749386E-2,5.6511495E-4,-1.2761696E-4,3.3753198E-3,6.9206335E-2,-5.1266976E-2,9.743686E-3],"categories":[],"categories_nodes":[],"categories_segments":[],"categories_sizes":[],"default_left":[0,0,0,0,0,0,0,0,0,0,0,0,0,0,0],