{"learner":{"attributes":{"scikit_learn":"{\"_estimator_type\": \"regressor\"}"},"feature_names":["population","centroid_X","centroid_Y"],"feature_types":["int","float","float"],"gradient_booster":{"model":{"gbtree_model_param":{"num_parallel_tree":"1","num_trees":"200"},"iteration_indptr":[0,1,2,3,4,5,6,7,8,9,10,11,12,13,14,15,16,17,18,19,20,21,22,23,24,25,26,27,28,29,30,31,32,33,34,35,36,37,38,39,40,41,42,43,44,45,46,47,48,49,50,51,52,53,54,55,56,57,58,59,60,61,62,63,64,65,66,67,68,69,70,71,72,73,74,75,76,77,78,79,80,81,82,83,84,85,86,87,88,89,90,91,92,93,94,95,96,97,98,99,100,101,102,103,104,105,106,107,108,109,110,111,112,113,114,115,116,117,118,119,120,121,122,123,124,125,126,127,128,129,130,131,132,133,134,135,136,137,138,139,140,141,142,143,144,145,146,147,148,149,150,151,152,153,154,155,156,157,158,159,160,161,162,163,164,165,166,167,168,169,170,171,172,173,174,175,176,177,178,179,180,181,182,183,184,185,186,187,188,189,190,191,192,193,194,195,196,197,198,199,200],"tree_info":[0,0,0,0,0,0,0,0,0,0,0,0,0,0,0,0,0,0,0,0,0,0,0,0,0,0,0,0,0,0,0,0,0,0,0,0,0,0,0,0,0,0,0,0,0,0,0,0,0,0,0,0,0,0,0,0,0,0,0,0,0,0,0,0,0,0,0,0,0,0,0,0,0,0,0,0,0,0,0,0,0,0,0,0,0,0,0,0,0,0,0,0,0,0,0,0,0,0,0,0,0,0,0,0,0,0,0,0,0,0,0,0,0,0,0,0,0,0,0,0,0,0,0,0,0,0,0,0,0,0,0,0,0,0,0,0,0,0,0,0,0,0,0,0,0,0,0,0,0,0,0,0,0,0,0,0,0,0,0,0,0,0,0,0,0,0,0,0,0,0,0,0,0,0,0,0,0,0,0,0,0,0,0,0,0,0,0,0,0,0,0,0,0,0,0,0,0,0,0,0],"trees":[{"base_weights":[8.0444144E-5,-2.458761E-2,2.1115606E0,-3.9713353E-2,6.1805445E-1,1.6676469E0,3.9049573E0,-2.390075E-3,7.1171033E-3,2.1098802E-2,4.0653553E-2,7.367424E-2,1.11167885E-1,2.4750987E-1,1.8111075E-1],"categories":[],"categories_nodes":[],"categories_segments":[],"categories_sizes":[],"default_left":[0,0,0,0,0,0,0,0,0,0,0,0,0,0,0],"id":0,"left_children":[1,3,5,7,9,11,13,-1,-1,-1,-1,-1,-1,-1,-1],"loss_changes":[1.6702139E4,3.0811228E3,2.9154473E3,4.5603046E2,2.7700537E2,3.0483203E2,1.26381836E2,0E0,0E0,0E0,0E0,0E0,0E0,0E0,0E0],"parents":[2147483647,0,0,1,1,2,2,3,3,4,4,5,5,6,6],"right_children":[2,4,6,8,10,12,14,-1,-1,-1,-1,-1,-1,-1,-1],"split_conditions":[4.3574E4,1.5743E4,1.03884E5,5.691E3,2.3963E4,7.8639E4,3.47375E1,-2.390075E-3,7.1171033E-3,2.1098802E-2,4.0653553E-2,7.367424E-2,1.11167885E-1,2.4750987E-1,1.8111075E-1],"split_indices":[0,0,0,0,0,0,2,0,0,0,0,0,0,0,0],"split_type":[0,0,0,0,0,0,0,0,0,0,0,0,0,0,0],"sum_hessian":[3.20654E5,3.16956E5,3.698E3,3.09672E5,7.284E3,2.972E3,7.26E2,2.96503E5,1.3169E4,3.64E3,3.644E3,2.216E3,7.56E2,1.37E2,5.89E2],"tree_param":{"num_deleted":"0","num_feature":"3","num_nodes":"15","size_leaf_vector":"1"}},{"base_weights":[-6.821666E-4,-2.3797205E-2,2.011303E0,-3.777559E-2,5.6910783E-1,1.6072359E0,3.6045113E0,-2.2340657E-3,7.49495E-3,2.0384206E-2,3.658287E-2,6.862396E-2,1.1477311E-1,2.09707E-1,1.610205E-1],"categories":[],"categories_nodes":[],"categories_segments":[],"categories_sizes":[],"default_left":[0,0,0,0,0,0,0,0,0,0,0,0,0,0,0],"id":1,"left_children":[1,3,5,7,9,11,13,-1,-1,-1,-1,-1,-1,-1,-1],"loss_changes":[1.4937068E4,2.63175E3,2.3194805E3,4.020888E2,1.904231E2,4.558584E2,9.8700195E1,0E0,0E0,0E0,0E0,0E0,0E0,0E0,0E0],"parents":[2147483647,0,0,1,1,2,2,3,3,4,4,5,5,6,6],"right_children":[2,4,6,8,10,12,14,-1,-1,-1,-1,-1,-1,-1,-1],"split_conditions":[4.3574E4,1.5743E4,1.03884E5,6.532E3,2.3963E4,7.8639E4,3.5479168E1,-2.2340657E-3,7.49495E-3,2.0384206E-2,3.658287E-2,6.862396E-2,1.1477311E-1,2.09707E-1,1.610205E-1],"split_indices":[0,0,0,0,0,0,2,0,0,0,0,0,0,0,0],"split_type":[0,0,0,0,0,0,0,0,0,0,0,0,0,0,0],"sum_hessian":[3.21168E5,3.17525E5,3.643E3,3.10216E5,7.309E3,2.914E3,7.29E2,2.9921E5,1.1006E4,3.676E3,3.633E3,2.184E3,7.3E2,2.68E2,4.61E2],"tree_param":{"num_deleted":"0","num_feature":"3","num_nodes":"15","size_leaf_vector":"1"}},{"base_weights":[-2.3541719E-4,2.5997732E-2,-3.1353015E-2,7.380454E-3,2.0436576E-1,-2.316899E-2,-4.3002333E-2,-6.049235E-4,2.0609468E-3,2.283992E-2,3.238987E-3,-1.6071539E-3,-7.8287814E-4,-1.9052759E-3,-2.2542153E-3],"categories":[],"categories_nodes":[],"categories_segments":[],"categories_sizes":[],"default_left":[0,0,0,0,0,0,0,0,0,0,0,0,0,0,0],"id":2,"left_children":[1,3,5,7,9,11,13,-1,-1,-1,-1,-1,-1,-1,-1],"loss_changes":[2.621996E2,5.787221E2,1.4002304E1,1.0402227E2,5.802254E2,5.8152885E0,6.094284E-1,0E0,0E0,0E0,0E0,0E0,0E0,0E0,0E0],"parents":[2147483647,0,0,1,1,2,2,3,3,4,4,5,5,6,6],"right_children":[2,4,6,8,10,12,14,-1,-1,-1,-1,-1,-1,-1,-1],"split_conditions":[3.6604168E1,1.3930624E2,1.4165625E2,1.3490625E2,1.3981876E2,1.4028125E2,1.4243124E2,-6.049235E-4,2.0609468E-3,2.283992E-2,3.238987E-3,-1.6071539E-3,-7.8287814E-4,-1.9052759E-3,-2.2542153E-3],"split_indices":[2,1,1,1,1,1,1,0,0,0,0,0,0,0,0],"split_type":[0,0,0,0,0,0,0,0,0,0,0,0,0,0,0],"sum_hessian":[3.2119E5,1.74273E5,1.46917E5,1.57807E5,1.6466E4,8.6302E4,6.0615E4,1.00156E5,5.7651E4,5.859E3,1.0607E4,3.9315E4,4.6987E4,1.8112E4,4.2503E4],"tree_param":{"num_deleted":"0","num_feature":"3","num_nodes":"15","size_leaf_vector":"1"}},{"base_weights":[-9.3517633E-4,-2.2220992E-2,1.850932E0,-3.6323376E-2,5.1677835E-1,1.4709822E0,3.3457332E0,-2.1858085E-3,4.939366E-3,1.8869136E-2,3.439818E-2,5.713656E-2,8.954345E-2,2.026407E-1,1.4896591E-1],"categories":[],"categories_nodes":[],"categories_segments":[],"categories_sizes":[],"default_left":[0,0,0,0,0,0,0,0,0,0,0,0,0,0,0],"id":3,"left_children":[1,3,5,7,9,11,13,-1,-1,-1,-1,-1,-1,-1,-1],"loss_changes":[1.2647356E4,2.4112026E3,2.0461357E3,3.087836E2,1.9170142E2,2.9595752E2,1.3005469E2,0E0,0E0,0E0,0E0,0E0,0E0,0E0,0E0],"parents":[2147483647,0,0,1,1,2,2,3,3,4,4,5,5,6,6],"right_children":[2,4,6,8,10,12,14,-1,-1,-1,-1,-1,-1,-1,-1],"split_conditions":[4.3574E4,1.4643E4,1.03884E5,4.593E3,2.3963E4,6.2301E4,3.5195835E1,-2.1858085E-3,4.939366E-3,1.8869136E-2,3.439818E-2,5.713656E-2,8.954345E-2,2.026407E-1,1.4896591E-1],"split_indices":[0,0,0,0,0,0,2,0,0,0,0,0,0,0,0],"split_type":[0,0,0,0,0,0,0,0,0,0,0,0,0,0,0],"sum_hessian":[3.20838E5,3.17197E5,3.641E3,3.09114E5,8.083E3,2.911E3,7.3E2,2.93081E5,1.6033E4,4.464E3,3.619E3,1.448E3,1.463E3,2.32E2,4.98E2],"tree_param":{"num_deleted":"0","num_feature":"3","num_nodes":"15","size_leaf_vector":"1"}},{"base_weights":[5.596074E-4,-2.3043625E-2,1.6992517E0,-3.5689205E-2,4.197359E-1,1.170828E0,2.7375174E0,-2.038704E-3,5.069732E-3,1.5610272E-2,3.1748082E-2,5.417798E-2,8.4806584E-2,1.06320225E-1,1.6594864E-1],"categories":[],"categories_nodes":[],"categories_segments":[],"categories_sizes":[],"default_left":[0,0,0,0,0,0,0,0,0,0,0,0,0,0,0],"id":4,"left_children":[1,3,5,7,9,11,13,-1,-1,-1,-1,-1,-1,-1,-1],"loss_changes":[1.2878709E4,1.7739366E3,2.3991055E3,2.147229E2,2.0260059E2,1.2494556E2,4.9096387E2,0E0,0E0,0E0,0E0,0E0,0E0,0E0,0E0],"parents":[2147483647,0,0,1,1,2,2,3,3,4,4,5,5,6,6],"right_children":[2,4,6,8,10,12,14,-1,-1,-1,-1,-1,-1,-1,-1],"split_conditions":[3.7868E4,1.2757E4,7.8639E4,5.691E3,2.3963E4,3.60125E1,1.03884E5,-2.038704E-3,5.069732E-3,1.5610272E-2,3.1748082E-2,5.417798E-2,8.4806584E-2,1.06320225E-1,1.6594864E-1],"split_indices":[0,0,0,0,0,2,0,0,0,0,0,0,0,0,0],"split_type":[0,0,0,0,0,0,0,0,0,0,0,0,0,0,0],"sum_hessian":[3.21198E5,3.16801E5,4.397E3,3.08009E5,8.792E3,2.921E3,1.476E3,2.96996E5,1.1013E4,5.871E3,2.921E3,2.518E3,4.03E2,7.31E2,7.45E2],"tree_param":{"num_deleted":"0","num_feature":"3","num_nodes":"15","size_leaf_vector":"1"}},{"base_weights":[-1.9084587E-4,2.2133872E-2,-2.6634477E-2,6.075897E-3,1.7602965E-1,-1.96357E-2,-3.768222E-2,-5.067936E-4,1.8108514E-3,1.928566E-2,2.9892887E-3,-1.3149158E-3,-6.998334E-4,-1.703088E-3,-1.9445069E-3],"categories":[],"categories_nodes":[],"categories_segments":[],"categories_sizes":[],"default_left":[0,0,0,0,0,0,0,0,0,0,0,0,0,0,0],"id":5,"left_children":[1,3,5,7,9,11,13,-1,-1,-1,-1,-1,-1,-1,-1],"loss_changes":[1.8952014E2,4.301734E2,1.1359276E1,7.70268E1,4.007709E2,3.3786201E0,2.4259186E-1,0E0,0E0,0E0,0E0,0E0,0E0,0E0,0E0],"parents":[2147483647,0,0,1,1,2,2,3,3,4,4,5,5,6,6],"right_children":[2,4,6,8,10,12,14,-1,-1,-1,-1,-1,-1,-1,-1],"split_conditions":[3.6604168E1,1.3930624E2,1.4179375E2,1.3513126E2,1.3981876E2,1.4033125E2,1.4243124E2,-5.067936E-4,1.8108514E-3,1.928566E-2,2.9892887E-3,-1.3149158E-3,-6.998334E-4,-1.703088E-3,-1.9445069E-3],"split_indices":[2,1,1,1,1,1,1,0,0,0,0,0,0,0,0],"split_type":[0,0,0,0,0,0,0,0,0,0,0,0,0,0,0],"sum_hessian":[3.21022E5,1.74068E5,1.46954E5,1.57626E5,1.6442E4,8.9971E4,5.6983E4,1.02499E5,5.5127E4,5.86E3,1.0582E4,4.1234E4,4.8737E4,1.4292E4,4.2691E4],"tree_param":{"num_deleted":"0","num_feature":"3","num_nodes":"15","size_leaf_vector":"1"}},{"base_weights":[3.017285E-4,2.2545759E-2,-2.4591928E-2,7.27959E-3,1.8241782E-1,-1.7974366E-2,-3.5617523E-2,-3.8361116E-4,1.7898286E-3,-2.5550863E-3,1.5280241E-2,-1.2278542E-3,-5.9368985E-4,-9.570284E-4,-1.7978981E-3],"categories":[],"categories_nodes":[],"categories_segments":[],"categories_sizes":[],"default_left":[0,0,0,0,0,0,0,0,0,0,0,0,0,0,0],"id":6,"left_children":[1,3,5,7,9,11,13,-1,-1,-1,-1,-1,-1,-1,-1],"loss_changes":[1.7763608E2,4.1347092E2,1.1042023E1,6.5941986E1,4.24874E2,3.7979984E0,3.1503296E-1,0E0,0E0,0E0,0E0,0E0,0E0,0E0,0E0],"parents":[2147483647,0,0,1,1,2,2,3,3,4,4,5,5,6,6],"right_children":[2,4,6,8,10,12,14,-1,-1,-1,-1,-1,-1,-1,-1],"split_conditions":[3.6420834E1,1.3930624E2,1.4179375E2,1.3503125E2,3.5295834E1,1.4033125E2,3.9654167E1,-3.8361116E-4,1.7898286E-3,-2.5550863E-3,1.5280241E-2,-1.2278542E-3,-5.9368985E-4,-9.570284E-4,-1.7978981E-3],"split_indices":[2,1,1,1,2,1,2,0,0,0,0,0,0,0,0],"split_type":[0,0,0,0,0,0,0,0,0,0,0,0,0,0,0],"sum_hessian":[3.20786E5,1.69409E5,1.51377E5,1.54647E5,1.4762E4,9.4607E4,5.677E4,1.01456E5,5.3191E4,5.099E3,9.663E3,4.5498E4,4.9109E4,1.155E3,5.5615E4],"tree_param":{"num_deleted":"0","num_feature":"3","num_nodes":"15","size_leaf_vector":"1"}},{"base_weights":[-1.43056695E-5,-1.94139E-2,1.6882404E0,-3.171759E-2,4.979273E-1,1.312885E0,3.1469214E0,-1.8860254E-3,6.5515265E-3,1.9222286E-2,3.3491105E-2,5.6682866E-2,9.182389E-2,1.6400069E-1,9.705036E-2],"categories":[],"categories_nodes":[],"categories_segments":[],"categories_sizes":[],"default_left":[0,0,0,0,0,0,0,0,0,0,0,0,0,0,0],"id":7,"left_children":[1,3,5,7,9,11,13,-1,-1,-1,-1,-1,-1,-1,-1],"loss_changes":[1.0502605E4,2.0180594E3,1.9739717E3,3.0256396E2,1.4238074E2,2.622959E2,8.7256836E1,0E0,0E0,0E0,0E0,0E0,0E0,0E0,0E0],"parents":[2147483647,0,0,1,1,2,2,3,3,4,4,5,5,6,6],"right_children":[2,4,6,8,10,12,14,-1,-1,-1,-1,-1,-1,-1,-1],"split_conditions":[4.3574E4,1.5743E4,1.03884E5,6.532E3,2.6455E4,7.8639E4,1.3981876E2,-1.8860254E-3,6.5515265E-3,1.9222286E-2,3.3491105E-2,5.6682866E-2,9.182389E-2,1.6400069E-1,9.705036E-2],"split_indices":[0,0,0,0,0,0,1,0,0,0,0,0,0,0,0],"split_type":[0,0,0,0,0,0,0,0,0,0,0,0,0,0,0],"sum_hessian":[3.20666E5,3.17028E5,3.638E3,3.09668E5,7.36E3,2.901E3,7.37E2,2.98656E5,1.1012E4,4.443E3,2.917E3,2.173E3,7.28E2,6.56E2,8.1E1],"tree_param":{"num_deleted":"0","num_feature":"3","num_nodes":"15","size_leaf_vector":"1"}},{"base_weights":[-3.2252516E-4,-1.8717358E-2,1.587059E0,-3.0054193E-2,4.591885E-1,1.2141464E0,3.0564559E0,-1.8062933E-3,5.33491E-3,1.5884113E-2,2.9915974E-2,5.2515667E-2,8.458801E-2,2.1448942E-1,1.3944282E-1],"categories":[],"categories_nodes":[],"categories_segments":[],"categories_sizes":[],"default_left":[0,0,0,0,0,0,0,0,0,0,0,0,0,0,0],"id":8,"left_children":[1,3,5,7,9,11,13,-1,-1,-1,-1,-1,-1,-1,-1],"loss_changes":[9.385344E3,1.7215546E3,1.9990215E3,2.577327E2,1.4401172E2,2.215586E2,1.8507129E2,0E0,0E0,0E0,0E0,0E0,0E0,0E0,0E0],"parents":[2147483647,0,0,1,1,2,2,3,3,4,4,5,5,6,6],"right_children":[2,4,6,8,10,12,14,-1,-1,-1,-1,-1,-1,-1,-1],"split_conditions":[4.3574E4,1.5743E4,1.03884E5,5.691E3,2.3963E4,7.8639E4,3.47125E1,-1.8062933E-3,5.33491E-3,1.5884113E-2,2.9915974E-2,5.2515667E-2,8.458801E-2,2.1448942E-1,1.3944282E-1],"split_indices":[0,0,0,0,0,0,2,0,0,0,0,0,0,0,0],"split_type":[0,0,0,0,0,0,0,0,0,0,0,0,0,0,0],"sum_hessian":[3.2141E5,3.17733E5,3.677E3,3.10375E5,7.358E3,2.94E3,7.37E2,2.97184E5,1.3191E4,3.656E3,3.702E3,2.201E3,7.39E2,1.18E2,6.19E2],"tree_param":{"num_deleted":"0","num_feature":"3","num_nodes":"15","size_leaf_vector":"1"}},{"base_weights":[4.8246578E-4,1.8150823E-2,-2.1097139E-2,5.6129983E-3,1.3862628E-1,-1.4309887E-2,-3.0114427E-2,-3.339015E-4,1.299735E-3,1.8174188E-2,2.2713726E-3,-1.1190157E-3,-3.682372E-4,-1.3017762E-3,-1.5985694E-3],"categories":[],"categories_nodes":[],"categories_segments":[],"categories_sizes":[],"default_left":[0,0,0,0,0,0,0,0,0,0,0,0,0,0,0],"id":9,"left_children":[1,3,5,7,9,11,13,-1,-1,-1,-1,-1,-1,-1,-1],"loss_changes":[1.22462105E2,2.667489E2,8.847191E0,4.007228E1,3.487586E2,4.623659E0,4.661293E-1,0E0,0E0,0E0,0E0,0E0,0E0,0E0,0E0],"parents":[2147483647,0,0,1,1,2,2,3,3,4,4,5,5,6,6],"right_children":[2,4,6,8,10,12,14,-1,-1,-1,-1,-1,-1,-1,-1],"split_conditions":[3.6704166E1,1.3936874E2,1.4160625E2,1.3490625E2,1.3978125E2,1.4030624E2,1.4243124E2,-3.339015E-4,1.299735E-3,1.8174188E-2,2.2713726E-3,-1.1190157E-3,-3.682372E-4,-1.3017762E-3,-1.5985694E-3],"split_indices":[2,1,1,1,1,1,1,0,0,0,0,0,0,0,0],"split_type":[0,0,0,0,0,0,0,0,0,0,0,0,0,0,0],"sum_hessian":[3.2118E5,1.76594E5,1.44586E5,1.59953E5,1.6641E4,8.2501E4,6.2085E4,9.9783E4,6.017E4,4.872E3,1.1769E4,3.8154E4,4.4347E4,1.9446E4,4.2639E4],"tree_param":{"num_deleted":"0","num_feature":"3","num_nodes":"15","size_leaf_vector":"1"}},{"base_weights":[-5.272379E-4,1.5524494E-2,-1.9578112E-2,4.1377484E-3,1.2469882E-1,-1.2718565E-2,-2.753274E-2,-4.0777941E-4,1.2732759E-3,1.4167233E-2,1.7941728E-3,-8.7366527E-4,-4.905533E-5,-1.1972687E-3,-1.4910868E-3],"categories":[],"categories_nodes":[],"categories_segments":[],"categories_sizes":[],"default_left":[0,0,0,0,0,0,0,0,0,0,0,0,0,0,0],"id":10,"left_children":[1,3,5,7,9,11,13,-1,-1,-1,-1,-1,-1,-1,-1],"loss_changes":[9.815033E1,2.1654376E2,8.006775E0,4.136037E1,2.317609E2,4.39869E0,5.544472E-1,0E0,0E0,0E0,0E0,0E0,0E0,0E0,0E0],"parents":[2147483647,0,0,1,1,2,2,3,3,4,4,5,5,6,6],"right_children":[2,4,6,8,10,12,14,-1,-1,-1,-1,-1,-1,-1,-1],"split_conditions":[3.6604168E1,1.3930624E2,1.4139375E2,1.3490625E2,1.3981876E2,1.4071875E2,1.4249374E2,-4.0777941E-4,1.2732759E-3,1.4167233E-2,1.7941728E-3,-8.7366527E-4,-4.905533E-5,-1.1972687E-3,-1.4910868E-3],"split_indices":[2,1,1,1,1,1,1,0,0,0,0,0,0,0,0],"split_type":[0,0,0,0,0,0,0,0,0,0,0,0,0,0,0],"sum_hessian":[3.20953E5,1.74188E5,1.46765E5,1.57741E5,1.6447E4,7.8814E4,6.7951E4,1.00066E5,5.7675E4,5.899E3,1.0548E4,5.609E4,2.2724E4,2.6491E4,4.146E4],"tree_param":{"num_deleted":"0","num_feature":"3","num_nodes":"15","size_leaf_vector":"1"}},{"base_weights":[-5.7543896E-4,1.7086444E-2,-1.686037E-2,5.8510588E-3,1.8435758E-1,-1.0085724E-2,-2.6771624E-2,-3.752244E-4,1.7505309E-3,1.3530989E-3,3.0584538E-2,-1.0941664E-3,-3.106976E-4,-1.1787505E-3,-1.4406382E-3],"categories":[],"categories_nodes":[],"categories_segments":[],"categories_sizes":[],"default_left":[0,0,0,0,0,0,0,0,0,0,0,0,0,0,0],"id":11,"left_children":[1,3,5,7,9,11,13,-1,-1,-1,-1,-1,-1,-1,-1],"loss_changes":[9.2239975E1,2.8912408E2,1.1202034E1,5.614598E1,6.507855E2,4.5267496E0,4.3859482E-1,0E0,0E0,0E0,0E0,0E0,0E0,0E0,0E0],"parents":[2147483647,0,0,1,1,2,2,3,3,4,4,5,5,6,6],"right_children":[2,4,6,8,10,12,14,-1,-1,-1,-1,-1,-1,-1,-1],"split_conditions":[3.5929165E1,1.3941875E2,1.4139375E2,1.3490625E2,3.5645832E1,1.3885625E2,1.4249374E2,-3.752244E-4,1.7505309E-3,1.3530989E-3,3.0584538E-2,-1.0941664E-3,-3.106976E-4,-1.1787505E-3,-1.4406382E-3],"split_indices":[2,1,1,1,2,1,1,0,0,0,0,0,0,0,0],"split_type":[0,0,0,0,0,0,0,0,0,0,0,0,0,0,0],"sum_hessian":[3.20688E5,1.5384E5,1.66848E5,1.44162E5,9.678E3,9.9112E4,6.7736E4,9.8878E4,4.5284E4,7.078E3,2.6E3,2.4484E4,7.4628E4,2.6421E4,4.1315E4],"tree_param":{"num_deleted":"0","num_feature":"3","num_nodes":"15","size_leaf_vector":"1"}},{"base_weights":[-3.895447E-4,-1.9396512E-2,1.3611236E0,-3.000953E-2,3.5072756E-1,1.0930631E0,2.683222E0,-1.745449E-3,3.129445E-3,1.3613038E-2,2.5281964E-2,4.3094065E-2,7.172905E-2,1.1892017E-1,1.6374932E-1],"categories":[],"categories_nodes":[],"categories_segments":[],"categories_sizes":[],"default_left":[0,0,0,0,0,0,0,0,0,0,0,0,0,0,0],"id":12,"left_children":[1,3,5,7,9,11,13,-1,-1,-1,-1,-1,-1,-1,-1],"loss_changes":[8.311573E3,1.2443203E3,1.552502E3,1.3971442E2,1.06644165E2,2.847588E2,9.4895996E1,0E0,0E0,0E0,0E0,0E0,0E0,0E0,0E0],"parents":[2147483647,0,0,1,1,2,2,3,3,4,4,5,5,6,6],"right_children":[2,4,6,8,10,12,14,-1,-1,-1,-1,-1,-1,-1,-1],"split_conditions":[3.7868E4,1.2757E4,1.03884E5,4.405E3,2.3963E4,6.2301E4,1.3969376E2,-1.745449E-3,3.129445E-3,1.3613038E-2,2.5281964E-2,4.3094065E-2,7.172905E-2,1.1892017E-1,1.6374932E-1],"split_indices":[0,0,0,0,0,0,1,0,0,0,0,0,0,0,0],"split_type":[0,0,0,0,0,0,0,0,0,0,0,0,0,0,0],"sum_hessian":[3.2117E5,3.16753E5,4.417E3,3.07928E5,8.825E3,3.68E3,7.37E2,2.92457E5,1.5471E4,5.867E3,2.958E3,2.205E3,1.475E3,5.03E2,2.34E2],"tree_param":{"num_deleted":"0","num_feature":"3","num_nodes":"15","size_leaf_vector":"1"}},{"base_weights":[2.6501506E-4,1.6716642E-2,-1.4893383E-2,5.6905444E-3,1.6639893E-1,-7.452661E-3,-2.3137666E-2,-2.6468758E-4,1.6090533E-3,-1.7421207E-3,2.210246E-2,-9.393234E-4,-1.524168E-4,-1.5377325E-3,-1.1073202E-3],"categories":[],"categories_nodes":[],"categories_segments":[],"categories_sizes":[],"default_left":[0,0,0,0,0,0,0,0,0,0,0,0,0,0,0],"id":13,"left_children":[1,3,5,7,9,11,13,-1,-1,-1,-1,-1,-1,-1,-1],"loss_changes":[7.9997215E1,2.5387807E2,1.0240665E1,4.1692722E1,5.855309E2,4.3805466E0,5.94574E-1,0E0,0E0,0E0,0E0,0E0,0E0,0E0,0E0],"parents":[2147483647,0,0,1,1,2,2,3,3,4,4,5,5,6,6],"right_children":[2,4,6,8,10,12,14,-1,-1,-1,-1,-1,-1,-1,-1],"split_conditions":[3.5929165E1,1.3930624E2,4.0870834E1,1.3513126E2,3.5429165E1,1.3885625E2,1.4061874E2,-2.6468758E-4,1.6090533E-3,-1.7421207E-3,2.210246E-2,-9.393234E-4,-1.524168E-4,-1.5377325E-3,-1.1073202E-3],"split_indices":[2,1,2,1,2,1,1,0,0,0,0,0,0,0,0],"split_type":[0,0,0,0,0,0,0,0,0,0,0,0,0,0,0],"sum_hessian":[3.20774E5,1.53825E5,1.66949E5,1.43276E5,1.0549E4,8.7756E4,7.9193E4,1.01283E5,4.1993E4,6.1E3,4.449E3,2.4554E4,6.3202E4,9.102E3,7.0091E4],"tree_param":{"num_deleted":"0","num_feature":"3","num_nodes":"15","size_leaf_vector":"1"}},{"base_weights":[-6.0853374E-4,-1.8347384E-2,1.2804443E0,-2.6901977E-2,3.8348255E-1,1.0308981E0,2.5043483E0,-1.6248504E-3,3.761949E-3,1.49052935E-2,2.4485886E-2,4.474755E-2,7.7839755E-2,1.6004613E-1,1.0386541E-1],"categories":[],"categories_nodes":[],"categories_segments":[],"categories_sizes":[],"default_left":[0,0,0,0,0,0,0,0,0,0,0,0,0,0,0],"id":14,"left_children":[1,3,5,7,9,11,13,-1,-1,-1,-1,-1,-1,-1,-1],"loss_changes":[7.3041724E3,1.0898533E3,1.3278877E3,1.7741728E2,5.9213623E1,2.5434473E2,1.8687744E2,0E0,0E0,0E0,0E0,0E0,0E0,0E0,0E0],"parents":[2147483647,0,0,1,1,2,2,3,3,4,4,5,5,6,6],"right_children":[2,4,6,8,10,12,14,-1,-1,-1,-1,-1,-1,-1,-1],"split_conditions":[3.7868E4,1.5743E4,1.03884E5,4.788E3,2.3963E4,7.8639E4,3.5504166E1,-1.6248504E-3,3.761949E-3,1.49052935E-2,2.4485886E-2,4.474755E-2,7.7839755E-2,1.6004613E-1,1.0386541E-1],"split_indices":[0,0,0,0,0,0,2,0,0,0,0,0,0,0,0],"split_type":[0,0,0,0,0,0,0,0,0,0,0,0,0,0,0],"sum_hessian":[3.21414E5,3.17029E5,4.385E3,3.10425E5,6.604E3,3.65E3,7.35E2,2.94307E5,1.6118E4,3.672E3,2.932E3,2.911E3,7.39E2,2.67E2,4.68E2],"tree_param":{"num_deleted":"0","num_feature":"3","num_nodes":"15","size_leaf_vector":"1"}},{"base_weights":[4.8621598E-5,1.50012225E-2,-1.3734949E-2,5.94723E-3,1.447929E-1,-8.492992E-3,-2.137932E-2,-2.0974006E-4,1.5086642E-3,-1.9861297E-3,1.9544415E-2,-4.7928203E-4,1.5786877E-3,-9.3879877E-4,-1.1463182E-3],"categories":[],"categories_nodes":[],"categories_segments":[],"categories_sizes":[],"default_left":[0,0,0,0,0,0,0,0,0,0,0,0,0,0,0],"id":15,"left_children":[1,3,5,7,9,11,13,-1,-1,-1,-1,-1,-1,-1,-1],"loss_changes":[6.616436E1,1.8094855E2,6.692829E0,3.53691E1,4.560235E2,4.340085E0,2.7150917E-1,0E0,0E0,0E0,0E0,0E0,0E0,0E0,0E0],"parents":[2147483647,0,0,1,1,2,2,3,3,4,4,5,5,6,6],"right_children":[2,4,6,8,10,12,14,-1,-1,-1,-1,-1,-1,-1,-1],"split_conditions":[3.5929165E1,1.3936874E2,1.4139375E2,1.3513126E2,3.5429165E1,1.4130624E2,1.4243124E2,-2.0974006E-4,1.5086642E-3,-1.9861297E-3,1.9544415E-2,-4.7928203E-4,1.5786877E-3,-9.3879877E-4,-1.1463182E-3],"split_indices":[2,1,1,1,2,1,1,0,0,0,0,0,0,0,0],"split_type":[0,0,0,0,0,0,0,0,0,0,0,0,0,0,0],"sum_hessian":[3.2102E5,1.5398E5,1.6704E5,1.43944E5,1.0036E4,9.9097E4,6.7943E4,1.01469E5,4.2475E4,5.738E3,4.298E3,9.647E4,2.627E3,2.535E4,4.2593E4],"tree_param":{"num_deleted":"0","num_feature":"3","num_nodes":"15","size_leaf_vector":"1"}},{"base_weights":[8.6407825E-5,-1.7132666E-2,1.2480763E0,-2.6824119E-2,3.1951174E-1,1.0060881E0,2.4648101E0,-1.5047641E-3,4.1979454E-3,1.196587E-2,2.3863086E-2,6.919647E-2,3.8041454E-2,1.5394175E-1,1.0810087E-1],"categories":[],"categories_nodes":[],"categories_segments":[],"categories_sizes":[],"default_left":[0,0,0,0,0,0,0,0,0,0,0,0,0,0,0],"id":16,"left_children":[1,3,5,7,9,11,13,-1,-1,-1,-1,-1,-1,-1,-1],"loss_changes":[6.8858794E3,1.031254E3,1.2716328E3,1.1135054E2,1.11323975E2,3.3260645E2,1.0058154E2,0E0,0E0,0E0,0E0,0E0,0E0,0E0,0E0],"parents":[2147483647,0,0,1,1,2,2,3,3,4,4,5,5,6,6],"right_children":[2,4,6,8,10,12,14,-1,-1,-1,-1,-1,-1,-1,-1],"split_conditions":[3.7868E4,1.2757E4,1.03884E5,6.532E3,2.3963E4,1.3679375E2,1.3579375E2,-1.5047641E-3,4.1979454E-3,1.196587E-2,2.3863086E-2,6.919647E-2,3.8041454E-2,1.5394175E-1,1.0810087E-1],"split_indices":[0,0,0,0,0,1,1,0,0,0,0,0,0,0,0],"split_type":[0,0,0,0,0,0,0,0,0,0,0,0,0,0,0],"sum_hessian":[3.20424E5,3.16068E5,4.356E3,3.07228E5,8.84E3,3.641E3,7.15E2,2.9842E5,8.808E3,5.869E3,2.971E3,1.424E3,2.217E3,2.21E2,4.94E2],"tree_param":{"num_deleted":"0","num_feature":"3","num_nodes":"15","size_leaf_vector":"1"}},{"base_weights":[8.45808E-6,1.1365625E-2,-1.3462974E-2,4.2947303E-3,9.120488E-2,-7.427809E-3,-1.8625852E-2,-4.9780787E-4,6.743343E-4,1.718929E-2,1.0040831E-3,-4.4583715E-4,8.9937093E-4,-1.3120421E-3,-8.894087E-4],"categories":[],"categories_nodes":[],"categories_segments":[],"categories_sizes":[],"default_left":[0,0,0,0,0,0,0,0,0,0,0,0,0,0,0],"id":17,"left_children":[1,3,5,7,9,11,13,-1,-1,-1,-1,-1,-1,-1,-1],"loss_changes":[4.90644E1,9.8226E1,4.569994E0,2.0939592E1,2.542691E2,2.5604079E0,5.019512E-1,0E0,0E0,0E0,0E0,0E0,0E0,0E0,0E0],"parents":[2147483647,0,0,1,1,2,2,3,3,4,4,5,5,6,6],"right_children":[2,4,6,8,10,12,14,-1,-1,-1,-1,-1,-1,-1,-1],"split_conditions":[3.6604168E1,1.3950626E2,4.0870834E1,3.3820835E1,1.3978125E2,4.0520832E1,1.4050626E2,-4.9780787E-4,6.743343E-4,1.718929E-2,1.0040831E-3,-4.4583715E-4,8.9937093E-4,-1.3120421E-3,-8.894087E-4],"split_indices":[2,1,2,2,1,2,1,0,0,0,0,0,0,0,0],"split_type":[0,0,0,0,0,0,0,0,0,0,0,0,0,0,0],"sum_hessian":[3.20678E5,1.73993E5,1.46685E5,1.59842E5,1.4151E4,6.7635E4,7.905E4,6.2674E4,9.7168E4,3.105E3,1.1046E4,6.3895E4,3.74E3,7.819E3,7.1231E4],"tree_param":{"num_deleted":"0","num_feature":"3","num_nodes":"15","size_leaf_vector":"1"}},{"base_weights":[4.4897615E-4,-1.6012901E-2,1.1626695E0,-2.4180468E-2,3.6609718E-1,8.0122E-1,1.8914018E0,-1.397842E-3,5.2227336E-3,1.622666E-2,2.9070446E-2,6.769227E-2,3.522527E-2,1.3288902E-1,7.503091E-2],"categories":[],"categories_nodes":[],"categories_segments":[],"categories_sizes":[],"default_left":[0,0,0,0,0,0,0,0,0,0,0,0,0,0,0],"id":18,"left_children":[1,3,5,7,9,11,13,-1,-1,-1,-1,-1,-1,-1,-1],"loss_changes":[6.1384727E3,9.873814E2,1.1727178E3,1.5048116E2,5.8309326E1,1.5578564E2,4.238999E2,0E0,0E0,0E0,0E0,0E0,0E0,0E0,0E0],"parents":[2147483647,0,0,1,1,2,2,3,3,4,4,5,5,6,6],"right_children":[2,4,6,8,10,12,14,-1,-1,-1,-1,-1,-1,-1,-1],"split_conditions":[3.7868E4,1.5743E4,7.8639E4,7.601E3,3.6745834E1,3.4379166E1,3.50625E1,-1.397842E-3,5.2227336E-3,1.622666E-2,2.9070446E-2,6.769227E-2,3.522527E-2,1.3288902E-1,7.503091E-2],"split_indices":[0,0,0,0,2,2,2,0,0,0,0,0,0,0,0],"split_type":[0,0,0,0,0,0,0,0,0,0,0,0,0,0,0],"sum_hessian":[3.20833E5,3.16357E5,4.476E3,3.09741E5,6.616E3,2.999E3,1.477E3,3.00911E5,8.83E3,5.556E3,1.06E3,4.37E2,2.562E3,4.89E2,9.88E2],"tree_param":{"num_deleted":"0","num_feature":"3","num_nodes":"15","size_leaf_vector":"1"}},{"base_weights":[-1.5939593E-4,-1.4244389E-2,1.2213678E0,-2.4152007E-2,3.0439454E-1,8.2857674E-1,1.8031838E0,-1.4260658E-3,2.090018E-3,1.0758829E-2,2.5187856E-2,5.6185033E-2,3.137758E-2,1.1618954E-1,7.664469E-2],"categories":[],"categories_nodes":[],"categories_segments":[],"categories_sizes":[],"default_left":[0,0,0,0,0,0,0,0,0,0,0,0,0,0,0],"id":19,"left_children":[1,3,5,7,9,11,13,-1,-1,-1,-1,-1,-1,-1,-1],"loss_changes":[5.513597E3,1.0001849E3,8.273574E2,8.854761E1,1.6939233E2,1.2640088E2,1.887583E2,0E0,0E0,0E0,0E0,0E0,0E0,0E0,0E0],"parents":[2147483647,0,0,1,1,2,2,3,3,4,4,5,5,6,6],"right_children":[2,4,6,8,10,12,14,-1,-1,-1,-1,-1,-1,-1,-1],"split_conditions":[4.3574E4,1.2757E4,7.8639E4,3.641E3,2.6455E4,1.3679375E2,1.3691875E2,-1.4260658E-3,2.090018E-3,1.0758829E-2,2.5187856E-2,5.6185033E-2,3.137758E-2,1.1618954E-1,7.664469E-2],"split_indices":[0,0,0,0,0,1,1,0,0,0,0,0,0,0,0],"split_type":[0,0,0,0,0,0,0,0,0,0,0,0,0,0,0],"sum_hessian":[3.20451E5,3.16803E5,3.648E3,3.07254E5,9.549E3,2.185E3,1.463E3,2.88166E5,1.9088E4,6.604E3,2.945E3,8.76E2,1.309E3,4.87E2,9.76E2],"tree_param":{"num_deleted":"0","num_feature":"3","num_nodes":"15","size_leaf_vector":"1"}},{"base_weights":[9.974849E-4,-1.2940092E-2,1.2028887E0,-2.2281805E-2,3.1622243E-1,9.3735003E-1,2.2444675E0,-1.3601419E-3,2.337169E-3,1.0656788E-2,2.2996245E-2,4.0234786E-2,6.594138E-2,1.6565779E-1,9.813119E-2],"categories":[],"categories_nodes":[],"categories_segments":[],"categories_sizes":[],"default_left":[0,0,0,0,0,0,0,0,0,0,0,0,0,0,0],"id":20,"left_children":[1,3,5,7,9,11,13,-1,-1,-1,-1,-1,-1,-1,-1],"loss_changes":[5.377562E3,9.7584045E2,1.00729297E3,1.0482602E2,1.292492E2,1.4352197E2,1.9158276E2,0E0,0E0,0E0,0E0,0E0,0E0,0E0,0E0],"parents":[2147483647,0,0,1,1,2,2,3,3,4,4,5,5,6,6],"right_children":[2,4,6,8,10,12,14,-1,-1,-1,-1,-1,-1,-1,-1],"split_conditions":[4.3574E4,1.3644E4,1.03884E5,3.512E3,2.3963E4,7.8639E4,3.47375E1,-1.3601419E-3,2.337169E-3,1.0656788E-2,2.2996245E-2,4.0234786E-2,6.594138E-2,1.6565779E-1,9.813119E-2],"split_indices":[0,0,0,0,0,0,2,0,0,0,0,0,0,0,0],"split_type":[0,0,0,0,0,0,0,0,0,0,0,0,0,0,0],"sum_hessian":[3.21011E5,3.17336E5,3.675E3,3.08583E5,8.753E3,2.936E3,7.39E2,2.8805E5,2.0533E4,5.104E3,3.649E3,2.19E3,7.46E2,1.43E2,5.96E2],"tree_param":{"num_deleted":"0","num_feature":"3","num_nodes":"15","size_leaf_vector":"1"}},{"base_weights":[6.152794E-4,-1.2872404E-2,1.1526102E0,-2.1911634E-2,2.7876878E-1,9.1042686E-1,2.1139133E0,-1.2598777E-3,2.372074E-3,8.513224E-3,1.8592115E-2,6.102862E-2,3.40784E-2,1.1325852E-1,5.0141193E-2],"categories":[],"categories_nodes":[],"categories_segments":[],"categories_sizes":[],"default_left":[0,0,0,0,0,0,0,0,0,0,0,0,0,0,0],"id":21,"left_children":[1,3,5,7,9,11,13,-1,-1,-1,-1,-1,-1,-1,-1],"loss_changes":[4.9825005E3,8.356042E2,8.543408E2,7.00672E1,9.591565E1,2.068628E2,1.1351099E2,0E0,0E0,0E0,0E0,0E0,0E0,0E0,0E0],"parents":[2147483647,0,0,1,1,2,2,3,3,4,4,5,5,6,6],"right_children":[2,4,6,8,10,12,14,-1,-1,-1,-1,-1,-1,-1,-1],"split_conditions":[4.3574E4,1.2757E4,1.03884E5,4.788E3,1.9879E4,1.3691875E2,1.3981876E2,-1.2598777E-3,2.372074E-3,8.513224E-3,1.8592115E-2,6.102862E-2,3.40784E-2,1.1325852E-1,5.0141193E-2],"split_indices":[0,0,0,0,0,1,1,0,0,0,0,0,0,0,0],"split_type":[0,0,0,0,0,0,0,0,0,0,0,0,0,0,0],"sum_hessian":[3.20661E5,3.16955E5,3.706E3,3.07431E5,9.524E3,2.968E3,7.38E2,2.93527E5,1.3904E4,4.404E3,5.12E3,1.251E3,1.717E3,6.45E2,9.3E1],"tree_param":{"num_deleted":"0","num_feature":"3","num_nodes":"15","size_leaf_vector":"1"}},{"base_weights":[3.426178E-4,1.0422528E-2,-8.543086E-3,5.7355766E-3,1.2001487E-1,-4.5586256E-3,-1.3156837E-2,-2.5196388E-4,1.03931E-3,-1.1210971E-3,2.6544595E-2,-8.249571E-4,1.9557354E-5,-9.665023E-4,-6.143667E-4],"categories":[],"categories_nodes":[],"categories_segments":[],"categories_sizes":[],"default_left":[0,0,0,0,0,0,0,0,0,0,0,0,0,0,0],"id":22,"left_children":[1,3,5,7,9,11,13,-1,-1,-1,-1,-1,-1,-1,-1],"loss_changes":[2.875166E1,7.7248566E1,3.136075E0,2.3390701E1,3.610356E2,5.411252E0,4.23172E-1,0E0,0E0,0E0,0E0,0E0,0E0,0E0,0E0],"parents":[2147483647,0,0,1,1,2,2,3,3,4,4,5,5,6,6],"right_children":[2,4,6,8,10,12,14,-1,-1,-1,-1,-1,-1,-1,-1],"split_conditions":[3.58125E1,3.5645832E1,4.0870834E1,3.4320835E1,1.3941875E2,1.3885625E2,1.4068124E2,-2.5196388E-4,1.03931E-3,-1.1210971E-3,2.6544595E-2,-8.249571E-4,1.9557354E-5,-9.665023E-4,-6.143667E-4],"split_indices":[2,2,2,2,1,1,1,0,0,0,0,0,0,0,0],"split_type":[0,0,0,0,0,0,0,0,0,0,0,0,0,0,0],"sum_hessian":[3.20997E5,1.50392E5,1.70605E5,1.44229E5,6.163E3,9.1551E4,7.9054E4,8.4056E4,6.0173E4,4.58E3,1.583E3,2.6826E4,6.4725E4,9.747E3,6.9307E4],"tree_param":{"num_deleted":"0","num_feature":"3","num_nodes":"15","size_leaf_vector":"1"}},{"base_weights":[-3.6734802E-4,8.827758E-3,-8.318567E-3,3.951167E-3,1.5423511E-1,-4.679781E-3,-1.2603701E-2,-2.9651256E-4,8.1377133E-4,-5.823029E-4,3.472299E-2,-5.8269704E-4,9.923399E-5,-9.169291E-4,-5.899907E-4],"categories":[],"categories_nodes":[],"categories_segments":[],"categories_sizes":[],"default_left":[0,0,0,0,0,0,0,0,0,0,0,0,0,0,0],"id":23,"left_children":[1,3,5,7,9,11,13,-1,-1,-1,-1,-1,-1,-1,-1],"loss_changes":[2.3473219E1,1.0556872E2,2.6843605E0,1.7543911E1,4.3296133E2,4.328102E0,3.6340904E-1,0E0,0E0,0E0,0E0,0E0,0E0,0E0,0E0],"parents":[2147483647,0,0,1,1,2,2,3,3,4,4,5,5,6,6],"right_children":[2,4,6,8,10,12,14,-1,-1,-1,-1,-1,-1,-1,-1],"split_conditions":[3.5770832E1,3.5645832E1,4.0870834E1,3.4229168E1,1.3955624E2,1.3988126E2,1.4068124E2,-2.9651256E-4,8.1377133E-4,-5.823029E-4,3.472299E-2,-5.8269704E-4,9.923399E-5,-9.169291E-4,-5.899907E-4],"split_indices":[2,2,2,2,1,1,1,0,0,0,0,0,0,0,0],"split_type":[0,0,0,0,0,0,0,0,0,0,0,0,0,0,0],"sum_hessian":[3.21047E5,1.48878E5,1.72169E5,1.44052E5,4.826E3,9.3112E4,7.9057E4,7.9951E4,6.4101E4,3.696E3,1.13E3,4.5497E4,4.7615E4,9.706E3,6.9351E4],"tree_param":{"num_deleted":"0","num_feature":"3","num_nodes":"15","size_leaf_vector":"1"}},{"base_weights":[-8.082302E-5,-1.2045808E-2,1.0398644E0,-1.9736223E-2,2.7882108E-1,7.9787797E-1,2.0136642E0,-1.1052461E-3,5.2040988E-3,9.447876E-3,1.9383317E-2,3.596143E-2,7.2851E-2,1.6674522E-1,8.938017E-2],"categories":[],"categories_nodes":[],"categories_segments":[],"categories_sizes":[],"default_left":[0,0,0,0,0,0,0,0,0,0,0,0,0,0,0],"id":24,"left_children":[1,3,5,7,9,11,13,-1,-1,-1,-1,-1,-1,-1,-1],"loss_changes":[3.9972168E3,7.104404E2,8.5301855E2,9.0758995E1,7.965393E1,1.4691406E2,1.8643726E2,0E0,0E0,0E0,0E0,0E0,0E0,0E0,0E0],"parents":[2147483647,0,0,1,1,2,2,3,3,4,4,5,5,6,6],"right_children":[2,4,6,8,10,12,14,-1,-1,-1,-1,-1,-1,-1,-1],"split_conditions":[4.3574E4,1.4643E4,1.03884E5,8.917E3,2.3963E4,3.6054165E1,3.46875E1,-1.1052461E-3,5.2040988E-3,9.447876E-3,1.9383317E-2,3.596143E-2,7.2851E-2,1.6674522E-1,8.938017E-2],"split_indices":[0,0,0,0,0,2,2,0,0,0,0,0,0,0,0],"split_type":[0,0,0,0,0,0,0,0,0,0,0,0,0,0,0],"sum_hessian":[3.21234E5,3.17585E5,3.649E3,3.09409E5,8.176E3,2.93E3,7.19E2,3.03605E5,5.804E3,4.486E3,3.69E3,2.627E3,3.03E2,9.5E1,6.24E2],"tree_param":{"num_deleted":"0","num_feature":"3","num_nodes":"15","size_leaf_vector":"1"}},{"base_weights":[-5.7199853E-5,8.049988E-3,-7.2008986E-3,4.3606274E-3,9.302321E-2,-4.287753E-2,-6.6466425E-3,-2.8456503E-4,9.423896E-4,-1.1581321E-3,2.1645606E-2,-1.6166259E-3,-5.315458E-3,-1.823126E-4,-5.529413E-4],"categories":[],"categories_nodes":[],"categories_segments":[],"categories_sizes":[],"default_left":[0,0,0,0,0,0,0,0,0,0,0,0,0,0,0],"id":25,"left_children":[1,3,5,7,9,11,13,-1,-1,-1,-1,-1,-1,-1,-1],"loss_changes":[1.8601414E1,4.7162323E1,3.3747292E0,2.0998196E1,2.4725931E2,1.7292781E0,2.2255626E0,0E0,0E0,0E0,0E0,0E0,0E0,0E0,0E0],"parents":[2147483647,0,0,1,1,2,2,3,3,4,4,5,5,6,6],"right_children":[2,4,6,8,10,12,14,-1,-1,-1,-1,-1,-1,-1,-1],"split_conditions":[3.58125E1,3.5645832E1,3.5895832E1,3.4345833E1,1.3941875E2,1.4014375E2,1.4139375E2,-2.8456503E-4,9.423896E-4,-1.1581321E-3,2.1645606E-2,-1.6166259E-3,-5.315458E-3,-1.823126E-4,-5.529413E-4],"split_indices":[2,2,2,2,1,1,1,0,0,0,0,0,0,0,0],"split_type":[0,0,0,0,0,0,0,0,0,0,0,0,0,0,0],"sum_hessian":[3.21173E5,1.50441E5,1.70732E5,1.44186E5,6.255E3,2.606E3,1.68126E5,8.5125E4,5.9061E4,4.665E3,1.59E3,2.241E3,3.65E2,1.00079E5,6.8047E4],"tree_param":{"num_deleted":"0","num_feature":"3","num_nodes":"15","size_leaf_vector":"1"}},{"base_weights":[1.0927642E-4,-1.166152E-2,1.0284655E0,-2.0464083E-2,2.0314412E-1,7.7310807E-1,2.0006762E0,-1.1764861E-3,9.460697E-4,7.0559382E-3,1.996389E-2,3.4449916E-2,7.4480005E-2,1.6093874E-1,8.790884E-2],"categories":[],"categories_nodes":[],"categories_segments":[],"categories_sizes":[],"default_left":[0,0,0,0,0,0,0,0,0,0,0,0,0,0,0],"id":26,"left_children":[1,3,5,7,9,11,13,-1,-1,-1,-1,-1,-1,-1,-1],"loss_changes":[3.8880728E3,6.0049866E2,8.946958E2,3.68375E1,1.5180841E2,1.6885046E2,1.9413135E2,0E0,0E0,0E0,0E0,0E0,0E0,0E0,0E0],"parents":[2147483647,0,0,1,1,2,2,3,3,4,4,5,5,6,6],"right_children":[2,4,6,8,10,12,14,-1,-1,-1,-1,-1,-1,-1,-1],"split_conditions":[4.3574E4,9.999E3,1.03884E5,2.75E3,2.6455E4,3.60125E1,3.47125E1,-1.1764861E-3,9.460697E-4,7.0559382E-3,1.996389E-2,3.4449916E-2,7.4480005E-2,1.6093874E-1,8.790884E-2],"split_indices":[0,0,0,0,0,2,2,0,0,0,0,0,0,0,0],"split_type":[0,0,0,0,0,0,0,0,0,0,0,0,0,0,0],"sum_hessian":[3.21197E5,3.17567E5,3.63E3,3.0507E5,1.2497E4,2.882E3,7.48E2,2.83041E5,2.2029E4,9.501E3,2.996E3,2.588E3,2.94E2,1.14E2,6.34E2],"tree_param":{"num_deleted":"0","num_feature":"3","num_nodes":"15","size_leaf_vector":"1"}},{"base_weights":[-1.3739994E-4,-1.1175902E-2,9.580258E-1,-1.8518379E-2,2.2603145E-1,6.419046E-1,1.4354357E0,-1.0375855E-3,3.2266302E-3,8.944743E-3,1.9152693E-2,4.2733163E-2,1.9280462E-2,1.408498E-1,6.5928556E-2],"categories":[],"categories_nodes":[],"categories_segments":[],"categories_sizes":[],"default_left":[0,0,0,0,0,0,0,0,0,0,0,0,0,0,0],"id":27,"left_children":[1,3,5,7,9,11,13,-1,-1,-1,-1,-1,-1,-1,-1],"loss_changes":[3.3988718E3,5.53347E2,5.477578E2,5.7164528E1,7.0260254E1,1.18915955E2,2.1618408E2,0E0,0E0,0E0,0E0,0E0,0E0,0E0,0E0],"parents":[2147483647,0,0,1,1,2,2,3,3,4,4,5,5,6,6],"right_children":[2,4,6,8,10,12,14,-1,-1,-1,-1,-1,-1,-1,-1],"split_conditions":[4.3574E4,1.2757E4,7.8639E4,6.874E3,2.9348E4,1.3908125E2,1.3524374E2,-1.0375855E-3,3.2266302E-3,8.944743E-3,1.9152693E-2,4.2733163E-2,1.9280462E-2,1.408498E-1,6.5928556E-2],"split_indices":[0,0,0,0,0,1,1,0,0,0,0,0,0,0,0],"split_type":[0,0,0,0,0,0,0,0,0,0,0,0,0,0,0],"sum_hessian":[3.21345E5,3.1769E5,3.655E3,3.08156E5,9.534E3,2.206E3,1.449E3,3.0009E5,8.066E3,7.341E3,2.193E3,1.199E3,1.007E3,1.04E2,1.345E3],"tree_param":{"num_deleted":"0","num_feature":"3","num_nodes":"15","size_leaf_vector":"1"}},{"base_weights":[3.7078842E-4,-9.263344E-3,1.0328323E0,-1.6548647E-2,2.7275646E-1,8.2468826E-1,1.6618617E0,-9.855306E-4,3.4762428E-3,1.0695395E-2,2.3196919E-2,6.356444E-2,2.7035354E-2,1.2729597E-1,7.366416E-2],"categories":[],"categories_nodes":[],"categories_segments":[],"categories_sizes":[],"default_left":[0,0,0,0,0,0,0,0,0,0,0,0,0,0,0],"id":28,"left_children":[1,3,5,7,9,11,13,-1,-1,-1,-1,-1,-1,-1,-1],"loss_changes":[3.1933416E3,6.535332E2,3.817439E2,8.43951E1,8.962256E1,2.8065356E2,1.03447266E2,0E0,0E0,0E0,0E0,0E0,0E0,0E0,0E0],"parents":[2147483647,0,0,1,1,2,2,3,3,4,4,5,5,6,6],"right_children":[2,4,6,8,10,12,14,-1,-1,-1,-1,-1,-1,-1,-1],"split_conditions":[5.1374E4,1.5743E4,1.03884E5,6.532E3,3.6254166E1,3.50625E1,3.47125E1,-9.855306E-4,3.4762428E-3,1.0695395E-2,2.3196919E-2,6.356444E-2,2.7035354E-2,1.2729597E-1,7.366416E-2],"split_indices":[0,0,0,0,2,2,2,0,0,0,0,0,0,0,0],"split_type":[0,0,0,0,0,0,0,0,0,0,0,0,0,0,0],"sum_hessian":[3.2103E5,3.18067E5,2.963E3,3.10062E5,8.005E3,2.235E3,7.28E2,2.99079E5,1.0983E4,6.129E3,1.876E3,8.62E2,1.373E3,1.17E2,6.11E2],"tree_param":{"num_deleted":"0","num_feature":"3","num_nodes":"15","size_leaf_vector":"1"}},{"base_weights":[-1.4686216E-4,-1.0926788E-2,7.722155E-1,-1.6002735E-2,2.2752953E-1,5.8462024E-1,1.683354E0,-9.212447E-4,3.7065055E-3,9.735881E-3,2.1340713E-2,4.689547E-2,2.4844663E-2,8.987497E-2,3.8893934E-2],"categories":[],"categories_nodes":[],"categories_segments":[],"categories_sizes":[],"default_left":[0,0,0,0,0,0,0,0,0,0,0,0,0,0,0],"id":29,"left_children":[1,3,5,7,9,11,13,-1,-1,-1,-1,-1,-1,-1,-1],"loss_changes":[2.6735237E3,3.8333115E2,7.5056885E2,6.770418E1,4.2747803E1,1.1150708E2,7.073242E1,0E0,0E0,0E0,0E0,0E0,0E0,0E0,0E0],"parents":[2147483647,0,0,1,1,2,2,3,3,4,4,5,5,6,6],"right_children":[2,4,6,8,10,12,14,-1,-1,-1,-1,-1,-1,-1,-1],"split_conditions":[3.7868E4,1.5743E4,1.03884E5,8.011E3,1.4028125E2,1.3524374E2,1.3981876E2,-9.212447E-4,3.7065055E-3,9.735881E-3,2.1340713E-2,4.689547E-2,2.4844663E-2,8.987497E-2,3.8893934E-2],"split_indices":[0,0,0,0,1,1,1,0,0,0,0,0,0,0,0],"split_type":[0,0,0,0,0,0,0,0,0,0,0,0,0,0,0],"sum_hessian":[3.21095E5,3.1668E5,4.415E3,3.10084E5,6.596E3,3.668E3,7.47E2,3.01973E5,8.111E3,5.672E3,9.24E2,7.2E2,2.948E3,6.59E2,8.8E1],"tree_param":{"num_deleted":"0","num_feature":"3","num_nodes":"15","size_leaf_vector":"1"}},{"base_weights":[2.308061E-4,-1.0933099E-2,7.942147E-1,-1.7253751E-2,1.4278296E-1,6.2709016E-1,1.5979109E0,-9.76796E-4,5.467007E-4,4.295695E-3,1.237993E-2,5.4231245E-2,2.5799528E-2,1.154322E-1,6.1452415E-2],"categories":[],"categories_nodes":[],"categories_segments":[],"categories_sizes":[],"default_left":[0,0,0,0,0,0,0,0,0,0,0,0,0,0,0],"id":30,"left_children":[1,3,5,7,9,11,13,-1,-1,-1,-1,-1,-1,-1,-1],"loss_changes":[2.8454106E3,3.0757553E2,5.928367E2,1.9561012E1,7.442111E1,1.8492395E2,1.858429E2,0E0,0E0,0E0,0E0,0E0,0E0,0E0,0E0],"parents":[2147483647,0,0,1,1,2,2,3,3,4,4,5,5,6,6],"right_children":[2,4,6,8,10,12,14,-1,-1,-1,-1,-1,-1,-1,-1],"split_conditions":[3.7868E4,9.434E3,1.03884E5,2.579E3,1.9879E4,1.3524374E2,1.3698125E2,-9.76796E-4,5.467007E-4,4.295695E-3,1.237993E-2,5.4231245E-2,2.5799528E-2,1.154322E-1,6.1452415E-2],"split_indices":[0,0,0,0,0,1,1,0,0,0,0,0,0,0,0],"split_type":[0,0,0,0,0,0,0,0,0,0,0,0,0,0,0],"sum_hessian":[3.20999E5,3.16553E5,4.446E3,3.04055E5,1.2498E4,3.688E3,7.58E2,2.81283E5,2.2772E4,8.108E3,4.39E3,7.12E2,2.976E3,2.5E2,5.08E2],"tree_param":{"num_deleted":"0","num_feature":"3","num_nodes":"15","size_leaf_vector":"1"}},{"base_weights":[-3.9587554E-5,-7.0528476E-3,1.004942E0,-1.3424159E-2,2.9261452E-1,1.3797984E0,7.713953E-1,-8.039083E-4,4.869149E-3,1.2078118E-2,3.3704408E-2,1.4430431E-2,7.4430086E-2,1.6570685E-2,6.2337875E-2],"categories":[],"categories_nodes":[],"categories_segments":[],"categories_sizes":[],"default_left":[0,0,0,0,0,0,0,0,0,0,0,0,0,0,0],"id":31,"left_children":[1,3,5,7,9,11,13,-1,-1,-1,-1,-1,-1,-1,-1],"loss_changes":[2.2608718E3,6.0821893E2,1.8929395E2,9.173903E1,1.2834436E2,9.8411865E1,2.86771E2,0E0,0E0,0E0,0E0,0E0,0E0,0E0,0E0],"parents":[2147483647,0,0,1,1,2,2,3,3,4,4,5,5,6,6],"right_children":[2,4,6,8,10,12,14,-1,-1,-1,-1,-1,-1,-1,-1],"split_conditions":[6.2301E4,1.9879E4,1.3698125E2,9.999E3,1.4030624E2,1.3050626E2,1.3965625E2,-8.039083E-4,4.869149E-3,1.2078118E-2,3.3704408E-2,1.4430431E-2,7.4430086E-2,1.6570685E-2,6.2337875E-2],"split_indices":[0,0,1,0,1,1,1,0,0,0,0,0,0,0,0],"split_type":[0,0,0,0,0,0,0,0,0,0,0,0,0,0,0],"sum_hessian":[3.20763E5,3.18545E5,2.218E3,3.11918E5,6.627E3,8.42E2,1.376E3,3.04626E5,7.292E3,5.852E3,7.75E2,7.8E1,7.64E2,7.19E2,6.57E2],"tree_param":{"num_deleted":"0","num_feature":"3","num_nodes":"15","size_leaf_vector":"1"}},{"base_weights":[-2.5336544E-6,4.2355736E-3,-3.6761048E-3,1.5258284E-3,1.0742816E-1,-5.1404737E-2,-2.5407653E-3,2.4481092E-4,-8.111605E-4,-1.0623237E-3,2.591135E-2,-1.3656081E-3,-5.2396203E-3,1.2623318E-5,-2.8408246E-4],"categories":[],"categories_nodes":[],"categories_segments":[],"categories_sizes":[],"default_left":[0,0,0,0,0,0,0,0,0,0,0,0,0,0,0],"id":32,"left_children":[1,3,5,7,9,11,13,-1,-1,-1,-1,-1,-1,-1,-1],"loss_changes":[4.9876347E0,4.159321E1,9.298477E0,8.671356E0,2.0123788E2,5.1139536E0,1.4706265E0,0E0,0E0,0E0,0E0,0E0,0E0,0E0,0E0],"parents":[2147483647,0,0,1,1,2,2,3,3,4,4,5,5,6,6],"right_children":[2,4,6,8,10,12,14,-1,-1,-1,-1,-1,-1,-1,-1],"split_conditions":[3.5770832E1,3.5670834E1,3.5895832E1,1.3698125E2,1.3955624E2,1.3925626E2,4.0870834E1,2.4481092E-4,-8.111605E-4,-1.0623237E-3,2.591135E-2,-1.3656081E-3,-5.2396203E-3,1.2623318E-5,-2.8408246E-4],"split_indices":[2,2,2,1,1,1,2,0,0,0,0,0,0,0,0],"split_type":[0,0,0,0,0,0,0,0,0,0,0,0,0,0,0],"sum_hessian":[3.20347E5,1.48744E5,1.71603E5,1.44943E5,3.801E3,3.982E3,1.67621E5,1.21815E5,2.3128E4,2.898E3,9.03E2,2.749E3,1.233E3,8.8723E4,7.8898E4],"tree_param":{"num_deleted":"0","num_feature":"3","num_nodes":"15","size_leaf_vector":"1"}},{"base_weights":[1.9803641E-5,-6.7391098E-3,9.7924846E-1,-1.258686E-2,2.7098876E-1,7.4718046E-1,1.4250491E0,-7.888065E-4,4.026142E-3,1.1355735E-2,2.973043E-2,5.5420317E-2,2.4405787E-2,9.771325E-2,5.8255583E-2],"categories":[],"categories_nodes":[],"categories_segments":[],"categories_sizes":[],"default_left":[0,0,0,0,0,0,0,0,0,0,0,0,0,0,0],"id":33,"left_children":[1,3,5,7,9,11,13,-1,-1,-1,-1,-1,-1,-1,-1],"loss_changes":[2.1250815E3,5.1790466E2,2.2238281E2,9.274711E1,9.269418E1,1.3373578E2,9.151245E1,0E0,0E0,0E0,0E0,0E0,0E0,0E0,0E0],"parents":[2147483647,0,0,1,1,2,2,3,3,4,4,5,5,6,6],"right_children":[2,4,6,8,10,12,14,-1,-1,-1,-1,-1,-1,-1,-1],"split_conditions":[6.2301E4,1.9879E4,1.03884E5,8.011E3,1.4030624E2,1.3698125E2,1.3579375E2,-7.888065E-4,4.026142E-3,1.1355735E-2,2.973043E-2,5.5420317E-2,2.4405787E-2,9.771325E-2,5.8255583E-2],"split_indices":[0,0,0,0,1,1,1,0,0,0,0,0,0,0,0],"split_type":[0,0,0,0,0,0,0,0,0,0,0,0,0,0,0],"sum_hessian":[3.21071E5,3.18875E5,2.196E3,3.12304E5,6.571E3,1.453E3,7.43E2,3.01965E5,1.0339E4,5.794E3,7.77E2,6E2,8.53E2,2.34E2,5.09E2],"tree_param":{"num_deleted":"0","num_feature":"3","num_nodes":"15","size_leaf_vector":"1"}},{"base_weights":[6.919434E-4,6.8578343E-3,-2.6558407E-3,1.8135845E-3,9.197772E-2,-3.3013597E-2,-1.1162382E-3,2.0322976E-4,-4.831281E-4,-1.546417E-3,1.0351541E-2,-1.1820147E-3,-2.176456E-3,6.5622426E-4,-1.6543469E-4],"categories":[],"categories_nodes":[],"categories_segments":[],"categories_sizes":[],"default_left":[0,0,0,0,0,0,0,0,0,0,0,0,0,0,0],"id":34,"left_children":[1,3,5,7,9,11,13,-1,-1,-1,-1,-1,-1,-1,-1],"loss_changes":[6.6310263E0,4.8535126E1,9.730758E0,2.7571385E0,8.945796E1,9.853363E-1,6.187011E0,0E0,0E0,0E0,0E0,0E0,0E0,0E0,0E0],"parents":[2147483647,0,0,1,1,2,2,3,3,4,4,5,5,6,6],"right_children":[2,4,6,8,10,12,14,-1,-1,-1,-1,-1,-1,-1,-1],"split_conditions":[1.3588126E2,1.3541875E2,3.47125E1,3.4820835E1,3.45125E1,1.3733125E2,3.57375E1,2.0322976E-4,-4.831281E-4,-1.546417E-3,1.0351541E-2,-1.1820147E-3,-2.176456E-3,6.5622426E-4,-1.6543469E-4],"split_indices":[1,1,2,2,2,1,2,0,0,0,0,0,0,0,0],"split_type":[0,0,0,0,0,0,0,0,0,0,0,0,0,0,0],"sum_hessian":[3.21229E5,1.13036E5,2.08193E5,1.06717E5,6.319E3,1.0044E4,1.98149E5,8.922E4,1.7497E4,3.057E3,3.262E3,5.319E3,4.725E3,2.6433E4,1.71716E5],"tree_param":{"num_deleted":"0","num_feature":"3","num_nodes":"15","size_leaf_vector":"1"}},{"base_weights":[1.5202467E-4,-1.02113625E-2,5.569304E-1,-1.46108195E-2,1.0306449E-1,3.853705E-1,1.0604928E0,-8.443499E-4,8.3660724E-4,9.117355E-3,3.6769584E-3,1.6402816E-2,4.5641005E-2,7.940535E-2,3.848251E-2],"categories":[],"categories_nodes":[],"categories_segments":[],"categories_sizes":[],"default_left":[0,0,0,0,0,0,0,0,0,0,0,0,0,0,0],"id":35,"left_children":[1,3,5,7,9,11,13,-1,-1,-1,-1,-1,-1,-1,-1],"loss_changes":[1.8488468E3,1.5677069E2,5.0377637E2,2.1604324E1,2.746363E1,1.307605E2,2.2176575E2,0E0,0E0,0E0,0E0,0E0,0E0,0E0,0E0],"parents":[2147483647,0,0,1,1,2,2,3,3,4,4,5,5,6,6],"right_children":[2,4,6,8,10,12,14,-1,-1,-1,-1,-1,-1,-1,-1],"split_conditions":[2.9348E4,8.917E3,7.8639E4,2.75E3,1.3466875E2,1.4030624E2,1.3691875E2,-8.443499E-4,8.3660724E-4,9.117355E-3,3.6769584E-3,1.6402816E-2,4.5641005E-2,7.940535E-2,3.848251E-2],"split_indices":[0,0,0,0,1,1,1,0,0,0,0,0,0,0,0],"split_type":[0,0,0,0,0,0,0,0,0,0,0,0,0,0,0],"sum_hessian":[3.20408E5,3.14558E5,5.85E3,3.02802E5,1.1756E4,4.37E3,1.48E3,2.82303E5,2.0499E4,3.183E3,8.573E3,3.949E3,4.21E2,5.18E2,9.62E2],"tree_param":{"num_deleted":"0","num_feature":"3","num_nodes":"15","size_leaf_vector":"1"}},{"base_weights":[3.336424E-4,-6.992555E-3,8.0150026E-1,-1.2278945E-2,1.9632404E-1,1.4937885E0,6.122641E-1,-7.9799443E-4,1.2960043E-3,7.259894E-3,1.667099E-2,5.4131187E-2,1.0294372E-1,2.2280047E-2,5.248121E-2],"categories":[],"categories_nodes":[],"categories_segments":[],"categories_sizes":[],"default_left":[0,0,0,0,0,0,0,0,0,0,0,0,0,0,0],"id":36,"left_children":[1,3,5,7,9,11,13,-1,-1,-1,-1,-1,-1,-1,-1],"loss_changes":[1.8842682E3,3.4192874E2,3.7652344E2,4.3599266E1,5.626596E1,1.3314026E2,1.648023E2,0E0,0E0,0E0,0E0,0E0,0E0,0E0,0E0],"parents":[2147483647,0,0,1,1,2,2,3,3,4,4,5,5,6,6],"right_children":[2,4,6,8,10,12,14,-1,-1,-1,-1,-1,-1,-1,-1],"split_conditions":[5.1374E4,1.5743E4,3.47125E1,2.75E3,3.6054165E1,7.8639E4,1.03884E5,-7.9799443E-4,1.2960043E-3,7.259894E-3,1.667099E-2,5.4131187E-2,1.0294372E-1,2.2280047E-2,5.248121E-2],"split_indices":[0,0,2,0,2,0,0,0,0,0,0,0,0,0,0],"split_type":[0,0,0,0,0,0,0,0,0,0,0,0,0,0,0],"sum_hessian":[3.21017E5,3.18113E5,2.904E3,3.10056E5,8.057E3,6.16E2,2.288E3,2.82807E5,2.7249E4,5.876E3,2.181E3,3.65E2,2.51E2,1.664E3,6.24E2],"tree_param":{"num_deleted":"0","num_feature":"3","num_nodes":"15","size_leaf_vector":"1"}},{"base_weights":[3.8130803E-4,-7.272469E-3,6.644532E-1,-1.1825939E-2,1.8453951E-1,4.276163E-1,1.0125686E0,-7.2927884E-4,1.8118749E-3,7.7720466E-3,1.830167E-2,3.2774076E-2,7.6657156E-3,7.0049904E-2,4.0146947E-2],"categories":[],"categories_nodes":[],"categories_segments":[],"categories_sizes":[],"default_left":[0,0,0,0,0,0,0,0,0,0,0,0,0,0,0],"id":37,"left_children":[1,3,5,7,9,11,13,-1,-1,-1,-1,-1,-1,-1,-1],"loss_changes":[1.6312931E3,2.7714044E2,2.9934216E2,4.1112747E1,3.8574677E1,1.3606851E2,1.1464209E2,0E0,0E0,0E0,0E0,0E0,0E0,0E0,0E0],"parents":[2147483647,0,0,1,1,2,2,3,3,4,4,5,5,6,6],"right_children":[2,4,6,8,10,12,14,-1,-1,-1,-1,-1,-1,-1,-1],"split_conditions":[4.3574E4,1.5743E4,7.8639E4,4.593E3,1.4028125E2,1.3920625E2,1.3691875E2,-7.2927884E-4,1.8118749E-3,7.7720466E-3,1.830167E-2,3.2774076E-2,7.6657156E-3,7.0049904E-2,4.0146947E-2],"split_indices":[0,0,0,0,1,1,1,0,0,0,0,0,0,0,0],"split_type":[0,0,0,0,0,0,0,0,0,0,0,0,0,0,0],"sum_hessian":[3.20943E5,3.17291E5,3.652E3,3.09938E5,7.353E3,2.18E3,1.472E3,2.93112E5,1.6826E4,6.345E3,1.008E3,1.187E3,9.93E2,5.06E2,9.66E2],"tree_param":{"num_deleted":"0","num_feature":"3","num_nodes":"15","size_leaf_vector":"1"}},{"base_weights":[-1.3784637E-3,3.7202986E-3,-4.138515E-3,-3.4629076E-4,7.243839E-2,-2.4441263E-2,-1.6108027E-3,2.5534764E-5,-1.8473327E-3,-1.3021238E-3,8.615689E-3,-1.0273496E-3,-3.2142345E-3,-5.506295E-4,9.384603E-5],"categories":[],"categories_nodes":[],"categories_segments":[],"categories_sizes":[],"default_left":[0,0,0,0,0,0,0,0,0,0,0,0,0,0,0],"id":38,"left_children":[1,3,5,7,9,11,13,-1,-1,-1,-1,-1,-1,-1,-1],"loss_changes":[4.520374E0,3.152524E1,1.0694786E1,3.3410125E0,6.2017574E1,3.5734272E0,6.0772943E0,0E0,0E0,0E0,0E0,0E0,0E0,0E0,0E0],"parents":[2147483647,0,0,1,1,2,2,3,3,4,4,5,5,6,6],"right_children":[2,4,6,8,10,12,14,-1,-1,-1,-1,-1,-1,-1,-1],"split_conditions":[1.3588126E2,1.3541875E2,3.5270832E1,1.3524374E2,3.4545834E1,3.5195835E1,1.3960625E2,2.5534764E-5,-1.8473327E-3,-1.3021238E-3,8.615689E-3,-1.0273496E-3,-3.2142345E-3,-5.506295E-4,9.384603E-5],"split_indices":[1,1,2,1,2,2,1,0,0,0,0,0,0,0,0],"split_type":[0,0,0,0,0,0,0,0,0,0,0,0,0,0,0],"sum_hessian":[3.21202E5,1.12807E5,2.08395E5,1.06509E5,6.298E3,2.3068E4,1.85327E5,1.04077E5,2.432E3,3.173E3,3.125E3,2.1021E4,2.047E3,5.0144E4,1.35183E5],"tree_param":{"num_deleted":"0","num_feature":"3","num_nodes":"15","size_leaf_vector":"1"}},{"base_weights":[-7.620687E-4,-6.0543288E-3,7.5164306E-1,-1.2009487E-2,1.6065545E-1,1.0890238E0,5.618922E-1,-7.2116655E-4,7.7009085E-4,1.53822275E-2,5.8049704E-3,4.7103606E-2,9.341426E-2,7.383329E-3,4.3854848E-2],"categories":[],"categories_nodes":[],"categories_segments":[],"categories_sizes":[],"default_left":[0,0,0,0,0,0,0,0,0,0,0,0,0,0,0],"id":39,"left_children":[1,3,5,7,9,11,13,-1,-1,-1,-1,-1,-1,-1,-1],"loss_changes":[1.2770137E3,3.1617337E2,1.4034143E2,2.0346218E1,7.175839E1,8.292517E1,1.8788956E2,0E0,0E0,0E0,0E0,0E0,0E0,0E0,0E0],"parents":[2147483647,0,0,1,1,2,2,3,3,4,4,5,5,6,6],"right_children":[2,4,6,8,10,12,14,-1,-1,-1,-1,-1,-1,-1,-1],"split_conditions":[6.2301E4,1.2757E4,1.3691875E2,2.75E3,1.3455624E2,1.3569376E2,1.3960625E2,-7.2116655E-4,7.7009085E-4,1.53822275E-2,5.8049704E-3,4.7103606E-2,9.341426E-2,7.383329E-3,4.3854848E-2],"split_indices":[0,0,1,0,1,1,1,0,0,0,0,0,0,0,0],"split_type":[0,0,0,0,0,0,0,0,0,0,0,0,0,0,0],"sum_hessian":[3.20692E5,3.18457E5,2.235E3,3.07478E5,1.0979E4,7.96E2,1.439E3,2.82595E5,2.4883E4,2.547E3,8.432E3,6.79E2,1.17E2,6.25E2,8.14E2],"tree_param":{"num_deleted":"0","num_feature":"3","num_nodes":"15","size_leaf_vector":"1"}},{"base_weights":[7.138221E-5,-8.350226E-3,4.4822055E-1,-1.1880237E-2,8.906892E-2,3.3393648E-1,7.838693E-1,-6.8902713E-4,5.481535E-4,9.042483E-3,2.8020644E-3,1.3976546E-2,4.156989E-2,9.545656E-2,3.5521355E-2],"categories":[],"categories_nodes":[],"categories_segments":[],"categories_sizes":[],"default_left":[0,0,0,0,0,0,0,0,0,0,0,0,0,0,0],"id":40,"left_children":[1,3,5,7,9,11,13,-1,-1,-1,-1,-1,-1,-1,-1],"loss_changes":[1.2121205E3,1.0841371E2,2.2593176E2,1.3206818E1,3.336638E1,1.1868033E2,1.17263855E2,0E0,0E0,0E0,0E0,0E0,0E0,0E0,0E0],"parents":[2147483647,0,0,1,1,2,2,3,3,4,4,5,5,6,6],"right_children":[2,4,6,8,10,12,14,-1,-1,-1,-1,-1,-1,-1,-1],"split_conditions":[2.9348E4,9.434E3,7.8639E4,2.5E3,1.3455624E2,1.4028125E2,1.3524374E2,-6.8902713E-4,5.481535E-4,9.042483E-3,2.8020644E-3,1.3976546E-2,4.156989E-2,9.545656E-2,3.5521355E-2],"split_indices":[0,0,0,0,1,1,1,0,0,0,0,0,0,0,0],"split_type":[0,0,0,0,0,0,0,0,0,0,0,0,0,0,0],"sum_hessian":[3.21155E5,3.15236E5,5.919E3,3.04217E5,1.1019E4,4.423E3,1.496E3,2.80855E5,2.3362E4,2.91E3,8.109E3,3.994E3,4.29E2,8.4E1,1.412E3],"tree_param":{"num_deleted":"0","num_feature":"3","num_nodes":"15","size_leaf_vector":"1"}},{"base_weights":[-2.7222777E-4,-8.225011E-3,4.3047005E-1,-1.1413793E-2,8.020958E-2,3.0846342E-1,8.0567545E-1,-6.549133E-4,5.461676E-4,8.563857E-3,2.3799052E-3,3.3520184E-2,1.1486866E-2,6.634252E-2,2.645796E-2],"categories":[],"categories_nodes":[],"categories_segments":[],"categories_sizes":[],"default_left":[0,0,0,0,0,0,0,0,0,0,0,0,0,0,0],"id":41,"left_children":[1,3,5,7,9,11,13,-1,-1,-1,-1,-1,-1,-1,-1],"loss_changes":[1.1005294E3,8.89588E1,2.6536584E2,1.1456726E1,3.25652E1,1.2468973E2,2.01995E2,0E0,0E0,0E0,0E0,0E0,0E0,0E0,0E0],"parents":[2147483647,0,0,1,1,2,2,3,3,4,4,5,5,6,6],"right_children":[2,4,6,8,10,12,14,-1,-1,-1,-1,-1,-1,-1,-1],"split_conditions":[2.9348E4,9.434E3,7.8639E4,2.75E3,1.3455624E2,1.3455624E2,1.3691875E2,-6.549133E-4,5.461676E-4,8.563857E-3,2.3799052E-3,3.3520184E-2,1.1486866E-2,6.634252E-2,2.645796E-2],"split_indices":[0,0,0,0,1,1,1,0,0,0,0,0,0,0,0],"split_type":[0,0,0,0,0,0,0,0,0,0,0,0,0,0,0],"sum_hessian":[3.21256E5,3.15437E5,5.819E3,3.04463E5,1.0974E4,4.398E3,1.421E3,2.83115E5,2.1348E4,2.888E3,8.086E3,7.79E2,3.619E3,4.86E2,9.35E2],"tree_param":{"num_deleted":"0","num_feature":"3","num_nodes":"15","size_leaf_vector":"1"}},{"base_weights":[4.2982106E-4,-5.2778227E-3,6.10227E-1,-9.446399E-3,1.54462E-1,4.2017627E-1,1.1630882E0,-6.026007E-4,1.2978753E-3,6.3287406E-3,1.702409E-2,5.207772E-2,1.5086981E-2,6.2686354E-2,1.1272985E-2],"categories":[],"categories_nodes":[],"categories_segments":[],"categories_sizes":[],"default_left":[0,0,0,0,0,0,0,0,0,0,0,0,0,0,0],"id":42,"left_children":[1,3,5,7,9,11,13,-1,-1,-1,-1,-1,-1,-1,-1],"loss_changes":[1.1177421E3,2.1187012E2,3.1045996E2,2.8606009E1,4.17623E1,1.621016E2,6.3090576E1,0E0,0E0,0E0,0E0,0E0,0E0,0E0,0E0],"parents":[2147483647,0,0,1,1,2,2,3,3,4,4,5,5,6,6],"right_children":[2,4,6,8,10,12,14,-1,-1,-1,-1,-1,-1,-1,-1],"split_conditions":[5.1374E4,1.5743E4,1.03884E5,3.641E3,1.4030624E2,1.3524374E2,1.3985625E2,-6.026007E-4,1.2978753E-3,6.3287406E-3,1.702409E-2,5.207772E-2,1.5086981E-2,6.2686354E-2,1.1272985E-2],"split_indices":[0,0,0,0,1,1,1,0,0,0,0,0,0,0,0],"split_type":[0,0,0,0,0,0,0,0,0,0,0,0,0,0,0],"sum_hessian":[3.21134E5,3.18161E5,2.973E3,3.10074E5,8.087E3,2.219E3,7.54E2,2.88821E5,2.1253E4,7.04E3,1.047E3,3.49E2,1.87E3,6.86E2,6.8E1],"tree_param":{"num_deleted":"0","num_feature":"3","num_nodes":"15","size_leaf_vector":"1"}},{"base_weights":[2.5816678E-4,-4.324689E-3,6.7370313E-1,-8.251531E-3,1.802555E-1,4.8031875E-1,1.0636E0,-5.2057515E-4,2.7655705E-3,1.8573632E-2,6.468097E-3,3.858116E-2,1.1434897E-2,6.1368626E-2,-6.432462E-3],"categories":[],"categories_nodes":[],"categories_segments":[],"categories_sizes":[],"default_left":[0,0,0,0,0,0,0,0,0,0,0,0,0,0,0],"id":43,"left_children":[1,3,5,7,9,11,13,-1,-1,-1,-1,-1,-1,-1,-1],"loss_changes":[9.9176666E2,2.3134953E2,1.6121436E2,4.2911278E1,6.446596E1,1.0620636E2,1.4059393E2,0E0,0E0,0E0,0E0,0E0,0E0,0E0,0E0],"parents":[2147483647,0,0,1,1,2,2,3,3,4,4,5,5,6,6],"right_children":[2,4,6,8,10,12,14,-1,-1,-1,-1,-1,-1,-1,-1],"split_conditions":[6.2301E4,1.9879E4,1.03884E5,8.011E3,1.3455624E2,1.3936874E2,1.3981876E2,-5.2057515E-4,2.7655705E-3,1.8573632E-2,6.468097E-3,3.858116E-2,1.1434897E-2,6.1368626E-2,-6.432462E-3],"split_indices":[0,0,0,0,1,1,1,0,0,0,0,0,0,0,0],"split_type":[0,0,0,0,0,0,0,0,0,0,0,0,0,0,0],"sum_hessian":[3.21335E5,3.19168E5,2.167E3,3.12524E5,6.644E3,1.456E3,7.11E2,3.02257E5,1.0267E4,1.39E3,5.254E3,6.7E2,7.86E2,6.25E2,8.6E1],"tree_param":{"num_deleted":"0","num_feature":"3","num_nodes":"15","size_leaf_vector":"1"}},{"base_weights":[-3.7262865E-4,-5.571009E-3,4.5081833E-1,-9.385797E-3,8.814373E-2,3.4401137E-1,8.689503E-1,-5.615683E-4,7.1409275E-4,3.5283212E-3,1.0599697E-2,3.938688E-2,1.257231E-2,2.907295E-2,7.416389E-2],"categories":[],"categories_nodes":[],"categories_segments":[],"categories_sizes":[],"default_left":[0,0,0,0,0,0,0,0,0,0,0,0,0,0,0],"id":44,"left_children":[1,3,5,7,9,11,13,-1,-1,-1,-1,-1,-1,-1,-1],"loss_changes":[7.5325073E2,1.1350884E2,1.6186938E2,1.3326784E1,2.6960777E1,1.190267E2,1.2655847E2,0E0,0E0,0E0,0E0,0E0,0E0,0E0,0E0],"parents":[2147483647,0,0,1,1,2,2,3,3,4,4,5,5,6,6],"right_children":[2,4,6,8,10,12,14,-1,-1,-1,-1,-1,-1,-1,-1],"split_conditions":[4.3574E4,9.999E3,1.03884E5,2.75E3,1.4040625E2,1.3524374E2,1.3969376E2,-5.615683E-4,7.1409275E-4,3.5283212E-3,1.0599697E-2,3.938688E-2,1.257231E-2,2.907295E-2,7.416389E-2],"split_indices":[0,0,0,0,1,1,1,0,0,0,0,0,0,0,0],"split_type":[0,0,0,0,0,0,0,0,0,0,0,0,0,0,0],"sum_hessian":[3.21142E5,3.17489E5,3.653E3,3.05075E5,1.2414E4,2.917E3,7.36E2,2.83009E5,2.2066E4,1.0878E4,1.536E3,4.97E2,2.42E3,5.08E2,2.28E2],"tree_param":{"num_deleted":"0","num_feature":"3","num_nodes":"15","size_leaf_vector":"1"}},{"base_weights":[4.49303E-4,-3.8293854E-3,6.254522E-1,-8.140752E-3,1.4860848E-1,9.978414E-1,4.2641178E-1,-5.2307994E-4,1.1110742E-3,5.0850622E-3,1.4854609E-2,3.897806E-2,1.5259801E-1,1.4659765E-2,3.3819687E-2],"categories":[],"categories_nodes":[],"categories_segments":[],"categories_sizes":[],"default_left":[0,0,0,0,0,0,0,0,0,0,0,0,0,0,0],"id":45,"left_children":[1,3,5,7,9,11,13,-1,-1,-1,-1,-1,-1,-1,-1],"loss_changes":[8.589733E2,2.0967426E2,1.5975177E2,2.1863617E1,6.096643E1,3.2752277E2,4.6696472E1,0E0,0E0,0E0,0E0,0E0,0E0,0E0,0E0],"parents":[2147483647,0,0,1,1,2,2,3,3,4,4,5,5,6,6],"right_children":[2,4,6,8,10,12,14,-1,-1,-1,-1,-1,-1,-1,-1],"split_conditions":[6.2301E4,1.5743E4,3.50625E1,3.512E3,3.6170834E1,3.4954166E1,1.03884E5,-5.2307994E-4,1.1110742E-3,5.0850622E-3,1.4854609E-2,3.897806E-2,1.5259801E-1,1.4659765E-2,3.3819687E-2],"split_indices":[0,0,2,0,2,2,0,0,0,0,0,0,0,0,0],"split_type":[0,0,0,0,0,0,0,0,0,0,0,0,0,0,0],"sum_hessian":[3.21199E5,3.1902E5,2.179E3,3.1025E5,8.77E3,7.52E2,1.427E3,2.88222E5,2.2028E4,6.671E3,2.099E3,6.86E2,6.6E1,9.38E2,4.89E2],"tree_param":{"num_deleted":"0","num_feature":"3","num_nodes":"15","size_leaf_vector":"1"}},{"base_weights":[1.0723147E-3,-3.8546051E-3,5.3938466E-1,-6.9106435E-3,1.5842924E-1,4.0256116E-1,9.535207E-1,-4.8105005E-4,1.6481614E-3,4.6977857E-3,1.7465876E-2,4.9762886E-2,1.619911E-2,5.2771997E-2,-1.1040603E-3],"categories":[],"categories_nodes":[],"categories_segments":[],"categories_sizes":[],"default_left":[0,0,0,0,0,0,0,0,0,0,0,0,0,0,0],"id":46,"left_children":[1,3,5,7,9,11,13,-1,-1,-1,-1,-1,-1,-1,-1],"loss_changes":[8.521481E2,1.5790614E2,1.6319824E2,3.377455E1,7.226401E1,1.0080292E2,7.170801E1,0E0,0E0,0E0,0E0,0E0,0E0,0E0,0E0],"parents":[2147483647,0,0,1,1,2,2,3,3,4,4,5,5,6,6],"right_children":[2,4,6,8,10,12,14,-1,-1,-1,-1,-1,-1,-1,-1],"split_conditions":[5.1374E4,1.9879E4,1.03884E5,4.405E3,3.6054165E1,3.44125E1,3.5770832E1,-4.8105005E-4,1.6481614E-3,4.6977857E-3,1.7465876E-2,4.9762886E-2,1.619911E-2,5.2771997E-2,-1.1040603E-3],"split_indices":[0,0,0,0,2,2,2,0,0,0,0,0,0,0,0],"split_type":[0,0,0,0,0,0,0,0,0,0,0,0,0,0,0],"sum_hessian":[3.21287E5,3.18378E5,2.909E3,3.12498E5,5.88E3,2.194E3,7.15E2,2.92612E5,1.9886E4,4.401E3,1.479E3,2.5E2,1.944E3,6.47E2,6.8E1],"tree_param":{"num_deleted":"0","num_feature":"3","num_nodes":"15","size_leaf_vector":"1"}},{"base_weights":[-2.9146365E-6,-4.883603E-3,4.2212674E-1,-7.398111E-3,1.1458617E-1,6.7915756E-1,2.5306395E-1,-4.462678E-4,1.5976973E-3,1.4367073E-2,3.255747E-3,2.351058E-2,5.4354686E-2,-5.029174E-3,2.9886393E-2],"categories":[],"categories_nodes":[],"categories_segments":[],"categories_sizes":[],"default_left":[0,0,0,0,0,0,0,0,0,0,0,0,0,0,0],"id":47,"left_children":[1,3,5,7,9,11,13,-1,-1,-1,-1,-1,-1,-1,-1],"loss_changes":[6.609904E2,9.528093E1,1.5848767E2,1.8670063E1,5.5782913E1,1.212077E2,2.7089526E2,0E0,0E0,0E0,0E0,0E0,0E0,0E0,0E0],"parents":[2147483647,0,0,1,1,2,2,3,3,4,4,5,5,6,6],"right_children":[2,4,6,8,10,12,14,-1,-1,-1,-1,-1,-1,-1,-1],"split_conditions":[4.3574E4,1.696E4,1.3691875E2,6.532E3,1.3455624E2,7.8639E4,1.3960625E2,-4.462678E-4,1.5976973E-3,1.4367073E-2,3.255747E-3,2.351058E-2,5.4354686E-2,-5.029174E-3,2.9886393E-2],"split_indices":[0,0,1,0,1,0,1,0,0,0,0,0,0,0,0],"split_type":[0,0,0,0,0,0,0,0,0,0,0,0,0,0,0],"sum_hessian":[3.20815E5,3.17153E5,3.662E3,3.1062E5,6.533E3,1.447E3,2.215E3,2.99019E5,1.1601E4,1.449E3,5.084E3,9.64E2,4.83E2,1.095E3,1.12E3],"tree_param":{"num_deleted":"0","num_feature":"3","num_nodes":"15","size_leaf_vector":"1"}},{"base_weights":[2.1633186E-4,-3.542926E-3,4.6097804E-3,-5.082835E-4,-3.1135207E-2,8.968737E-3,2.2812267E-3,1.4005556E-4,-4.5794234E-4,-5.1408843E-3,-3.032431E-4,1.5712058E-4,9.142354E-4,-1.7123348E-4,1.4257031E-4],"categories":[],"categories_nodes":[],"categories_segments":[],"categories_sizes":[],"default_left":[0,0,0,0,0,0,0,0,0,0,0,0,0,0,0],"id":48,"left_children":[1,3,5,7,9,11,13,-1,-1,-1,-1,-1,-1,-1,-1],"loss_changes":[5.294551E0,1.4464998E1,1.5002396E0,4.4558387E0,3.075792E1,2.793232E0,3.1352544E-1,0E0,0E0,0E0,0E0,0E0,0E0,0E0,0E0],"parents":[2147483647,0,0,1,1,2,2,3,3,4,4,5,5,6,6],"right_children":[2,4,6,8,10,12,14,-1,-1,-1,-1,-1,-1,-1,-1],"split_conditions":[3.6554165E1,1.3920625E2,3.94625E1,1.3588126E2,1.3960625E2,1.4025626E2,4.0104168E1,1.4005556E-4,-4.5794234E-4,-5.1408843E-3,-3.032431E-4,1.5712058E-4,9.142354E-4,-1.7123348E-4,1.4257031E-4],"split_indices":[2,1,2,1,1,1,2,0,0,0,0,0,0,0,0],"split_type":[0,0,0,0,0,0,0,0,0,0,0,0,0,0,0],"sum_hessian":[3.20559E5,1.72748E5,1.47811E5,1.55636E5,1.7112E4,5.1462E4,9.6349E4,1.12573E5,4.3063E4,4.43E3,1.2682E4,3.1665E4,1.9797E4,8.751E3,8.7598E4],"tree_param":{"num_deleted":"0","num_feature":"3","num_nodes":"15","size_leaf_vector":"1"}},{"base_weights":[1.7799644E-4,-5.650007E-3,3.5736296E-1,-7.796584E-3,5.4203354E-2,2.820326E-1,8.08349E-1,-7.275633E-4,-1.3606655E-5,1.3839713E-3,6.3814516E-3,1.0850681E-2,3.3593457E-2,7.540547E-2,3.0725295E-2],"categories":[],"categories_nodes":[],"categories_segments":[],"categories_sizes":[],"default_left":[0,0,0,0,0,0,0,0,0,0,0,0,0,0,0],"id":49,"left_children":[1,3,5,7,9,11,13,-1,-1,-1,-1,-1,-1,-1,-1],"loss_changes":[6.68282E2,4.0585938E1,1.739566E2,1.5498894E1,2.1282555E1,1.1140512E2,9.506445E1,0E0,0E0,0E0,0E0,0E0,0E0,0E0,0E0],"parents":[2147483647,0,0,1,1,2,2,3,3,4,4,5,5,6,6],"right_children":[2,4,6,8,10,12,14,-1,-1,-1,-1,-1,-1,-1,-1],"split_conditions":[3.3022E4,9.999E3,1.03884E5,3.6604168E1,3.62875E1,3.60125E1,3.47375E1,-7.275633E-4,-1.3606655E-5,1.3839713E-3,6.3814516E-3,1.0850681E-2,3.3593457E-2,7.540547E-2,3.0725295E-2],"split_indices":[0,0,0,2,2,2,2,0,0,0,0,0,0,0,0],"split_type":[0,0,0,0,0,0,0,0,0,0,0,0,0,0,0],"sum_hessian":[3.21021E5,3.15872E5,5.149E3,3.0494E5,1.0932E4,4.419E3,7.3E2,1.60687E5,1.44253E5,8.036E3,2.896E3,3.794E3,6.25E2,1.51E2,5.79E2],"tree_param":{"num_deleted":"0","num_feature":"3","num_nodes":"15","size_leaf_vector":"1"}},{"base_weights":[9.549802E-7,-3.720381E-3,3.8968667E-3,2.2090634E-3,-2.4210764E-2,1.6445579E-2,3.4844477E-3,1.635879E-4,-5.976769E-4,-8.3588687E-4,-2.3657172E-3,3.0209593E-4,1.0419446E-2,-8.5430726E-4,1.9865902E-4],"categories":[],"categories_nodes":[],"categories_segments":[],"categories_sizes":[],"default_left":[0,0,0,0,0,0,0,0,0,0,0,0,0,0,0],"id":50,"left_children":[1,3,5,7,9,11,13,-1,-1,-1,-1,-1,-1,-1,-1],"loss_changes":[4.6476374E0,1.9920727E1,8.102319E-1,1.9141095E0,6.3663597E0,9.942327E0,1.524805E0,0E0,0E0,0E0,0E0,0E0,0E0,0E0,0E0],"parents":[2147483647,0,0,1,1,2,2,3,3,4,4,5,5,6,6],"right_children":[2,4,6,8,10,12,14,-1,-1,-1,-1,-1,-1,-1,-1],"split_conditions":[3.6254166E1,1.3698125E2,3.6420834E1,3.5504166E1,1.3978125E2,1.4045625E2,3.6554165E1,1.635879E-4,-5.976769E-4,-8.3588687E-4,-2.3657172E-3,3.0209593E-4,1.0419446E-2,-8.5430726E-4,1.9865902E-4],"split_indices":[2,1,2,2,1,1,2,0,0,0,0,0,0,0,0],"split_type":[0,0,0,0,0,0,0,0,0,0,0,0,0,0,0],"sum_hessian":[3.20561E5,1.63954E5,1.56607E5,1.27161E5,3.6793E4,4.977E3,1.5163E5,1.18289E5,8.872E3,2.7789E4,9.004E3,4.726E3,2.51E2,3.515E3,1.48115E5],"tree_param":{"num_deleted":"0","num_feature":"3","num_nodes":"15","size_leaf_vector":"1"}},{"base_weights":[-2.4341306E-4,-3.0904436E-3,6.179429E-1,-6.671849E-3,1.4841785E-1,1.131186E0,5.039275E-1,-4.3837258E-4,9.561996E-4,1.6419416E-2,5.616026E-3,2.6355464E-2,1.3485312E-1,2.200509E-2,8.160224E-2],"categories":[],"categories_nodes":[],"categories_segments":[],"categories_sizes":[],"default_left":[0,0,0,0,0,0,0,0,0,0,0,0,0,0,0],"id":51,"left_children":[1,3,5,7,9,11,13,-1,-1,-1,-1,-1,-1,-1,-1],"loss_changes":[5.6397015E2,1.7308154E2,8.311218E1,1.6845688E1,4.7668457E1,2.4166599E2,8.360416E1,0E0,0E0,0E0,0E0,0E0,0E0,0E0,0E0],"parents":[2147483647,0,0,1,1,2,2,3,3,4,4,5,5,6,6],"right_children":[2,4,6,8,10,12,14,-1,-1,-1,-1,-1,-1,-1,-1],"split_conditions":[7.8639E4,1.9879E4,3.47125E1,3.641E3,3.4345833E1,3.46625E1,3.5895832E1,-4.3837258E-4,9.561996E-4,1.6419416E-2,5.616026E-3,2.6355464E-2,1.3485312E-1,2.200509E-2,8.160224E-2],"split_indices":[0,0,2,0,2,2,2,0,0,0,0,0,0,0,0],"split_type":[0,0,0,0,0,0,0,0,0,0,0,0,0,0,0],"sum_hessian":[3.20428E5,3.18964E5,1.464E3,3.11603E5,7.361E3,2.58E2,1.206E3,2.88194E5,2.3409E4,1.223E3,6.138E3,1.91E2,6.7E1,1.148E3,5.8E1],"tree_param":{"num_deleted":"0","num_feature":"3","num_nodes":"15","size_leaf_vector":"1"}},{"base_weights":[1.0309836E-3,-1.9390937E-3,4.715441E-3,9.520056E-4,-2.5007024E-2,8.211662E-3,1.8755675E-3,1.8379838E-5,1.9103868E-3,-4.227461E-3,-4.006139E-5,3.5362513E-4,1.3383782E-3,-9.228742E-5,1.6251845E-4],"categories":[],"categories_nodes":[],"categories_segments":[],"categories_sizes":[],"default_left":[0,0,0,0,0,0,0,0,0,0,0,0,0,0,0],"id":52,"left_children":[1,3,5,7,9,11,13,-1,-1,-1,-1,-1,-1,-1,-1],"loss_changes":[3.518172E0,1.1871638E1,1.4246199E0,3.444047E0,2.8572758E1,1.3584886E0,4.0514094E-1,0E0,0E0,0E0,0E0,0E0,0E0,0E0,0E0],"parents":[2147483647,0,0,1,1,2,2,3,3,4,4,5,5,6,6],"right_children":[2,4,6,8,10,12,14,-1,-1,-1,-1,-1,-1,-1,-1],"split_conditions":[3.6745834E1,1.3914375E2,4.0870834E1,1.3896875E2,1.3960625E2,4.0520832E1,1.4160625E2,1.8379838E-5,1.9103868E-3,-4.227461E-3,-4.006139E-5,3.5362513E-4,1.3383782E-3,-9.228742E-5,1.6251845E-4],"split_indices":[2,1,2,1,1,2,1,0,0,0,0,0,0,0,0],"split_type":[0,0,0,0,0,0,0,0,0,0,0,0,0,0,0],"sum_hessian":[3.21487E5,1.78001E5,1.43486E5,1.58181E5,1.982E4,6.4307E4,7.9179E4,1.55743E5,2.438E3,5.725E3,1.4095E4,6.0594E4,3.713E3,2.136E4,5.7819E4],"tree_param":{"num_deleted":"0","num_feature":"3","num_nodes":"15","size_leaf_vector":"1"}},{"base_weights":[2.1698196E-4,-2.1646356E-3,3.086895E-3,2.4208934E-3,-1.5093713E-2,5.8106193E-3,7.932131E-4,-2.5502613E-4,2.458799E-4,-1.4614054E-3,-8.119865E-5,2.1191065E-4,1.0498164E-3,-2.8066148E-4,1.2741964E-4],"categories":[],"categories_nodes":[],"categories_segments":[],"categories_sizes":[],"default_left":[0,0,0,0,0,0,0,0,0,0,0,0,0,0,0],"id":53,"left_children":[1,3,5,7,9,11,13,-1,-1,-1,-1,-1,-1,-1,-1],"loss_changes":[2.1951115E0,1.0405524E1,9.0988564E-1,2.433157E0,8.748219E0,1.5893829E0,8.891821E-1,0E0,0E0,0E0,0E0,0E0,0E0,0E0,0E0],"parents":[2147483647,0,0,1,1,2,2,3,3,4,4,5,5,6,6],"right_children":[2,4,6,8,10,12,14,-1,-1,-1,-1,-1,-1,-1,-1],"split_conditions":[3.6654167E1,1.3698125E2,1.4103125E2,1.3063126E2,3.5645832E1,1.4086874E2,1.4160625E2,-2.5502613E-4,2.458799E-4,-1.4614054E-3,-8.119865E-5,2.1191065E-4,1.0498164E-3,-2.8066148E-4,1.2741964E-4],"split_indices":[2,1,1,1,2,1,1,0,0,0,0,0,0,0,0],"split_type":[0,0,0,0,0,0,0,0,0,0,0,0,0,0,0],"sum_hessian":[3.21146E5,1.75504E5,1.45642E5,1.29558E5,4.5946E4,6.6576E4,7.9066E4,3.2287E4,9.7271E4,2.2417E4,2.3529E4,6.0335E4,6.241E3,1.7001E4,6.2065E4],"tree_param":{"num_deleted":"0","num_feature":"3","num_nodes":"15","size_leaf_vector":"1"}},{"base_weights":[5.05221E-4,-5.6191664E-3,2.9107124E-1,-7.5628385E-3,4.4655617E-2,2.4401249E-1,6.7123574E-1,-6.9415686E-4,-2.9876383E-5,1.1561743E-2,1.5968381E-3,2.7399052E-2,9.367649E-3,7.016081E-2,2.5966886E-2],"categories":[],"categories_nodes":[],"categories_segments":[],"categories_sizes":[],"default_left":[0,0,0,0,0,0,0,0,0,0,0,0,0,0,0],"id":54,"left_children":[1,3,5,7,9,11,13,-1,-1,-1,-1,-1,-1,-1,-1],"loss_changes":[5.712153E2,3.0720713E1,1.177207E2,1.3324263E1,2.7732792E1,1.01169525E2,7.718878E1,0E0,0E0,0E0,0E0,0E0,0E0,0E0,0E0],"parents":[2147483647,0,0,1,1,2,2,3,3,4,4,5,5,6,6],"right_children":[2,4,6,8,10,12,14,-1,-1,-1,-1,-1,-1,-1,-1],"split_conditions":[2.6455E4,8.461E3,1.03884E5,3.6604168E1,3.3020832E1,3.44125E1,3.47125E1,-6.9415686E-4,-2.9876383E-5,1.1561743E-2,1.5968381E-3,2.7399052E-2,9.367649E-3,7.016081E-2,2.5966886E-2],"split_indices":[0,0,0,2,2,2,2,0,0,0,0,0,0,0,0],"split_type":[0,0,0,0,0,0,0,0,0,0,0,0,0,0,0],"sum_hessian":[3.20981E5,3.1436E5,6.621E3,3.02663E5,1.1697E4,5.899E3,7.22E2,1.58676E5,1.43987E5,7.41E2,1.0956E4,9.2E2,4.979E3,1.17E2,6.05E2],"tree_param":{"num_deleted":"0","num_feature":"3","num_nodes":"15","size_leaf_vector":"1"}},{"base_weights":[-2.570929E-4,-5.1196394E-3,2.9997355E-1,-7.327304E-3,4.300264E-2,2.426588E-1,6.447171E-1,-6.579512E-4,-4.5394638E-5,1.9041384E-3,1.5886595E-2,8.740844E-3,3.1811923E-2,3.668801E-2,-1.14204995E-2],"categories":[],"categories_nodes":[],"categories_segments":[],"categories_sizes":[],"default_left":[0,0,0,0,0,0,0,0,0,0,0,0,0,0,0],"id":55,"left_children":[1,3,5,7,9,11,13,-1,-1,-1,-1,-1,-1,-1,-1],"loss_changes":[4.684338E2,3.3546818E1,1.0026477E2,1.1302307E1,1.866097E1,1.1674225E2,5.7281555E1,0E0,0E0,0E0,0E0,0E0,0E0,0E0,0E0],"parents":[2147483647,0,0,1,1,2,2,3,3,4,4,5,5,6,6],"right_children":[2,4,6,8,10,12,14,-1,-1,-1,-1,-1,-1,-1,-1],"split_conditions":[3.3022E4,8.011E3,1.03884E5,3.6604168E1,4.3170834E1,3.60125E1,3.5770832E1,-6.579512E-4,-4.5394638E-5,1.9041384E-3,1.5886595E-2,8.740844E-3,3.1811923E-2,3.668801E-2,-1.14204995E-2],"split_indices":[0,0,0,2,2,2,2,0,0,0,0,0,0,0,0],"split_type":[0,0,0,0,0,0,0,0,0,0,0,0,0,0,0],"sum_hessian":[3.2086E5,3.15751E5,5.109E3,3.01905E5,1.3846E4,4.388E3,7.21E2,1.58191E5,1.43714E5,1.3608E4,2.38E2,3.749E3,6.39E2,6.55E2,6.6E1],"tree_param":{"num_deleted":"0","num_feature":"3","num_nodes":"15","size_leaf_vector":"1"}},{"base_weights":[4.912634E-5,3.9585675E-3,-2.0384204E-3,2.5727313E-3,1.15973435E-1,-1.4931176E-2,2.3541946E-3,1.5069687E-4,-1.9685344E-3,-1.0109948E-3,1.4541263E-2,-4.9727905E-4,-2.0961359E-3,8.234481E-4,9.5712E-5],"categories":[],"categories_nodes":[],"categories_segments":[],"categories_sizes":[],"default_left":[0,0,0,0,0,0,0,0,0,0,0,0,0,0,0],"id":56,"left_children":[1,3,5,7,9,11,13,-1,-1,-1,-1,-1,-1,-1,-1],"loss_changes":[2.6189098E0,1.7338951E1,1.1847498E1,2.042603E0,3.2535034E1,7.151868E0,9.688162E-1,0E0,0E0,0E0,0E0,0E0,0E0,0E0,0E0],"parents":[2147483647,0,0,1,1,2,2,3,3,4,4,5,5,6,6],"right_children":[2,4,6,8,10,12,14,-1,-1,-1,-1,-1,-1,-1,-1],"split_conditions":[1.3579375E2,1.3569376E2,3.6254166E1,1.3560625E2,3.46375E1,1.3985625E2,3.6420834E1,1.5069687E-4,-1.9685344E-3,-1.0109948E-3,1.4541263E-2,-4.9727905E-4,-2.0961359E-3,8.234481E-4,9.5712E-5],"split_indices":[1,1,2,1,2,1,2,0,0,0,0,0,0,0,0],"split_type":[0,0,0,0,0,0,0,0,0,0,0,0,0,0,0],"sum_hessian":[3.2089E5,1.117E5,2.0919E5,1.1034E5,1.36E3,5.3157E4,1.56033E5,1.09196E5,1.144E3,7.67E2,5.93E2,4.4875E4,8.282E3,4.711E3,1.51322E5],"tree_param":{"num_deleted":"0","num_feature":"3","num_nodes":"15","size_leaf_vector":"1"}},{"base_weights":[1.349411E-4,-4.7030253E-3,2.6069126E-1,-7.4345483E-3,3.173816E-2,4.934461E-1,1.8477738E-1,-6.362024E-4,-8.873053E-5,8.055653E-4,4.953752E-3,1.3683639E-2,3.9024457E-2,4.830266E-3,2.8110018E-2],"categories":[],"categories_nodes":[],"categories_segments":[],"categories_sizes":[],"default_left":[0,0,0,0,0,0,0,0,0,0,0,0,0,0,0],"id":57,"left_children":[1,3,5,7,9,11,13,-1,-1,-1,-1,-1,-1,-1,-1],"loss_changes":[4.045976E2,3.1367704E1,1.0292731E2,8.776159E0,2.3114456E1,8.952124E1,1.4681795E2,0E0,0E0,0E0,0E0,0E0,0E0,0E0,0E0],"parents":[2147483647,0,0,1,1,2,2,3,3,4,4,5,5,6,6],"right_children":[2,4,6,8,10,12,14,-1,-1,-1,-1,-1,-1,-1,-1],"split_conditions":[2.9348E4,4.593E3,3.47125E1,3.6604168E1,3.6745834E1,5.1374E4,3.60125E1,-6.362024E-4,-8.873053E-5,8.055653E-4,4.953752E-3,1.3683639E-2,3.9024457E-2,4.830266E-3,2.8110018E-2],"split_indices":[0,0,2,2,2,0,2,0,0,0,0,0,0,0,0],"split_type":[0,0,0,0,0,0,0,0,0,0,0,0,0,0,0],"sum_hessian":[3.20956E5,3.1511E5,5.846E3,2.93141E5,2.1969E4,1.431E3,4.415E3,1.51526E5,1.41615E5,1.7836E4,4.133E3,8.16E2,6.15E2,3.584E3,8.31E2],"tree_param":{"num_deleted":"0","num_feature":"3","num_nodes":"15","size_leaf_vector":"1"}},{"base_weights":[5.244135E-4,-2.5811517E-3,4.4989553E-1,-5.3980225E-3,1.3215813E-1,3.9970922E-1,1.1536113E0,-3.7449363E-4,7.393723E-4,3.7791226E-3,1.5566602E-2,2.5540644E-2,-2.0465707E-2,6.787513E-2,-3.8442086E-2],"categories":[],"categories_nodes":[],"categories_segments":[],"categories_sizes":[],"default_left":[0,0,0,0,0,0,0,0,0,0,0,0,0,0,0],"id":58,"left_children":[1,3,5,7,9,11,13,-1,-1,-1,-1,-1,-1,-1,-1],"loss_changes":[4.4793594E2,1.20991295E2,7.549759E1,1.3185258E1,6.605592E1,1.86569E2,6.16624E1,0E0,0E0,0E0,0E0,0E0,0E0,0E0,0E0],"parents":[2147483647,0,0,1,1,2,2,3,3,4,4,5,5,6,6],"right_children":[2,4,6,8,10,12,14,-1,-1,-1,-1,-1,-1,-1,-1],"split_conditions":[6.2301E4,1.9879E4,3.5895832E1,2.75E3,3.6054165E1,3.5770832E1,4.3095833E1,-3.7449363E-4,7.393723E-4,3.7791226E-3,1.5566602E-2,2.5540644E-2,-2.0465707E-2,6.787513E-2,-3.8442086E-2],"split_indices":[0,0,2,0,2,2,2,0,0,0,0,0,0,0,0],"split_type":[0,0,0,0,0,0,0,0,0,0,0,0,0,0,0],"sum_hessian":[3.20965E5,3.18767E5,2.198E3,3.12244E5,6.523E3,2.059E3,1.39E2,2.82927E5,2.9317E4,4.963E3,1.56E3,1.812E3,2.47E2,1.27E2,1.2E1],"tree_param":{"num_deleted":"0","num_feature":"3","num_nodes":"15","size_leaf_vector":"1"}},{"base_weights":[-4.8516627E-4,-4.5770793E-3,2.2006048E-1,-6.2138108E-3,3.79498E-2,1.498789E-1,4.2673466E-1,-4.4065618E-4,6.9397785E-5,1.200389E-3,5.8122263E-3,1.4961694E-2,-1.6938157E-2,5.204093E-2,1.05408225E-2],"categories":[],"categories_nodes":[],"categories_segments":[],"categories_sizes":[],"default_left":[0,0,0,0,0,0,0,0,0,0,0,0,0,0,0],"id":59,"left_children":[1,3,5,7,9,11,13,-1,-1,-1,-1,-1,-1,-1,-1],"loss_changes":[2.899742E2,2.1959078E1,8.4576324E1,6.0025015E0,1.274888E1,3.1994525E2,1.9527148E2,0E0,0E0,0E0,0E0,0E0,0E0,0E0,0E0],"parents":[2147483647,0,0,1,1,2,2,3,3,4,4,5,5,6,6],"right_children":[2,4,6,8,10,12,14,-1,-1,-1,-1,-1,-1,-1,-1],"split_conditions":[2.9348E4,8.917E3,1.3965625E2,1.4109375E2,1.4028125E2,1.3936874E2,1.3978125E2,-4.4065618E-4,6.9397785E-5,1.200389E-3,5.8122263E-3,1.4961694E-2,-1.6938157E-2,5.204093E-2,1.05408225E-2],"split_indices":[0,0,1,1,1,1,1,0,0,0,0,0,0,0,0],"split_type":[0,0,0,0,0,0,0,0,0,0,0,0,0,0,0],"sum_hessian":[3.21307E5,3.15459E5,5.848E3,3.03772E5,1.1687E4,4.372E3,1.476E3,2.26368E5,7.7404E4,9.926E3,1.761E3,3.35E3,1.022E3,3.79E2,1.097E3],"tree_param":{"num_deleted":"0","num_feature":"3","num_nodes":"15","size_leaf_vector":"1"}},{"base_weights":[2.049674E-4,-2.3115776E-3,3.3353795E-3,1.1637898E-3,-2.996936E-2,7.323016E-3,1.421783E-3,3.2328877E-5,2.6399284E-3,-4.3999124E-3,-3.185209E-4,2.4966212E-4,8.5455197E-4,2.6126116E-4,2.5217008E-5],"categories":[],"categories_nodes":[],"categories_segments":[],"categories_sizes":[],"default_left":[0,0,0,0,0,0,0,0,0,0,0,0,0,0,0],"id":60,"left_children":[1,3,5,7,9,11,13,-1,-1,-1,-1,-1,-1,-1,-1],"loss_changes":[2.5307734E0,1.7118164E1,1.092401E0,4.2250876E0,2.7221275E1,1.0560346E0,3.375796E-1,0E0,0E0,0E0,0E0,0E0,0E0,0E0,0E0],"parents":[2147483647,0,0,1,1,2,2,3,3,4,4,5,5,6,6],"right_children":[2,4,6,8,10,12,14,-1,-1,-1,-1,-1,-1,-1,-1],"split_conditions":[3.6745834E1,1.3914375E2,3.94625E1,1.3903125E2,1.3960625E2,1.4086874E2,1.4078125E2,3.2328877E-5,2.6399284E-3,-4.3999124E-3,-3.185209E-4,2.4966212E-4,8.5455197E-4,2.6126116E-4,2.5217008E-5],"split_indices":[2,1,2,1,1,1,1,0,0,0,0,0,0,0,0],"split_type":[0,0,0,0,0,0,0,0,0,0,0,0,0,0,0],"sum_hessian":[3.21243E5,1.78083E5,1.4316E5,1.58208E5,1.9875E4,4.6418E4,9.6742E4,1.56644E5,1.564E3,5.742E3,1.4133E4,3.7485E4,8.933E3,1.8796E4,7.7946E4],"tree_param":{"num_deleted":"0","num_feature":"3","num_nodes":"15","size_leaf_vector":"1"}},{"base_weights":[5.525852E-4,5.231142E-3,-1.9793832E-3,3.6076743E-3,4.0243395E-2,-1.71302E-2,2.9049052E-3,2.2916406E-4,-1.1942016E-3,-7.496911E-4,5.482742E-3,-5.9966644E-4,-2.1385222E-3,2.9322246E-4,6.437306E-5],"categories":[],"categories_nodes":[],"categories_segments":[],"categories_sizes":[],"default_left":[0,0,0,0,0,0,0,0,0,0,0,0,0,0,0],"id":61,"left_children":[1,3,5,7,9,11,13,-1,-1,-1,-1,-1,-1,-1,-1],"loss_changes":[3.7976053E0,6.3980083E0,1.5393262E1,2.886201E0,1.913269E1,6.676611E0,7.529651E-1,0E0,0E0,0E0,0E0,0E0,0E0,0E0,0E0],"parents":[2147483647,0,0,1,1,2,2,3,3,4,4,5,5,6,6],"right_children":[2,4,6,8,10,12,14,-1,-1,-1,-1,-1,-1,-1,-1],"split_conditions":[1.3588126E2,1.3550626E2,3.62125E1,1.3524374E2,3.46375E1,1.3981876E2,3.9095833E1,2.2916406E-4,-1.1942016E-3,-7.496911E-4,5.482742E-3,-5.9966644E-4,-2.1385222E-3,2.9322246E-4,6.437306E-5],"split_indices":[1,1,2,1,2,1,2,0,0,0,0,0,0,0,0],"split_type":[0,0,0,0,0,0,0,0,0,0,0,0,0,0,0],"sum_hessian":[3.20573E5,1.12567E5,2.08006E5,1.07584E5,4.983E3,5.0706E4,1.573E5,1.03901E5,3.683E3,2.777E3,2.206E3,4.2249E4,8.457E3,5.5583E4,1.01717E5],"tree_param":{"num_deleted":"0","num_feature":"3","num_nodes":"15","size_leaf_vector":"1"}},{"base_weights":[-7.0579984E-4,-3.5232469E-3,2.196315E-3,-3.0811963E-4,-3.8982682E-2,-2.1499253E-3,2.7884007E-3,1.5710072E-4,-5.36064E-4,-6.760411E-3,-5.1469007E-4,-6.3790205E-5,-1.318002E-3,1.8459427E-3,9.9530924E-5],"categories":[],"categories_nodes":[],"categories_segments":[],"categories_sizes":[],"default_left":[0,0,0,0,0,0,0,0,0,0,0,0,0,0,0],"id":62,"left_children":[1,3,5,7,9,11,13,-1,-1,-1,-1,-1,-1,-1,-1],"loss_changes":[2.6226852E0,1.855474E1,4.0663165E-1,5.3614163E0,3.7344E1,4.0079916E-1,3.7861338E0,0E0,0E0,0E0,0E0,0E0,0E0,0E0,0E0],"parents":[2147483647,0,0,1,1,2,2,3,3,4,4,5,5,6,6],"right_children":[2,4,6,8,10,12,14,-1,-1,-1,-1,-1,-1,-1,-1],"split_conditions":[3.62125E1,1.3925626E2,1.3885625E2,1.3588126E2,1.3960625E2,1.3879375E2,1.3914375E2,1.5710072E-4,-5.36064E-4,-6.760411E-3,-5.1469007E-4,-6.3790205E-5,-1.318002E-3,1.8459427E-3,9.9530924E-5],"split_indices":[2,1,1,1,1,1,1,0,0,0,0,0,0,0,0],"split_type":[0,0,0,0,0,0,0,0,0,0,0,0,0,0,0],"sum_hessian":[3.20747E5,1.62747E5,1.58E5,1.49222E5,1.3525E4,1.8942E4,1.39058E5,1.12088E5,3.7134E4,3.102E3,1.0423E4,1.8287E4,6.55E2,3.171E3,1.35887E5],"tree_param":{"num_deleted":"0","num_feature":"3","num_nodes":"15","size_leaf_vector":"1"}},{"base_weights":[-1.6868293E-4,-3.3885196E-3,3.2018744E-3,-5.165828E-4,-3.5806485E-2,4.9024415E-3,1.1759254E-3,1.9139821E-4,-4.1903378E-4,-9.225322E-3,9.892455E-5,5.7104797E-5,4.8624523E-4,-3.0689986E-4,1.4002444E-4],"categories":[],"categories_nodes":[],"categories_segments":[],"categories_sizes":[],"default_left":[0,0,0,0,0,0,0,0,0,0,0,0,0,0,0],"id":63,"left_children":[1,3,5,7,9,11,13,-1,-1,-1,-1,-1,-1,-1,-1],"loss_changes":[3.4823093E0,1.5278467E1,5.400747E-1,5.150844E0,7.503854E1,1.5454435E0,8.5019064E-1,0E0,0E0,0E0,0E0,0E0,0E0,0E0,0E0],"parents":[2147483647,0,0,1,1,2,2,3,3,4,4,5,5,6,6],"right_children":[2,4,6,8,10,12,14,-1,-1,-1,-1,-1,-1,-1,-1],"split_conditions":[3.6254166E1,1.3930624E2,4.1929165E1,1.3466875E2,1.3960625E2,1.4035625E2,1.4151875E2,1.9139821E-4,-4.1903378E-4,-9.225322E-3,9.892455E-5,5.7104797E-5,4.8624523E-4,-3.0689986E-4,1.4002444E-4],"split_indices":[2,1,2,1,1,1,1,0,0,0,0,0,0,0,0],"split_type":[0,0,0,0,0,0,0,0,0,0,0,0,0,0,0],"sum_hessian":[3.20862E5,1.641E5,1.56762E5,1.5075E5,1.335E4,8.5221E4,7.1541E4,9.7106E4,5.3644E4,2.701E3,1.0649E4,4.7887E4,3.7334E4,1.3E4,5.8541E4],"tree_param":{"num_deleted":"0","num_feature":"3","num_nodes":"15","size_leaf_vector":"1"}},{"base_weights":[8.955672E-4,-2.198154E-3,4.500501E-1,-5.795313E-3,7.661361E-2,-7.2353953E-1,5.0010693E-1,-3.6120537E-4,4.3735496E-4,8.862729E-3,2.140087E-3,2.5042621E-2,-5.6047745E-2,4.2690087E-2,1.7014336E-2],"categories":[],"categories_nodes":[],"categories_segments":[],"categories_sizes":[],"default_left":[0,0,0,0,0,0,0,0,0,0,0,0,0,0,0],"id":64,"left_children":[1,3,5,7,9,11,13,-1,-1,-1,-1,-1,-1,-1,-1],"loss_changes":[4.4668146E2,9.0511375E1,1.3099194E2,6.344434E0,4.7384315E1,4.7573635E1,1.17933655E2,0E0,0E0,0E0,0E0,0E0,0E0,0E0,0E0],"parents":[2147483647,0,0,1,1,2,2,3,3,4,4,5,5,6,6],"right_children":[2,4,6,8,10,12,14,-1,-1,-1,-1,-1,-1,-1,-1],"split_conditions":[6.2301E4,9.999E3,1.3050626E2,2.204E3,1.3466875E2,1.2991875E2,1.3685625E2,-3.6120537E-4,4.3735496E-4,8.862729E-3,2.140087E-3,2.5042621E-2,-5.6047745E-2,4.2690087E-2,1.7014336E-2],"split_indices":[0,0,1,0,1,1,1,0,0,0,0,0,0,0,0],"split_type":[0,0,0,0,0,0,0,0,0,0,0,0,0,0,0],"sum_hessian":[3.21447E5,3.19253E5,2.194E3,3.05322E5,1.3931E4,8.7E1,2.107E3,2.7801E5,2.7312E4,3.498E3,1.0433E4,2.1E1,6.6E1,6.49E2,1.458E3],"tree_param":{"num_deleted":"0","num_feature":"3","num_nodes":"15","size_leaf_vector":"1"}},{"base_weights":[-1.0382351E-4,-2.4882723E-3,3.3885416E-1,-5.538021E-3,6.0898934E-2,5.5847734E-1,1.7743969E-1,-3.5165524E-4,3.0937928E-4,8.268209E-3,1.2790615E-3,-2.0256868E-2,3.2792367E-2,-1.5712785E-2,2.3616673E-2],"categories":[],"categories_nodes":[],"categories_segments":[],"categories_sizes":[],"default_left":[0,0,0,0,0,0,0,0,0,0,0,0,0,0,0],"id":65,"left_children":[1,3,5,7,9,11,13,-1,-1,-1,-1,-1,-1,-1,-1],"loss_changes":[2.592854E2,6.15853E1,7.894876E1,5.328638E0,5.393369E1,9.018286E1,1.8909445E2,0E0,0E0,0E0,0E0,0E0,0E0,0E0,0E0],"parents":[2147483647,0,0,1,1,2,2,3,3,4,4,5,5,6,6],"right_children":[2,4,6,8,10,12,14,-1,-1,-1,-1,-1,-1,-1,-1],"split_conditions":[6.2301E4,9.434E3,1.3936874E2,1.612E3,1.3466875E2,1.3050626E2,1.3960625E2,-3.5165524E-4,3.0937928E-4,8.268209E-3,1.2790615E-3,-2.0256868E-2,3.2792367E-2,-1.5712785E-2,2.3616673E-2],"split_indices":[0,0,1,0,1,1,1,0,0,0,0,0,0,0,0],"split_type":[0,0,0,0,0,0,0,0,0,0,0,0,0,0,0],"sum_hessian":[3.20797E5,3.18561E5,2.236E3,3.03942E5,1.4619E4,9.42E2,1.294E3,2.69572E5,3.437E4,3.689E3,1.093E4,8.5E1,8.57E2,4.85E2,8.09E2],"tree_param":{"num_deleted":"0","num_feature":"3","num_nodes":"15","size_leaf_vector":"1"}},{"base_weights":[5.53678E-4,-1.8628611E-3,3.4731624E-3,7.460558E-4,-2.3675205E-2,5.7514952E-3,1.5410275E-3,6.034003E-6,1.285823E-3,-3.9020043E-3,-5.8482106E-5,7.68307E-5,5.700939E-4,-2.918949E-4,1.6158212E-4],"categories":[],"categories_nodes":[],"categories_segments":[],"categories_sizes":[],"default_left":[0,0,0,0,0,0,0,0,0,0,0,0,0,0,0],"id":66,"left_children":[1,3,5,7,9,11,13,-1,-1,-1,-1,-1,-1,-1,-1],"loss_changes":[2.2683504E0,1.0010754E1,6.4092886E-1,2.453646E0,2.2993008E1,1.5911815E0,9.830807E-1,0E0,0E0,0E0,0E0,0E0,0E0,0E0,0E0],"parents":[2147483647,0,0,1,1,2,2,3,3,4,4,5,5,6,6],"right_children":[2,4,6,8,10,12,14,-1,-1,-1,-1,-1,-1,-1,-1],"split_conditions":[3.6654167E1,1.3914375E2,1.4103125E2,1.3885625E2,1.3960625E2,1.4028125E2,1.4151875E2,6.034003E-6,1.285823E-3,-3.9020043E-3,-5.8482106E-5,7.68307E-5,5.700939E-4,-2.918949E-4,1.6158212E-4],"split_indices":[2,1,1,1,1,1,1,0,0,0,0,0,0,0,0],"split_type":[0,0,0,0,0,0,0,0,0,0,0,0,0,0,0],"sum_hessian":[3.21512E5,1.75909E5,1.45603E5,1.57121E5,1.8788E4,6.6811E4,7.8792E4,1.53287E5,3.834E3,5.497E3,1.3291E4,3.827E4,2.8541E4,1.4685E4,6.4107E4],"tree_param":{"num_deleted":"0","num_feature":"3","num_nodes":"15","size_leaf_vector":"1"}},{"base_weights":[-5.906572E-5,-4.097347E-3,2.4977641E-1,-4.7567217E-3,9.1558374E-2,1.904876E-1,5.916282E-1,-4.737582E-4,3.7029426E-5,1.3604182E-2,2.2780967E-3,6.5686414E-3,2.6765669E-2,6.5706804E-2,2.294657E-2],"categories":[],"categories_nodes":[],"categories_segments":[],"categories_sizes":[],"default_left":[0,0,0,0,0,0,0,0,0,0,0,0,0,0,0],"id":67,"left_children":[1,3,5,7,9,11,13,-1,-1,-1,-1,-1,-1,-1,-1],"loss_changes":[3.237297E2,1.9918604E1,1.0288431E2,8.13471E0,1.7890228E1,8.846272E1,6.908215E1,0E0,0E0,0E0,0E0,0E0,0E0,0E0,0E0],"parents":[2147483647,0,0,1,1,2,2,3,3,4,4,5,5,6,6],"right_children":[2,4,6,8,10,12,14,-1,-1,-1,-1,-1,-1,-1,-1],"split_conditions":[3.3022E4,2.3963E4,1.03884E5,3.6654167E1,3.44125E1,3.60125E1,3.47125E1,-4.737582E-4,3.7029426E-5,1.3604182E-2,2.2780967E-3,6.5686414E-3,2.6765669E-2,6.5706804E-2,2.294657E-2],"split_indices":[0,0,0,2,2,2,2,0,0,0,0,0,0,0,0],"split_type":[0,0,0,0,0,0,0,0,0,0,0,0,0,0,0],"sum_hessian":[3.20862E5,3.15763E5,5.099E3,3.13606E5,2.157E3,4.352E3,7.47E2,1.68756E5,1.4485E5,4.33E2,1.724E3,3.721E3,6.31E2,1.09E2,6.38E2],"tree_param":{"num_deleted":"0","num_feature":"3","num_nodes":"15","size_leaf_vector":"1"}},{"base_weights":[2.4444825E-4,4.6678E-3,-1.7925058E-3,2.5572043E-3,4.8467726E-2,-1.2959211E-2,2.4441895E-3,2.6576294E-4,-7.3366094E-4,-2.1439674E-4,5.221545E-3,-3.8759728E-4,-2.9956512E-3,-7.4266914E-5,1.7988315E-4],"categories":[],"categories_nodes":[],"categories_segments":[],"categories_sizes":[],"default_left":[0,0,0,0,0,0,0,0,0,0,0,0,0,0,0],"id":68,"left_children":[1,3,5,7,9,11,13,-1,-1,-1,-1,-1,-1,-1,-1],"loss_changes":[2.8949716E0,9.364597E0,1.0408059E1,4.5936713E0,1.3751445E1,1.4792434E1,7.2292745E-1,0E0,0E0,0E0,0E0,0E0,0E0,0E0,0E0],"parents":[2147483647,0,0,1,1,2,2,3,3,4,4,5,5,6,6],"right_children":[2,4,6,8,10,12,14,-1,-1,-1,-1,-1,-1,-1,-1],"split_conditions":[3.47375E1,3.46375E1,3.6170834E1,1.3524374E2,1.3513126E2,1.3981876E2,1.3988126E2,2.6576294E-4,-7.3366094E-4,-2.1439674E-4,5.221545E-3,-3.8759728E-4,-2.9956512E-3,-7.4266914E-5,1.7988315E-4],"split_indices":[2,2,2,1,1,1,1,0,0,0,0,0,0,0,0],"split_type":[0,0,0,0,0,0,0,0,0,0,0,0,0,0,0],"sum_hessian":[3.21291E5,1.01302E5,2.19989E5,9.665E4,4.652E3,6.0505E4,1.59484E5,8.3317E4,1.3333E4,2.397E3,2.255E3,5.447E4,6.035E3,3.6191E4,1.23293E5],"tree_param":{"num_deleted":"0","num_feature":"3","num_nodes":"15","size_leaf_vector":"1"}},{"base_weights":[1.0226515E-4,-2.132335E-3,3.2248408E-1,-4.648921E-3,7.367162E-2,5.5885583E-1,1.9364312E-1,-3.214846E-4,5.6628603E-4,1.633488E-3,9.96485E-3,1.7925885E-2,1.1915624E-1,6.728319E-3,5.355028E-2],"categories":[],"categories_nodes":[],"categories_segments":[],"categories_sizes":[],"default_left":[0,0,0,0,0,0,0,0,0,0,0,0,0,0,0],"id":69,"left_children":[1,3,5,7,9,11,13,-1,-1,-1,-1,-1,-1,-1,-1],"loss_changes":[2.3127745E2,6.0824577E1,6.676303E1,8.778963E0,5.2738148E1,2.7969873E2,7.38134E1,0E0,0E0,0E0,0E0,0E0,0E0,0E0,0E0],"parents":[2147483647,0,0,1,1,2,2,3,3,4,4,5,5,6,6],"right_children":[2,4,6,8,10,12,14,-1,-1,-1,-1,-1,-1,-1,-1],"split_conditions":[6.2301E4,1.3644E4,3.5095833E1,2.204E3,3.6170834E1,3.4954166E1,3.60125E1,-3.214846E-4,5.6628603E-4,1.633488E-3,9.96485E-3,1.7925885E-2,1.1915624E-1,6.728319E-3,5.355028E-2],"split_indices":[0,0,2,0,2,2,2,0,0,0,0,0,0,0,0],"split_type":[0,0,0,0,0,0,0,0,0,0,0,0,0,0,0],"sum_hessian":[3.21033E5,3.18828E5,2.205E3,3.08588E5,1.024E4,7.72E2,1.433E3,2.77641E5,3.0947E4,7.725E3,2.515E3,7.01E2,7.1E1,1.348E3,8.5E1],"tree_param":{"num_deleted":"0","num_feature":"3","num_nodes":"15","size_leaf_vector":"1"}},{"base_weights":[1.2239018E-4,-1.815873E-3,4.2399663E-1,-3.8099207E-3,1.2038565E-1,-1.3607059E0,4.5600984E-1,-2.564639E-4,1.316665E-3,3.6682428E-3,2.2367766E-2,-5.920025E-4,-9.627668E-2,8.686665E-2,1.9892294E-2],"categories":[],"categories_nodes":[],"categories_segments":[],"categories_sizes":[],"default_left":[0,0,0,0,0,0,0,0,0,0,0,0,0,0,0],"id":70,"left_children":[1,3,5,7,9,11,13,-1,-1,-1,-1,-1,-1,-1,-1],"loss_changes":[2.6369727E2,7.78574E1,8.657529E1,1.2503389E1,7.870644E1,2.0456684E1,1.0378818E2,0E0,0E0,0E0,0E0,0E0,0E0,0E0,0E0],"parents":[2147483647,0,0,1,1,2,2,3,3,4,4,5,5,6,6],"right_children":[2,4,6,8,10,12,14,-1,-1,-1,-1,-1,-1,-1,-1],"split_conditions":[7.8639E4,2.6455E4,1.3038126E2,7.601E3,1.4011874E2,1.2780625E2,1.3254375E2,-2.564639E-4,1.316665E-3,3.6682428E-3,2.2367766E-2,-5.920025E-4,-9.627668E-2,8.686665E-2,1.9892294E-2],"split_indices":[0,0,1,0,1,1,1,0,0,0,0,0,0,0,0],"split_type":[0,0,0,0,0,0,0,0,0,0,0,0,0,0,0],"sum_hessian":[3.20954E5,3.19498E5,1.456E3,3.14373E5,5.125E3,2.2E1,1.434E3,3.01194E5,1.3179E4,4.486E3,6.39E2,8E0,1.4E1,5.6E1,1.378E3],"tree_param":{"num_deleted":"0","num_feature":"3","num_nodes":"15","size_leaf_vector":"1"}},{"base_weights":[3.0786335E-4,-1.6690369E-3,4.3485233E-1,-3.869235E-3,1.1576599E-1,-3.4852332E-1,4.674787E-1,-2.7837532E-4,7.910523E-4,3.4664385E-3,1.5116495E-2,5.2152853E-2,-4.3700006E-2,1.7850724E-1,2.0932062E-2],"categories":[],"categories_nodes":[],"categories_segments":[],"categories_sizes":[],"default_left":[0,0,0,0,0,0,0,0,0,0,0,0,0,0,0],"id":71,"left_children":[1,3,5,7,9,11,13,-1,-1,-1,-1,-1,-1,-1,-1],"loss_changes":[2.7580627E2,8.2582146E1,3.797699E1,1.0491495E1,5.0819305E1,4.9163998E1,2.0436078E2,0E0,0E0,0E0,0E0,0E0,0E0,0E0,0E0],"parents":[2147483647,0,0,1,1,2,2,3,3,4,4,5,5,6,6],"right_children":[2,4,6,8,10,12,14,-1,-1,-1,-1,-1,-1,-1,-1],"split_conditions":[7.8639E4,2.3963E4,3.35875E1,3.641E3,3.6054165E1,3.16875E1,3.44125E1,-2.7837532E-4,7.910523E-4,3.4664385E-3,1.5116495E-2,5.2152853E-2,-4.3700006E-2,1.7850724E-1,2.0932062E-2],"split_indices":[0,0,2,0,2,2,2,0,0,0,0,0,0,0,0],"split_type":[0,0,0,0,0,0,0,0,0,0,0,0,0,0,0],"sum_hessian":[3.2105E5,3.19601E5,1.449E3,3.13728E5,5.873E3,5.6E1,1.393E3,2.88821E5,2.4907E4,4.708E3,1.165E3,1.4E1,4.2E1,1.6E1,1.377E3],"tree_param":{"num_deleted":"0","num_feature":"3","num_nodes":"15","size_leaf_vector":"1"}},{"base_weights":[5.512591E-4,-1.3966699E-3,4.22187E-1,-3.9537903E-3,9.010269E-2,1.1894535E0,3.6214784E-1,-2.764863E-4,4.6500293E-4,1.1030237E-2,2.7533246E-3,-1.2155205E-3,1.4052533E-1,1.0456159E-2,3.6405336E-2],"categories":[],"categories_nodes":[],"categories_segments":[],"categories_sizes":[],"default_left":[0,0,0,0,0,0,0,0,0,0,0,0,0,0,0],"id":72,"left_children":[1,3,5,7,9,11,13,-1,-1,-1,-1,-1,-1,-1,-1],"loss_changes":[2.6378925E2,7.480425E1,6.588577E1,6.496515E0,3.9681656E1,2.069371E2,7.635167E1,0E0,0E0,0E0,0E0,0E0,0E0,0E0,0E0],"parents":[2147483647,0,0,1,1,2,2,3,3,4,4,5,5,6,6],"right_children":[2,4,6,8,10,12,14,-1,-1,-1,-1,-1,-1,-1,-1],"split_conditions":[7.8639E4,1.696E4,1.3524374E2,2.204E3,1.3455624E2,1.3050626E2,1.3969376E2,-2.764863E-4,4.6500293E-4,1.1030237E-2,2.7533246E-3,-1.2155205E-3,1.4052533E-1,1.0456159E-2,3.6405336E-2],"split_indices":[0,0,1,0,1,1,1,0,0,0,0,0,0,0,0],"split_type":[0,0,0,0,0,0,0,0,0,0,0,0,0,0,0],"sum_hessian":[3.2117E5,3.19698E5,1.472E3,3.11011E5,8.687E3,1E2,1.372E3,2.77963E5,3.3048E4,1.833E3,6.854E3,6E1,4E1,9.73E2,3.99E2],"tree_param":{"num_deleted":"0","num_feature":"3","num_nodes":"15","size_leaf_vector":"1"}},{"base_weights":[5.504562E-4,-1.9558067E-3,3.6010772E-1,-3.4507697E-3,1.04886815E-1,4.9523813E-1,2.553523E-1,-2.2290745E-4,1.1310822E-3,1.6589334E-2,2.479943E-3,1.055882E-2,3.5203557E-2,-5.1765586E-3,2.2270693E-2],"categories":[],"categories_nodes":[],"categories_segments":[],"categories_sizes":[],"default_left":[0,0,0,0,0,0,0,0,0,0,0,0,0,0,0],"id":73,"left_children":[1,3,5,7,9,11,13,-1,-1,-1,-1,-1,-1,-1,-1],"loss_changes":[2.892657E2,5.0918705E1,3.0821533E1,8.257714E0,5.5102432E1,5.6501785E1,8.631152E1,0E0,0E0,0E0,0E0,0E0,0E0,0E0,0E0],"parents":[2147483647,0,0,1,1,2,2,3,3,4,4,5,5,6,6],"right_children":[2,4,6,8,10,12,14,-1,-1,-1,-1,-1,-1,-1,-1],"split_conditions":[6.2301E4,2.6455E4,1.3941875E2,8.461E3,1.3455624E2,1.3550626E2,1.3960625E2,-2.2290745E-4,1.1310822E-3,1.6589334E-2,2.479943E-3,1.055882E-2,3.5203557E-2,-5.1765586E-3,2.2270693E-2],"split_indices":[0,0,1,0,1,1,1,0,0,0,0,0,0,0,0],"split_type":[0,0,0,0,0,0,0,0,0,0,0,0,0,0,0],"sum_hessian":[3.20989E5,3.18772E5,2.217E3,3.14378E5,4.394E3,9.6E2,1.257E3,3.02687E5,1.1691E4,8.56E2,3.538E3,4.11E2,5.49E2,4.36E2,8.21E2],"tree_param":{"num_deleted":"0","num_feature":"3","num_nodes":"15","size_leaf_vector":"1"}},{"base_weights":[2.1129187E-4,5.0950423E-3,-1.9288885E-3,-1.1986828E-3,8.587718E-3,-1.4468835E-2,3.450216E-3,1.7846549E-4,-1.6109528E-3,6.095294E-4,7.97375E-5,-4.1210323E-4,-1.974586E-3,2.6014127E-4,6.897342E-5],"categories":[],"categories_nodes":[],"categories_segments":[],"categories_sizes":[],"default_left":[0,0,0,0,0,0,0,0,0,0,0,0,0,0,0],"id":74,"left_children":[1,3,5,7,9,11,13,-1,-1,-1,-1,-1,-1,-1,-1],"loss_changes":[3.3568373E0,2.1511605E0,1.5063062E1,5.166745E0,1.5855088E0,1.04432125E1,5.671226E-1,0E0,0E0,0E0,0E0,0E0,0E0,0E0,0E0],"parents":[2147483647,0,0,1,1,2,2,3,3,4,4,5,5,6,6],"right_children":[2,4,6,8,10,12,14,-1,-1,-1,-1,-1,-1,-1,-1],"split_conditions":[1.3466875E2,1.3075626E2,3.6254166E1,3.3470833E1,3.44125E1,1.3930624E2,4.1929165E1,1.7846549E-4,-1.6109528E-3,6.095294E-4,7.97375E-5,-4.1210323E-4,-1.974586E-3,2.6014127E-4,6.897342E-5],"split_indices":[1,1,2,2,2,1,2,0,0,0,0,0,0,0,0],"split_type":[0,0,0,0,0,0,0,0,0,0,0,0,0,0,0],"sum_hessian":[3.21154E5,9.7853E4,2.23301E5,3.4924E4,6.2929E4,6.703E4,1.56271E5,3.0275E4,4.649E3,4.1529E4,2.14E4,5.3679E4,1.3351E4,8.4633E4,7.1638E4],"tree_param":{"num_deleted":"0","num_feature":"3","num_nodes":"15","size_leaf_vector":"1"}},{"base_weights":[2.4321365E-4,-1.0663967E-3,5.777779E-1,-2.706629E-3,1.1584203E-1,2.3246478E-1,1.0084906E0,-2.497336E-4,8.453694E-4,2.2782521E-2,2.5076317E-3,2.9154925E-2,-1.0487053E-2,6.659941E-2,-1.7359791E-2],"categories":[],"categories_nodes":[],"categories_segments":[],"categories_sizes":[],"default_left":[0,0,0,0,0,0,0,0,0,0,0,0,0,0,0],"id":75,"left_children":[1,3,5,7,9,11,13,-1,-1,-1,-1,-1,-1,-1,-1],"loss_changes":[2.4303802E2,6.1480007E1,1.0695508E2,1.4189632E1,9.890527E1,6.418292E1,1.4352899E2,0E0,0E0,0E0,0E0,0E0,0E0,0E0,0E0],"parents":[2147483647,0,0,1,1,2,2,3,3,4,4,5,5,6,6],"right_children":[2,4,6,8,10,12,14,-1,-1,-1,-1,-1,-1,-1,-1],"split_conditions":[1.03884E5,3.3022E4,1.3965625E2,2.75E3,1.3466875E2,1.3698125E2,1.3985625E2,-2.497336E-4,8.453694E-4,2.2782521E-2,2.5076317E-3,2.9154925E-2,-1.0487053E-2,6.659941E-2,-1.7359791E-2],"split_indices":[0,0,1,0,1,1,1,0,0,0,0,0,0,0,0],"split_type":[0,0,0,0,0,0,0,0,0,0,0,0,0,0,0],"sum_hessian":[3.21323E5,3.20601E5,7.22E2,3.1617E5,4.431E3,4.05E2,3.17E2,2.83144E5,3.3026E4,7.13E2,3.718E3,2.25E2,1.8E2,2.56E2,6.1E1],"tree_param":{"num_deleted":"0","num_feature":"3","num_nodes":"15","size_leaf_vector":"1"}},{"base_weights":[-6.4848966E-5,-1.714436E-3,3.46972E-1,-2.6252337E-3,1.312622E-1,-5.632556E-1,3.8373825E-1,-2.381779E-4,6.869083E-4,1.5089499E-2,-3.5596152E-3,1.4932677E-2,-4.024051E-2,2.1277156E-1,1.5766572E-2],"categories":[],"categories_nodes":[],"categories_segments":[],"categories_sizes":[],"default_left":[0,0,0,0,0,0,0,0,0,0,0,0,0,0,0],"id":76,"left_children":[1,3,5,7,9,11,13,-1,-1,-1,-1,-1,-1,-1,-1],"loss_changes":[1.838097E2,3.8705654E1,5.1915054E1,1.110606E1,7.516284E1,1.3901886E1,3.8076642E2,0E0,0E0,0E0,0E0,0E0,0E0,0E0,0E0],"parents":[2147483647,0,0,1,1,2,2,3,3,4,4,5,5,6,6],"right_children":[2,4,6,8,10,12,14,-1,-1,-1,-1,-1,-1,-1,-1],"split_conditions":[7.8639E4,4.3574E4,1.3050626E2,2.5E3,1.3914375E2,1.2780625E2,1.3254375E2,-2.381779E-4,6.869083E-4,1.5089499E-2,-3.5596152E-3,1.4932677E-2,-4.024051E-2,2.1277156E-1,1.5766572E-2],"split_indices":[0,0,1,0,1,1,1,0,0,0,0,0,0,0,0],"split_type":[0,0,0,0,0,0,0,0,0,0,0,0,0,0,0],"sum_hessian":[3.21073E5,3.19559E5,1.514E3,3.1739E5,2.169E3,5.6E1,1.458E3,2.80711E5,3.6679E4,1.176E3,9.93E2,1.2E1,4.4E1,2E1,1.438E3],"tree_param":{"num_deleted":"0","num_feature":"3","num_nodes":"15","size_leaf_vector":"1"}},{"base_weights":[-6.876415E-5,-3.0552638E-3,3.0150653E-3,-2.4261499E-4,-3.4118786E-2,1.8240638E-2,2.6557492E-3,1.6495863E-4,-4.115852E-4,-6.0811024E-3,-3.901756E-4,1.8798619E-3,-1.3480476E-3,-1.2626296E-3,1.4391735E-4],"categories":[],"categories_nodes":[],"categories_segments":[],"categories_sizes":[],"default_left":[0,0,0,0,0,0,0,0,0,0,0,0,0,0,0],"id":77,"left_children":[1,3,5,7,9,11,13,-1,-1,-1,-1,-1,-1,-1,-1],"loss_changes":[2.9553783E0,1.4243055E1,8.63454E-1,4.2300253E0,3.1161926E1,3.1890082E0,9.58554E-1,0E0,0E0,0E0,0E0,0E0,0E0,0E0,0E0],"parents":[2147483647,0,0,1,1,2,2,3,3,4,4,5,5,6,6],"right_children":[2,4,6,8,10,12,14,-1,-1,-1,-1,-1,-1,-1,-1],"split_conditions":[3.62125E1,1.3925626E2,3.6329166E1,1.3524374E2,1.3960625E2,1.3914375E2,3.6370834E1,1.6495863E-4,-4.115852E-4,-6.0811024E-3,-3.901756E-4,1.8798619E-3,-1.3480476E-3,-1.2626296E-3,1.4391735E-4],"split_indices":[2,1,2,1,1,1,2,0,0,0,0,0,0,0,0],"split_type":[0,0,0,0,0,0,0,0,0,0,0,0,0,0,0],"sum_hessian":[3.20883E5,1.63014E5,1.57869E5,1.49484E5,1.353E4,3.634E3,1.54235E5,1.03571E5,4.5913E4,3.124E3,1.0406E4,2.545E3,1.089E3,1.216E3,1.53019E5],"tree_param":{"num_deleted":"0","num_feature":"3","num_nodes":"15","size_leaf_vector":"1"}},{"base_weights":[-4.548901E-4,-4.038801E-3,3.2412172E-3,-9.370023E-4,-3.956648E-2,-1.5679814E-4,4.205919E-3,9.464252E-5,-3.6241286E-4,-6.433919E-3,-4.072838E-4,2.230502E-4,-4.035256E-4,1.98222E-3,1.8105947E-4],"categories":[],"categories_nodes":[],"categories_segments":[],"categories_sizes":[],"default_left":[0,0,0,0,0,0,0,0,0,0,0,0,0,0,0],"id":78,"left_children":[1,3,5,7,9,11,13,-1,-1,-1,-1,-1,-1,-1,-1],"loss_changes":[4.2534304E0,1.7964901E1,5.181843E-1,2.6779492E0,3.664633E1,1.2777205E0,2.550586E0,0E0,0E0,0E0,0E0,0E0,0E0,0E0,0E0],"parents":[2147483647,0,0,1,1,2,2,3,3,4,4,5,5,6,6],"right_children":[2,4,6,8,10,12,14,-1,-1,-1,-1,-1,-1,-1,-1],"split_conditions":[3.62125E1,1.3930624E2,1.3988126E2,1.3524374E2,1.3969376E2,1.3914375E2,3.6604168E1,9.464252E-5,-3.6241286E-4,-6.433919E-3,-4.072838E-4,2.230502E-4,-4.035256E-4,1.98222E-3,1.8105947E-4],"split_indices":[2,1,1,1,1,1,2,0,0,0,0,0,0,0,0],"split_type":[0,0,0,0,0,0,0,0,0,0,0,0,0,0,0],"sum_hessian":[3.21088E5,1.63018E5,1.5807E5,1.49933E5,1.3085E4,3.4954E4,1.23116E5,1.0352E5,4.6413E4,3.407E3,9.678E3,2.2075E4,1.2879E4,1.993E3,1.21123E5],"tree_param":{"num_deleted":"0","num_feature":"3","num_nodes":"15","size_leaf_vector":"1"}},{"base_weights":[8.449001E-5,-3.250694E-3,3.4709608E-3,-3.7293235E-4,-3.6907755E-2,1.3319965E-2,2.9765037E-3,1.8726119E-4,-4.0293203E-4,-6.867837E-3,-5.6360464E-4,4.059799E-4,7.0322542E-3,-1.0163116E-3,1.5742201E-4],"categories":[],"categories_nodes":[],"categories_segments":[],"categories_sizes":[],"default_left":[0,0,0,0,0,0,0,0,0,0,0,0,0,0,0],"id":79,"left_children":[1,3,5,7,9,11,13,-1,-1,-1,-1,-1,-1,-1,-1],"loss_changes":[3.6205206E0,1.5642433E1,7.743852E-1,4.7093368E0,3.2749805E1,5.0278587E0,6.0714984E-1,0E0,0E0,0E0,0E0,0E0,0E0,0E0,0E0],"parents":[2147483647,0,0,1,1,2,2,3,3,4,4,5,5,6,6],"right_children":[2,4,6,8,10,12,14,-1,-1,-1,-1,-1,-1,-1,-1],"split_conditions":[3.6170834E1,1.3930624E2,3.6420834E1,1.3466875E2,1.3960625E2,1.4048125E2,3.64625E1,1.8726119E-4,-4.0293203E-4,-6.867837E-3,-5.6360464E-4,4.059799E-4,7.0322542E-3,-1.0163116E-3,1.5742201E-4],"split_indices":[2,1,2,1,1,1,2,0,0,0,0,0,0,0,0],"split_type":[0,0,0,0,0,0,0,0,0,0,0,0,0,0,0],"sum_hessian":[3.20546E5,1.61496E5,1.5905E5,1.4878E5,1.2716E4,7.597E3,1.51453E5,9.6875E4,5.1905E4,2.581E3,1.0135E4,7.304E3,2.93E2,1.105E3,1.50348E5],"tree_param":{"num_deleted":"0","num_feature":"3","num_nodes":"15","size_leaf_vector":"1"}},{"base_weights":[-3.3423406E-4,-3.3055956E-3,3.3456497E-3,7.3232804E-5,-3.371317E-2,5.2102883E-3,1.4834015E-3,1.7462611E-4,-2.5795758E-4,-6.583206E-3,-4.332563E-4,2.3904494E-4,1.4802077E-3,-3.5649943E-4,1.790447E-4],"categories":[],"categories_nodes":[],"categories_segments":[],"categories_sizes":[],"default_left":[0,0,0,0,0,0,0,0,0,0,0,0,0,0,0],"id":80,"left_children":[1,3,5,7,9,11,13,-1,-1,-1,-1,-1,-1,-1,-1],"loss_changes":[3.511343E0,1.8254179E1,4.9812186E-1,2.8609917E0,4.358772E1,7.501334E-1,1.2970147E0,0E0,0E0,0E0,0E0,0E0,0E0,0E0,0E0],"parents":[2147483647,0,0,1,1,2,2,3,3,4,4,5,5,6,6],"right_children":[2,4,6,8,10,12,14,-1,-1,-1,-1,-1,-1,-1,-1],"split_conditions":[3.6745834E1,1.3930624E2,4.1929165E1,3.47125E1,1.3960625E2,4.17875E1,1.4160625E2,1.7462611E-4,-2.5795758E-4,-6.583206E-3,-4.332563E-4,2.3904494E-4,1.4802077E-3,-3.5649943E-4,1.790447E-4],"split_indices":[2,1,2,2,1,2,1,0,0,0,0,0,0,0,0],"split_type":[0,0,0,0,0,0,0,0,0,0,0,0,0,0,0],"sum_hessian":[3.21122E5,1.77665E5,1.43457E5,1.59902E5,1.7763E4,7.1678E4,7.1779E4,9.6707E4,6.3195E4,3.613E3,1.415E4,7.0444E4,1.234E3,1.4054E4,5.7725E4],"tree_param":{"num_deleted":"0","num_feature":"3","num_nodes":"15","size_leaf_vector":"1"}},{"base_weights":[2.4423056E-4,-2.0676055E-3,3.11245E-3,6.5085996E-4,-2.658825E-2,5.258139E-3,1.3689753E-3,-2.5540082E-6,9.159135E-4,-5.3197457E-3,-3.007295E-4,2.302357E-4,1.8039948E-3,-3.7769013E-4,1.9053783E-4],"categories":[],"categories_nodes":[],"categories_segments":[],"categories_sizes":[],"default_left":[0,0,0,0,0,0,0,0,0,0,0,0,0,0,0],"id":81,"left_children":[1,3,5,7,9,11,13,-1,-1,-1,-1,-1,-1,-1,-1],"loss_changes":[2.1277206E0,1.1843574E1,5.3569865E-1,1.9835817E0,2.9111238E1,1.2920793E0,1.7217029E0,0E0,0E0,0E0,0E0,0E0,0E0,0E0,0E0],"parents":[2147483647,0,0,1,1,2,2,3,3,4,4,5,5,6,6],"right_children":[2,4,6,8,10,12,14,-1,-1,-1,-1,-1,-1,-1,-1],"split_conditions":[3.6745834E1,1.3930624E2,1.4103125E2,1.3885625E2,1.3960625E2,1.4099374E2,1.4160625E2,-2.5540082E-6,9.159135E-4,-5.3197457E-3,-3.007295E-4,2.302357E-4,1.8039948E-3,-3.7769013E-4,1.9053783E-4],"split_indices":[2,1,1,1,1,1,1,0,0,0,0,0,0,0,0],"split_type":[0,0,0,0,0,0,0,0,0,0,0,0,0,0,0],"sum_hessian":[3.20872E5,1.77669E5,1.43203E5,1.59942E5,1.7727E4,6.4192E4,7.9011E4,1.53835E5,6.107E3,3.629E3,1.4098E4,6.2865E4,1.327E3,1.6974E4,6.2037E4],"tree_param":{"num_deleted":"0","num_feature":"3","num_nodes":"15","size_leaf_vector":"1"}},{"base_weights":[-1.565217E-4,-1.7394212E-3,3.4758797E-1,-2.7104567E-3,8.191364E-2,1.4550444E0,2.8297755E-1,-2.3683815E-4,6.751171E-4,1.4231681E-2,1.1339308E-3,7.620948E-3,2.9135793E-1,7.576018E-3,3.006169E-2],"categories":[],"categories_nodes":[],"categories_segments":[],"categories_sizes":[],"default_left":[0,0,0,0,0,0,0,0,0,0,0,0,0,0,0],"id":82,"left_children":[1,3,5,7,9,11,13,-1,-1,-1,-1,-1,-1,-1,-1],"loss_changes":[1.7674857E2,2.5965988E1,1.0205122E2,1.0381022E1,4.4013527E1,4.4548206E2,5.732151E1,0E0,0E0,0E0,0E0,0E0,0E0,0E0,0E0],"parents":[2147483647,0,0,1,1,2,2,3,3,4,4,5,5,6,6],"right_children":[2,4,6,8,10,12,14,-1,-1,-1,-1,-1,-1,-1,-1],"split_conditions":[7.8639E4,3.3022E4,1.3254375E2,2.5E3,1.3524374E2,1.3081876E2,1.3969376E2,-2.3683815E-4,6.751171E-4,1.4231681E-2,1.1339308E-3,7.620948E-3,2.9135793E-1,7.576018E-3,3.006169E-2],"split_indices":[0,0,1,0,1,1,1,0,0,0,0,0,0,0,0],"split_type":[0,0,0,0,0,0,0,0,0,0,0,0,0,0,0],"sum_hessian":[3.21091E5,3.19641E5,1.45E3,3.15978E5,3.663E3,7.4E1,1.376E3,2.80877E5,3.5101E4,8.24E2,2.839E3,6.1E1,1.3E1,9.79E2,3.97E2],"tree_param":{"num_deleted":"0","num_feature":"3","num_nodes":"15","size_leaf_vector":"1"}},{"base_weights":[-5.68555E-4,-2.7348395E-3,1.3185991E-1,-3.9819977E-3,1.9262291E-2,2.2328833E-1,3.1035911E-2,-2.9183895E-4,1.615675E-4,4.4309394E-4,4.3330914E-3,5.6517646E-3,1.9294059E-2,-9.730796E-3,1.1907868E-2],"categories":[],"categories_nodes":[],"categories_segments":[],"categories_sizes":[],"default_left":[0,0,0,0,0,0,0,0,0,0,0,0,0,0,0],"id":83,"left_children":[1,3,5,7,9,11,13,-1,-1,-1,-1,-1,-1,-1,-1],"loss_changes":[9.2133156E1,8.669167E0,4.7614113E1,4.000978E0,1.1881329E1,4.8362335E1,1.1539255E2,0E0,0E0,0E0,0E0,0E0,0E0,0E0,0E0],"parents":[2147483647,0,0,1,1,2,2,3,3,4,4,5,5,6,6],"right_children":[2,4,6,8,10,12,14,-1,-1,-1,-1,-1,-1,-1,-1],